tree
version=v4
num_class=1
num_tree_per_iteration=1
label_index=0
max_feature_idx=55
objective=binary sigmoid:1
feature_names=Column_0 Column_1 Column_2 Column_3 Column_4 Column_5 Column_6 Column_7 Column_8 Column_9 Column_10 Column_11 Column_12 Column_13 Column_14 Column_15 Column_16 Column_17 Column_18 Column_19 Column_20 Column_21 Column_22 Column_23 Column_24 Column_25 Column_26 Column_27 Column_28 Column_29 Column_30 Column_31 Column_32 Column_33 Column_34 Column_35 Column_36 Column_37 Column_38 Column_39 Column_40 Column_41 Column_42 Column_43 Column_44 Column_45 Column_46 Column_47 Column_48 Column_49 Column_50 Column_51 Column_52 Column_53 Column_54 Column_55
feature_infos=[-0.72674554826616689:0.39327921261539589] [-0.75900191145322116:0.80722189866045446] [-0.78222051048632757:1.256792924885088] [-0.78327015587550364:2.2866924679964278] [-0.82262411964177029:2.8672871941149976] [-0.94617817378370184:32.454926624737936] [-0.94324556857575559:24.298034242232088] [0.27322404296933328:344657000000] [0.00038841759122285356:17.441798045277604] [-0.85849056603773577:11.711340206185568] [-0.94116292079370822:43.164835164835161] [-0.96304150257497723:49.714285714285715] [-0.95800824055404576:42.371428571428574] [-0.94876834381551367:34.054945054945051] [0:99.999999945454547] [-109.23964316438855:100.98913981801479] [-99.239862704588475:99.889691701832547] [-44.503312753912354:25.9598828974882] [0:3.1673878309784613] [-0.54236303509717232:1.5311763883479668] [0.0055792577157772983:3.9528122976220859] [-13479.834717393665:13998.07057256086] [0:99.99999998480213] [0:99.999999976432235] [-28.414153633974095:132.92181036157507] [0:1] [-0.41394268604505857:0.54287417617038203] [0:1] [0:1] [-0.84833333333333338:43.164835164835161] [-0.74998279047590821:0.68103424275602853] [-155372.32799999992:204433.23800000007] [-112665.04799999991:113726.19100000002] [-84029.181000000011:99526.692999999999] [-415204.5:587963.93999999994] [-106838.94000000006:272475.21000000002] [-785512.62000000011:183151.26000000001] [-211504.37999999998:221633.16999999998] [0.16666666666666666:4] [0:0.84031852804520357] [0:0.84032679375312613] [0:0.85555555555555551] none [-58586:49548] [-686445.00000062434:173001.7499999115] [-1:2621.1154160101842] [-10036.678000000004:414313.01800000074] [-70127.672999999995:81052.176999999996] [-13:410] [-50183.390000000014:2071565.0900000036] [-221.31609808102345:1239.218045112782] [0:50] [0:138251628943.17999] [-2249922292.5:3980978032.4500003] [0:1410914464.3783851] [-749974097.5:3899917034.1199999]
tree_sizes=3454 3483 3530 3515 3514 3505 3523 3537 3520 3545 3522 3530 3527 3540 3524 3541 3532 3527 3524 3531 3527 3516 3534 3525 3539 3530 3546 3526 3530 3550 3558 3556 3532 3529 3532 3577 3539 3548 3555 3570 3547 3548 3570 3563 3560 3578 3578 3544 3586 3549 3554 3557 3567 3592 3592 3564 3574 3577 3601 3546 3556 3564 3569 3560 3535 3546 3576 3599 3558 3552 3585 3569 3591 3579 3558 3578 3573 3546 3591 3585 3582 3600 3579 3597 3591 3581 3560 3579 3573 3586 3568 3539 3590 3581 3603 3561 3552 3581 3574 3571 3570 3536 3560 3616 3591 3593 3591 3556 3567 3584 3600 3582 3611 3632 3580 3585 3562 3576 3612 3605 3587 3586 3596 3626 3591 3571 3555 3574 3592 3565 3580 3584 3567 3594 3596 3579 3570 3631 3592 3586 3590 3592 3583 3569 3600 3587 3578 3582 3621 3601 3585 3559 3571 3593 3583 3596 3615 3590 3552 3605 3635 3552 3582 3547 3568 3555 3568 3559 3582 3611 3592 3614 3566 3591 3602 3564 3605 3569 3577 3587 3559 3584 3590 3614 3620 3557 3605 3546 3590 3623 3593 3565 3556 3578 3552 3594 3561 3612 3563 3604

Tree=0
num_leaves=31
num_cat=0
split_feature=18 18 18 49 0 49 2 48 48 48 0 14 13 39 18 46 46 14 48 48 46 53 47 32 47 18 3 46 50 48
split_gain=145306 36356.4 23829.7 10568.2 9706.2 8438.81 7736.21 6714.06 12119.1 6477.18 6215.21 7002.33 5237.76 4191.97 4040.32 3945.49 3356.63 3336.15 3233.15 11543 4038.04 2826.33 2798.24 2782.56 2768.92 2725.45 2420.36 2409.19 2467.82 2056.16
threshold=0.16476198271622555 0.086876191558444033 0.26789757165257366 18190.359999999961 -0.021352313167259659 17888.154999999915 -0.14136697026115616 70.500000000000014 17.500000000000004 25.500000000000004 -0.039905835530554816 34.120114879322045 0.12500000000000014 0.45518176087490675 0.061207532397103116 2834.3659999999923 86390.248999999967 35.483868964620278 25.500000000000004 18.500000000000004 25942.448000000048 1.0000000180025095e-35 293.01800000000003 -896.24000000000808 20088.501500000006 0.11593091959158781 -0.15387877162696753 86390.248999999967 22.236505013002311 12.500000000000002
decision_type=2 2 2 2 2 2 2 2 2 2 2 2 2 2 2 2 2 2 2 2 2 2 2 2 2 2 2 2 2 2
left_child=1 5 10 4 -3 14 -4 8 27 16 22 26 17 23 21 -13 -10 -6 19 -7 -21 -1 -2 -8 -9 -19 -12 28 29 -5
right_child=2 3 6 7 12 18 13 24 9 -11 11 15 -14 -15 -16 -17 -18 25 -20 20 -22 -23 -24 -25 -26 -27 -28 -29 -30 -31
leaf_value=-1.6001158131011837 -1.4832265041692421 -1.5020720857156216 -1.4273612938090061 -1.5020615506398316 -1.5667491553620212 -1.5421007584554276 -1.4803503388483443 -1.5255440046230211 -1.4494039826167469 -1.4731230697211464 -1.4884500093947937 -1.4999594979825297 -1.5135202383030424 -1.3764871591295704 -1.5672992954238874 -1.4780124123438183 -1.3314310542106114 -1.5513643776095791 -1.5570408752586151 -1.514792431491029 -1.3360634493963901 -1.3750601134602287 -1.4395213231837967 -1.4616923936842294 -1.4577719506748634 -1.5299483711471091 -1.5297325975048803 -1.5864141602994772 -1.596591632648402 -1.4350537433083095
leaf_weight=15992.879237025976 8266.4988080263138 22617.993651553988 14122.343799367547 16350.161976322532 13634.182118788362 8714.301495552063 31686.353046387434 25201.996650785208 873.68314602971077 3049.5465214401484 4335.12274338305 54724.29082596302 16847.372184723616 1253.6347878277302 30997.286816865206 32723.066701099277 1945.7470242977142 26508.770499452949 14246.478137657046 456.85880219936371 1025.1682244092226 140.730418369174 6575.5258911252022 54101.871096611023 1602.9882996529341 33795.630173429847 19616.02255833149 862.73935000598431 649.83071972429752 1231.0426311045885
leaf_count=93468 32769 96516 43291 69767 72365 42797 124141 117058 2988 11593 17549 231661 74994 2817 164796 126972 2962 134138 73390 2043 1637 313 21443 195723 5698 159368 92434 4852 3761 3926
internal_value=-1.50831 -1.53573 -1.47977 -1.52283 -1.53138 -1.5655 -1.46169 -1.50411 -1.48545 -1.42262 -1.49426 -1.49831 -1.53868 -1.46726 -1.57786 -1.49175 -1.36799 -1.54441 -1.54166 -1.52016 -1.39116 -1.59815 -1.46386 -1.46858 -1.52149 -1.53936 -1.52226 -1.50477 -1.50091 -1.49737
internal_weight=464150 236745 227405 165172 113404 71573.7 101164 51767.7 24962.8 5868.98 126241 111399 90786 87041.9 47130.9 87447.4 2819.43 73938.6 24442.8 10196.3 1482.03 16133.6 14842 85788.2 26805 60304.4 23951.1 19093.8 18231 17581.2
internal_count=2027230 1138430 888800 759986 537381 378444 365972 222605 99849 17543 522828 468616 440865 322681 258577 358633 5950 365871 119867 46477 3680 93781 54212 319864 122756 293506 109983 82306 77454 73693
is_linear=0
shrinkage=1


Tree=1
num_leaves=31
num_cat=0
split_feature=18 18 18 46 9 10 49 9 49 23 48 48 9 9 9 46 0 18 9 23 16 3 6 9 1 18 23 3 8 23
split_gain=103791 26363.7 17683.8 7571.51 7246.9 6029.36 5675.5 4657.33 4543.2 4149.22 3988.57 5150.56 3562.49 3438 2871.9 2621.59 2559.95 2475.47 2401.14 2267.68 2193.21 2580.34 1987.69 1982.87 1914.97 1908.89 2419.85 1740.94 1656.69 1654.62
threshold=0.13072289803194367 0.2468683159156361 0.074936830401953577 2834.3659999999923 -0.033205619412515923 -0.119920141837335 18190.359999999961 -0.020519351882920752 17888.154999999915 27.122290967360268 70.500000000000014 12.500000000000002 0.02111349704594934 0.099451277342044633 0.017891708131624554 260312.69000000061 -0.020931133041807711 0.32952804462252361 0.046514010674799884 25.533783811530359 0.04889656083033838 -0.10236502626483478 -0.028205573926306179 0.016129032258064616 -0.032335211592855288 0.049626828281930505 88.308874917192711 -0.1381503081463045 1.312671977241836 23.994041478890111
decision_type=2 2 2 2 2 2 2 2 2 2 2 2 2 2 2 2 2 2 2 2 2 2 2 2 2 2 2 2 2 2
left_child=2 4 8 7 -2 22 9 -4 25 24 11 27 28 17 20 -13 -11 29 -18 -12 21 -9 -3 -10 -6 26 -1 -8 -5 -7
right_child=1 5 3 12 6 13 10 14 23 16 19 15 -14 -15 -16 -17 18 -19 -20 -21 -22 -23 -24 -25 -26 -27 -28 -29 -30 -31
leaf_value=0.01478842072351806 0.14035912395243619 0.19382826174708256 0.10524219225080843 0.092011862128492272 0.099024194606517693 0.11154278424036193 0.17221298666717508 0.094259837890823331 0.065506892269854441 0.12766921425130087 0.076210181490645346 0.17799108321472659 0.13372420686619271 0.17251443452779025 0.094457677234573489 0.079472550120493368 0.10175509054673743 0.14280097994305005 0.13302644293239074 0.1155863861074935 0.083866812994947679 0.056933604405112553 0.15717248803006945 0.1153634554927857 0.072831849472964533 0.047136554712959543 0.23589095963887161 0.11661777233521951 0.11931646900264961 0.13247264935095512
leaf_weight=7470.7046662569046 20714.8857280761 5682.2605139613152 12606.356859773397 34546.516975685954 14166.751769006252 12173.75673301518 1541.769917845726 5298.9488741010427 14994.33780811727 14199.318151473999 4398.7574807852507 7540.9787911623716 7569.7707370817661 6603.9962673485279 11972.509067267179 741.66893267631531 69041.735487237573 55421.824889943004 6737.5697706192732 21665.802715823054 15096.990142300725 36680.216239541769 10592.431565716863 2300.2288212478161 13752.782805919647 24515.987144052982 125.83304435014725 16247.553511142731 6619.837606176734 42095.208248764277
leaf_count=44417 70562 13183 52108 149540 59238 46727 4480 23288 73022 51820 19994 20410 26966 18138 52569 3219 285761 181094 24318 83412 68510 184532 31595 9174 64323 130657 180 62031 25374 146588
internal_value=0.107405 0.12434 0.0769514 0.0866038 0.112437 0.141467 0.109036 0.0772955 0.0514776 0.102961 0.122773 0.1366 0.102199 0.137478 0.0721932 0.169169 0.108186 0.135368 0.104535 0.108941 0.067523 0.0616452 0.169971 0.072138 0.0861222 0.0403507 0.0184509 0.121436 0.0964026 0.127778
internal_weight=503117 323319 179798 130391 190750 132569 170035 81655 49407.1 117898 52136.5 26072 48736.1 116295 69048.7 8282.65 89978.6 109691 75779.3 26064.6 57076.2 41979.2 16274.7 17294.6 27919.5 32112.5 7596.54 17789.3 41166.4 54269
internal_count=2027230 1186893 840337 582887 749568 437325 679006 381007 257450 485460 193546 90140 201880 392547 328899 23629 361899 374409 310079 103406 276330 207820 44778 82196 123561 175254 44597 66511 174914 193315
is_linear=0
shrinkage=0.05


Tree=2
num_leaves=31
num_cat=0
split_feature=18 18 18 49 9 9 14 49 13 13 46 9 30 9 4 41 18 4 30 9 13 26 18 51 10 32 16 7 9 46
split_gain=77747.3 16871.6 15878.3 6261.83 4881.21 4776.37 4189.92 3870.08 3822.25 3177.94 2971.11 2831.42 2230.64 2211.99 2078.91 1944.87 1927.82 1913.5 1851.3 1901.44 1765.27 1765.15 1742.31 1823.87 1666.49 1550.31 1488.47 1431.65 1335.38 1203.52
threshold=0.14280197943511339 0.076589928338018545 0.26789757165257366 18190.359999999961 -0.027109092250067187 -0.019762172499006799 33.870963917794427 17888.154999999915 -0.28878795983869632 0.12181024839016687 2834.3659999999923 0.021571443519580406 -0.040926605010559496 0.025976336830429329 -0.14050107933862618 0.19504558068653841 0.049626828281930505 -0.17411779030331728 -0.11125640876181674 0.099451277342044633 0.27181313380266875 0.048563240575172147 0.052583434059338373 1.0000000180025095e-35 -0.033653053067025311 -1303.9034999999974 0.018295294901487371 1745.7377414983969 0.046514010674799884 515.15300000000286
decision_type=2 2 2 2 2 2 2 2 2 2 2 2 2 2 2 2 2 2 2 2 2 2 2 2 2 2 2 2 2 2
left_child=1 7 4 5 -2 -3 12 22 15 13 20 14 -6 17 -5 -4 -9 -7 -10 25 24 -17 23 -1 -8 -20 -19 -21 -26 -27
right_child=2 3 8 11 6 9 10 16 18 -11 -12 -13 -14 -15 -16 21 -18 26 19 27 -22 -23 -24 -25 28 29 -28 -29 -30 -31
leaf_value=0.017115436242980134 0.12020280185825949 0.096381012681524603 0.12933092382712894 0.12417941516497602 0.098580027651621022 0.087108116717159054 0.10860519973048684 0.035833862289302972 0.14928245404995932 0.089996983069129524 0.1124802028011565 0.12043139862570924 0.072645532443585778 0.090508668843398893 0.085947202715218649 0.14206049217026467 0.074451858792198622 0.054100064474106237 0.10806734865551935 0.20975407348654196 0.11443492657013343 0.18592716050099045 0.045152996180595033 0.1738935866329519 0.087149221339737626 0.11318716348999379 0.071089622933747612 0.1374909358755515 0.11366641432010016 0.12726839969013612
leaf_weight=9430.4941571652889 31550.479486018419 18862.54669085145 8508.5941733419895 3893.5293468534946 13981.082435324788 6756.0120050758123 14939.179981574416 4107.8058159053326 5662.6392163485289 14735.796248286963 49484.307317301631 8700.7255357801914 20372.659330561757 7454.4740817397833 40970.810101434588 4926.1430549919605 15151.996774792671 43898.074809774756 27277.328363537788 782.23426926136017 12236.821213245392 4290.7011504918337 25639.60645416379 189.22994232177734 48694.544147506356 23613.77093963325 18252.017778843641 5536.7598422020674 5260.7151890546083 42458.803053915501
leaf_count=54787 100461 71747 24063 12787 51798 27913 52376 20706 13725 58559 165380 27898 87008 29997 162594 13125 66306 208771 90563 1023 41781 7766 131195 344 190732 75324 80347 14702 17771 125681
internal_value=0.0952974 0.0722782 0.111003 0.080309 0.102184 0.07348 0.0987377 0.0481906 0.125087 0.0687381 0.102824 0.0943276 0.0832002 0.0646357 0.0892652 0.146569 0.0662153 0.0618366 0.121473 0.119893 0.0969349 0.162482 0.038345 0.0201994 0.0938266 0.118096 0.0590895 0.146436 0.0897347 0.122236
internal_weight=537620 218043 319577 163524 196520 109959 164969 54519.1 123057 91096.4 130616 53565.1 34353.7 76360.6 44864.3 17725.4 19259.8 68906.1 105332 99668.9 81131.3 9216.84 35259.3 9619.72 68894.4 93349.9 62150.1 6318.99 53955.3 66072.6
internal_count=2027230 953951 1073279 680613 707307 477334 606846 273338 365972 405587 468040 203279 138806 347028 175381 44954 87012 317031 321018 307293 302660 20891 186326 55131 260879 291568 289118 15725 208503 201005
is_linear=0
shrinkage=0.05


Tree=3
num_leaves=31
num_cat=0
split_feature=3 4 9 9 26 1 47 46 13 4 17 48 47 48 48 46 26 11 48 48 47 23 23 17 22 46 6 47 41 9
split_gain=21507.6 27195.4 12340.9 14590.5 5466.92 7205.62 5095.55 4494.33 4211.95 3057.19 2991.06 2871.63 2821.96 2774.56 9096.67 3738.01 2633.04 2300.33 2201.93 2234.91 2047.97 1841.79 1700.24 1693.88 1681.08 1602.45 1520.48 1477.59 1467.73 1445.83
threshold=-0.13284159142421428 0.088134257821446363 -0.023038631198023903 0.02308740615709404 -0.017884445398043677 -0.028963825269163686 2238.9710000000005 3687.3699999999958 0.12500000000000014 0.19158003725115683 0.064008568393836771 6.5000000000000009 14368.043500000005 104.50000000000001 19.500000000000004 158488.78700000051 0.048563240575172147 -0.061702127659574439 164.50000000000003 5.5000000000000009 -84.564499999999995 26.578851137843461 28.921537560518221 -0.028027725735923933 21.362335090575595 160418.62199999992 -0.00077313491125230438 -5355.2209999999968 0.39248859808613884 -0.043349154272863892
decision_type=2 2 2 2 2 2 2 2 2 2 2 2 2 2 2 2 2 2 2 2 2 2 2 2 2 2 2 2 2 2
left_child=7 2 20 4 -4 24 8 11 10 -3 17 16 -5 14 -8 -16 -1 21 19 -9 -2 -7 -19 -24 -6 -14 -10 -21 -11 -22
right_child=1 9 3 12 5 6 13 18 26 28 -12 -13 25 -15 15 -17 -18 22 -20 27 29 -23 23 -25 -26 -27 -28 -29 -30 -31
leaf_value=0.1024896703284791 0.086912565122229085 0.093440436912489169 0.084993188604784414 0.093506467817197347 0.073576627720245785 0.055507236779523753 0.069381495755192257 0.10993495141899799 0.12450876745319246 0.1075186212848946 0.069948187626412958 0.065554738672126439 0.18424148660383874 0.061657931737746252 0.20402225591189227 0.10751170240788331 0.12947613937386088 0.03506376352586292 0.091731894843288919 0.078221469906258653 0.12368965883122084 0.096750413103806956 0.067838790922111231 0.048205580208103734 0.093435894191455732 0.10455748677248811 0.076480402879081977 0.16552015666779685 0.17725005846780997 0.098838569823376507
leaf_weight=40630.269464462996 24752.450451821089 70783.692578405142 33759.655424773693 44670.143204405904 26770.633710071445 6915.627582013607 10335.186137706041 3060.4341268837452 1999.9628427773714 66878.585407406092 22802.747531309724 4207.3454657047987 1374.9747449010611 12033.112022355199 2104.3889267742634 1917.5001578330994 11624.773809701204 20589.605435699224 2202.9276925623417 517.36634409427643 8645.5427103489637 4447.9573302417994 12796.80696208775 77636.28442633152 17702.883185938001 1165.9521436542273 9360.5615560263395 7677.9694664925337 763.23072864115238 18119.088147997856
leaf_count=126474 85340 237095 119721 151178 102147 29101 41619 8690 5708 197849 91959 15493 1867 49839 2390 5979 26990 98154 7156 1728 23323 15048 52884 354365 61237 3503 35625 14149 983 59636
internal_value=0.0855139 0.0818702 0.0746262 0.0708419 0.0662179 0.0634307 0.0590424 0.111483 0.0556163 0.100704 0.0533221 0.105294 0.096422 0.0793667 0.0942091 0.158009 0.108493 0.0502244 0.137447 0.146394 0.097279 0.0716507 0.0480314 0.0509838 0.0814817 0.147677 0.0849356 0.160009 0.108305 0.106866
internal_weight=568248 498327 359901 308384 261173 227413 182940 69921.1 156550 138426 145189 56462.4 47211.1 26390.2 14357.1 4021.89 52255 122386 13458.7 11255.8 51517.1 11363.6 111023 90433.1 44473.5 2540.93 11360.5 8195.34 67641.8 26764.6
internal_count=2027230 1826550 1390623 1222324 1065776 946055 782671 200680 682844 435927 641511 168957 156548 99827 49988 8369 153464 549552 31723 24567 168299 44149 505403 407249 163384 5370 41333 15877 198832 82959
is_linear=0
shrinkage=0.05


Tree=4
num_leaves=31
num_cat=0
split_feature=18 18 18 49 1 0 14 48 48 0 18 49 46 14 4 47 4 41 47 18 23 49 41 3 47 9 32 47 14 47
split_gain=52653.4 14935.6 8395.5 5165.66 3735.8 3393.08 4353.34 3080.7 8222.17 2940.3 2580.53 2347.83 2247.19 2209.67 2123.8 1950.56 1771.28 1494.82 1422.41 1365.61 1546.47 1273.43 1269.7 1241.4 1174.02 1172.68 1152.53 1136.16 1002.28 992.111
threshold=0.12199060444619719 0.2126319313870195 0.063243558952500403 17888.154999999915 -0.096093532898514508 -0.023519387335521332 37.688441106285218 48.500000000000007 18.500000000000004 -0.018710393487303242 0.32952804462252361 14264.345000000003 25942.448000000048 32.153096136260778 0.063515753099770214 293.01800000000003 -0.1495218451928306 0.39248859808613884 20088.501500000006 0.049626828281930505 88.308874917192711 5121.7999999998729 0.18327109575040926 -0.16970774070237818 793.18900000000008 0.025976336830429329 -1062.1699999999994 -445.19749999999993 63.076909491127189 -2541.1054999999992
decision_type=2 2 2 2 2 2 2 2 2 2 2 2 2 2 2 2 2 2 2 2 2 2 2 2 2 2 2 2 2 2
left_child=2 5 19 9 24 15 -7 8 -5 22 13 21 -10 23 16 -2 -11 26 -9 20 -1 28 -4 -6 -3 -18 -12 -13 -8 -28
right_child=1 4 3 7 10 6 11 18 12 14 17 27 -14 -15 -16 -17 25 -19 -20 -21 -22 -23 -24 -25 -26 -27 29 -29 -30 -31
leaf_value=0.016376372418244033 0.081553561279844838 0.10790000784491012 0.058553433699755277 0.072523372415222775 0.096566624069655368 0.05851864225783833 0.081862479107788044 0.058600628769631208 0.070778069866163834 0.067250949833800186 0.091985671158521312 0.077898151747040414 0.16821606650141704 0.093266623349702024 0.067472118569026629 0.10372627123462633 0.040255139090404145 0.15828820730667945 0.10376395727243524 0.039865051731135324 0.16402784654219418 0.063771770468203121 0.084578897533192893 0.070326441868376235 0.13246718871454782 0.065891829107251804 0.12246207291111938 0.093346474245410371 0.066581836680389694 0.10221814352331389
leaf_weight=12242.195151761174 25132.442999482155 14465.189046993852 9824.2584680765867 19220.674524858594 5890.1452013999224 34466.285971269011 37753.568000510335 26337.515151947737 719.54811137914658 8144.9693208485842 25076.210741490126 20024.834160476923 3331.0951351523399 90008.440850704908 13011.838992327452 16385.664383262396 53994.108221590519 1143.4882520735264 1866.9593505859375 18863.991901680827 179.94673961400986 24749.645011410117 8961.1517515182495 19198.671148657799 7325.8938805609941 4862.2972870469093 7100.9544263482094 29340.897009551525 14992.768635034561 40976.73657040298
leaf_count=65095 80341 34013 38123 69301 16519 134691 128065 102644 2574 32275 70828 65555 4251 262605 49332 45291 245638 1381 5613 88377 208 91257 31321 66123 13824 18448 15922 87684 54177 105754
internal_value=0.077402 0.0872467 0.0549521 0.059858 0.0965539 0.077557 0.0742764 0.0727009 0.086167 0.0531666 0.0942982 0.0785575 0.150907 0.089609 0.0489871 0.0903043 0.0453973 0.101562 0.0615902 0.0313881 0.0185152 0.0731286 0.0709683 0.0764869 0.116159 0.0423731 0.100676 0.08708 0.0775191 0.105208
internal_weight=595592 414032 181561 150274 211186 202846 161328 51475.8 23271.3 98798.6 189395 126862 4050.64 115097 80013.2 41518.1 67001.4 74297.4 28204.5 31286.1 12422.1 77496 18785.4 25088.8 21791.1 58856.4 73153.9 49365.7 52746.3 48077.7
internal_count=2027230 1274030 753200 599520 586969 687061 561429 184383 76126 415137 539132 426738 6825 345247 345693 125632 296361 193885 108257 153680 65303 273499 69444 82642 47837 264086 192504 153239 182242 121676
is_linear=0
shrinkage=0.05


Tree=5
num_leaves=31
num_cat=0
split_feature=18 18 18 49 47 0 14 48 48 0 14 18 48 48 6 46 4 47 47 26 46 48 48 47 8 47 47 13 4 53
split_gain=43255.5 13361.3 5464.67 4039.14 3209.21 3233.05 3271.79 2955.1 4825.7 2704.13 3175.53 2354.39 2211.34 6255.61 1823.54 1692.1 1672.95 1618.32 1547.42 1521.97 1324.46 1237.57 1391.1 1217.07 1200.81 1184.47 1122.91 1111.57 1180.36 1068.49
threshold=0.17011462408313707 0.094367869873092008 0.32108018822739864 17888.154999999915 3837.6399999999999 -0.023519387335521332 37.903221527055628 48.500000000000007 19.500000000000004 -0.030495476360954617 32.153096136260778 0.062217046042514261 25.500000000000004 18.500000000000004 -0.028205573926306179 2834.3659999999923 0.13190119572584727 4635.1100000000015 293.01800000000003 0.042927345326111928 25942.448000000048 94.500000000000014 104.50000000000001 20088.501500000006 0.91838679384077115 363.15450000000004 20088.501500000006 0.096182126391483172 -0.1172678699324025 1.0000000180025095e-35
decision_type=2 2 2 2 2 2 2 2 2 2 2 2 2 2 2 2 2 2 2 2 2 2 2 2 2 2 2 2 2 2
left_child=1 3 9 11 5 25 -7 8 17 18 -11 29 13 -5 19 -12 24 -6 -2 -4 -15 -9 -23 -24 -8 -3 -14 28 -13 -1
right_child=2 4 14 12 7 6 16 21 -10 10 15 27 26 20 -16 -17 -18 -19 -20 -21 -22 22 23 -25 -26 -27 -28 -29 -30 -31
leaf_value=0.019895016318846194 0.082614169099896273 0.070905678083097903 0.095386661592852945 0.056526644176816493 0.096161892393393664 0.045195310508251797 0.055856523431158336 0.017086366860131048 0.14932643344816685 0.061711378771609759 0.075425759601647352 0.0552612259239059 0.042611734727896484 0.076932958704597626 0.089240026683257007 0.086788163603337853 0.077955433616936215 0.026968288569636279 0.102644668844577 0.11897992805514285 0.15983762241779434 0.13209855787321728 0.060729992360840118 0.10319082487870462 0.06647594167252846 0.091535549358321047 0.08616925032767131 0.0605900506171482 0.034641647013223031 0.1304658064764655
leaf_weight=19031.611230269074 22612.56183424592 23090.028516173363 18430.848319649696 13648.098051011562 2029.4825475364923 30412.558410108089 53289.459014251828 1032.4884821176529 3711.406136572361 29507.330874472857 85605.419589102268 8689.9863446652889 20016.935342013836 630.93937501311302 68762.323788881302 53084.731584087014 17228.321748927236 1447.9070395678282 16809.365586742759 10865.034422576427 2037.3503357768059 952.66400012373924 8613.4327279031277 2098.8717969059944 53192.121678128839 9958.6115231215954 1597.7474350780249 6765.4730515927076 34476.880714282393 221.02611093223095
leaf_count=98597 63143 74088 44360 52180 5896 123242 198756 4148 4630 101412 262244 34950 82822 2214 173877 145102 53509 5836 39096 19453 2122 2095 29845 5228 184728 27814 5245 25768 154515 315
internal_value=0.0705722 0.0575438 0.0839628 0.0432078 0.0649601 0.0629311 0.0598881 0.0840572 0.109673 0.0793684 0.0766059 0.0360186 0.0563206 0.0702157 0.0936906 0.0797748 0.0635002 0.0673512 0.0911551 0.104137 0.140234 0.0695545 0.0741985 0.0690494 0.0611614 0.0771221 0.0458315 0.041746 0.0387926 0.0211644
internal_weight=619851 314173 305678 107116 207057 187171 154122 19886.3 7188.8 207619 168197 69185 37931.1 16316.4 98058.2 138690 123710 3477.39 39421.9 29295.9 2668.29 12697.5 11665 10712.3 106482 33048.6 21614.7 49932.3 43166.9 19252.6
internal_count=2027230 1178543 848687 458728 719815 662137 560235 57678 16362 610997 508758 314145 144583 56516 237690 407346 436993 11732 102239 63813 4336 41316 37168 35073 383484 101902 88067 215233 189465 98912
is_linear=0
shrinkage=0.05


Tree=6
num_leaves=31
num_cat=0
split_feature=10 29 13 4 9 9 2 9 26 10 49 48 46 12 22 48 48 48 47 22 47 47 49 48 47 47 12 2 23 47
split_gain=13760.8 14274.5 9848.59 6796.05 6165.23 4255.28 3519.81 3161.9 2405.1 2478.62 1865.69 3391.03 1836.1 3254.74 1784.26 1680.07 1572.17 3168.12 2338.89 1415.89 1407.9 1407.43 1352.46 1722.61 1329.35 1301.42 1240.96 1255.64 1231.97 1194.44
threshold=-0.056866208711077275 0.048928351117586096 0.13124554208273889 -0.162513653441654 -0.016753782905852662 0.012469568359386509 -0.12245523777499616 0.048453016016336344 -0.015747278678472917 -0.019508364098113847 43472.290000000045 48.500000000000007 2834.3659999999923 -0.12046892122080098 24.52260447513542 18.500000000000004 48.500000000000007 12.500000000000002 25441.963500000002 28.97932332255721 -2541.1054999999992 -79.298500000001113 21114.879999999892 5.5000000000000009 -34.547999999999981 32584.618000000002 0.035634743875278325 -0.032676114219951362 41.366903302642037 293.01800000000003
decision_type=2 2 2 2 2 2 2 2 2 2 2 2 2 2 2 2 2 2 2 2 2 2 2 2 2 2 2 2 2 2
left_child=6 2 3 22 19 8 -1 12 -6 -10 26 15 13 20 -8 -12 17 21 -19 -5 -3 -14 23 28 -23 -9 27 -11 -2 -16
right_child=1 7 -4 4 5 -7 14 25 9 10 11 -13 16 -15 29 -17 -18 18 -20 -21 -22 24 -24 -25 -26 -27 -28 -29 -30 -31
leaf_value=0.096104761678121431 0.062572710571131493 0.14982000371860338 0.072781188369973646 0.050443805282607272 0.05869689294232916 0.058679844135405682 0.068407457066264762 0.087330148528684814 0.04866819463034959 0.042028388862066113 0.063175555622120946 0.038179289759577732 0.060419339179620585 0.060813872419096374 0.076049780195664191 0.12979592130593648 0.066584334352798424 0.11705323187443134 0.012772121490367173 0.069952764295705835 0.08602883691645305 0.14177171145028947 0.091017023130228442 0.037749647183390495 0.080735043599158604 0.0023356481912217932 0.042242094630021571 0.023309912678960047 0.08212579383732535 0.094074896492396975
leaf_weight=28464.467060834169 20494.224597170949 969.25942681729794 70299.482007712126 12579.190623402596 17495.185992434621 44491.524292767048 41261.957640424371 37438.858456268907 45606.887715771794 11180.468567326665 2460.2652018219233 19169.47334946692 10142.91921415925 64733.986811056733 22472.901361778378 1537.921992406249 22006.499497845769 7966.0561610162258 576.61905287206173 35680.967401877046 8037.4303746670485 961.73941513895988 6488.156270056963 4634.1789503246546 12314.018125385046 455.86091601848602 17596.656475797296 45091.463341847062 13273.29433016479 15550.131168097258
leaf_count=57685 64866 1163 204544 43593 58144 153992 121709 92091 172231 42094 8549 74923 30615 205754 61889 2200 64185 14158 2053 111353 19588 1586 16235 17130 33378 1677 68791 205488 38348 37218
internal_value=0.0647239 0.0614333 0.0559483 0.0519745 0.048792 0.0450007 0.0810225 0.0736245 0.0412002 0.0390543 0.0345357 0.0469155 0.069861 0.0647321 0.0756078 0.0888014 0.076869 0.0839503 0.110014 0.0648677 0.0928938 0.0744427 0.0699029 0.0663355 0.0851567 0.0863077 0.030653 0.027029 0.0702586 0.0834214
internal_weight=641432 533683 368079 297780 252890 204630 107749 165603 160138 142643 97036.2 23167.7 127709 73740.7 79285 3998.19 53967.9 31961.4 8542.68 48260.2 9006.69 23418.7 44889.9 38401.7 13275.8 37894.7 73868.6 56271.9 33767.5 38023
internal_count=2027230 1748729 1282481 1077937 941358 786412 278501 466248 632420 574276 402045 85672 372480 226505 220816 10749 145975 81790 16211 154946 20751 65579 136579 120344 34964 93768 316373 247582 103214 99107
is_linear=0
shrinkage=0.05


Tree=7
num_leaves=31
num_cat=0
split_feature=0 29 13 3 9 0 29 47 0 50 46 5 19 50 48 48 46 47 0 41 10 4 47 46 10 46 26 3 47 8
split_gain=12816 15591.2 6670.9 6251.99 4610.55 3526.92 2927.22 2531.62 2387.92 2262.76 1986.44 2992.8 1957.65 1957.16 1924.81 4117.75 1910.8 1743.04 1633.12 1626.5 1317.79 1263.27 1259.01 1258.87 1250.87 1206.4 1202.83 1191.14 1180.95 1168.29
threshold=-0.027541232171599258 0.033816425120772993 0.10171222836569384 -0.111174362307059 0.038826344297998479 -0.011321323578046548 0.010642543588839983 216.42100000000008 -0.001141552511415622 9.7897705020338872 2834.3659999999923 -0.045619737271176512 0.27362729628187199 -2.6532725257524801 48.500000000000007 12.500000000000002 3782.0039999999808 25441.963500000002 -0.060369604901810363 0.39248859808613884 0.0028425250801530359 0.19158003725115683 -2541.1054999999992 179793.15300000014 -0.0090231731913870111 3046.2370000000114 -0.011102564651461198 -0.15387877162696753 4366.2440000000015 0.63309259441324561
decision_type=2 2 2 2 2 2 2 2 2 2 2 2 2 2 2 2 2 2 2 2 2 2 2 2 2 2 2 2 2 2
left_child=7 2 3 16 10 12 26 13 -8 18 11 22 -5 -1 15 -12 -2 28 -9 27 -13 -16 -3 -18 -10 -26 -7 -6 -17 -29
right_child=1 4 -4 5 19 6 8 9 24 -11 14 20 -14 -15 21 17 23 -19 -20 -21 -22 -23 -24 -25 25 -27 -28 29 -30 -31
leaf_value=0.045168120507166551 0.057534869972763115 0.13459913003020135 0.063333636200959775 0.042986992137877093 0.10258311170811595 0.051884535558058054 0.057284220420451261 0.099202908812516671 0.051349297022947694 0.025826412316148212 0.066044565575184538 0.069901855946640251 0.060778531473850796 0.071823223331441852 0.052230344102986243 0.090647065143008368 0.09550638180594391 0.0082898854544169696 0.079198361577416471 0.12928528740517062 0.052640157290340897 0.073877390817683353 0.077414808200211516 0.049189105018023038 0.028243578241600127 0.043807049208266495 0.025363327648722695 0.10775731176488482 0.12399373052173793 0.07313719568266841
leaf_weight=7843.2430417090654 34275.964295983315 1076.7687937915325 64482.740304231644 32347.481708064675 4156.200567021966 4700.0762213915586 21343.74571698904 15252.22298450768 13915.796874448657 1627.1219748705626 32600.332954823971 12749.071963682771 29618.133571743965 56462.934067472816 21952.982356578112 6052.0121038407087 6186.8979612886906 484.06134448945522 30814.697444140911 1514.8884625285864 83281.406069800258 9725.4472398608923 9072.9143504947424 1922.9914419203997 31135.394579395652 20749.225950941443 47292.611508503556 2559.412243694067 4730.0828166753054 50896.693636119366
leaf_count=24078 104536 1240 189904 119652 7488 16183 71910 27722 48868 5346 91864 36767 94148 146887 68772 13382 13514 1743 75150 1560 268443 24377 21563 6207 130089 74201 200545 4739 5956 130396
internal_value=0.0596323 0.0564867 0.049034 0.0452471 0.0660163 0.0415688 0.0371499 0.0750461 0.0427517 0.0837748 0.0620703 0.0576609 0.0514909 0.0685722 0.0682678 0.0750501 0.0626988 0.101109 0.0858216 0.0781442 0.0549318 0.0588761 0.0834814 0.0845238 0.0380378 0.0344676 0.0277608 0.0767994 0.105276 0.0747948
internal_weight=660824 548823 307971 243488 240852 201102 139137 112000 87144.2 47694 181725 106180 61965.6 64306.2 75544.9 43866.5 42385.9 11266.2 46066.9 59127.2 96030.5 31678.4 10149.7 8109.89 65800.4 51884.6 51992.7 57612.3 10782.1 53456.1
internal_count=2027230 1748047 1069757 879853 678290 755596 541796 279183 325068 108218 534107 328013 213800 170965 206094 112945 124257 21081 102872 144183 305210 93149 22803 19721 253158 204290 216728 142623 19338 135135
is_linear=0
shrinkage=0.05


Tree=8
num_leaves=31
num_cat=0
split_feature=18 18 18 49 23 2 23 48 0 49 47 0 48 9 47 47 48 48 9 6 32 50 48 2 49 50 49 49 18 47
split_gain=29891.5 7744.09 5638.94 2805.33 2173.92 2103.74 2321.92 1890.69 1720.82 1683.6 1464.5 1462.17 1401.84 1382.23 1039.46 1024.7 991.082 4110.59 965.606 957.278 953.206 942.542 969.056 935.29 931.869 922.66 900.091 1086.23 858.731 848.922
threshold=0.12830529362677215 0.2126319313870195 0.072382366887358301 13570.08999999994 27.122290967360268 -0.13428225999743096 21.33764207311399 4.5000000000000009 -0.010567637923839855 17888.154999999915 -482.45949999999999 -0.013157894736841978 1.5000000000000002 0.030797973246293301 216.42100000000008 32584.618000000002 48.500000000000007 16.500000000000004 0.025976336830429329 -0.047989530966613729 -707.30100000000084 -0.37129127008043733 1.0000000180025095e-35 -0.094536501203180176 14264.345000000003 9.7897705020338872 18190.359999999961 12078.984999999988 0.049626828281930505 3837.6399999999999
decision_type=2 2 2 2 2 2 2 2 2 2 2 2 2 2 2 2 2 2 2 2 2 2 2 2 2 2 2 2 2 2
left_child=2 4 9 7 20 26 23 11 14 -1 -5 21 19 24 -6 25 17 -12 -13 -8 -2 -4 -23 -7 -10 -14 27 -3 -11 -19
right_child=1 5 3 10 8 6 12 -9 13 28 16 18 15 -15 -16 -17 -18 29 -20 -21 -22 22 -24 -25 -26 -27 -28 -29 -30 -31
leaf_value=0.019416124102597632 0.037782112255065496 0.078760141917061988 0.042265855853638498 0.043433765220786451 0.059728710113799516 0.062661942175648813 0.078073781667972408 0.021356809483791293 0.047859776520095154 0.019258262584268181 0.054966917657143469 0.035395746101514976 0.074525097108496793 0.066010418324446457 0.073735193616959044 0.020951498379920025 0.049463534037640117 0.070127464887734137 0.053949229947014267 0.06230925654528862 0.052526652624135611 0.075531466045123299 0.049149878212517067 0.045239829628267024 0.058227784734686719 0.048090016799936922 0.097112293391439383 0.025077438008484811 0.043662821125070986 0.1200764490111058
leaf_weight=34339.836338698864 20597.380865171552 20945.540768787265 13889.803704366088 25721.84287981689 33003.991122946143 15846.872358083725 11056.866960212588 12584.135673388839 55793.21948108077 4753.8011185526848 18595.162807807326 54475.612418144941 93872.944614455104 21384.702439948916 22126.817980483174 933.22340309619904 16747.17957508564 1127.7678070366383 8048.9156339764595 74610.079546228051 23430.355969369411 6147.6109658777714 8024.3882461041212 14990.654478177428 35437.637108460069 3421.104205429554 6846.257242411375 986.70012052357197 14910.584766253829 3461.9428245425224
leaf_count=158637 68995 40836 47545 86668 92598 40322 24396 50064 179526 20706 58681 210262 217539 55910 54149 3023 54218 3107 25270 192280 73565 17614 26512 45537 98849 9528 10657 2851 53945 3440
internal_value=0.0551655 0.0625095 0.04016 0.0446587 0.055517 0.0685908 0.0668894 0.0395171 0.0581123 0.0260967 0.0527383 0.0420399 0.0690186 0.054569 0.0653502 0.0730954 0.0587317 0.0654265 0.0377842 0.064344 0.0456288 0.051522 0.0605938 0.0541928 0.0518871 0.0735956 0.0812855 0.076345 0.0377631 0.107803
internal_weight=678113 455284 222829 168824 211774 243510 214732 103170 167746 54004.2 65653.9 90586.3 183894 112616 55130.8 98227.3 39932.1 23184.9 62524.5 85666.9 44027.7 28061.8 14172 30837.5 91230.9 97294 28778.5 21932.2 19664.4 4589.71
internal_count=2027230 1210561 816669 583381 623592 586969 532625 377267 481032 233288 206114 327203 446766 334285 146747 230090 119446 65228 235532 216676 142560 91671 44126 85859 278375 227067 54344 43687 74651 6547
is_linear=0
shrinkage=0.05


Tree=9
num_leaves=31
num_cat=0
split_feature=0 29 4 3 9 0 29 1 29 10 24 1 49 31 22 41 49 19 12 47 23 47 0 12 47 9 48 50 50 47
split_gain=10002.2 12408.6 4880.35 5217.33 3631.57 2581.91 2504.35 2278.9 2058.16 1785.06 1757.45 1871.09 1448.04 1404.92 1359.94 1342.5 1319.82 1203.65 1095.62 1079.62 980.255 952.204 941.587 916.254 865.95 821.317 812.225 783.514 823.268 763.391
threshold=-0.025920590980934795 0.033816425120772993 0.065344981481360156 -0.10236502626483478 0.04454211303005063 -0.0093558048622857642 0.011991513800030053 -0.10888734763484557 0.006610293182973793 -0.010379566607940203 77.628391594122675 0.042602772857569866 18995.589999999855 -679.28300000000002 40.252699328440606 0.39248859808613884 893781.98000000056 0.095275194815010303 -0.1818181818181818 14368.043500000005 34.272507719135788 815.3850000000001 1.0000000180025095e-35 -0.1818181818181818 32584.618000000002 -0.013226888404025859 18.500000000000004 -3.6317796493082928 5.6244440574312327 3837.6399999999999
decision_type=2 2 2 2 2 2 2 2 2 2 2 2 2 2 2 2 2 2 2 2 2 2 2 2 2 2 2 2 2 2
left_child=7 2 3 12 10 8 25 21 14 -8 18 19 20 17 -5 23 26 -9 -3 -12 -2 -1 -11 -6 -25 -7 -14 -15 -29 -24
right_child=1 4 -4 5 15 6 9 13 -10 22 11 -13 16 27 -16 -17 -18 -19 -20 -21 -22 -23 29 24 -26 -27 -28 28 -30 -31
leaf_value=0.070855473989636583 0.043119460036785073 0.076850897407603383 0.054393204311237536 0.032126786574768848 0.093428389502760334 0.041112791951451552 0.049536677674535873 0.046695682344111464 0.058060529726877468 0.044374094661897859 0.040276684917962935 0.055171976790407376 0.067363887037786035 0.042092777164487796 0.048646618402196466 0.11397177440576145 0.038888802983318385 0.061228618147275954 0.056972376690045567 0.078536597886172455 0.059320405177033686 0.0931155879561609 0.02690941820254808 0.066103133039121534 0.00019560234253874649 0.019935955299919737 0.10130900089935278 0.071274116606897267 0.037539242690040685 0.047427972426984759
leaf_weight=12867.508814364672 26355.827409401536 7518.9935192316771 61314.181347742677 34949.28982296586 3108.9197587519884 5099.2235384434462 19454.035440921783 21756.065793171525 16756.906874135137 12558.892122223973 45608.761746570468 58641.667795479298 4420.6384610384703 2747.6692247390747 19358.469663009048 1581.405420050025 2507.7831771969795 41281.016887649894 88720.945658132434 1921.5157830119133 14459.074837684631 7666.4304462373257 43908.357094198465 45205.324868559837 503.93855205178261 44840.801590248942 2930.3848747760057 38442.848567575216 1897.7992341816425 5054.9508073925972
leaf_count=25418 79670 14909 172412 126484 4899 17851 62352 61231 49001 42035 146570 154720 10537 8073 62793 1545 7923 100845 243292 3942 40774 11368 169836 105524 1753 184698 5121 90353 5519 15782
internal_value=0.0512164 0.0483776 0.041739 0.0386681 0.0566222 0.0350692 0.0309042 0.0639193 0.042742 0.036335 0.0536319 0.0491962 0.0530128 0.0609691 0.0380154 0.0686317 0.0702104 0.0562128 0.0585254 0.0418234 0.0488588 0.0791664 0.0321605 0.067163 0.0653765 0.0220983 0.0808956 0.0679274 0.0696871 0.0290277
internal_weight=693440 566780 313969 252655 252811 201981 130916 126659 71064.7 80976.2 202412 106172 50673.7 106125 54307.8 50399.6 9858.81 63037.1 96239.9 47530.3 40814.9 20533.9 61522.2 48818.2 45709.3 49940 7351.02 43088.3 40340.6 48963.3
internal_count=2027230 1724423 1047269 874857 677154 730832 492554 302807 238278 290005 563433 305232 144025 266021 189277 113721 23581 162076 258201 150512 120444 36786 227653 112176 107277 202549 15658 103945 95872 185618
is_linear=0
shrinkage=0.05


Tree=10
num_leaves=31
num_cat=0
split_feature=18 18 18 18 46 9 14 47 48 48 32 6 14 48 9 0 46 26 16 4 4 23 47 23 2 16 20 47 48 48
split_gain=24082.1 8203.69 2723.15 2562.1 2458.66 2097.52 2334.39 1557.28 1744.45 1970.77 1285.31 1160.99 1095.49 1015.51 995.425 990.721 1093.39 976.724 945.03 1362.06 930.49 912.108 851.236 841.57 967.552 810.998 778.953 726.424 725.128 1037.07
threshold=0.18257771778495949 0.097379043030700566 0.053879205693350384 0.32108018822739864 2834.3659999999923 -0.029575600148347089 38.337491048800267 3837.6399999999999 48.500000000000007 19.500000000000004 -707.30100000000084 -0.028205573926306179 65.814693541834799 4.5000000000000009 0.016484182484182489 -0.010067114093959715 2834.3659999999923 0.046474843903152936 0.046453315534256481 -0.1155208763420809 -0.162513653441654 88.308874917192711 4635.1100000000015 23.207448308889752 -0.10616506693376114 -0.0087089262799730279 0.81422041007945523 411.54500000000002 84.500000000000014 104.50000000000001
decision_type=2 2 2 2 2 2 2 2 2 2 2 2 2 2 2 2 2 2 2 2 2 2 2 2 2 2 2 2 2 2
left_child=1 2 21 10 13 27 20 12 9 22 23 17 26 18 -6 -12 -17 -5 19 -4 -7 -1 -9 24 -2 -22 -8 -3 -10 -30
right_child=3 5 4 11 14 6 7 8 28 -11 15 -13 -14 -15 -16 16 -18 -19 -20 -21 25 -23 -24 -25 -26 -27 -28 -29 29 -31
leaf_value=0.010496529098650441 0.057060916171439859 0.051579740816896813 0.041328799785974597 0.065426253361303505 0.037702545852017197 0.047597110722231328 0.040458210779473619 0.06981799233837431 0.0058370532781308639 0.10425982251321533 0.06377210146628691 0.060589632656600903 0.035534770992494434 0.010482559441785519 0.057309595426588561 0.050209790520060721 0.061721531581275239 0.083269920835647548 0.04005594987038983 0.020152499575837812 0.026708301405790554 0.11490407891186416 0.016720873567007473 0.052637596354754436 0.033851311113976316 0.042097287531270199 0.048815264228197736 0.068691651398404108 0.096497342336930969 0.045952341477488889
leaf_weight=18978.061585709453 6452.2209804654121 17716.974209576845 9778.8639766275883 21901.112342849374 36144.885910928249 10030.177327767015 41235.275615185499 2138.3887381702662 956.56423838436604 3682.6952559053898 42856.065150544047 78967.094225540757 30324.273215770721 9125.1379087716341 7885.5072293430567 55283.049933716655 32903.793173402548 11801.667525544763 13411.822061732411 33976.268220722675 32735.530760213733 211.51234517991543 1166.6388098150492 54756.874065935612 14767.739405244589 11593.291332677007 86113.285900190473 9542.472613632679 1133.8009148389101 9670.6116833239794
leaf_count=88261 14961 46978 34234 45623 122539 29577 129129 5194 3310 4217 99044 173877 95135 38454 21355 149478 76786 18190 47040 139139 116758 210 4029 138229 45528 36367 252754 21208 2118 27508
internal_value=0.0476794 0.0392996 0.0290314 0.057838 0.0320551 0.0444534 0.0429041 0.0456954 0.0593183 0.0791048 0.0545358 0.0639054 0.0440755 0.0259719 0.041214 0.0575357 0.054505 0.0716746 0.0284444 0.0248852 0.0338447 0.0116473 0.0510753 0.0493617 0.0409085 0.030733 0.0461093 0.05757 0.0475623 0.0512565
internal_weight=707242 387552 129512 319690 110322 258040 230781 176422 18748.7 6987.72 207020 112670 157673 66292.1 44030.4 131043 88186.8 33702.8 57167 43755.1 54359 19189.6 3305.03 75976.8 21220 44328.8 127349 27259.4 11761 10804.4
internal_count=2027230 1265514 491232 761716 402761 774282 706096 523394 46376 13440 524026 237690 477018 258867 143894 325308 226264 63813 220413 173373 182702 88471 9223 198718 60489 153125 381883 68186 32936 29626
is_linear=0
shrinkage=0.05


Tree=11
num_leaves=31
num_cat=0
split_feature=18 18 18 49 48 48 48 49 9 48 46 50 23 2 6 13 48 50 48 48 18 48 46 4 48 49 46 53 10 50
split_gain=21123.1 6470.59 2870.57 2398.8 2316.88 3218.59 1831.94 1824.79 1779.76 1429.64 1372.48 1319.85 1287.24 1433.41 1271.87 1196.7 1186.98 1254.28 1098.42 3087.02 1037.07 981.985 886.584 857.825 845.414 995.907 988.524 820.371 798.616 786.897
threshold=0.17011462408313707 0.083719135118064419 0.29150918806298115 18190.359999999961 70.500000000000014 17.500000000000004 25.500000000000004 17888.154999999915 -0.020519351882920752 90.500000000000014 86390.248999999967 22.236505013002311 26.048499446719845 -0.094536501203180176 -0.035253445533067744 0.2138784461152882 6.5000000000000009 1.6679966834048081 25.500000000000004 18.500000000000004 0.049626828281930505 4.5000000000000009 260312.69000000061 0.1426626752374042 12.500000000000002 49566.925000000054 5688.5299999999825 1.0000000180025095e-35 -0.085934792966042936 -8.4897819150980851
decision_type=2 2 2 2 2 2 2 2 2 2 2 2 2 2 2 2 2 2 2 2 2 2 2 2 2 2 2 2 2 2
left_child=1 7 12 8 5 10 -7 20 -3 -6 11 24 13 -2 28 16 17 29 19 -9 27 -16 -8 -11 25 -5 -26 -1 -4 -10
right_child=2 3 14 4 9 6 22 18 15 23 -12 -13 -14 -15 21 -17 -18 -19 -20 -21 -22 -23 -24 -25 26 -27 -28 -29 -30 -31
leaf_value=0.00061615396955742949 0.054865452824570532 0.046815070545160847 0.079740579510788334 0.045724692733880801 -0.0010318819805132712 0.099101597727994345 0.067443649345528087 0.033990151124745856 0.0079322039952434767 0.037954000261271832 -0.0011396515205357608 -0.0057603767685925223 0.051616308502790045 0.036723956853454053 0.052075796295689071 0.048207425690409304 0.018264273421915691 0.024546312430874379 0.025785406735926816 0.098545641903835857 0.021731669079027637 0.061863897138970773 0.015101143371808011 0.059378340153908776 0.11225864050676151 0.078645248581217228 0.044773207670123716 0.093418566542387727 0.062465480144510845 0.037564936287940526
leaf_weight=8692.3951536267996 15945.817537799478 34365.15411414206 9003.1095081716776 25340.721075579524 2164.4449675381184 5377.2326755225658 4503.6987008750439 11280.902423247695 2293.9343682527542 37610.290894657373 1420.1450171172619 1058.14337849617 164984.51587945223 34330.829885214567 65030.343199446797 13862.032932862639 12752.735526964068 26130.311547502875 18299.586812391877 2215.5960119068623 47257.830385252833 42286.208752855659 986.14699000120163 5334.9768042713404 1172.3886863738298 2526.3711039274931 1010.1997146308422 244.84747071564198 26041.362687394023 95893.926272988319
leaf_count=44291 36736 92773 13393 70617 7798 6509 9782 38966 8669 113704 5268 4054 408825 101953 147661 37930 46253 90285 67223 3402 191449 87404 3068 13173 1679 5793 2616 306 52715 312935
internal_value=0.0445074 0.0359894 0.0531249 0.03978 0.0465517 0.0547998 0.0783587 0.024194 0.0365456 0.0386172 0.0469292 0.0491236 0.0494819 0.0424777 0.0586333 0.0342074 0.0327915 0.0342818 0.0337664 0.0445876 0.0187778 0.0559326 0.0580413 0.0406155 0.0510563 0.0487092 0.0810234 0.0031586 0.0669035 0.0368726
internal_weight=719416 361794 357622 273803 88504.8 43395 10867.1 87991.2 185298 45109.7 32528 31107.8 215261 50276.6 142361 150933 137071 124318 31796.1 13496.5 56195.1 107317 5489.85 42945.3 30049.7 27867.1 2182.59 8937.24 35044.5 98187.9
internal_count=2027230 1178543 848687 832906 244061 109386 19359 345637 588845 134675 90027 84759 547514 138689 301173 496072 458142 411889 109591 42368 236046 235065 12850 126877 80705 76410 4295 44597 66108 321604
is_linear=0
shrinkage=0.05


Tree=12
num_leaves=31
num_cat=0
split_feature=18 18 18 49 9 14 48 10 3 16 8 9 49 47 20 3 10 14 4 48 47 47 48 48 9 48 47 48 4 48
split_gain=18899.7 5522.52 3253.53 2543.49 1802.71 1782.11 1560.3 1365.89 1301.03 1646.14 1176 1060.05 1056.31 1190.66 997.906 984.395 909.169 821.469 895.947 813.487 811.112 808.511 788.911 1955.34 759.823 758.471 756.806 738.96 728.093 709.348
threshold=0.12199060444619719 0.23670382632889739 0.057683654913903364 13570.08999999994 -0.03503895623768815 35.714282467532811 4.5000000000000009 -0.12610717821319836 -0.10236502626483478 0.046453315534256481 1.070017646268637 0.082287565865180837 18190.359999999961 -4189.0334999999986 0.85610729476772629 -0.15387877162696753 -0.0090231731913870111 26.829266613127214 -0.20746456877796596 1.5000000000000002 411.54500000000002 -3948.2864999999988 25.500000000000004 13.500000000000002 0.013026436013789945 4.5000000000000009 -8087.612999999993 8.5000000000000018 -0.13839807337610041 -6.4999999999999991
decision_type=2 2 2 2 2 2 2 2 2 2 2 2 2 2 2 2 2 2 2 2 2 2 2 2 2 2 2 2 2 2
left_child=2 4 24 6 20 15 8 25 -4 14 28 17 16 26 -10 -6 -7 -9 -19 -20 29 -15 23 -12 -1 -3 -14 -27 -5 -2
right_child=1 7 3 10 5 12 -8 11 9 -11 22 -13 13 21 -16 -17 -18 18 19 -21 -22 -23 -24 -25 -26 27 -28 -29 -30 -31
leaf_value=0.0090999032204368297 0.10253104483750031 0.057561484882397568 0.046759033303388306 0.054047091995576106 0.049748621647817209 0.04617685603053559 0.011483884727181669 0.043266194206157363 0.014597394991276227 0.037666651014849103 0.044055510303106574 0.065428575560458321 0.044989446683942662 0.098670356545014382 0.027527926554153904 0.03088458590986556 0.037715994036391233 0.063429578285235585 0.046524536351681502 0.05434445210553665 0.065123234261729682 0.05074629638239047 0.037234055963418257 0.084449754349272363 0.034482375721346346 0.091562219354260413 0.020543445383877628 0.062107705784496994 0.031718989885861359 0.045967244030922311
leaf_weight=22071.893694058061 572.58201549947262 15696.765405595303 9396.6373211741447 3995.5513579547405 8002.4320775419474 49695.664839178324 14466.402122765779 32131.763326957822 23129.553856506944 26764.783078297973 12598.369489431381 12759.629824221134 7530.8050284981728 894.34276549518108 42043.157672196627 50929.20403572917 87929.492083400488 15572.249800175428 61426.021368399262 72522.166034579277 10805.143252536654 55158.401886880398 13102.307744532824 3930.5629817694426 3402.960846632719 4050.380061969161 5462.4054049700499 4489.8322351127863 42351.350248321891 17332.101066246629
leaf_count=100004 854 29505 27368 10393 19946 132110 56661 76382 90924 85098 36401 23154 19369 1451 151458 159762 251192 30604 145737 158678 21033 132644 39339 6014 12725 4823 16343 8197 136815 42246
internal_value=0.0416392 0.0468742 0.0292789 0.031509 0.0424026 0.041116 0.0268448 0.0528932 0.0290377 0.0272265 0.0386177 0.0514979 0.0433031 0.0483497 0.0229389 0.0334462 0.0407712 0.0505194 0.0520781 0.0507584 0.0543048 0.0515109 0.0463975 0.0536612 0.0124905 0.0640857 0.0347122 0.0760771 0.0336439 0.0477761
internal_weight=730215 512961 217254 191779 294313 265603 115801 218649 101334 91937.5 75978.1 194412 206671 69046 65172.7 58931.6 137625 181652 149520 133948 28709.8 56052.7 29631.2 16528.9 25474.9 24237 12993.2 8540.21 46346.9 17904.7
internal_count=2027230 1274030 753200 640471 796950 732817 411509 477080 354848 327480 228962 434555 553109 169807 242382 179708 383302 411401 335019 304415 64133 134095 81754 42415 112729 42525 35712 13020 147208 43100
is_linear=0
shrinkage=0.05


Tree=13
num_leaves=31
num_cat=0
split_feature=18 18 46 18 23 0 46 32 16 3 9 32 10 14 41 9 8 17 46 26 0 23 8 3 18 9 46 46 14 46
split_gain=16929 5797.72 2098.65 1947.47 1678.88 1464.99 1299.9 1211.28 1151.47 1603.44 1142.97 1037.25 1034.44 1099.75 928.498 880.21 833.532 825.338 758.786 741.218 704.653 720.429 699.572 655.927 648.92 622.927 621.04 578.661 783.425 859.932
threshold=0.1837693236016408 0.10172362539520005 2834.3659999999923 0.36045952421670052 26.848479763528225 -0.015718204189665571 3124.601000000001 -846.69800000000089 0.046453315534256481 -0.091749065859218978 0.016484182484182489 -802.49500000000683 -0.046014984526847318 32.153096136260778 0.24645848533323508 -0.010752688172043055 0.89823798905597108 -0.041592253704538791 1080.6929999999936 0.016188564589937674 -0.04240306503738394 22.130877707924558 1.0928814466458776 0.11353418796835847 0.049626828281930505 0.066254183055951668 3175.9800000000164 2834.3659999999923 71.217616093857842 1731.8520000000021
decision_type=2 2 2 2 2 2 2 2 2 2 2 2 2 2 2 2 2 2 2 2 2 2 2 2 2 2 2 2 2 2
left_child=1 2 8 7 11 -6 17 20 9 -1 15 -3 -9 -14 -5 -4 -11 -7 -19 -13 -2 -22 23 -8 -17 -16 -24 28 29 -15
right_child=3 4 10 14 5 6 22 12 -10 16 -12 19 13 27 25 24 -18 18 -20 -21 21 -23 26 -25 -26 -27 -28 -29 -30 -31
leaf_value=0.037673303268363149 0.049704804920267714 0.018850775786666586 0.040157727307824416 0.051709444936812468 0.045813226262276636 0.043667087023768592 0.034851331835271462 0.054976730604251449 0.029757364575622492 0.0075821048787513756 0.046859662314109075 0.024298043545360921 0.033727391093762209 0.049975992199797557 0.061526279348158255 0.0068963027190142388 0.019295750486337498 0.034274735413249734 0.024345962760740299 0.041002597844479252 0.028655657847983948 0.040830930365731308 0.10579127365062696 0.056043587193636363 0.027124658113274903 0.091882490889760471 0.047256859495632374 0.051923810409107707 0.034384984095688791 0.03235197971249653
leaf_weight=7844.1013263463974 15254.138914301991 18336.751761630177 12189.882728800178 75900.781477063894 53011.423363029957 14657.111300051212 30410.31588280201 36552.988352417946 21078.44807446003 29298.885597020388 10210.44951851666 11200.297168582678 17329.81868301332 45389.161765381694 10304.648976475 4507.9880775213242 31531.942970573902 55264.134342849255 29522.424836456776 16312.586079329252 16263.397197782993 48037.136649727821 461.50914080440998 4149.4589600265026 32897.485761836171 2021.5131607055664 25002.358353763819 41673.822207629681 15073.95972789824 8166.7672121077776
leaf_count=25049 32239 60379 36891 154609 133323 40916 85657 76807 73230 124183 26701 37013 47848 107044 18391 19564 123688 166143 94518 46585 46077 117911 775 9300 109237 2044 60088 90399 38916 21705
internal_value=0.0390275 0.0322043 0.0243698 0.0474112 0.03674 0.0386124 0.0362187 0.0451071 0.019535 0.0163974 0.0316257 0.0280627 0.0475606 0.0454367 0.0537765 0.0284894 0.0136539 0.0327115 0.0308176 0.0342023 0.0400434 0.0377515 0.0420292 0.0373958 0.0246868 0.0665048 0.0483177 0.0472764 0.0444544 0.0472885
internal_weight=739856 407888 149559 331968 258328 212479 159467 243741 89753.4 68674.9 59805.8 45849.6 164187 127634 88226.9 49595.4 60830.8 99443.7 84786.6 27512.9 79554.7 64300.5 60023.6 34559.8 37405.5 12326.2 25463.9 110304 68629.9 53555.9
internal_count=2027230 1273240 538543 753990 734697 590720 457397 578946 346150 272920 192393 143977 382719 305912 175044 165692 247871 301577 260661 83598 196227 163988 155820 94957 128801 20435 60863 258064 167665 128749
is_linear=0
shrinkage=0.05


Tree=14
num_leaves=31
num_cat=0
split_feature=18 18 47 48 48 2 14 47 18 14 0 39 12 46 48 48 46 0 4 47 32 8 22 47 48 1 8 0 47 32
split_gain=15120.4 5164.11 1902.1 1934.42 2908.92 1873.98 2071.56 1770.77 1559.76 1192.58 1172.43 1162.84 1143.09 1061.1 1176.02 983.492 1062.75 900.064 966.003 893.261 873.483 814.924 805.853 797.016 773.403 929.654 769.43 740.334 728.519 727.534
threshold=0.18495652808996779 0.097379043030700566 2716.6715000000008 40.500000000000007 19.500000000000004 -0.12245523777499616 30.841117460040724 293.01800000000003 0.049626828281930505 31.6239278398719 -0.033313533090601082 0.45518176087490675 -0.033294380562203178 -3382.5759999999768 4.5000000000000009 106.50000000000001 4389.70099999999 -0.018710393487303242 0.073016105479450713 4366.2440000000015 -983.90299999998524 0.93494118372304913 91.535939387451563 32584.618000000002 1.5000000000000002 -0.0090701413005074265 1.3438250410107802 -0.015718204189665571 20088.501500000006 -156.08600000001022
decision_type=2 2 2 2 2 2 2 2 2 2 2 2 2 2 2 2 2 2 2 2 2 2 2 2 2 2 2 2 2 2
left_child=1 2 8 4 19 -2 29 9 22 -3 -9 20 13 -12 -15 16 -16 -10 21 26 -8 -19 -1 24 25 -22 -4 -11 -5 -7
right_child=5 7 3 28 -6 6 11 10 17 27 12 -13 -14 14 15 -17 -18 18 -20 -21 23 -23 -24 -25 -26 -27 -28 -29 -30 -31
leaf_value=0.0013885582684942648 0.054775824999114056 0.020125471858517513 0.030881347690570382 0.018742311376291839 0.10268364203036734 0.030709246916561475 0.040136254135974984 0.054002930489696122 0.033401642396897885 0.038762673555364301 0.060360712468386618 0.078138362123412797 0.041156372785519493 0.020029218748787249 0.026272929558388038 0.023076075769122382 0.066400170404070549 0.013642374832564658 0.034711232325379919 -0.00047407105320124686 0.051815506180672689 0.023746062012193467 0.09875456809549038 0.00050510950289696062 0.050176668395571777 0.039989068392212834 0.0814834501034611 0.030498587988854922 0.051797990200367544 0.046732839093475316
leaf_weight=12092.335114896297 39702.374843120575 22259.986171364784 2160.181846126914 9458.4214286655188 2389.7284605354071 38781.018061816692 73447.545764252543 11688.96140012145 14666.461786836386 36080.660816937685 2655.6040405631065 2626.6161656826735 65866.647580757737 20081.420982256532 2600.8781033158302 5171.3573015481234 4513.3789835423231 43959.282979816198 9993.5769184231758 1296.7502849549055 23345.853970691562 36550.811722829938 216.31221900880337 930.03720383346081 87555.192889288068 57653.208889439702 1151.7707971334457 108885.72558753192 2023.3937077671289 8667.0839339792728
leaf_count=57869 71368 72077 7327 32624 2006 103314 171354 24567 46142 94470 6794 3442 173490 64669 8115 15585 9085 170779 30676 4829 50262 130639 213 2825 186474 137079 2643 321001 5485 20027
internal_value=0.0366374 0.0302801 0.022286 0.0371971 0.0579174 0.0445817 0.0432004 0.0341645 0.0199404 0.0309008 0.0390123 0.0450484 0.0372755 0.0299768 0.0274839 0.0396689 0.0517302 0.0219114 0.0200493 0.034705 0.0446907 0.0182294 0.00309967 0.0466643 0.046919 0.0433977 0.0484788 0.0325554 0.0245676 0.0336362
internal_weight=748473 415764 135959 18480.2 6998.43 332709 293007 279805 117479 167226 112578 245558 100889 35022.6 32367 12285.6 7114.26 105170 90503.7 4608.7 242932 80510.1 12308.6 169484 168554 80999.1 3311.95 144966 11481.8 47448.1
internal_count=2027230 1281085 491232 54914 16805 746145 674777 789853 436318 487548 302305 551436 277738 104248 97454 32785 17200 378236 332094 14799 547994 301418 58082 376640 373815 187341 9970 415471 38109 123341
is_linear=0
shrinkage=0.05


Tree=15
num_leaves=31
num_cat=0
split_feature=0 29 0 29 4 12 46 48 48 50 4 1 17 13 4 48 31 49 48 29 0 29 0 50 50 50 46 23 46 26
split_gain=6112.23 7260.11 3272.03 2518.44 1893.71 1887.8 1949.94 1850.49 3828.81 2656.55 1587.29 1540.57 1288.59 1267.48 1250.64 1315.52 1154.1 1065.61 1053.71 1032.78 1058.95 987.182 911.596 902.621 813.185 837.897 1135 1056.79 1027.11 914.262
threshold=-0.025415038983482515 0.027973152249679559 -0.0070884498023825451 0.0041973477118292255 0.081529039030056719 -0.1818181818181818 2834.3659999999923 48.500000000000007 12.500000000000002 1.9718686761812918 -0.14050107933862618 -0.10888734763484557 0.044065112056516274 0.50372472695465575 0.16250984987967856 58.500000000000007 -931.73399999999663 5121.7999999998729 5.5000000000000009 0.0082203707476334893 -0.0003036285338359756 0.080112473225365313 -0.014849630080824015 1.1125386162751247 22.236505013002311 5.8399564268371327 3001.2869999999998 70.296976727346106 3175.9800000000164 0.016788716111592886
decision_type=2 2 2 2 2 2 2 2 2 2 2 2 2 2 2 2 2 2 2 2 2 2 2 2 2 2 2 2 2 2
left_child=11 2 3 12 10 21 13 8 24 23 -4 -1 22 17 -9 -16 -13 -7 -19 -12 -21 -3 -2 -10 25 26 27 -8 -27 -28
right_child=1 5 4 -5 -6 6 7 14 9 -11 19 16 -14 -15 15 -17 -18 18 -20 20 -22 -23 -24 -25 -26 28 29 -29 -30 -31
leaf_value=0.056000783077729023 0.029128794379860403 0.044417542101344368 0.031460238729184242 0.040618037095263737 0.035048335321393696 0.034781234060181736 0.038556588741566686 0.028225776654369556 0.065725304575240992 -0.013483003997587124 0.0084892196860721896 0.036661435218033556 0.040611781723713866 0.046433982846452143 -0.0071758569472402311 0.046958202951194621 0.046512620250677851 0.029704409070340911 0.012207084677814277 0.028549526084011297 0.015974982449353876 0.069810890002651213 0.018304892400686109 0.097084728930486475 0.0068298369223812206 0.003876270824018781 0.032756566560943855 0.089011459297101247 0.062280131077194316 0.056264885855262764
leaf_weight=21977.887691766024 46501.986599385738 9825.8430152088404 22327.052888199687 54333.752842545509 22431.428843393922 104109.6342060864 2134.6012383252382 32198.057895764709 15199.14088216424 994.90796728432178 27696.322267785668 59406.962937802076 14910.94143512845 16536.963041529059 1189.4840476661921 19858.827908232808 59515.811331748962 40420.276915311813 10931.32281562686 23743.011798799038 56788.639019802213 6269.3758087903261 33441.591184958816 2702.626089990139 1804.9746580719948 843.41535218060017 34256.067872270942 2019.8585074990988 7006.1553793996572 4703.7850820422173
leaf_count=36840 136476 19962 63462 141277 58778 279131 5470 88163 25713 3254 107399 140946 38843 35318 3560 41814 132799 111524 34884 74299 200296 9176 113600 2457 5417 2552 86850 2971 14232 9767
internal_value=0.0344455 0.032294 0.0267658 0.0320346 0.0216278 0.037631 0.0367269 0.0414817 0.0467274 0.0660401 0.019322 0.0438391 0.0271179 0.0332738 0.0344214 0.043899 0.0415915 0.0318739 0.0259797 0.0168179 0.0196823 0.0543087 0.024601 0.0704596 0.0398114 0.0409795 0.038244 0.0630873 0.0560048 0.0355948
internal_weight=756081 615180 302175 149188 152986 313005 296910 124912 71665.5 18896.7 130555 140901 94854.5 171998 53246.4 21048.3 118923 155461 51351.6 108228 80531.7 16095.2 79943.6 17901.8 52768.9 50963.9 43114.3 4154.46 7849.57 38959.9
internal_count=2027230 1716645 934430 430196 504234 782215 753077 292220 158683 31424 445456 310585 288919 460857 133537 45374 273745 425539 146408 381994 274595 29138 250076 28170 127259 121842 105058 8441 16784 96617
is_linear=0
shrinkage=0.05


Tree=16
num_leaves=31
num_cat=0
split_feature=18 18 46 18 47 50 48 14 47 48 48 3 16 10 12 32 9 32 26 41 46 14 46 48 8 3 4 48 47 46
split_gain=12873.7 4417.16 1717.73 1589.08 1497.92 1630.54 1057.44 1001.08 970.216 1095.35 3188.54 944.084 1181.54 939.44 931.461 920.165 852.964 884.819 774.085 738.307 700.997 698.681 682.941 912.924 639.854 631.898 626.32 618.7 616.988 633.43
threshold=0.18750543300027409 0.10172362539520005 2834.3659999999923 0.32952804462252361 293.01800000000003 8.445670642144977 4.5000000000000009 35.947709128967787 305.3925000000001 48.500000000000007 17.500000000000004 -0.10236502626483478 0.046453315534256481 -0.033653053067025311 -0.045454545454545352 -1645.4474999999918 -0.036057692307692339 -659.23150000000021 0.050783247017418494 0.39248859808613884 -3479.5160000000028 62.234658583507162 1080.6929999999936 8.5000000000000018 0.80509183050253463 -0.13549240305439006 -0.1155208763420809 -5.4999999999999991 18175.584500000004 160418.62199999992
decision_type=2 2 2 2 2 2 2 2 2 2 2 2 2 2 2 2 2 2 2 2 2 2 2 2 2 2 2 2 2 2
left_child=1 2 6 16 7 13 11 25 -4 10 -10 -1 26 20 -15 -5 27 -18 19 -17 -6 24 -20 -24 -9 -3 -13 -2 -16 -30
right_child=3 4 8 15 5 -7 -8 21 9 -11 -12 12 -14 14 28 18 17 -19 22 -21 -22 -23 23 -25 -26 -27 -28 -29 29 -31
leaf_value=0.038368336062181631 0.082022700862470654 0.035688675074128186 0.019929256245682547 0.036854261832570331 0.070832698097546817 0.011057309854091667 0.0023319474122965203 0.027423772704219321 0.030180691996255234 0.023269452102701468 0.085200802730002814 0.024883554768213471 0.027306974869173047 0.023860664608844177 0.035387295195922756 0.044102242489987592 0.031713703788936037 0.038753912396102069 0.045280256201033667 0.082161048452911417 0.041896512080121309 0.023269213841496373 0.07280712256825371 0.033749273366562187 0.035560782945500156 0.017117312492467292 0.010419377284488126 0.044052569061188936 0.088402440784460953 0.042959159804320406
leaf_weight=5202.7185388803482 1118.8052655011415 5416.2156303226948 29863.751057252288 28472.914304077625 2270.9177963137627 6694.9415003955364 12873.88021068275 46505.730960220098 12436.1892863065 16018.833731099963 3340.5628169775009 8899.3702080994844 18459.234164789319 18600.349103853106 53458.092099636793 66222.558133065701 70731.176671758294 120939.6864463836 7406.4353397637606 1299.2866479605436 26718.059034749866 33457.733712539077 7908.9988072812557 1845.1186140924692 50280.120289802551 29680.075942501426 47067.178640171885 26114.689844578505 1097.7245078235865 2543.9242054671049
leaf_count=14898 1567 13811 98709 60982 4353 20784 52909 131502 38284 51482 3918 30971 60489 55252 139638 132555 174307 278767 13552 1271 63774 96127 10101 3746 131780 94973 186883 53198 1000 5647
internal_value=0.0324206 0.026719 0.0199364 0.0398192 0.0304975 0.0349795 0.0156273 0.0274782 0.0264009 0.0324794 0.0418306 0.0177769 0.0163374 0.0365093 0.0335783 0.0446301 0.0373324 0.0361559 0.0472446 0.0448346 0.0441633 0.0294978 0.0567271 0.0654188 0.0316509 0.0199833 0.0127194 0.0456125 0.0367438 0.0566574
internal_weight=762945 430886 154162 332060 276724 111384 92502.4 165340 61659.3 31795.6 15776.8 79628.5 74425.8 104689 75700.1 113155 218904 191671 84682.4 67521.8 28989 130244 17160.6 9754.12 96785.9 35096.3 55966.5 27233.5 57099.7 3641.65
internal_count=2027230 1297184 538543 730046 758641 290448 346150 468193 192393 93684 42202 293241 278343 269664 201537 222207 507839 453074 161225 133826 68127 359409 27399 13847 263282 108784 217854 54765 146285 6647
is_linear=0
shrinkage=0.05


Tree=17
num_leaves=31
num_cat=0
split_feature=18 18 18 46 9 9 48 48 48 46 32 46 47 0 50 50 47 50 41 1 24 23 50 49 47 32 46 49 48 48
split_gain=11681.8 3407.58 2323.68 1780.45 1346.85 1593.7 1058.11 1024.99 3502.87 1354.16 1023.71 917.743 1315 1121.92 927.611 888.079 826.321 821.654 820.147 818.784 811.132 1118.36 762.195 798.79 727.897 724.774 698.821 695.774 795.532 796.316
threshold=0.12830529362677215 0.26789757165257366 0.061207532397103116 2834.3659999999923 -0.019762172499006799 0.030797973246293301 4.5000000000000009 48.500000000000007 18.500000000000004 25942.448000000048 -1645.4474999999918 2834.3659999999923 -4189.0334999999986 -0.0049309191357049245 22.236505013002311 1.8224549488698016 20088.501500000006 -8.4897819150980851 0.39248859808613884 -0.083206125877583012 78.102939840182714 33.497589136222217 22.236505013002311 14264.345000000003 -3948.2864999999988 -318.49900000000412 -2797.6050000000041 5121.7999999998729 2.5000000000000004 10.500000000000002
decision_type=2 2 2 2 2 2 2 2 2 2 2 2 2 2 2 2 2 2 2 2 2 2 2 2 2 2 2 2 2 2
left_child=2 4 -1 6 -2 11 15 8 22 -10 -3 13 -13 -6 24 17 -9 -4 19 -12 21 25 23 -5 -14 -19 -17 28 -15 -30
right_child=1 10 3 7 5 -7 -8 16 9 -11 18 12 14 27 -16 26 -18 20 -20 -21 -22 -23 -24 -25 -26 -27 -28 -29 29 -31
leaf_value=0.0094151118043462254 0.037725969021003204 0.033500866076959984 -0.0033106688104281193 0.1008255191170455 0.031194414021786982 0.03904415727439256 0.0081994728928791605 0.021696343834092347 0.02207251846333768 0.082514986672361276 0.051374434814137282 0.018911249447360445 0.079613119820181821 0.023072531358634598 -0.0094135927150975421 0.06049421410976405 0.049988673658805598 0.010962587655419746 0.078114586605795969 0.040445543998347093 0.014767169302263168 0.030632401528544219 -0.011399504762834597 0.029503645346677654 0.036012628914907724 0.02808325890084656 0.0093222495007473215 0.015483205609372981 0.047452947838102 -0.0032337214901379564
leaf_weight=33301.97874841094 76308.519264623523 41417.216699108481 2775.584231749177 396.8925523608923 60500.423638612032 42396.263079062104 16620.370366260409 38253.097682148218 1154.2095616906881 4700.7104536890984 20072.554870694876 13915.058725491166 972.44317263364792 47280.834595829248 1110.3097870349884 694.53356994688511 2767.4931418299675 15232.62480327487 1594.1308714598417 117219.23806205392 18193.143160253763 52963.860027998686 1130.9193420857191 36120.500469222665 61283.652239322662 10403.4566667974 16938.982379510999 26158.208442702889 6162.0263298302889 886.34626264870167
leaf_count=138129 172078 90562 10188 707 157908 96019 60736 115932 3167 4858 32966 38333 1600 133649 3649 1698 6255 53169 1657 240787 61529 161570 4162 102000 145552 33577 58992 78102 14870 2829
internal_value=0.0305536 0.0348521 0.0217178 0.0235942 0.0318836 0.0301733 0.0200059 0.0292753 0.034622 0.0705997 0.0404 0.0284503 0.0328294 0.0260499 0.0358858 0.0216801 0.0236051 0.0235118 0.0424574 0.0420434 0.0242809 0.026483 0.0290268 0.0302788 0.0366937 0.0179104 0.0113378 0.0221829 0.0254086 0.041079
internal_weight=768926 517277 251648 218346 336974 260666 133823 84523.8 43503.2 5854.92 180303 218269 77281.5 140988 63366.4 117202 41020.6 99568.7 138886 137292 96793.1 78599.9 37648.3 36517.4 62256.1 25636.1 17633.5 80487.4 54329.2 7048.37
internal_count=2027230 1210561 816669 678540 844589 672511 441459 237081 114894 8025 365972 576492 189134 387358 150801 380723 122187 320033 275410 273753 309845 248316 106869 102707 147152 86746 60690 229450 151348 17699
is_linear=0
shrinkage=0.05


Tree=18
num_leaves=31
num_cat=0
split_feature=18 18 47 9 9 46 9 1 32 13 0 20 9 47 9 0 18 47 7 47 41 46 47 46 18 14 46 46 47 46
split_gain=10684.1 3899.18 1896.21 1782.62 1621.48 1381.84 1314.94 1369.75 1196.38 1127.54 979.572 1132.46 926.982 906.064 868.746 853.466 758.141 734.491 699.461 657.927 635.294 614.133 595.567 613.685 574.619 565.686 554.475 1426.7 1701.46 2162.53
threshold=0.19678623562202885 0.076589928338018545 3837.6399999999999 -0.02133068659338366 0.018245309189568241 285917.91099999909 0.099451277342044633 -0.083206125877583012 -720.58849999999723 0.059073536211779583 -0.014273703978301409 0.83665483440124866 0.011687268061934321 20088.501500000006 -0.013513513513513429 0.006865277357574918 0.041760944757457445 165.66749999999874 1745.7377414983969 216.42100000000008 0.18257434594786695 -3840.9780000000255 3008.3060000000005 134625.79699999987 0.31687317296407275 26.5060222335125 6008.1609999999882 134625.79699999987 15461.9455 123029.08100000025
decision_type=2 2 2 2 2 2 2 2 2 2 2 2 2 2 2 2 2 2 2 2 2 2 2 2 2 2 2 2 2 2
left_child=1 12 3 19 9 26 7 17 25 10 20 -12 14 -7 -1 -6 -16 -2 -8 -3 -5 -21 -14 -24 -10 -9 -4 28 -28 -30
right_child=6 2 5 4 15 13 18 8 24 -11 11 -13 22 -15 16 -17 -18 -19 -20 21 -22 -23 23 -25 -26 -27 27 -29 29 -31
leaf_value=0.023198188005531126 0.037167569578555104 0.028889056617204853 0.024948227701588329 0.018748261009603254 0.042566165346646347 0.0076671095638761334 0.08388295515844163 0.020838702967352858 0.03445810802149369 0.026719675919468194 0.010700923203054848 0.020601875848384278 0.020084164327280093 0.045176566558926573 -0.0094489990713769734 0.027550720959036303 0.0099939366096480804 0.051121727734238023 0.047252130689434041 0.072039797059261876 0.031370010698293017 0.037593014073098945 0.071374672326196861 0.022207942241996487 0.040696971877272781 0.031251246234123224 0.080556625860433009 0.037404504061417619 -0.022929568743660752 0.085085674449114593
leaf_weight=11109.286234423518 18788.79016931355 39474.429640799761 4232.6299546211958 17966.681245133281 11611.154286593199 5727.7621586769819 1461.5087874978781 15505.096784710884 108172.44199155271 66864.858833014965 47169.102475047112 74488.899964809418 10742.752337768674 2239.4301365315914 5693.5500239878893 51162.705305501819 41994.869304224849 18932.406838685274 12030.911637529731 1387.3966862559319 22397.997907161713 19202.907606408 1280.7671055346727 1258.0872451215982 56020.485209360719 82167.560274913907 4707.8844976276159 18531.770883843303 1059.2936562597752 823.68492263555527
leaf_count=38139 36605 99909 11462 52571 28407 16994 1329 39616 245745 183617 158728 229590 37700 4651 27488 134437 163717 30942 21772 2207 60396 43719 2457 3837 109761 187549 5819 43597 3771 698
internal_value=0.0288225 0.0239827 0.0259617 0.0248246 0.0232093 0.0366776 0.035951 0.0352633 0.0339801 0.0212569 0.0190025 0.0167631 0.013301 0.0182103 0.010606 0.0303281 0.00767263 0.0441712 0.05122 0.0326685 0.025752 0.0399141 0.0252314 0.0470109 0.0365867 0.0295983 0.0416898 0.0445104 0.0644902 0.0243203
internal_weight=774207 461128 389049 351726 291661 37322.5 313079 299587 261866 228888 162023 121658 72079.3 7967.19 58797.7 62773.9 47688.4 37721.2 13492.4 60064.7 40364.7 20590.3 13281.6 2538.85 164193 97672.7 29355.3 25122.6 6590.86 1882.98
internal_count=2027230 1353911 1080573 993581 847746 86992 673319 650218 582671 684902 501285 388318 273338 21645 229344 162844 191205 67547 23101 145835 112967 45926 43994 6294 355506 227165 65347 53885 10288 4469
is_linear=0
shrinkage=0.05


Tree=19
num_leaves=31
num_cat=0
split_feature=18 18 18 46 23 48 26 6 48 48 48 48 16 20 10 46 49 26 49 30 48 50 50 50 49 46 49 48 46 32
split_gain=9703.89 2422.15 2269.27 1322.01 1225.51 1068.44 1016.6 1007.63 942.831 2329.78 1080.31 989.298 866.778 994.931 831.731 831.821 824.179 816.196 750.202 747.308 746.996 733.852 711.624 695.625 679.563 669.822 669.817 828.352 861.655 634.098
threshold=0.14280197943511339 0.29150918806298115 0.074116935483534693 2834.3659999999923 27.122290967360268 4.5000000000000009 0.014770347175816713 -0.035253445533067744 70.500000000000014 16.500000000000004 25.500000000000004 90.500000000000014 0.133005527600736 0.87302169954553721 -0.006773538390011379 2834.3659999999923 17888.154999999915 0.033553082286628795 450146.6500000002 -0.075155704861044989 4.5000000000000009 22.236505013002311 1.9718686761812918 -0.61826899784521527 14264.345000000003 -4329.7250000000104 49566.925000000054 13.500000000000002 3782.0039999999808 -369.68699999997915
decision_type=2 2 2 2 2 2 2 2 2 2 2 2 2 2 2 2 2 2 2 2 2 2 2 2 2 2 2 2 2 2
left_child=2 4 16 5 6 12 -2 17 9 18 22 -10 13 -4 -6 -16 -1 -3 21 -8 -9 24 23 -11 -5 -15 27 -26 -29 -21
right_child=1 7 3 8 14 -7 19 20 11 10 -12 -13 -14 25 15 -17 -18 -19 -20 29 -22 -23 -24 -25 26 -27 -28 28 -30 -31
leaf_value=0.0077507179859287101 0.0125729508338429 0.038056482370908376 0.013476210218380025 0.090618897811818699 0.034679376837508769 0.0081396209595320807 0.038787810157946544 0.031355970741913208 -0.014648272490729034 -0.019915747721255476 0.034108523011757666 0.023359517110638561 0.029987638546716568 0.044281488884921567 0.025653150335944393 0.033224301212113817 0.019389640376043942 0.053235974574216097 -0.017716993504267087 0.020441184008130265 0.039608727109676681 -0.010528609491527603 -0.023204879954212432 0.074546017254979821 0.02477885338789259 0.022008538332810391 0.049895850652095758 -0.025732487586683225 0.099411785979607023 0.032908587850592967
leaf_weight=41378.194264367223 16174.326160028577 22276.090294003487 43604.855212718248 439.99191047251225 93312.878133386374 17786.028850823641 10537.787835836411 69723.410072863102 1789.2722285538912 202.28155046701431 4104.7669686824083 39680.597668945789 23117.035141706467 3569.7026397585869 90842.168452844024 60398.746257990599 24051.245738342404 14699.128524824977 935.1095108538866 34630.075277626514 45191.702673435211 1221.9110147804022 207.54941952228546 5337.9551880806684 33025.785835191607 62062.184229642153 3222.6075412780046 171.82310105860233 689.51302480697632 14456.040693476796
leaf_count=169833 47435 43492 143647 724 209799 60928 20653 147661 6142 670 9517 111460 61663 8941 230338 134341 79772 22616 3312 93960 87404 4419 683 6540 90247 186798 7225 649 781 35580
internal_value=0.0272141 0.0317111 0.0202876 0.0225281 0.0292454 0.0196457 0.0236906 0.0369115 0.0272824 0.0319372 0.0537004 0.0217196 0.0211919 0.0193305 0.0309671 0.0286767 0.0120291 0.0440909 0.026537 0.0267065 0.0346015 0.0276044 0.0676919 0.0710971 0.0288453 0.02322 0.0281128 0.0260413 0.0744475 0.0241129
internal_weight=778841 472242 306598 241169 320352 150140 75798.2 151890 91029.2 49559.3 9852.55 41469.9 132354 109237 244554 151241 65429.4 36975.2 39706.7 59623.9 114915 38771.6 5747.79 5540.24 37549.7 65631.9 37109.7 33887.1 861.336 49086.1
internal_count=2027230 1073279 953951 704346 772106 461977 197628 301173 242369 124767 17410 117602 401049 339386 574478 364679 249605 66108 107357 150193 235065 104045 7893 7210 99626 195739 98902 91677 1430 129540
is_linear=0
shrinkage=0.05


Tree=20
num_leaves=31
num_cat=0
split_feature=9 9 4 4 0 47 49 48 50 1 7 39 10 46 8 46 50 47 32 46 48 48 46 47 50 16 9 47 50 50
split_gain=4478 5967.84 2607.89 3535.9 1992.39 1863.54 1426.13 1404.81 1169.02 1111.58 1093.59 1087.37 1092.9 967.642 855.139 816.033 1114.18 808.639 778.987 689.903 837.095 2292.68 734.605 672.81 660.067 658.751 665.591 648.437 624.639 653.71
threshold=-0.024999999999999852 0.030797973246293301 -0.17096472669734933 0.077199688497075827 -0.014849630080824015 18175.584500000004 18995.589999999855 6.5000000000000009 35.920070040081505 -0.10888734763484557 2348709.4223817843 0.37047075780984878 0.0010655304036640836 340684.49399999977 0.86000711720715461 -4329.7250000000104 -2.6532725257524801 32584.618000000002 -862.94799999999805 2834.3659999999923 23.500000000000004 12.500000000000002 1080.6929999999936 -4189.0334999999986 2.0590744847801701 -0.44293215534264602 0.010136358298921679 14368.043500000005 -8.4897819150980851 5.314536672745418
decision_type=2 2 2 2 2 2 2 2 2 2 2 2 2 2 2 2 2 2 2 2 2 2 2 2 2 2 2 2 2 2
left_child=9 2 6 4 18 8 7 -2 10 -1 14 12 -3 24 25 -11 -17 27 -4 22 21 -21 -16 -8 -7 -6 -27 -14 -20 -30
right_child=1 11 3 -5 5 13 23 -9 -10 15 -12 -13 17 -15 19 16 -18 -19 28 20 -22 -23 -24 -25 -26 26 -28 -29 29 -31
leaf_value=0.046894955761554377 0.030464948699959027 0.044076974694671367 0.018607428847951444 0.027945711696505539 0.022885887603349957 0.063108860139537565 0.0092825759956893222 0.0041484652380297995 -0.01953292548365794 0.051980701743088109 0.0044866131795686633 0.060498718104073923 0.030732072884684988 0.0034141333468897771 0.020520494040079287 0.014267208831759401 0.033156612367605996 -0.028014754570485492 -0.0157858591574223 0.023368566797651882 0.016564290520126753 0.060091035612214586 0.0096896751170062363 0.050861528043873429 -0.026882020196589109 0.011037201120350178 0.020260639921175525 0.052794383019416982 0.031018828694232649 0.0053901476725415724
leaf_weight=15472.402737274766 52164.835229188204 22051.067344561219 28085.705235734582 127303.87434148788 19182.385426938534 3686.2204737961292 1071.0346397608519 5617.1636221557856 2326.1928223669529 5170.7717464566231 19002.642933249474 4150.4421962797642 67464.50602337718 1018.86046461761 47934.596715167165 8489.6600410938263 97024.019231960177 569.16677862405777 767.27908061444759 22405.401081085205 18366.531755283475 5245.3535524010658 23248.817053064704 10622.734594076872 215.68829862773418 96249.416384994984 24548.345499053597 3503.4208368659019 47368.676569610834 2626.0669393092394
leaf_count=25157 123326 43118 75513 303877 51549 6336 2841 16843 8785 9695 66606 6072 151104 3101 149349 22044 213912 1861 2673 61697 54452 9427 77717 19462 797 315025 69849 5652 121489 7901
internal_value=0.025714 0.0240568 0.022064 0.0207776 0.0182587 0.016303 0.0311293 0.0279066 0.015764 0.0343419 0.0160613 0.0354556 0.034345 0.0468044 0.0169166 0.0325872 0.0316368 0.0313451 0.0252888 0.0200675 0.0248387 0.0303348 0.0169831 0.0470533 0.0581344 0.0142784 0.0129116 0.0318212 0.0289855 0.0296726
internal_weight=782953 656796 559058 489582 362278 283430 69475.8 57782 278510 126157 276183 97738.6 93588.2 4920.77 257181 110684 105514 71537.1 78847.7 117201 46017.3 27650.8 71183.4 11693.8 3901.91 139980 120798 70967.9 50762 49994.7
internal_count=2027230 1756422 1548615 1386143 1082266 874690 162472 140169 864456 270808 855671 207807 201735 10234 789065 245651 235956 158617 207576 352642 125576 71124 227066 22303 7133 436423 384874 156756 132063 129390
is_linear=0
shrinkage=0.05


Tree=21
num_leaves=31
num_cat=0
split_feature=18 18 5 14 46 4 46 48 3 9 14 48 46 14 48 4 16 47 48 48 46 48 47 48 48 47 46 46 48 46
split_gain=8559.57 3144.35 1354.1 1559.86 1264 1167.8 1574.37 1363.96 1104.78 1098.3 1042.89 956.19 1690.56 1815.65 862.787 804.641 1073.99 784.535 933.818 2663.99 765.607 1159.03 1551.39 1432.9 902.151 760.202 745.69 883.875 723.012 715.008
threshold=0.19823513208492186 0.10469545213139764 -0.0087625736040553553 62.234658583507162 2834.3659999999923 -0.20746456877796596 3687.3699999999958 5.5000000000000009 -0.13031144249202811 0.099451277342044633 39.999996202299208 4.5000000000000009 854.31799999997031 53.387532862567134 4.5000000000000009 -0.1155208763420809 0.046453315534256481 305.3925000000001 48.500000000000007 17.500000000000004 2597.9880000000007 48.500000000000007 25441.963500000002 18.500000000000004 54.500000000000007 -2075.7899999999995 141782.86700000023 160418.62199999992 10.500000000000002 165223.95499999973
decision_type=2 2 2 2 2 2 2 2 2 2 2 2 2 2 2 2 2 2 2 2 2 2 2 2 2 2 2 2 2 2
left_child=1 4 8 -4 14 6 7 25 -3 11 -10 -7 13 28 15 -1 -17 -6 19 -19 -14 22 23 -22 -23 -2 -26 -28 -13 -29
right_child=5 2 3 -5 17 9 -8 -9 10 -11 -12 12 20 -15 -16 16 -18 18 -20 -21 21 24 -24 -25 26 -27 27 29 -30 -31
leaf_value=0.023383773716499676 0.058834870253921992 0.029311115448263543 0.028853967713963292 0.018963999285158028 0.014406699810715275 0.026386265654700088 0.05728848835532771 0.0037407652930705397 0.011606402984361046 0.043838709933501328 0.022044591117122841 0.091565239209336624 0.018903385835139987 0.017932034356461634 -0.00039918140580703557 0.0070018944831874569 0.02046661324378489 0.023515368174606553 0.017063104798808366 0.072336566465142235 0.034757357201135632 -0.02166523353005638 -0.022481855055493102 0.058459160318091646 0.050126992600795367 0.034196424105100591 0.0051230370216987136 0.059640621004459299 -0.023404321789727081 0.027975083948759829
leaf_weight=15312.126753568649 3456.5619566440582 20939.583189964294 128109.12911100686 57882.806470215321 33103.873683467507 161486.38949868083 8570.9373666346073 3474.4557653814554 49684.334733858705 12564.094530001283 46162.001998826861 2776.3728098720312 10938.969916120172 1480.6677549630404 13996.989792346954 52750.288485318422 20590.565849989653 13794.668604895473 17674.98165141046 3503.9324526190758 18377.506710186601 892.15653364360332 935.10534045100212 9764.9295832365751 3859.0308554917574 33209.30230152607 4103.9285674989223 1877.5432670712471 143.83183190226555 35288.618212252855
leaf_count=47456 5074 49735 316709 153174 104560 363485 12497 8916 149590 21753 122573 3299 26326 3472 55785 199523 64308 40489 54270 4173 37510 2629 2883 15210 6995 65002 10474 3035 445 75880
internal_value=0.0243086 0.0200669 0.0231265 0.0257761 0.0146409 0.0307213 0.0378356 0.0336819 0.0189067 0.029411 0.0166337 0.0286915 0.0328077 0.0630339 0.0111373 0.0129587 0.0107821 0.0199237 0.0251458 0.0334044 0.0312616 0.0330617 0.0408762 0.0429815 0.0281243 0.0365191 0.0291086 0.0271433 0.0859025 0.0295747
internal_weight=786706 473505 302778 185992 170727 313200 48711.3 40140.3 116786 264489 95846.3 251925 90438.7 4400.87 102650 88653 73340.9 68077.5 34973.6 17298.6 86037.8 75098.8 29077.5 28142.4 46021.3 36665.9 45129.1 41270.1 2920.2 37166.2
internal_count=2027230 1362345 791781 469883 570564 664885 91489 78992 321898 573396 272163 551643 188158 7216 367072 311287 263831 203492 98932 44662 180942 154616 55603 52720 99013 70076 96384 89389 3744 78915
is_linear=0
shrinkage=0.05


Tree=22
num_leaves=31
num_cat=0
split_feature=18 18 18 14 14 32 1 50 23 2 20 9 6 26 9 41 18 48 49 46 14 48 48 46 9 8 46 46 50 50
split_gain=7789.57 2338.8 1440.15 1346.3 1184.7 1124.77 975.409 911.77 902.382 1053.91 888.043 759.717 745.337 782.159 717.836 712.408 676.303 661.083 683.875 1383.78 1369.29 1042.4 1189.68 916.434 665.779 635.47 594.337 569.085 551.64 633.697
threshold=0.17011462408313707 0.076589928338018545 0.32108018822739864 38.337491048800267 62.234658583507162 -802.49500000000683 -0.02632954364922024 -0.3273658850697157 23.994041478890111 -0.10616506693376114 0.78561648546004303 0.011687268061934321 -0.022746098796246336 0.046474843903152936 -0.016753782905852662 0.18193639279878862 0.041760944757457445 1.5000000000000002 5121.7999999998729 2834.3659999999923 56.565648566473932 4.5000000000000009 10.500000000000002 279431.48100000049 -0.037115364918892273 1.312671977241836 1080.6929999999936 2396.0520000000138 -0.12013858848402766 8.0463767669035224
decision_type=2 2 2 2 2 2 2 2 2 2 2 2 2 2 2 2 2 2 2 2 2 2 2 2 2 2 2 2 2 2
left_child=1 11 8 5 10 -3 7 27 9 -2 -5 14 13 -4 -1 -15 -16 24 20 -20 21 -19 -23 28 -10 -6 -17 -7 -21 -30
right_child=2 3 12 4 25 6 -8 -9 17 -11 -12 -13 -14 15 16 26 -18 18 19 23 -22 22 -24 -25 -26 -27 -28 -29 29 -31
leaf_value=0.021422096834704349 0.031803403164465581 0.0052084785742237119 0.033146970479455244 0.017956973190977013 0.011183061502309006 0.0078766095475877995 0.011502999498614179 0.032411714957657982 0.035013506531685029 0.016130221528365324 0.025689120837072685 0.020717303182051276 0.029810158909154345 0.032148561994856717 -0.010337140232961664 0.039096368650002815 0.0075352787576258287 0.039429497556274035 0.017562175524667874 0.02585478130027263 0.022151423457708666 0.081117700570570633 -0.008422775055209563 0.018537741298184543 0.022913330032089774 0.021484280515456651 0.066206808585353563 0.047010783463806965 0.038600466042101302 0.010130434337105605
leaf_weight=8170.4122971892357 14578.293010160327 24325.884413316846 26429.490032985806 50655.845355018973 34772.228514194489 7872.9127120226622 26093.865385070443 16127.376676902175 13078.513871952891 40586.87215282023 139114.71629084647 13630.572160109878 82779.303615927696 4642.6811203211546 5980.9402957856655 3170.9075802862644 46028.846512123942 9659.1360929310322 22914.221353366971 14296.419059574604 8306.1159895807505 3224.1485513150692 419.19729480147362 10943.057203382254 86923.034518808126 26290.757889926434 5577.692123323679 1053.2582097351551 40212.957762524486 2054.4001782387495
leaf_count=26331 29145 76194 50828 144078 102743 22876 83735 39451 25932 107198 365377 43994 166711 8360 28370 5334 174643 19955 56739 31482 19530 4279 1212 25428 206208 68422 6457 2329 78789 5100
internal_value=0.0229969 0.0180962 0.0280274 0.0199143 0.021676 0.0140593 0.0182688 0.0253155 0.0259687 0.0202721 0.0236252 0.0100586 0.0325141 0.038135 0.0076444 0.0479796 0.00548001 0.0274509 0.0300886 0.0281789 0.0380798 0.0480256 0.0708153 0.0317826 0.0244958 0.0156183 0.0563807 0.0124943 0.034345 0.0372167
internal_weight=789914 400118 389796 326307 250834 75473.3 51147.4 25053.5 267196 55165.2 189771 73810.8 122600 39820.8 60180.2 13391.3 52009.8 212031 112030 90421.1 21608.6 13302.5 3643.35 67506.8 100002 61063 8748.6 8926.17 56563.8 42267.4
internal_count=2027230 1178543 848687 905205 680620 224585 148391 64656 610997 136343 509455 273338 237690 70979 229344 20151 203013 474654 242514 197538 44976 25446 5491 140799 232140 171165 11791 25205 115371 83889
is_linear=0
shrinkage=0.05


Tree=23
num_leaves=31
num_cat=0
split_feature=18 18 49 47 50 0 47 49 49 12 49 49 6 47 50 23 49 47 47 47 41 47 47 47 49 49 32 49 10 50
split_gain=7181.01 2681.12 1347.3 1301.58 1570.83 1116.53 1249.37 1090.51 2087.93 1049.8 1067.08 1030.49 1015.51 944.04 857.625 814.301 809.76 783.503 782.756 1171.38 747.361 735.828 1803.95 731.555 1558.34 703.022 694.901 751.705 675.602 670.982
threshold=0.11294469114636627 0.23670382632889739 17888.154999999915 293.01800000000003 8.445670642144977 -0.039905835530554816 457.97950000000009 692432.58000000205 49566.925000000054 -0.053864822238243119 18190.359999999961 893781.98000000056 -0.047989530966613729 20088.501500000006 1.6679966834048081 22.130877707924558 -17397.580000000013 -5956.1275000000014 -16.293499999999991 1.0000000180025095e-35 0.28125052877144169 -3948.2864999999988 -4189.0334999999986 3008.3060000000005 18995.589999999855 29701.799999999934 -1686.2794999999953 2567.7200000000598 -0.10933484411284937 35.920070040081505
decision_type=2 2 2 2 2 2 2 2 2 2 2 2 2 2 2 2 2 2 2 2 2 2 2 2 2 2 2 2 2 2
left_child=2 3 14 15 5 -5 16 8 21 10 -8 -12 -3 -9 18 -2 -7 -10 -1 20 -20 22 -4 -23 -25 -26 -14 -28 -29 -19
right_child=1 12 7 4 -6 6 9 13 17 -11 11 -13 26 -15 -16 -17 -18 29 19 -21 -22 23 -24 24 25 -27 27 28 -30 -31
leaf_value=0.0087227261994182442 0.011188351031904169 0.036858900356661735 -0.0012081372866580963 0.040341131272177602 0.0047500603723194213 0.094929953207192053 0.009353480977793845 0.011075100697378028 -0.03495331095184899 0.026701462771609088 0.041062947432323617 0.0097870399137251207 0.02203379570717642 0.039068348342059772 0.002368152857427969 0.020525254624512615 0.036610595384422705 0.050210816765096658 0.028013119280042603 0.013802045276116748 0.069496666879488897 0.012832399607499802 0.14567523903456472 0.13114863511438876 -0.0049009864557641447 0.050461399072610671 0.024314560681985307 0.043323014246547185 0.030156409576747173 -0.037640123479916382
leaf_weight=58265.281427234411 26701.885266527534 32996.350702017546 473.93430063128471 13746.064761310816 8561.1503367275 622.10266837477684 21235.300652235746 35200.556039705873 292.94804373383522 74391.87790581584 6585.6047555506229 4388.8545617759228 46464.684971123934 3293.5873793959618 25156.079365566373 186121.78751274943 13769.187630414963 9043.3675674498081 6975.0827041715384 40290.166431039572 1285.8781087845564 19986.896439880133 373.98711313307285 403.66100853681564 1074.3044773638248 1229.9195818603039 54790.713572278619 10957.540443748236 87884.285558313131 222.70160584151745
leaf_count=201980 76781 60058 1556 25013 24455 853 60240 109805 1141 175042 13562 11936 101918 7377 90288 472196 31537 18609 21986 135984 3059 58998 363 364 3476 2641 118507 17728 178869 908
internal_value=0.0217658 0.0245629 0.0136699 0.0218342 0.025518 0.0268375 0.0253034 0.0191925 0.025847 0.0234365 0.0158959 0.0285552 0.0287318 0.0134702 0.0106738 0.0193538 0.0391316 0.0455541 0.0126299 0.0173187 0.0344703 0.0178453 0.0635767 0.0161366 0.0405253 0.0246496 0.0273917 0.0290121 0.0316161 0.0480994
internal_weight=792786 589217 203568 356124 143300 134739 120993 71595.9 33101.7 106602 32209.8 10974.5 233094 38494.1 131972 212824 14391.3 9559.02 106816 48551.1 8260.96 23542.7 847.921 22694.8 2707.89 2304.22 200097 153633 98841.8 9266.07
internal_count=2027230 1368695 658535 891615 342638 318183 293170 205238 88056 260780 85738 25498 477080 117182 453297 548977 32390 20658 363009 161029 25045 67398 1919 65479 6481 6117 417022 315104 196597 19517
is_linear=0
shrinkage=0.05


Tree=24
num_leaves=31
num_cat=0
split_feature=18 18 9 9 5 9 0 32 18 3 13 7 4 6 49 49 48 48 26 46 46 19 48 29 3 49 46 12 49 20
split_gain=6593.59 2395.11 1140.3 1197.96 1075.07 1055.51 1137.84 1097.29 968.327 908.4 828.352 740.617 670.425 670.703 644.286 690.356 757.232 633.008 880.391 695.4 1444.92 1090.47 1159.32 627.336 595.995 875.023 593.04 622.227 584.463 578.687
threshold=0.19823513208492186 0.10769033120566854 0.017891708131624554 -0.016424936245908125 -0.012587910178550763 0.082287565865180837 -0.024428195102885294 -929.49150000002112 0.049626828281930505 -0.13031144249202811 0.046916034656259938 1745.7377414983969 -0.14050107933862618 0.0056699621974148915 27050.229999999927 692432.58000000205 18.500000000000004 1.5000000000000002 0.044617938851336532 876.47500000002344 2834.3659999999923 0.67677669352421732 2.5000000000000004 0.091413843369196238 -0.15053359079983278 20244.960000000141 -4329.7250000000104 -0.039292383121511947 18995.589999999855 0.57233543869341885
decision_type=2 2 2 2 2 2 2 2 2 2 2 2 2 2 2 2 2 2 2 2 2 2 2 2 2 2 2 2 2 2
left_child=1 2 3 -1 9 6 24 -8 -5 28 26 -7 -10 14 -14 16 -16 18 -9 21 -21 22 -19 -20 25 -2 -11 -28 -3 -6
right_child=5 4 -4 8 29 11 7 17 12 10 -12 -13 13 -15 15 -17 -18 19 23 20 -22 -23 -24 -25 -26 -27 27 -29 -30 -31
leaf_value=0.020199243283112706 0.032312941769444714 0.020916501324579999 0.022435607080747298 -0.0041058661674812811 0.011030635479519491 0.073311988709207951 0.017923736307533921 0.020702133131504499 0.021865199616599908 0.034378058440471281 0.022801996151036341 0.035354300058163528 0.0037122047285795164 0.015272672736418759 0.01676062642240651 0.0075674361579867585 0.053642565081849891 0.028997430345589534 0.030636069714131766 0.014754900746568204 0.031416100294098429 0.019128351550943962 0.064276648474874992 0.063655334997764407 0.027581600051120831 0.055398839013491664 0.0072400954449942725 0.022929534346375357 0.043271476814192772 0.022487658353663124
leaf_weight=28500.85505066812 22052.868553251028 15935.886208668351 24773.311388716102 12921.917103677988 11710.630902677774 1406.9359522014856 60458.29603664577 67556.55657838285 11347.555690437555 2436.5661136209965 16683.257549971342 14838.92740149796 55033.971951037645 31075.749256402254 5120.7203922271729 13935.941196367145 1911.0700327306986 4149.8119957596064 6608.8462050408125 17976.719078555703 47125.688521206379 4606.7604645192623 5306.285672262311 1838.6960719674826 56186.07455894351 5043.2133579105139 50668.240622848272 7219.8363393694162 3580.7817249745131 187286.21213233471
leaf_count=80995 40613 39145 67907 58314 33037 1359 141095 154277 33438 5926 42165 26980 201838 96892 15001 45092 3563 8849 12949 43016 93214 10460 8043 2311 114863 6856 150103 18421 6800 463708
internal_value=0.0206103 0.0169219 0.012454 0.010907 0.0197131 0.0262297 0.0255551 0.0236379 0.00889072 0.015383 0.0129411 0.0386415 0.0103088 0.00908415 0.00655377 0.014012 0.0267842 0.0258643 0.0226051 0.0289934 0.0268154 0.0390763 0.0487944 0.0378231 0.0305189 0.0366098 0.010214 0.00919689 0.025018 0.0218134
internal_weight=795298 480143 184621 159848 295521 315156 298910 215628 131347 96524.6 77007.9 16245.9 118425 107077 76001.7 20967.7 7031.79 155169 76004.1 79165.3 65102.4 14062.9 9456.1 8447.54 83282.2 27096.1 60324.6 57888.1 19516.7 198997
internal_count=2027230 1362345 603040 535133 759305 664885 636546 474214 454138 262560 216615 28339 395824 362386 265494 63656 18564 333119 169537 163582 136230 27352 16892 15260 162332 47469 174450 168524 45945 496745
is_linear=0
shrinkage=0.05


Tree=25
num_leaves=31
num_cat=0
split_feature=18 18 47 50 23 50 10 14 10 14 47 6 2 46 46 47 47 46 3 39 20 49 12 47 50 46 22 49 49 6
split_gain=6009.28 2155.38 1252.08 1312.14 1069.11 1052.41 993.304 996.096 915.842 880.697 855.84 807.815 795.754 782.85 1051.35 743.212 842.403 784.438 712.583 677.641 651.706 644.794 624.079 604.884 593.996 579.931 654.215 650.94 665.044 560.508
threshold=0.19823513208492186 0.094367869873092008 293.01800000000003 8.445670642144977 28.406675031270193 22.236505013002311 -0.12610717821319836 27.177699796039786 -0.033653053067025311 26.156994769009774 2554.5645000000004 0.013856374547872254 -0.087717973330789442 134625.79699999987 86390.248999999967 18175.584500000004 470.08800000000002 160418.62199999992 -0.081011233763238807 0.45518176087490675 1.958774605972869 3347.2950000001588 -0.053864822238243119 25441.963500000002 1.6679966834048081 -3479.5160000000028 28.417746632809337 18190.359999999961 30738.395000000022 -0.037160457799645046
decision_type=2 2 2 2 2 2 2 2 2 2 2 2 2 2 2 2 2 2 2 2 2 2 2 2 2 2 2 2 2 2
left_child=1 4 9 8 -1 6 21 12 25 -3 11 18 -8 14 -12 16 -10 -17 -6 20 29 -2 -18 -22 -11 -4 27 -27 -29 -9
right_child=5 2 3 -5 10 -7 7 19 15 24 13 -13 -14 -15 -16 17 22 -19 -20 -21 23 -23 -24 -25 -26 26 -28 28 -30 -31
leaf_value=-0.0019204151438314138 0.025226631597226653 0.0035016203789058793 0.051547390932597206 0.0025379933906428034 0.022071493171755364 -0.0021614824767983579 0.021974644239904445 0.031817828947493125 0.032029783461446991 0.017457838539979186 0.022416940378902843 0.021598943517515873 0.0076280112600621806 0.014175416810541772 0.065127069876482077 0.072879601820513201 0.009061252860940389 0.027304890127189896 0.0072099026201617074 0.052696320148441035 0.017381932805545827 0.040608661986897207 0.019887220260979069 -0.029941577301927147 0.0083738230076027143 0.016226977349324018 0.036748140615936974 0.061973437837097745 0.025759699751524957 0.024920888611049304
leaf_weight=15013.05547901988 11701.550101339817 13935.974569886923 2820.9209068417549 8336.8302622884512 8975.6241586208344 3554.6181827932596 30882.399455651641 34958.335523471236 11510.225383073092 173496.0600591749 4550.5687725692987 14107.851277992129 14068.433816224337 10883.906334936619 2108.5124734342098 1293.2860973924398 16985.547457665205 3497.6524161696434 79566.068590208888 2284.8871888071299 13786.022570163012 16307.635110110044 61553.053575143218 710.01653829216957 20078.264058113098 13848.652911543846 12883.856388032436 1729.6362698823214 4747.7923285365105 187241.42010611296
leaf_count=55486 22424 42347 5158 24738 26751 9244 65323 68564 27640 458765 13441 41510 37323 32997 2782 1276 48848 7523 285761 3128 30363 26376 155356 2201 56549 35334 26558 2811 10714 399939
internal_value=0.0195264 0.0160145 0.0181026 0.0217711 0.0106598 0.0248909 0.0251992 0.024313 0.0229963 0.0156416 0.0122312 0.010487 0.0174845 0.0224372 0.0359406 0.0204182 0.0193972 0.0396075 0.00871645 0.0255974 0.0253359 0.0341824 0.0175459 0.015064 0.0165156 0.0297824 0.0279336 0.0223464 0.0354297 0.026006
internal_weight=797419 481923 346718 139207 135206 315495 311941 283932 130871 207510 120193 102650 44950.8 17543 6659.08 94839.8 90048.8 4790.94 88541.7 238981 236696 28009.2 78538.6 14496 193574 36030.9 33209.9 20326.1 6477.43 222200
internal_count=2027230 1362345 903617 345956 458728 664885 655641 606841 321218 557661 403242 354022 102646 49220 16223 240643 231844 8799 312512 504195 501067 48800 204204 32564 515314 80575 75417 48859 13525 468503
is_linear=0
shrinkage=0.05


Tree=26
num_leaves=31
num_cat=0
split_feature=18 18 9 9 18 20 23 9 48 50 10 8 32 9 49 48 48 50 46 4 32 50 10 14 0 10 12 46 48 48
split_gain=5517 1591.17 1441.74 1835.8 1069.17 1030.73 934.425 769.14 766.415 843.918 726.832 836.757 695.904 680.15 644.179 1103.29 1817.2 1032.57 859.658 847.901 640.225 635.509 600.487 596.471 583.765 582.58 562.624 561.926 645.352 695.154
threshold=0.14280197943511339 0.32108018822739864 0.017891708131624554 -0.015216331049823449 0.049626828281930505 0.641173408638403 23.994041478890111 -0.039297082777163088 -5.4999999999999991 0.10576928619299848 -0.013157894736842089 1.1303490727652876 -584.74750000000415 0.099451277342044633 18190.359999999961 48.500000000000007 12.500000000000002 1.9718686761812918 141782.86700000023 -0.20293008561838002 -1686.2794999999953 -0.0080944798323514412 -0.085934792966042936 22.813093332914317 -0.0034364261168385308 -1.0000000180025095e-35 0.010425097914494199 4282.1719999999741 48.500000000000007 10.500000000000002
decision_type=2 2 2 2 2 2 2 2 2 2 2 2 2 2 2 2 2 2 2 2 2 2 2 2 2 2 2 2 2 2
left_child=2 5 3 21 -5 -2 12 8 -7 -10 -8 -12 -6 14 24 16 19 -18 26 -16 -3 -1 -22 -24 -9 -4 -17 -27 29 -29
right_child=1 20 25 4 6 7 10 13 9 -11 11 -13 -14 -15 15 18 17 -19 -20 -21 22 -23 23 -25 -26 27 -28 28 -30 -31
leaf_value=0.014500710477922674 0.013482313139019814 0.020475370785075137 0.031093464245033536 -0.0043626112501242518 -0.0097665722528656324 0.065446829058747644 0.016492119994685358 0.02146219976202552 0.019513971894630548 0.036699887213166277 0.0069520395776017877 0.016394359362030774 0.0095779308181885119 0.035481207416186981 0.046532105119636097 0.057257539927718627 0.050844008393397748 -0.037699553115814383 0.01613898919068878 0.020196838507442406 0.037046272992474712 0.024522119751654706 0.014602384770705426 0.028513434880263502 0.015890268802151043 0.013591971370723972 0.018189890643621635 0.023076740613391541 0.015893570418698141 0.055275824907514565
leaf_weight=32518.086086586118 49270.0243665874 30165.798857882619 11468.583662539721 12791.35000552237 9287.431611508131 1364.7520110160112 54484.643329575658 86509.986412376165 16172.017868503928 12794.694336012006 86412.965461477637 32208.079449817538 9309.2171137630939 7326.3404856771231 3477.8623436242342 2219.2637612074614 9919.8635919094086 340.5696215480566 40157.920641392469 25220.792456060648 18046.858489498496 30807.803282976151 8732.3824818730354 65537.24652735889 102945.77385225892 24058.237926930189 1576.0027454942465 3808.5444287955761 7372.0654440224171 2993.9342959523201
leaf_count=89802 124895 63212 28046 57620 33532 1802 162683 201156 34898 23019 278850 94975 30266 13770 5873 3637 15589 1119 93988 56936 29718 78035 18742 126018 255316 67997 3591 8974 18928 4243
internal_value=0.0185054 0.0218778 0.0133886 0.0119372 0.00963354 0.0202001 0.0105674 0.0212677 0.0288302 0.027105 0.0117116 0.00951583 -8.29899e-05 0.0204475 0.0200432 0.0237189 0.0298451 0.047905 0.0182887 0.0233883 0.0267992 0.0193761 0.0288656 0.0268778 0.0184345 0.0212096 0.0410345 0.0182448 0.0261419 0.0372483
internal_weight=799299 481778 317521 267820 204494 359296 191702 310026 30331.5 28966.7 173106 118621 18596.6 279694 272368 82912.3 38959.1 10260.4 43953.2 28698.7 122482 63325.9 92316.5 74269.6 189456 49701.4 3795.27 38232.8 14174.5 6802.48
internal_count=2027230 1073279 953951 825763 657926 835589 600306 710694 59719 57917 536508 373825 63798 650975 637205 180733 79517 16708 101216 62809 237690 167837 174478 144760 456472 128188 7228 100142 32145 13217
is_linear=0
shrinkage=0.05


Tree=27
num_leaves=31
num_cat=0
split_feature=18 18 49 47 50 50 10 23 50 49 47 47 9 49 46 50 5 47 46 4 46 4 50 50 50 20 23 49 47 47
split_gain=5079.99 1872.93 1053 968.227 1052.86 946.527 858.896 856.337 827.24 829.761 991.338 791.584 921.124 767.316 876.95 1127.86 867.358 770.278 740.545 694.984 848.561 680.098 650.899 619.103 614.807 612.049 582.669 581.792 576.746 539.937
threshold=0.20100881242513505 0.10769033120566854 13570.08999999994 293.01800000000003 8.445670642144977 22.236505013002311 -0.12610717821319836 19.920436659802903 1.8224549488698016 5772.5099999999957 -794.06399999999996 457.97950000000009 -0.041863311780701844 18190.359999999961 141782.86700000023 -0.26403679526662033 -0.0068276476992829562 22323.534499999998 -3479.5160000000028 -0.21188160746506132 3687.3699999999958 -0.14273899550536592 -1.4958796794017877 -2.0974423536919411 -0.043216273304186516 2.0189964205458879 22.130877707924558 10268.330000000018 -410.38499999999999 305.3925000000001
decision_type=2 2 2 2 2 2 2 2 2 2 2 2 2 2 2 2 2 2 2 2 2 2 2 2 2 2 2 2 2 2
left_child=1 2 8 26 11 6 27 19 9 10 -1 18 -13 16 15 -15 -14 -16 -5 20 -8 -4 -9 -20 -21 -24 -3 -2 -29 -23
right_child=5 3 21 4 -6 -7 7 22 -10 -11 -12 12 13 14 17 -17 -18 -19 23 24 -22 29 25 -25 -26 -27 -28 28 -30 -31
