tree
version=v4
num_class=1
num_tree_per_iteration=1
label_index=0
max_feature_idx=35
objective=regression
feature_names=ma5 ma20 ma60 ma_bias20 ma_align price_position ret1 ret5 ret20 ret60 momentum_6m momentum_1m mom_divergence trend_accel vol20 vol5 vol_ratio vol_change rsi14 rsi_change macd macd_signal macd_hist bb_std bb_width bb_pos ret_quality price range_pct vix_close spy_ret1 spy_ret5 spy_ret20 spy_ret60 cmf_20 obv_slope_20
feature_infos=[0:42525000] [0:31687032] [0:29452500] [-0.98270297050476074:7.9074525833129883] [0:2] [0:1] [-0.95430588722229004:8.8837213516235352] [-0.96721309423446655:30.510000228881836] [-0.99520617723464966:19.915384292602539] [-0.99914395809173584:41.252254486083984] [-0.9993664026260376:28] [-0.99541115760803223:27.502408981323242] [-8.0909090042114258:27.965669631958008] [-56.666667938232422:29.075000762939453] [0:8.889801025390625] [0:38.922527313232422] [0:19.943296432495117] [0:327.9915771484375] [0:99.719879150390625] [-84.285720825195312:88.925697326660156] [-7985179.5:9675472] [-8692309:8113161] [-2079000:2804297.25] [0:8.889801025390625] [0:35.5592041015625] [-0.56213229894638062:1.5621322393417358] [0:1] [0.50099998712539673:70026000] [0:18.411666870117188] [9.1400003433227539:82.69000244140625] [-0.10942383855581284:0.09060339629650116] [-0.17969325184822083:0.1735818088054657] [-0.30986741185188293:0.23072516918182373] [-0.30186799168586731:0.39789232611656189] [-0.99228197336196899:0.99384033679962158] [-1.4322754144668579:1.4364814758300781]
tree_sizes=3064 3115 3112 3155 3086 3081 3095 3189 3158 3052 3076 3181 3183 3136 3192 3127 3181 3168 3165 3155 3120 3123 3117 3153 3120 3126 3146 3139 3080 3108 3167 3107 3153 3143 3108 3146 3113 3165 3076 3122 3039 3149 3060 3055 3152 3091 3137 3180 3101 3149

Tree=0
num_leaves=31
num_cat=0
split_feature=27 1 17 0 6 33 29 14 17 9 27 5 20 27 0 17 7 9 31 32 9 9 34 0 29 33 32 33 29 31
split_gain=80.4709 288.274 1184 58.3781 103.757 52.9807 104.29 46.2813 53.8401 226.519 30.3243 91.8386 29.9608 24.6535 40.7066 57.4782 20.6989 18.8829 20.6562 16.9404 15.519 14.6386 25.2201 16.4155 14.703 38.8699 18.0037 17.4345 20.222 16.4338
threshold=2.5100396871566777 9.7662501335144061 0.94112336635589611 8.062904357910158 0.013530939817428591 -0.13279036432504651 45.32500076293946 0.091223813593387618 1.0000000180025095e-35 0.98280480504035961 0.65049999952316295 0.39189189672470098 -0.87002894282340992 35.670408248901374 55.524085998535163 2.1353158950805669 -0.2993504256010055 -0.38005034625530237 0.046407777816057212 -0.020611517131328579 -0.38727104663848871 -0.74483647942543019 0.65431052446365368 44.310808181762702 20.410000801086429 0.034782685339450843 -0.065642755478620515 -0.069211814552545534 41.804998397827156 0.031260387971997268
decision_type=2 2 2 2 2 2 2 2 2 2 2 2 2 2 2 2 2 2 2 2 2 2 2 2 2 2 2 2 2 2
left_child=1 3 -3 7 -5 17 13 20 9 -9 11 12 -10 14 21 -16 -12 18 -2 -4 -1 22 23 -7 -23 27 -27 -26 29 -29
right_child=5 2 19 4 -6 6 -8 8 10 -11 16 -13 -14 -15 15 -17 -18 -19 -20 -21 -22 24 -24 -25 25 26 -28 28 -30 -31
leaf_value=0.0021397947885071307 0.0025039780459214641 0.080148918169418965 0.011624519374805711 0.0016951622224670128 0.029089473985749154 0.0022053010766694501 -0.00033392650672774376 0.0020714955420430801 0.014089469249735332 0.038943208700536573 0.0035202681602432319 0.019459080430192524 0.0031589062766567578 0.0016872758655874969 0.022864759673364231 0.0026888049536531026 0.0022004871155583143 0.0019448660552598427 0.0015713231020871121 0.0021797763929734442 0.0018762338433569751 0.0017492329466186614 0.011016433671532872 0.010173516255954598 0.0018850294249176784 0.0011732208467765757 0.0019483907664444508 0.0016699393031456614 -8.0552704259316456e-05 0.0019176501562597557
leaf_weight=25056 13797 23 22 37 21 5255 2392 81 25 20 1284 37 751 409085 21 40 15930 41462 2866 111 206416 860590 32 25 68322 3047 174638 180305 634 31450
leaf_count=25056 13797 23 22 37 21 5255 2392 81 25 20 1284 37 751 409085 21 40 15930 41462 2866 111 206416 860590 32 25 68322 3047 174638 180305 634 31450
internal_value=0.00178561 0.00195376 0.0155 0.00194524 0.0118915 0.0017622 0.00175225 0.00194288 0.00242946 0.00967534 0.00238838 0.00427481 0.00352772 0.00175513 0.00177609 0.00987871 0.00229908 0.00205917 0.0023435 0.00381129 0.00190477 0.00177571 0.00229956 0.0022448 0.0017736 0.00181935 0.00193509 0.00174609 0.00170139 0.00170673
internal_weight=2.04378e+06 249814 156 249658 58 1.79396e+06 1.73584e+06 249600 18128 101 18027 813 776 1.73344e+06 1.32436e+06 61 17214 58125 16663 133 231472 1.3243e+06 5312 5280 1.31899e+06 458396 177685 280711 212389 211755
internal_count=2043775 249814 156 249658 58 1793961 1735836 249600 18128 101 18027 813 776 1733444 1324359 61 17214 58125 16663 133 231472 1324298 5312 5280 1318986 458396 177685 280711 212389 211755
is_linear=0
shrinkage=1


Tree=1
num_leaves=31
num_cat=0
split_feature=27 1 17 0 29 33 29 14 17 9 27 5 20 27 3 10 27 33 15 14 17 7 9 31 30 33 29 33 30 29
split_gain=78.8759 282.78 1161.41 57.2679 102.304 51.9263 102.215 45.3677 52.8234 222.224 29.7331 90.0615 29.3899 24.2041 24.5378 26.4636 64.529 251.286 357.475 26.2475 91.1385 20.2873 18.507 20.2453 18.0191 20.8875 18.6282 36.6395 22.4171 18.2115
threshold=2.5100396871566777 9.7662501335144061 0.94112336635589611 8.062904357910158 17.530000686645511 -0.13279036432504651 45.32500076293946 0.091223813593387618 1.0000000180025095e-35 0.98280480504035961 0.65049999952316295 0.39189189672470098 -0.87002894282340992 53.415643692016609 -0.28476625680923456 -0.84167230129241932 3.8600940704345708 -0.032440004870295518 0.077612008899450316 0.30953584611415869 2.1810816526412968 -0.2993504256010055 -0.38005034625530237 0.046407777816057212 0.02701707556843758 -0.03774378448724746 20.410000801086429 0.040452525019645698 -0.022989905439317223 27.48499965667725
decision_type=2 2 2 2 2 2 2 2 2 2 2 2 2 2 2 2 2 2 2 2 2 2 2 2 2 2 2 2 2 2
left_child=1 3 -3 7 -5 22 13 -1 9 -9 11 12 -10 14 15 16 17 18 -7 -18 -21 -12 23 -2 26 -26 -16 28 -28 -30
right_child=5 2 -4 4 -6 6 -8 8 10 -11 21 -13 -14 -15 24 -17 19 -19 -20 20 -22 -23 -24 -25 25 -27 27 -29 29 -31
leaf_value=0.00011796663736846178 0.00071118396386026536 0.077612322806225473 0.0020062637838803026 0.027723082376666191 0.0001887908739049752 0.057876396986777857 -0.0020983509269780491 0.00028306069285268101 0.012185551928786132 0.036803716680833272 0.0017173241963581063 0.017501385702506495 0.0013595806596563983 -0.00010669479945431268 -3.9603662179532222e-05 0.00025959630963904461 0.00048969735389319631 0.001128174832336795 0.0022705446992897327 0.024089283720368431 -0.0015806595790540665 0.00041072770205320192 0.00015766260601087607 -0.00021214569064315319 0.00013829287180937446 -0.00088564713253294451 -0.00032128659603929767 0.00015082870643749285 -6.0571703855549324e-05 0.00011606921931712647
leaf_weight=231472 13797 23 133 20 38 20 2392 81 25 20 1284 37 751 333779 906635 10827 1219 175 26 20 40 15930 41462 2866 3298 5024 24363 178538 184000 85480
leaf_count=231472 13797 23 133 20 38 20 2392 81 25 20 1284 37 751 333779 906635 10827 1219 175 26 20 40 15930 41462 2866 3298 5024 24363 178538 184000 85480
internal_value=6.77293e-10 0.000166478 0.013583 0.000158036 0.0100093 -2.31812e-05 -3.30268e-05 0.000155703 0.000637456 0.0078146 0.000596758 0.00246472 0.00172488 -3.0175e-05 -1.19265e-05 0.000432242 0.00167673 0.00665436 0.0271853 0.000811327 0.00721423 0.00050834 0.000270823 0.00055231 -1.58741e-05 -0.000479773 -1.30736e-05 3.78432e-05 -3.08033e-05 -4.53665e-06
internal_weight=2.04378e+06 249814 156 249658 58 1.79396e+06 1.73584e+06 249600 18128 101 18027 813 776 1.73344e+06 1.39966e+06 12327 1500 221 46 1279 60 17214 58125 16663 1.38734e+06 8322 1.37902e+06 472381 293843 269480
internal_count=2043775 249814 156 249658 58 1793961 1735836 249600 18128 101 18027 813 776 1733444 1399665 12327 1500 221 46 1279 60 17214 58125 16663 1387338 8322 1379016 472381 293843 269480
is_linear=0
shrinkage=0.01


Tree=2
num_leaves=31
num_cat=0
split_feature=27 1 17 0 28 23 17 9 29 30 30 27 5 20 29 27 32 3 10 32 27 7 32 32 32 29 9 32 29 32
split_gain=77.3121 277.367 1139.28 56.1846 101.323 44.4721 51.8259 218.011 35.2446 30.2108 33.4479 29.1534 88.3188 28.8356 28.2859 22.8091 21.4278 20.176 35.2503 197.74 438.103 19.9051 18.6244 55.9318 16.6217 15.9084 15.2102 14.8875 15.1315 14.6585
threshold=2.5100396871566777 9.7662501335144061 0.94112336635589611 8.062904357910158 0.030186437070369724 0.091223813593387618 1.0000000180025095e-35 0.98280480504035961 20.410000801086429 0.02701707556843758 -0.01449735229834914 0.65049999952316295 0.39189189672470098 -0.8244013488292693 35.414999008178718 56.004999160766609 -0.028600839897990223 -0.28476625680923456 -0.87372881174087513 -0.020790257491171357 8.4594740867614764 -0.23929660767316815 -0.20583886653184888 -0.13734664767980573 -0.020611517131328579 15.500000000000002 -0.38727104663848871 -0.20583886653184888 25.264999389648441 0.067113406956195845
decision_type=2 2 2 2 2 2 2 2 2 2 2 2 2 2 2 2 2 2 2 2 2 2 2 2 2 2 2 2 2 2
left_child=1 3 -3 5 -5 26 7 -7 15 10 22 12 13 -8 -12 17 27 18 19 20 -2 -13 -10 -24 -4 -19 -1 -11 -29 -25
right_child=8 2 24 4 -6 6 11 -9 9 16 14 21 -14 -15 -16 -17 -18 25 -20 -21 -22 -23 23 29 -26 -27 -28 28 -30 -31
leaf_value=0.00034946253625911311 0.056828474416220118 0.076868539757405721 0.0097256067596051994 0.027542713961963141 0.00014190361001648202 0.00028026460103190888 0.011679089778369026 0.036453204379195261 0.0005299612353227485 0.00029024410859109287 6.6988325659003578e-05 0.0014720413974208437 0.017330976881871098 0.0013319435269273819 0.00050628155252665553 -0.00015067276769523049 3.4730509488569865e-05 -6.8070613462855469e-07 0.00026644507677458916 0.00099395756059447683 0.00014602000550949015 0.0003837606031717135 -0.0016662625643767753 -0.00012582401751740988 0.0003703755209873115 -8.445952581833817e-05 8.853703516352618e-05 0.00013245904124249344 -0.00096026051095208511 0.0005013838572555325
leaf_weight=25056 20 23 22 20 38 81 27 20 4358 1476 518330 1888 37 749 15084 211103 8051 490439 5969 625 39 15326 2338 101281 111 421433 206416 1502 8046 3867
leaf_count=25056 20 23 22 20 38 81 27 20 4358 1476 518330 1888 37 749 15084 211103 8051 490439 5969 625 39 15326 2338 101281 111 421433 206416 1502 8046 3867
internal_value=2.01157e-09 0.00016482 0.0134523 0.00015646 0.00991409 0.000154149 0.000631123 0.00774019 -2.29489e-05 3.48484e-05 4.64445e-05 0.000590811 0.00244048 0.00170781 7.94136e-05 -5.69403e-05 -0.000357349 -3.53967e-05 0.000513245 0.00266198 0.020004 0.000503258 -0.000110784 -0.000136777 0.00198635 -3.94013e-05 0.000116787 -0.000643759 -0.000788264 -0.000102743
internal_weight=2.04378e+06 249814 156 249658 58 249600 18128 101 1.79396e+06 664333 645258 18027 813 776 533414 1.12963e+06 19075 918525 6653 684 59 17214 111844 107486 133 911872 231472 11024 9548 105148
internal_count=2043775 249814 156 249658 58 249600 18128 101 1793961 664333 645258 18027 813 776 533414 1129628 19075 918525 6653 684 59 17214 111844 107486 133 911872 231472 11024 9548 105148
is_linear=0
shrinkage=0.01


Tree=3
num_leaves=31
num_cat=0
split_feature=33 29 1 11 14 17 34 30 29 33 32 30 29 33 29 29 15 33 31 9 31 6 14 17 31 6 17 16 10 1
split_gain=70.4718 117.873 49.4681 39.6944 29.1353 43.9103 168.762 20.1381 21.9041 44.5455 25.04 24.0429 26.9678 20.7722 19.4066 19.2202 18.981 189.958 18.5561 22.181 17.9762 16.7613 49.5745 80.7401 15.3337 15.2929 27.8587 34.7227 13.891 31.7158
threshold=-0.13279036432504651 45.32500076293946 4.1131236553192148 -0.54255166649818409 0.059002874419093139 1.0000000180025095e-35 -0.27322506904602045 0.02701707556843758 20.410000801086429 0.034782685339450843 -0.065642755478620515 -0.016470024362206456 27.48499965667725 -0.03774378448724746 15.765000343322756 41.804998397827156 0.30558589100837713 0.0011495002545416357 0.058672668412327773 -0.33155079185962671 0.033530263230204589 -0.19175507873296735 0.027935773134231571 0.79119119048118602 -0.046757195144891732 -0.19175507873296735 0.63004919886589061 0.54794782400131237 -0.92894336581230152 66.460250854492202
decision_type=2 2 2 2 2 2 2 2 2 2 2 2 2 2 2 2 2 2 2 2 2 2 2 2 2 2 2 2 2 2
left_child=3 2 4 20 16 6 -6 8 14 11 -11 15 24 -9 21 -10 -2 -18 19 -5 -1 22 23 -4 -13 26 27 -7 29 -24
right_child=1 -3 7 18 5 25 -8 13 9 10 -12 12 -14 -15 -16 -17 17 -19 -20 -21 -22 -23 28 -25 -26 -27 -28 -29 -30 -31
leaf_value=0.0019158503602624544 4.2583309215251063e-05 -0.0020309448050930519 0.025553670815414341 0.00059356986191096931 0.031299355510791597 0.018460424621190345 0.0009160417767580261 9.8255303101894861e-05 -0.00022272694406913132 -0.00073779398137274581 0.00014595715158234729 -0.00057805717561255866 0.00013396887532385931 -0.00090588684695891279 -0.00011155509256551562 -0.0018627773936963252 0.031364359015510199 -0.0016421826944767847 -0.00013132517122951237 0.00018554097377539218 -0.00012561802967964603 -2.4821853914779288e-05 0.010208356924553906 -0.0017462671789462154 -6.9594869496630577e-05 0.00022310822218679687 0.0010363044907205595 0.0019982411718661233 0.00045377006637706328 -0.00067263942039724387
leaf_weight=2138 401303 2884 20 20817 21 20 109 3359 56073 3256 203782 6159 81117 5319 434944 723 20 102 10139 37040 539 527167 47 22 160082 83589 1080 34 1810 60
leaf_count=2138 401303 2884 20 20817 21 20 109 3359 56073 3256 203782 6159 81117 5319 434944 723 20 102 10139 37040 539 527167 47 22 160082 83589 1080 34 1810 60
internal_value=3.25816e-09 -1.11096e-05 -8.15146e-06 0.000310271 7.93807e-05 0.000247741 0.00603321 -3.68359e-05 -3.40096e-05 1.89053e-05 0.00013205 -5.81097e-05 -1.55018e-05 -0.000517131 -6.20685e-05 -0.000243654 4.37898e-05 0.0039716 0.000263216 0.000332375 0.00150454 -2.13882e-05 0.000901638 0.0115224 -8.84421e-05 0.000238781 0.00139194 0.00833832 0.000662538 0.00414787
internal_weight=2.04378e+06 1.9731e+06 1.97022e+06 70673 486278 84853 130 1.48394e+06 1.47526e+06 511192 207038 304154 247358 8678 964070 56796 401425 122 67996 57857 2677 529126 1959 42 166241 84723 1134 54 1917 107
internal_count=2043775 1973102 1970218 70673 486278 84853 130 1483940 1475262 511192 207038 304154 247358 8678 964070 56796 401425 122 67996 57857 2677 529126 1959 42 166241 84723 1134 54 1917 107
is_linear=0
shrinkage=0.01


Tree=4
num_leaves=31
num_cat=0
split_feature=0 14 1 17 20 29 30 30 29 29 10 34 6 14 17 3 7 10 1 17 21 3 14 22 6 28 0 7 14 6
split_gain=59.4734 35.4832 76.666 53.2576 186.887 33.124 27.9886 31.5167 28.507 20.8328 18.6247 44.564 16.6009 42.89 87.5278 14.5474 12.587 12.4583 29.2049 27.2333 12.2668 12.1695 21.0915 12.0095 11.7707 12.0072 10.8162 16.9237 194.099 13.6664
threshold=2.6700028181076054 0.060799911618232734 9.9327645301818865 1.0000000180025095e-35 0.13571880757808688 20.410000801086429 0.02701707556843758 -0.01449735229834914 35.414999008178718 15.765000343322756 -0.87372881174087513 0.5054079294204713 -0.19175507873296735 0.027935773134231571 0.86216902732849132 -0.35880322754383082 -0.18484874814748761 -0.92894336581230152 66.460250854492202 1.6041691303253176 -16776.429687499996 -0.20126220583915708 0.023330408148467544 -0.013890484813600777 -0.14693651348352429 0.17690277844667437 53.040573120117195 -0.36924058198928827 0.057957384735345847 0.18466936796903613
decision_type=2 2 2 2 2 2 2 2 2 2 2 2 2 2 2 2 2 2 2 2 2 2 2 2 2 2 2 2 2 2
left_child=1 2 -1 4 -3 9 7 15 21 12 11 24 13 14 -2 -7 -12 18 19 -15 -11 22 -9 -8 25 -5 27 28 -14 -30
right_child=5 3 -4 10 -6 6 23 8 -10 20 16 -13 26 17 -16 -17 -18 -19 -20 -21 -22 -23 -24 -25 -26 -27 -28 -29 29 -31
leaf_value=7.6925869929574638e-05 0.024866728430276559 0.0007078061746377273 0.015094511967919329 0.011425880463893659 0.034164627319290528 0.00073767663203206594 -0.00062140539081489944 0.0086674068612162952 0.00051114141271062469 -0.00085135353826842116 0.00079619647517736923 0.015740550332956692 0.031474216161230958 0.017319361909991129 -0.0023644580898376615 -0.000122502688404655 0.00027368974406656458 0.0004695639356730714 -0.00066602326522688165 0.0021005848871916534 -9.9502367395459037e-05 5.5269357623807232e-05 0.00027602076654761345 -0.00011235528617388714 0.0010196961930991893 0.0027600959959253667 -0.00010520875000456233 -7.2895828556118401e-07 0.00039158169305736812 0.0082277607397864688
leaf_weight=220235 21 82 33 20 20 2001 8585 29 14809 2179 5083 21 20 23 25 108806 49806 2000 60 24 493530 486709 23822 10084 968 74 117278 496692 714 22
leaf_count=220235 21 82 33 20 20 2001 8585 29 14809 2179 5083 21 20 23 25 108806 49806 2000 60 24 493530 486709 23822 10084 968 74 117278 496692 714 22
internal_value=3.79113e-09 0.000136429 7.92488e-05 0.000361018 0.00754568 -2.1326e-05 3.51014e-05 4.63024e-05 7.8628e-05 -5.45389e-05 0.000347772 0.00164606 -1.57469e-05 0.000860604 0.0103105 -0.000106954 0.000322108 0.000649027 0.00395881 0.00977457 -0.000102811 6.60799e-05 0.000286629 -0.000346518 0.00135187 0.00471527 -1.88192e-05 1.54611e-06 0.00149561 0.000638018
internal_weight=2.04378e+06 276342 220268 56074 102 1.76743e+06 654845 636176 525369 1.11259e+06 55972 1083 616879 2153 46 110807 54889 2107 107 47 495709 510560 23851 18669 1062 94 614726 497448 756 736
internal_count=2043775 276342 220268 56074 102 1767433 654845 636176 525369 1112588 55972 1083 616879 2153 46 110807 54889 2107 107 47 495709 510560 23851 18669 1062 94 614726 497448 756 736
is_linear=0
shrinkage=0.01


Tree=5
num_leaves=31
num_cat=0
split_feature=27 1 17 0 29 33 29 23 17 9 27 5 20 27 0 28 3 34 7 10 0 33 0 11 32 9 13 31 9 27
split_gain=73.6086 270.285 1115.93 55.1533 100.242 49.3234 96.6631 42.5902 48.9498 210.46 28.4815 86.61 28.0433 23.2051 39.6081 81.0486 22.3142 30.1995 19.2651 18.573 37.8011 201.904 21.5996 17.737 16.4296 14.7233 14.1116 13.9194 15.105 13.6736
threshold=2.5100396871566777 9.7662501335144061 0.94112336635589611 8.062904357910158 17.530000686645511 -0.13279036432504651 45.32500076293946 0.091223813593387618 1.0000000180025095e-35 0.98280480504035961 0.65049999952316295 0.39189189672470098 -0.87002894282340992 35.670408248901374 55.524085998535163 0.18518518656492236 -0.28476625680923456 0.65431052446365368 -0.2993504256010055 -0.84167230129241932 4.1401789188385019 -0.032440004870295518 40.857999801635749 -0.54255166649818409 -0.020611517131328579 -0.38727104663848871 0.68822699785232555 0.058672668412327773 -0.33155079185962671 77332.500000000015
decision_type=2 2 2 2 2 2 2 2 2 2 2 2 2 2 2 2 2 2 2 2 2 2 2 2 2 2 2 2 2 2
left_child=1 3 -3 7 -5 23 13 25 9 -9 11 12 -10 14 16 -16 17 19 -12 20 21 -7 -22 -2 -4 -1 29 28 -25 -15
right_child=5 2 24 4 -6 6 -8 8 10 -11 18 -13 -14 26 15 -17 -18 -19 -20 -21 22 -23 -24 27 -26 -27 -28 -29 -30 -31
leaf_value=0.00034264231135886869 0.0012616670921636298 0.076040718875825405 0.0096240388482971024 0.027354444026148745 0.00010129157148707564 0.027725032335722492 -0.0020404339135643001 0.00019727113254640886 0.011898856476665689 0.035737306089628315 0.0016694740143796045 0.017151827182228629 0.0013237066930406071 -7.8599012200289198e-05 0.023959743124809828 -0.00017064536258667 -1.3004961687395295e-05 0.011646787693258373 0.0003962167312512796 0.00026267846923380613 0.00055119818761540024 0.0011745797278177317 0.0096115224124104885 0.00054838173282754335 0.00032369659923252975 8.5926975913514921e-05 -0.00074837363910684827 -0.00014397101200800961 0.00017289264821081728 -0.00039175870181563542
leaf_weight=25056 1729 23 22 20 38 33 2392 81 25 20 1284 37 751 391347 20 41 1313322 23 15930 9637 1074 183 26 16129 111 206416 3279 8322 31945 14459
leaf_count=25056 1729 23 22 20 38 33 2392 81 25 20 1284 37 751 391347 20 41 1313322 23 15930 9637 1074 183 26 16129 111 206416 3279 8322 31945 14459
internal_value=4.65604e-09 0.000160827 0.0132776 0.000152574 0.00982023 -2.23898e-05 -3.19854e-05 0.000150284 0.000617057 0.00752608 0.000577877 0.0024061 0.00168056 -2.92122e-05 -8.8765e-06 0.00798367 -9.25144e-06 0.000439741 0.000491339 0.000415056 0.0015291 0.00534458 0.000774795 0.000264151 0.0019299 0.000113721 -9.50437e-05 0.000233529 0.0002989 -8.97604e-05
internal_weight=2.04378e+06 249814 156 249658 58 1.79396e+06 1.73584e+06 249600 18128 101 18027 813 776 1.73344e+06 1.32436e+06 61 1.3243e+06 10976 17214 10953 1316 216 1100 58125 133 231472 409085 56396 48074 405806
internal_count=2043775 249814 156 249658 58 1793961 1735836 249600 18128 101 18027 813 776 1733444 1324359 61 1324298 10976 17214 10953 1316 216 1100 58125 133 231472 409085 56396 48074 405806
is_linear=0
shrinkage=0.01


Tree=6
num_leaves=31
num_cat=0
split_feature=27 2 2 33 29 14 17 15 14 28 25 25 27 9 7 14 25 2 18 9 27 2 2 30 33 29 33 30 29 13
split_gain=72.1497 163.438 1911.63 48.3419 94.7403 39.3896 214.939 210.45 30.6711 29.7365 43.6624 24.4703 22.7437 17.5924 26.6822 69.1596 82.8615 55.1449 283.286 17.3673 16.6912 45.7308 153.471 16.6012 18.7552 16.8016 32.6441 21.6333 17.9446 13.8309
threshold=2.5100396871566777 9.6815667152404803 9.9449000358581561 -0.13279036432504651 45.32500076293946 0.30953584611415869 0.55498170852661144 0.30558589100837713 0.05959505774080754 0.31719496846199041 0.15358008444309237 0.18600334972143176 35.670408248901374 -0.74483647942543019 -0.16829667985439298 0.30953584611415869 0.19566716998815539 8.5757908821105975 17.333346366882328 -0.38005034625530237 0.65049999952316295 3.6298499107360844 4.2061014175415048 0.02701707556843758 -0.03774378448724746 20.410000801086429 0.040452525019645698 -0.022989905439317223 27.48499965667725 0.68822699785232555
decision_type=2 2 2 2 2 2 2 2 2 2 2 2 2 2 2 2 2 2 2 2 2 2 2 2 2 2 2 2 2 2
left_child=1 5 -3 19 12 8 7 -7 -1 -4 -11 -8 13 14 15 17 -17 18 -5 -2 21 -10 -23 25 -25 -15 27 -27 -29 -14
right_child=3 2 9 4 -6 6 11 -9 20 10 -12 -13 29 23 -16 16 -18 -19 -20 -21 -22 22 -24 24 -26 26 -28 28 -30 -31
leaf_value=8.2428788851830799e-05 0.00053419226110228135 0.092881772852502764 0.00084343871267550624 0.040167470143684617 -0.0020200381635891011 0.046684071408141237 0.0081473003657120784 0.0042529793900570705 0.00084618142094251836 0.01994690336757118 0.0010700517090247764 0.00051030728531982223 -8.8862826956857027e-05 -3.42321191497832e-05 0.00016724903544098122 0.028430210075917697 0.003023613991907665 0.00067374932018662631 -0.00012945919457603902 0.00015188836633041284 0.00031590827496078759 0.031729671713674357 0.0021014611610672739 0.00013397552173324533 -0.00085579101852502814 -0.0003143813731653939 0.00015200868200340915 -5.4684935082580899e-05 0.00012376683021044841 -0.00074089218108123664
leaf_weight=195354 16663 23 478 21 2392 20 44 27 2138 20 30 631 405806 860612 4063 20 34 1118 84 41462 50923 20 106 3161 4847 23558 167087 177112 82642 3279
leaf_count=195354 16663 23 478 21 2392 20 44 27 2138 20 30 631 405806 860612 4063 20 34 1118 84 41462 50923 20 106 3161 4847 23558 167087 177112 82642 3279
internal_value=5.94078e-09 0.000159227 0.00559461 -2.21655e-05 -3.16652e-05 0.000147185 0.002478 0.022926 0.0001404 0.00162205 0.00888346 0.00102092 -2.89196e-05 -8.78713e-06 0.000563971 0.00182431 0.0127975 0.00132893 0.0082234 0.00026151 0.000353303 0.00119345 0.00702504 -1.11071e-05 -0.000465007 -8.33344e-06 4.11509e-05 -2.42257e-05 2.08677e-06 -9.40934e-05
internal_weight=2.04378e+06 249814 551 1.79396e+06 1.73584e+06 249263 722 47 248541 528 50 675 1.73344e+06 1.32436e+06 5340 1277 54 1223 105 58125 53187 2264 126 1.31902e+06 8008 1.31101e+06 450399 283312 259754 409085
internal_count=2043775 249814 551 1793961 1735836 249263 722 47 248541 528 50 675 1733444 1324359 5340 1277 54 1223 105 58125 53187 2264 126 1319019 8008 1311011 450399 283312 259754 409085
is_linear=0
shrinkage=0.01


Tree=7
num_leaves=31
num_cat=0
split_feature=33 32 0 20 14 34 19 2 11 14 10 35 12 29 33 32 33 30 29 30 29 31 9 31 31 32 33 31 32 33
split_gain=66.3723 111.615 50.8089 45.5416 169.511 91.8206 67.8826 129.122 37.7743 29.7391 23.1102 18.7647 21.9453 18.2919 47.1688 24.1673 21.0763 32.5917 21.0409 20.9622 19.2673 17.9024 21.0558 17.7576 17.6014 16.5536 15.1026 15.0585 13.3563 15.6607
threshold=-0.13279036432504651 -0.13734664767980573 4.2440550327301034 -0.87002894282340992 0.017631629481911663 0.5054079294204713 -28.848901748657223 8.2781181335449237 -0.54255166649818409 0.05959505774080754 -0.87372881174087513 0.28862540423870092 0.035690512508153922 20.410000801086429 0.034782685339450843 -0.065642755478620515 -0.069211814552545534 0.02701707556843758 41.804998397827156 -0.022989905439317223 15.765000343322756 0.058672668412327773 -0.33155079185962671 0.017962502315640453 0.033530263230204589 -0.013425759505480526 -0.06747944280505179 0.012812070082873108 0.040009981021285064 0.092300500720739379
decision_type=2 2 2 2 2 2 2 2 2 2 2 2 2 2 2 2 2 2 2 2 2 2 2 2 2 2 2 2 2 2
left_child=8 -2 3 4 -3 6 7 -6 24 -5 11 12 -8 20 16 -16 19 18 23 -15 -4 22 -10 25 -1 26 -18 -27 29 -17
right_child=1 2 13 9 5 -7 10 -9 21 -11 -12 -13 -14 14 15 28 17 -19 -20 -21 -22 -23 -24 -25 -26 27 -28 -29 -30 -31
leaf_value=0.0018731502550399675 -0.0019762717780896005 0.029799712243855799 -2.2801523141606949e-05 3.8843792114053963e-05 -0.00093917519604656266 0.016865888285425467 0.0013650023661022643 0.030678889618339866 0.00057762656794162464 0.00024858672747301577 0.00019720421970701412 0.010310171665107191 0.0097552494480141576 -0.0003972320014200452 -0.0007362862799266518 0.00011580073671770531 -0.00075055486735362605 -0.00099576515138371548 -0.0018441305696890429 0.00013951429197381357 -0.00011305053426317142 -0.0001323167203376505 0.000180080082760528 7.6111726591960213e-05 -0.00014689647835200757 -0.00032291386021390849 -5.2246489657778294e-05 0.00023735715914658423 2.2459168922784973e-05 0.00033663388985821416
leaf_weight=2138 2884 20 525543 418779 31 36 296 21 20817 80618 1706 31 34 8191 3192 88619 3182 4127 688 65035 430248 10139 37040 48369 539 55304 115205 5250 65309 50384
leaf_count=2138 2884 20 525543 418779 31 36 296 21 20817 80618 1706 31 34 8191 3192 88619 3182 4127 688 65035 430248 10139 37040 48369 539 55304 115205 5250 65309 50384
internal_value=7.31184e-09 -1.07775e-05 -7.89889e-06 7.89973e-05 0.00152257 0.00124597 0.000972299 0.0121487 0.000301115 7.27052e-05 0.000684909 0.00298001 0.00225933 -3.75764e-05 1.06007e-05 0.000126939 -6.84547e-05 -0.000115119 -9.91697e-05 7.9456e-05 -6.34281e-05 0.000255213 0.000323142 -9.38757e-05 0.00146615 -0.00013983 -7.10302e-05 -0.000274319 0.000140433 0.000195855
internal_weight=2.04378e+06 1.9731e+06 1.97022e+06 501572 2175 2155 2119 52 70673 499397 2067 361 330 1.46865e+06 512855 207504 305351 232125 227998 73226 955791 67996 57857 227310 2677 178941 118387 60554 204312 139003
internal_count=2043775 1973102 1970218 501572 2175 2155 2119 52 70673 499397 2067 361 330 1468646 512855 207504 305351 232125 227998 73226 955791 67996 57857 227310 2677 178941 118387 60554 204312 139003
is_linear=0
shrinkage=0.01


Tree=8
num_leaves=31
num_cat=0
split_feature=27 2 2 33 29 14 17 15 14 28 25 25 27 3 34 30 33 29 33 30 32 29 29 29 9 31 27 2 2 31
split_gain=69.8733 159.738 1873.29 46.3815 91.0231 38.4855 210.572 206.217 29.5655 28.901 43.017 24.0021 22.3677 24.8601 23.6358 18.56 22.7471 22.1416 40.7329 24.5843 22.9153 22.1352 19.0093 18.3394 16.6752 18.7528 16.3472 44.7876 150.628 15.491
threshold=2.5100396871566777 9.6815667152404803 9.9449000358581561 -0.13279036432504651 45.32500076293946 0.30953584611415869 0.55498170852661144 0.30558589100837713 0.05959505774080754 0.31719496846199041 0.15358008444309237 0.18600334972143176 817.85000610351574 -0.28476625680923456 0.65431052446365368 0.02701707556843758 -0.03774378448724746 20.410000801086429 0.034782685339450843 -0.016470024362206456 -0.065642755478620515 27.48499965667725 41.804998397827156 15.500000000000002 -0.38005034625530237 0.046407777816057212 0.65049999952316295 3.6298499107360844 4.2061014175415048 -0.046757195144891732
decision_type=2 2 2 2 2 2 2 2 2 2 2 2 2 2 2 2 2 2 2 2 2 2 2 2 2 2 2 2 2 2
left_child=1 5 -3 24 12 8 7 -7 -1 -4 -11 -8 13 14 -5 17 -17 23 19 22 -20 29 -19 -15 25 -2 27 -10 -29 -21
right_child=3 2 9 4 -6 6 11 -9 26 10 -12 -13 -14 15 -16 16 -18 18 20 21 -22 -23 -24 -25 -26 -27 -28 28 -30 -31
leaf_value=8.1168191394167827e-05 0.00067615461959107462 0.091937676681981731 0.00083006237124555612 0.00033914268458381234 -0.0019800917474604362 0.046205805097307477 0.0080643577566577324 0.0042034690047481234 0.00083488914741737866 0.019737449697972764 0.0010028765358391309 0.00050078321881586742 -0.00016500545388204509 -8.3893339172010123e-06 0.0092244170156307523 0.00014001558829861884 -0.00086079586043336196 -0.0002034343040932073 -0.00066126900025438096 -0.00053946512855497281 0.0001481498163535416 0.00013234443759791811 -0.0018068179982143626 -9.2328304726736629e-05 0.00014863680369027766 -0.00021248333795671873 0.00031010835257866122 0.031424397761268277 0.0020719614863987561 -4.437384234215202e-05
leaf_weight=195354 13797 23 478 17615 2392 20 44 27 2138 20 30 631 112150 559723 29 3760 5727 59017 3553 6560 219157 86443 748 486601 41462 2866 50923 20 106 172361
leaf_count=195354 13797 23 478 17615 2392 20 44 27 2138 20 30 631 112150 559723 29 3760 5727 59017 3553 6560 219157 86443 748 486601 41462 2866 50923 20 106 172361
internal_value=7.71923e-09 0.000156696 0.00553022 -2.18111e-05 -3.11162e-05 0.000144792 0.0024487 0.0226879 0.000138085 0.00159769 0.00875638 0.0010065 -2.84251e-05 -1.89767e-05 0.000354325 -2.30847e-05 -0.000464064 -2.04595e-05 3.10438e-05 -4.03193e-05 0.000135229 9.44313e-07 -0.000223548 -4.74268e-05 0.000256053 0.000523247 0.000347116 0.00117856 0.0069497 -6.25345e-05
internal_weight=2.04378e+06 249814 551 1.79396e+06 1.73584e+06 249263 722 47 248541 528 50 675 1.73344e+06 1.62129e+06 17644 1.60365e+06 9487 1.59416e+06 547839 325129 222710 265364 59765 1.04632e+06 58125 16663 53187 2264 126 178921
internal_count=2043775 249814 551 1793961 1735836 249263 722 47 248541 528 50 675 1733444 1621294 17644 1603650 9487 1594163 547839 325129 222710 265364 59765 1046324 58125 16663 53187 2264 126 178921
is_linear=0
shrinkage=0.01


Tree=9
num_leaves=31
num_cat=0
split_feature=27 1 17 0 6 33 29 14 17 20 27 20 33 15 27 0 17 3 34 7 10 19 34 0 27 32 31 8 32 30
split_gain=68.4896 259.098 1075.34 53.752 101.074 45.4585 89.2125 40.018 45.9562 172.534 26.9939 22.0698 24.4514 83.961 22.0459 38.6661 56.1887 21.2354 28.6519 18.4531 17.9322 52.6513 103.281 23.2353 18.4697 45.1982 16.2722 20.6273 15.8141 15.2194
threshold=2.5100396871566777 9.7662501335144061 0.94112336635589611 8.062904357910158 0.013530939817428591 -0.13279036432504651 45.32500076293946 0.091223813593387618 1.0000000180025095e-35 0.13006936013698581 0.65049999952316295 -0.87002894282340992 0.060073640197515495 0.043120589107275016 35.670408248901374 55.524085998535163 2.1353158950805669 -0.28476625680923456 0.65431052446365368 -0.23929660767316815 -0.84167230129241932 -28.848901748657223 -0.1386567950248718 40.857999801635749 3.0054178237915044 -0.028600839897990223 0.058672668412327773 -0.48310001194477076 -0.020611517131328579 0.02701707556843758
decision_type=2 2 2 2 2 2 2 2 2 2 2 2 2 2 2 2 2 2 2 2 2 2 2 2 2 2 2 2 2 2
left_child=1 3 -3 7 -5 26 14 -1 9 -9 11 -10 -13 -14 15 17 -17 18 20 -12 21 22 -7 24 25 -23 27 -2 -4 -19
right_child=5 2 28 4 -6 6 -8 8 10 -11 19 12 13 -15 -16 16 -18 29 -20 -21 -22 23 -24 -25 -26 -27 -28 -29 -30 -31
leaf_value=0.00010935526406107445 0.001229837373181467 0.07460861932237943 0.0094067890393831153 -0.00036506659372121482 0.02666579179014926 -0.0013386296996915781 -0.001960299097534395 0.00064876950642369367 0.011420933440041083 0.032835904924642473 0.0014078218408550521 0.0010504323054332083 0.024050544076809836 0.0027882755167202324 -9.2306972332716967e-05 0.020727705983910709 0.00078253945644672326 -9.6910528515328655e-06 0.011345465164476385 0.00035998322280833442 0.00025553990445660758 0.018146049627147262 0.028395150281932381 0.010865211523477532 0.00058564441892823235 0.0013198170084911195 -0.00014820574785735153 0.00027720468181059949 0.00028269413086283229 -0.00044804218508875672
leaf_weight=231472 2388 23 22 37 21 26 2392 81 25 20 1888 602 20 166 409085 21 40 1305354 23 15326 9637 20 20 23 1159 68 8590 47147 111 7968
leaf_count=231472 2388 23 22 37 21 26 2392 81 25 20 1888 602 20 166 409085 21 40 1305354 23 15326 9637 20 20 23 1159 68 8590 47147 111 7968
internal_value=8.71672e-09 0.000155138 0.0129976 0.000147057 0.0096911 -2.1593e-05 -3.0805e-05 0.000144797 0.000597256 0.0072917 0.000559291 0.00233914 0.00203563 0.00519628 -2.81408e-05 -8.31951e-06 0.00788861 -8.68998e-06 0.000429315 0.000475041 0.000405267 0.00149993 0.0118969 0.00111349 0.000924264 0.00531612 0.000253492 0.000323174 0.00185834 -1.23517e-05
internal_weight=2.04378e+06 249814 156 249658 58 1.79396e+06 1.73584e+06 249600 18128 101 18027 813 788 186 1.73344e+06 1.32436e+06 61 1.3243e+06 10976 17214 10953 1316 46 1270 1247 88 58125 49535 133 1.31332e+06
internal_count=2043775 249814 156 249658 58 1793961 1735836 249600 18128 101 18027 813 788 186 1733444 1324359 61 1324298 10976 17214 10953 1316 46 1270 1247 88 58125 49535 133 1313322
is_linear=0
shrinkage=0.01


Tree=10
num_leaves=31
num_cat=0
split_feature=27 1 17 0 6 33 29 14 17 9 2 27 35 27 0 28 3 34 10 19 34 0 27 1 11 9 30 33 29 33
split_gain=67.1497 255.122 1053.7 56.4247 103.071 44.5993 88.1174 39.176 44.989 201.449 26.4726 87.7568 165.612 21.8765 37.9274 79.5303 21.1374 28.0939 18.1423 51.5007 101.325 22.7029 17.8135 42.9256 16.5567 15.4341 15.1257 17.9846 15.6558 31.5991
threshold=2.4608840942382817 9.7662501335144061 0.94112336635589611 8.062904357910158 0.013530939817428591 -0.13279036432504651 45.32500076293946 0.091223813593387618 1.0000000180025095e-35 0.98280480504035961 3.0748636722564702 0.65049999952316295 0.16244532912969592 35.670408248901374 55.524085998535163 0.18518518656492236 -0.28476625680923456 0.65431052446365368 -0.84167230129241932 -28.848901748657223 -0.1386567950248718 40.857999801635749 3.0054178237915044 5.0200161933898935 -0.54255166649818409 -0.69365036487579335 0.02701707556843758 -0.03774378448724746 20.410000801086429 0.040452525019645698
decision_type=2 2 2 2 2 2 2 2 2 2 2 2 2 2 2 2 2 2 2 2 2 2 2 2 2 2 2 2 2 2
left_child=1 3 -3 7 -5 24 13 -1 9 -9 -10 12 -12 14 16 -16 17 18 19 20 -7 22 23 -21 -2 -4 28 -28 -18 -30
right_child=5 2 25 4 -6 6 -8 8 10 -11 11 -13 -14 -15 15 -17 26 -19 -20 21 -22 -23 -24 -25 -26 -27 27 -29 29 -31
leaf_value=0.00011020020067032855 0.0012096494230689103 0.073893620605270063 0.0097063552317032138 -0.00028688192884308389 0.027700511028901455 -0.0013257391911551909 -0.001940105838336052 5.3481661737328628e-05 0.00037858563206973902 0.034822614119166422 0.0027911159064517251 0.0010917415585323786 0.032356162232633399 -9.1383902061414418e-05 0.023639307604659172 -0.00026184852625287712 -3.4058383271613189e-05 0.011236738033163418 0.00025328990612159304 0.0013329085062257944 0.028124719114264563 0.010761086581711423 0.00057979302123648403 0.016641115555384507 0.00022110149208674564 0.00034961298874381568 0.00014027245215033154 -0.00082715174319503322 -2.5823349859038451e-05 0.00014757315645868218
leaf_weight=223220 1746 23 20 35 20 26 2411 81 14430 20 71 3073 25 409085 20 41 863691 23 9702 79 20 23 1159 23 56751 112 3177 4855 282438 167375
leaf_count=223220 1746 23 20 35 20 26 2411 81 14430 20 71 3073 25 409085 20 41 863691 23 9702 79 20 23 1159 23 56751 112 3177 4855 282438 167375
internal_value=1.00549e-08 0.000156734 0.0129409 0.000148453 0.0101854 -2.09536e-05 -3.00634e-05 0.000146115 0.000598964 0.00722216 0.000560489 0.00138809 0.0107549 -2.74178e-05 -7.78123e-06 0.00781335 -8.14586e-06 0.000427281 0.000403638 0.00149862 0.0117835 0.0011205 0.000935483 0.00492252 0.000250645 0.00183714 -1.17894e-05 -0.0004444 -9.14292e-06 3.86953e-05
internal_weight=2.04378e+06 241130 155 240975 55 1.80264e+06 1.74415e+06 240920 17700 101 17599 3169 96 1.74174e+06 1.33265e+06 61 1.33259e+06 11055 11032 1330 46 1284 1261 102 58497 132 1.32154e+06 8032 1.3135e+06 449813
internal_count=2043775 241130 155 240975 55 1802645 1744148 240920 17700 101 17599 3169 96 1741737 1332652 61 1332591 11055 11032 1330 46 1284 1261 102 58497 132 1321536 8032 1313504 449813
is_linear=0
shrinkage=0.01


Tree=11
num_leaves=31
num_cat=0
split_feature=27 1 17 0 30 33 32 14 17 9 27 5 27 3 34 7 30 33 21 9 31 14 33 32 30 33 31 32 28 10
split_gain=65.819 250.262 1033.6 55.3543 102.623 43.7117 86.3646 38.4032 44.1404 197.629 25.9963 82.3978 21.6442 23.9266 22.2953 18.2558 17.7947 22.1006 16.6221 16.2524 18.3346 16.0979 15.6097 26.0743 22.6757 20.2303 16.96 15.3579 15.3456 14.6786
threshold=2.4608840942382817 9.7662501335144061 0.94112336635589611 8.062904357910158 0.012251481879502537 -0.13279036432504651 -0.13734664767980573 0.091223813593387618 1.0000000180025095e-35 0.98280480504035961 0.65049999952316295 0.39189189672470098 817.85000610351574 -0.28476625680923456 0.65431052446365368 -0.36924058198928827 0.02701707556843758 -0.03774378448724746 -0.58604139089584339 -0.38005034625530237 0.046407777816057212 0.18806414306163791 0.094554353505373015 0.0405691396445036 -0.022989905439317223 -0.071440894156694398 0.0068178519140928992 -0.020611517131328579 0.050781467929482467 -0.84167230129241932
decision_type=2 2 2 2 2 2 2 2 2 2 2 2 2 2 2 2 2 2 2 2 2 2 2 2 2 2 2 2 2 2
left_child=1 3 -3 7 -5 19 -7 -1 9 -9 11 18 13 14 29 21 22 -18 -10 20 -2 -12 24 28 -15 -26 -27 -4 -24 -8
right_child=5 2 27 4 -6 6 12 8 10 -11 15 -13 -14 16 -16 -17 17 -19 -20 -21 -22 -23 23 -25 25 26 -28 -29 -30 -31
leaf_value=0.00010909820740901599 0.00066192345929961085 0.073185472485919792 0.0092524445622187597 -0.00035919134811653443 0.02756543792988218 -0.0019207128410905214 0.0010790403249104263 5.2953357024618039e-05 0.0077189147147749149 0.034490970370315378 0.0010711838064619166 0.016683104794962624 -0.00016151851496925499 -0.00029296938001823934 0.0089624847160031402 0.00039682571328363567 0.00014148562794088777 -0.00084179429699657977 0.0012398142567394447 0.00014244716833362306 -0.00021376971097929011 0.0042769348410200674 6.4389533692346484e-05 -5.7655855613673115e-05 0.00014028609476366102 -6.7867094523873842e-05 6.4516853798101811e-06 0.0002540600210667361 0.00028378374909774522 0.00022155098936129953
leaf_weight=223220 13880 23 22 35 20 2411 2294 81 41 20 572 37 112150 32690 29 15998 3783 5768 735 41731 2886 216 84846 115150 69037 706323 543180 110 51087 15400
leaf_count=223220 13880 23 22 35 20 2411 2294 81 41 20 572 37 112150 32690 29 15998 3783 5768 735 41731 2886 216 84846 115150 69037 706323 543180 110 51087 15400
internal_value=1.13589e-08 0.000155175 0.012817 0.000146973 0.0100883 -2.07435e-05 -2.97623e-05 0.000144657 0.000593018 0.00715346 0.000554906 0.00230056 -2.7143e-05 -1.78945e-05 0.000347516 0.000470167 -2.19131e-05 -0.000452254 0.00159292 0.000248139 0.000511123 0.00195549 -1.9347e-05 5.30582e-05 -3.2802e-05 -2.63508e-05 -3.55587e-05 0.0018196 0.000146852 0.000332834
internal_weight=2.04378e+06 241130 155 240975 55 1.80264e+06 1.74415e+06 240920 17700 101 17599 813 1.74174e+06 1.62959e+06 17723 16786 1.61186e+06 9551 776 58497 16766 788 1.60231e+06 251083 1.35123e+06 1.31854e+06 1.2495e+06 132 135933 17694
internal_count=2043775 241130 155 240975 55 1802645 1744148 240920 17700 101 17599 813 1741737 1629587 17723 16786 1611864 9551 776 58497 16766 788 1602313 251083 1351230 1318540 1249503 132 135933 17694
is_linear=0
shrinkage=0.01


Tree=12
num_leaves=31
num_cat=0
split_feature=27 1 17 0 5 33 29 14 17 15 14 28 25 27 3 33 29 31 30 33 30 29 31 29 33 11 9 15 14 25
split_gain=64.538 244.535 1014.99 51.556 112.047 42.8024 83.9945 38.0926 196.619 204.193 29.3067 23.9474 22.7162 21.1417 24.0956 17.9229 31.5703 20.4366 19.9774 18.3967 27.7535 17.4666 17.163 21.679 17.5717 16.142 15.5685 15.3591 28.8277 155.094
threshold=2.5100396871566777 9.7662501335144061 0.94112336635589611 6.7720000743865976 0.10740945115685464 -0.13279036432504651 45.32500076293946 0.30953584611415869 0.55498170852661144 0.30558589100837713 0.05959505774080754 0.19487681984901431 0.17915620654821399 1999.3750000000002 -0.20126220583915708 0.094554353505373015 20.590000152587894 -0.0045265394728630773 -0.013691443949937819 -0.071440894156694398 0.02701707556843758 41.804998397827156 -0.0012701143859885631 20.410000801086429 -0.054780205711722367 -0.54255166649818409 -0.52010124921798695 0.2196934595704079 0.30953584611415869 0.07701654359698297
decision_type=2 2 2 2 2 2 2 2 2 2 2 2 2 2 2 2 2 2 2 2 2 2 2 2 2 2 2 2 2 2
left_child=1 3 -3 7 -5 25 13 10 9 -9 -1 -6 -10 14 27 18 -17 -18 21 -20 22 -16 -21 -24 -25 -2 -12 -7 -29 -30
right_child=5 2 -4 4 11 6 -8 8 12 -11 26 -13 -14 -15 15 16 17 -19 19 20 -22 -23 23 24 -26 -27 -28 28 29 -31
leaf_value=7.6046837816176851e-05 0.0011975811780884093 0.07248411296308041 0.0018045489625217316 0.027685400513710365 -0.00037056925583960889 0.00015802154225985385 -0.0019021122233772801 0.045337688536871056 0.0075374853025376798 0.0038885399473124541 0.00074694007551174071 0.011427359824873166 0.00054237810980980181 -0.00018380878255971415 -0.00016552060985099818 -4.0588590694522712e-05 0.00045473727499001186 0.00011203232919257039 0.00013902475668457257 -8.9832589324493925e-05 -0.00067630290677001177 -0.0017599295125973833 -3.4141746063953682e-05 -0.00021509193231881215 0.0001339906316467397 0.00021675759123161015 0.00026864504953874867 0.00060639853993934689 0.029612129018049351 0.0017406939710539351
leaf_weight=195428 1729 23 133 20 78 49941 2392 20 49 28 8011 21 661 82228 99772 150474 22369 78403 61278 384556 6786 691 640092 16089 138767 56396 45342 1758 21 219
leaf_count=195428 1729 23 133 20 78 49941 2392 20 49 28 8011 21 661 82228 99772 150474 22369 78403 61278 384556 6786 691 640092 16089 138767 56396 45342 1758 21 219
internal_value=1.2213e-08 0.0001506 0.0126269 0.00014275 0.006696 -2.09571e-05 -2.98959e-05 0.000139594 0.00237653 0.0217522 0.000132764 0.00221127 0.00103647 -2.73108e-05 -1.95167e-05 -2.64015e-05 5.11397e-05 0.000188118 -4.08544e-05 -2.99291e-05 -3.86574e-05 -0.000176515 -3.49874e-05 -8.45477e-06 9.77146e-05 0.000245971 0.000340493 0.000192453 0.00105206 0.00429635
internal_weight=2.04378e+06 249814 156 249658 119 1.79396e+06 1.73584e+06 249539 758 48 248781 99 710 1.73344e+06 1.65122e+06 1.59928e+06 251246 100772 1.34803e+06 1.24757e+06 1.18629e+06 100463 1.1795e+06 794948 154856 58125 53353 51939 1998 240
internal_count=2043775 249814 156 249658 119 1793961 1735836 249539 758 48 248781 99 710 1733444 1651216 1599277 251246 100772 1348031 1247568 1186290 100463 1179504 794948 154856 58125 53353 51939 1998 240
is_linear=0
shrinkage=0.01


Tree=13
num_leaves=31
num_cat=0
split_feature=33 29 0 11 9 34 9 14 5 17 21 29 33 32 33 30 29 30 29 31 10 20 19 35 5 12 31 9 31 32
split_gain=59.6355 100.744 46.3064 34.9746 33.7264 27.0071 64.747 18.2841 155.681 37.531 204.851 17.1786 42.9648 22.7078 19.1558 29.25 19.288 19.2431 17.2205 17.0415 17.0347 43.2706 101.026 48.3949 54.0691 19.0189 17.0274 20.628 15.8037 15.9155
threshold=-0.13279036432504651 45.32500076293946 4.6680705547332773 -0.54255166649818409 -0.4255318790674209 0.65431052446365368 -0.66221565008163441 0.0015376133378595116 0.95578953623771679 1.0000000180025095e-35 0.14990538358688357 20.410000801086429 0.034782685339450843 -0.065642755478620515 -0.069211814552545534 0.02701707556843758 41.804998397827156 -0.022989905439317223 15.765000343322756 0.033530263230204589 -0.84167230129241932 -0.9171260893344878 -22.389544486999508 0.18091071397066119 0.013357150368392469 0.035690512508153922 0.046407777816057212 -0.33155079185962671 0.017962502315640453 -0.013425759505480526
decision_type=2 2 2 2 2 2 2 2 2 2 2 2 2 2 2 2 2 2 2 2 2 2 2 2 2 2 2 2 2 2
left_child=3 2 4 19 5 20 -7 8 -6 10 -9 18 14 -14 17 16 28 -13 -4 -1 21 22 -2 25 -25 -24 27 -5 29 -16
right_child=1 -3 11 26 7 6 -8 9 -10 -11 -12 12 13 -15 15 -17 -18 -19 -20 -21 -22 -23 23 24 -26 -27 -28 -29 -30 -31
leaf_value=0.0018069469854311289 0.024283132323904125 -0.0018775309903755284 -2.4349350240496219e-05 0.00056579605723585324 0.00035963646738277434 0.0198902782353883 -0.00020180462419271605 2.3213359231696184e-05 0.027530496107586459 4.5803966563459358e-05 0.034020069360200848 -0.00038968334021456923 -0.00074015823156077304 0.0001358538325428684 -6.7819330347125776e-05 -0.00096677128054343728 -0.0018021245161841662 0.000135506809932931 -0.00011150028314840713 -0.00018066691130672418 0.00028863033983518089 0.00051042969679023897 0.00092248201759256583 0.021708098394244355 0.001402079447000115 0.0081876165741356088 -0.00011732204268548312 0.00016874076190780739 7.1481282593339709e-05 -0.000271437650675578
leaf_weight=2138 22 2884 501530 20401 255 23 48 114 22 525218 20 7857 3003 196506 113375 3942 661 62154 413843 539 34702 2141 374 26 26 39 11080 36515 46264 58053
leaf_count=2138 22 2884 501530 20401 255 23 48 114 22 525218 20 7857 3003 196506 113375 3942 661 62154 413843 539 34702 2141 374 26 26 39 11080 36515 46264 58053
internal_value=1.31224e-08 -1.02097e-05 -7.47484e-06 0.000285431 6.91677e-05 0.000359314 0.00647886 4.85198e-05 0.00261248 4.71611e-05 0.00531919 -3.8141e-05 9.524e-06 0.000122659 -6.76916e-05 -0.000113124 -9.7704e-05 7.65482e-05 -6.37517e-05 0.00140646 0.000347475 0.00112372 0.00381132 0.00279058 0.011792 0.00162907 0.000241262 0.000311086 -9.25158e-05 -0.00013678
internal_weight=2.04378e+06 1.9731e+06 1.97022e+06 70673 563030 37401 71 525629 277 525352 134 1.40719e+06 491815 199509 292306 222295 218353 70011 915373 2677 37330 2628 487 465 52 413 67996 56916 217692 171428
internal_count=2043775 1973102 1970218 70673 563030 37401 71 525629 277 525352 134 1407188 491815 199509 292306 222295 218353 70011 915373 2677 37330 2628 487 465 52 413 67996 56916 217692 171428
is_linear=0
shrinkage=0.01


Tree=14
num_leaves=31
num_cat=0
split_feature=27 2 10 30 22 33 29 21 17 27 22 11 14 7 10 32 29 27 31 9 9 13 33 31 30 29 31 29 31 33
split_gain=62.8871 293.632 1025.51 163.944 57.6161 47.5508 91.3645 43.2054 182.637 28.9752 48.8774 24.9595 23.3795 22.8311 17.6604 22.6679 62.6541 15.9021 15.6662 15.746 15.3094 14.8231 15.0504 25.9876 14.328 14.926 19.6333 15.4191 14.0058 13.5181
threshold=1.532794237136841 9.6815667152404803 0.013985199853777887 0.01032735174521804 0.2934741228818894 -0.13279036432504651 45.32500076293946 0.16300682723522189 1.1587679982185366 7.7102990150451669 -2.8135837316513057 -0.54255166649818409 0.060799911618232734 -0.36924058198928827 -0.87372881174087513 -0.027383130975067612 18.539999961853031 77332.500000000015 0.058672668412327773 -0.33155079185962671 -0.40145374834537501 0.68822699785232555 0.11509754136204721 -0.0052700643427669993 -0.013691443949937819 20.410000801086429 0.0069763925857841977 15.434999942779543 0.0065171278547495612 0.12518927082419398
decision_type=2 2 2 2 2 2 2 2 2 2 2 2 2 2 2 2 2 2 2 2 2 2 2 2 2 2 2 2 2 2
left_child=1 4 3 -3 7 11 9 13 -9 10 -7 -2 -12 -1 15 16 -14 21 19 -13 -15 22 24 29 -11 27 28 -26 -27 -24
right_child=5 2 -4 -5 -6 6 -8 8 -10 17 12 18 14 20 -16 -17 -18 -19 -20 -21 -22 -23 23 -25 25 26 -28 -29 -30 -31
leaf_value=0.002151427149038414 0.0013009490687762957 0.00053865760071094182 0.070799507678414766 0.030165244363337049 0.015103543491604237 0.014296633211478669 -0.0018794186248623701 0.033003729046810246 1.992749885950402e-05 -0.00019743476065325246 5.7056996515007506e-06 0.00051894460345759978 0.017616586653818374 0.00050436817465596216 0.00015544966562638238 0.00069454002904013477 0.0021594246903539984 -0.00037825248087217274 -0.00016244762594983108 0.00015790148008297384 0.00014647685642905033 -0.00061085040449603641 0.001333049066852561 -6.497028966118865e-06 -2.4638679569806712e-05 -4.5973010261005819e-05 0.00011969135809738516 -0.00012401679884337102 -0.001002814519276663 0.00033837876728870107
leaf_weight=600 2197 170 25 20 25 23 2643 20 84 68300 711360 18453 29 13888 95474 1078 214 14859 9282 35011 85895 4671 1494 71406 315312 156597 107773 309312 1544 16016
leaf_count=600 2197 170 25 20 25 23 2643 20 84 68300 711360 18453 29 13888 95474 1078 214 14859 9282 35011 85895 4671 1494 71406 315312 156597 107773 309312 1544 16016
internal_value=1.36816e-08 0.000243644 0.0118906 0.00380409 0.000218603 -1.26156e-05 -2.18153e-05 0.000214739 0.0066264 -1.91959e-05 2.59728e-05 0.000253411 2.55477e-05 0.000208021 0.000171358 0.00131935 0.00407284 -5.33998e-05 0.000216696 0.000282541 0.000196303 -4.8812e-05 -4.63048e-05 7.81491e-05 -5.78469e-05 -4.71399e-05 1.56027e-05 -7.38522e-05 -5.53277e-05 0.000423375
internal_weight=2.04378e+06 100727 215 190 100512 1.94305e+06 1.8781e+06 100487 104 1.87546e+06 808178 64943 808155 100383 96795 1321 243 1.06728e+06 62746 53464 99783 1.05242e+06 1.04775e+06 88916 958838 890538 265914 624624 158141 17510
internal_count=2043775 100727 215 190 100512 1943048 1878105 100487 104 1875462 808178 64943 808155 100383 96795 1321 243 1067284 62746 53464 99783 1052425 1047754 88916 958838 890538 265914 624624 158141 17510
is_linear=0
shrinkage=0.01


Tree=15
num_leaves=31
num_cat=0
split_feature=27 0 28 28 22 18 33 29 21 15 22 25 27 0 11 14 0 9 10 18 33 27 31 9 33 31 30 29 31 29
split_gain=61.6433 339.008 909.806 98.1642 50.0239 207.242 46.6046 89.547 42.9637 180.335 33.2268 43.745 28.399 61.9262 24.4631 22.9344 20.1113 17.298 17.0702 33.1305 91.7003 15.5856 15.3545 15.4326 14.1344 25.806 13.868 14.7261 19.1542 14.9822
threshold=1.532794237136841 4.8360524177551278 0.011976042762398722 0.22191758453845981 -0.14836022257804868 26.737264633178714 -0.13279036432504651 45.32500076293946 0.16300682723522189 0.044236900284886367 0.2934741228818894 0.33929732441902166 7.7102990150451669 16.480082511901859 -0.54255166649818409 0.060799911618232734 1.9158018827438357 -0.40145374834537501 -0.87372881174087513 9.9271359443664569 -0.0016411775141023097 77332.500000000015 0.058672668412327773 -0.33155079185962671 0.11509754136204721 -0.0052700643427669993 -0.013691443949937819 20.410000801086429 0.0069763925857841977 15.434999942779543
decision_type=2 2 2 2 2 2 2 2 2 2 2 2 2 2 2 2 2 2 2 2 2 2 2 2 2 2 2 2 2 2
left_child=1 4 -3 -4 5 -1 14 12 10 -10 16 -12 13 15 -2 -8 17 -6 19 20 -17 24 23 -16 26 -26 -14 29 -29 -28
right_child=6 2 3 -5 8 -7 7 -9 9 -11 11 -13 21 -15 22 18 -18 -19 -20 -21 -22 -23 -24 -25 25 -27 27 28 -30 -31
leaf_value=0.0017589012058092618 0.0012879455147044787 0.07657401125583177 0.00049854387782612131 0.024430018658794107 0.00051750952006276551 0.034910368065039318 5.6134507673765294e-06 -0.0018606315401872293 0.032813193807644504 0 -0.00099225603870581845 0.018866322048008442 -0.00019655493129721151 0.01719783150556586 0.00051375543200104146 0.025487989164445373 0.0036161650194949609 0.00014005242903935411 0.0001540084699225248 0.00089963426756886774 0.0010039633760341154 -0.00037447021771429224 -0.00016082332060054331 0.00015632250501723007 0.00041461888854605814 -1.2224036311218526e-05 -2.707555553265164e-05 -5.6817336535190518e-05 0.00011554670218135395 -0.00012485165846935905
leaf_weight=187 2197 20 94 20 14142 20 711359 2643 20 83 22 21 68574 20 18453 20 171 85927 95473 1249 57 14859 9282 35011 17637 71891 316563 158813 108528 310419
leaf_count=187 2197 20 94 20 14142 20 711359 2643 20 83 22 21 68574 20 18453 20 171 85927 95473 1249 57 14859 9282 35011 17637 71891 316563 158813 108528 310419
internal_value=1.4508e-08 0.000241224 0.0160774 0.00488167 0.000219959 0.00511919 -1.24893e-05 -2.15969e-05 0.000209795 0.00663418 0.000203121 0.00889175 -1.90037e-05 2.57136e-05 0.000250877 2.52661e-05 0.000199295 0.00019341 0.000169678 0.00129617 0.00762151 -5.28659e-05 0.00021453 0.000279716 -4.83239e-05 7.18565e-05 -5.94991e-05 -4.89888e-05 1.31509e-05 -7.54863e-05
internal_weight=2.04378e+06 100727 134 114 100593 207 1.94305e+06 1.8781e+06 100386 103 100283 43 1.87546e+06 808178 64943 808158 100240 100069 96799 1326 77 1.06728e+06 62746 53464 1.05242e+06 89528 962897 894323 267341 626982
internal_count=2043775 100727 134 114 100593 207 1943048 1878105 100386 103 100283 43 1875462 808178 64943 808158 100240 100069 96799 1326 77 1067284 62746 53464 1052425 89528 962897 894323 267341 626982
is_linear=0
shrinkage=0.01


Tree=16
num_leaves=31
num_cat=0
split_feature=33 32 0 11 9 34 9 1 32 31 14 13 18 29 33 32 33 30 29 30 29 31 9 14 31 32 34 33 31 32
split_gain=56.2911 95.1976 43.81 33.0695 32.2554 26.2853 63.1958 21.2799 155.733 16.6735 16.421 17.6851 44.8033 16.402 41.6003 22.1477 18.7448 28.7388 18.8527 18.666 16.3231 16.1129 19.5037 15.2473 15.0616 15.5988 14.6657 14.6637 13.9525 12.5872
threshold=-0.13279036432504651 -0.13734664767980573 4.6680705547332773 -0.54255166649818409 -0.4255318790674209 0.65431052446365368 -0.66221565008163441 9.9327645301818865 -0.0035914424806833263 0.033530263230204589 0.18806414306163791 -0.13589066267013547 20.224755287170414 20.410000801086429 0.034782685339450843 -0.065642755478620515 -0.069211814552545534 0.02701707556843758 41.804998397827156 -0.022989905439317223 15.765000343322756 0.046407777816057212 -0.33155079185962671 0.060207195580005653 0.017962502315640453 -0.013425759505480526 0.5054079294204713 -0.06747944280505179 0.012812070082873108 0.040009981021285064
decision_type=2 2 2 2 2 2 2 2 2 2 2 2 2 2 2 2 2 2 2 2 2 2 2 2 2 2 2 2 2 2
left_child=3 -2 4 9 5 10 -7 23 -9 -1 -3 12 -12 20 16 -16 19 18 24 -15 -4 22 -5 -6 25 27 -14 -18 -27 -17
right_child=1 2 13 21 7 6 -8 8 -10 -11 11 -13 26 14 15 29 17 -19 -20 -21 -22 -23 -24 -25 -26 28 -28 -29 -30 -31
leaf_value=0.0017635312626996028 -0.0018251089907008 0.00030582903255359109 -2.374916447687663e-05 0.00054996007223406579 2.4822982780602403e-05 0.019638087446258091 -0.00021140569714800814 -0.00057923629046553022 0.029042728196519114 -0.00020247352243499741 0.017351965559477156 0.00065329845617656741 0.0018736924162477953 -0.00038299240640866569 -0.00073129573716217329 0.00018857061039656613 -0.00075031917180254078 -0.0009575882012934216 -0.0017812270448969404 0.00013426111730735593 -0.00010859882035882827 -0.00011445472821747162 0.00016387558988210774 0.0001826196866536728 6.9081462558194436e-05 -0.00031530487255799572 0.010218437889671843 -4.7050279554077402e-05 0.00023559347411691739 1.677987383458834e-05
leaf_weight=2138 2884 36403 501530 20401 454727 23 48 114 20 539 21 610 274 7857 3003 133900 3046 3942 661 62154 413843 11080 36515 70768 46264 53022 22 110329 5031 62606
leaf_count=2138 2884 36403 501530 20401 454727 23 48 114 20 539 21 610 274 7857 3003 133900 3046 3942 661 62154 413843 11080 36515 70768 46264 53022 22 110329 5031 62606
internal_value=1.55826e-08 -9.91641e-06 -7.25791e-06 0.000277315 6.729e-05 0.000351039 0.00638827 4.70974e-05 0.00401693 0.00136739 0.000339359 0.00165323 0.00356614 -3.7086e-05 9.4891e-06 0.000120814 -6.64905e-05 -0.000111433 -9.6148e-05 7.61933e-05 -6.21111e-05 0.000234365 0.000302289 4.60756e-05 -9.10187e-05 -0.000134232 0.00252959 -6.596e-05 -0.000267542 0.000133844
internal_weight=2.04378e+06 1.9731e+06 1.97022e+06 70673 563030 37401 71 525629 134 2677 37330 927 317 1.40719e+06 491815 199509 292306 222295 218353 70011 915373 67996 56916 525495 217692 171428 296 113375 58053 196506
internal_count=2043775 1973102 1970218 70673 563030 37401 71 525629 134 2677 37330 927 317 1407188 491815 199509 292306 222295 218353 70011 915373 67996 56916 525495 217692 171428 296 113375 58053 196506
is_linear=0
shrinkage=0.01


Tree=17
num_leaves=31
num_cat=0
split_feature=33 32 0 11 14 1 28 10 34 1 32 31 0 6 14 10 13 31 30 33 28 7 13 31 11 30 33 31 30 33
split_gain=55.1708 93.3039 42.9394 32.4114 31.259 71.2178 99.4688 32.6204 86.5583 34.0644 80.7463 16.3422 15.8872 23.422 154.518 25.0033 25.4292 15.7923 14.1703 14.8421 13.5969 27.898 19.8643 13.0152 19.2233 13.6626 12.3937 28.3675 15.8133 15.5939
threshold=-0.13279036432504651 -0.13734664767980573 4.6680705547332773 -0.54255166649818409 0.055582525208592422 9.9327645301818865 0.011615292634814979 -0.87372881174087513 0.5054079294204713 5.0200161933898935 -0.032289125025272362 0.033530263230204589 627.49468994140636 -0.19175507873296735 0.014269499573856594 -0.92894336581230152 -0.71521851420402516 0.046407777816057212 0.02701707556843758 -0.03774378448724746 0.027680756524205211 -0.36924058198928827 -0.44452233612537378 -0.077411100268363939 -0.23879873752593991 0.056672099977731712 0.11509754136204721 -0.0052700643427669993 -0.021281256340444085 -0.071440894156694398
decision_type=2 2 2 2 2 2 2 2 2 2 2 2 2 2 2 2 2 2 2 2 2 2 2 2 2 2 2 2 2 2
left_child=3 -2 4 11 5 -3 -7 8 9 -6 -11 -1 13 14 -4 16 -16 23 26 -20 21 22 -17 25 -25 -5 28 -28 -15 -30
right_child=1 2 12 17 7 6 -8 -9 -10 10 -12 -13 -14 18 15 20 -18 -19 19 -21 -22 -23 -24 24 -26 -27 27 -29 29 -31
leaf_value=0.0017459041892977359 -0.0018068642453736598 2.9302027351630799e-05 0.027777671779195465 9.2712622947590325e-05 0.0007865477243179644 0.028539461064241118 -3.2112100472052873e-06 0.00019960394080498805 0.016573530241356868 0.018873831621241861 0.0016465109305460366 -0.00020045253738671482 -0.00014507184708616774 -0.00025262876450446822 0.014580960907689901 0.016603992395991966 0.0027911640294745062 -0.00011331028220382365 9.4271367196234782e-05 -0.00082547479186005168 0.00028681024433603461 0.0012270294304391935 0.0029356190115466473 0.00079628620353089038 0.00027384425027758569 -0.0011950953863532697 0.000409878929275153 -2.8123674243271512e-06 0.00013717460232509366 -3.7678152208153491e-05
leaf_weight=2138 2884 456405 20 9729 1357 20 29 105034 37 35 113 539 123445 32653 22 21 95 11080 2877 4488 3770 257 22 8669 37619 899 20636 86318 53532 1079032
leaf_count=2138 2884 456405 20 9729 1357 20 29 105034 37 35 113 539 123445 32653 22 21 95 11080 2877 4488 3770 257 22 8669 37619 899 20636 86318 53532 1079032
internal_value=1.58009e-08 -9.81687e-06 -7.18493e-06 0.000274542 6.66186e-05 3.06117e-05 0.0119646 0.000220821 0.00166435 0.00128638 0.00582658 0.00135371 -3.67152e-05 -2.62947e-05 0.000718533 0.000582439 0.0051213 0.000232021 -2.8745e-05 -0.000466093 0.000450489 0.00249628 0.00985925 0.000299266 0.000371726 -1.62284e-05 -2.62119e-05 7.68072e-05 -3.56688e-05 -2.94125e-05
internal_weight=2.04378e+06 1.9731e+06 1.97022e+06 70673 563030 456454 49 106576 1542 1505 148 2677 1.40719e+06 1.28374e+06 4207 4187 117 67996 1.27954e+06 7365 4070 300 43 56916 46288 10628 1.27217e+06 106954 1.16522e+06 1.13256e+06
internal_count=2043775 1973102 1970218 70673 563030 456454 49 106576 1542 1505 148 2677 1407188 1283743 4207 4187 117 67996 1279536 7365 4070 300 43 56916 46288 10628 1272171 106954 1165217 1132564
is_linear=0
shrinkage=0.01


Tree=18
num_leaves=31
num_cat=0
split_feature=27 1 32 0 16 23 17 35 33 32 27 0 11 23 1 9 10 9 32 29 27 13 31 9 33 31 30 29 31 29
split_gain=59.3945 528.915 818.436 93.6795 169.615 45.6433 214.732 90.23 43.7785 84.3283 26.9872 60.7024 22.9557 21.7779 19.1301 17.9167 15.8133 21.0002 48.5462 94.9315 15.1965 14.5564 14.4975 14.7033 14.1041 24.4793 13.5071 14.0115 18.6387 14.5765
threshold=1.532794237136841 9.7662501335144061 -0.0045500020496547213 6.7720000743865976 0.67162087559700023 0.30953584611415869 0.55498170852661144 0.24903790652751925 -0.13279036432504651 -0.13734664767980573 7.7102990150451669 16.480082511901859 -0.54255166649818409 0.056979142129421241 1.9080250263214114 -0.4255318790674209 -0.87372881174087513 -0.74483647942543019 -0.027383130975067612 20.590000152587894 77332.500000000015 0.68822699785232555 0.058672668412327773 -0.33155079185962671 0.11509754136204721 -0.0052700643427669993 -0.013691443949937819 20.410000801086429 0.0069763925857841977 15.434999942779543
decision_type=2 2 2 2 2 2 2 2 2 2 2 2 2 2 2 2 2 2 2 2 2 2 2 2 2 2 2 2 2 2
left_child=1 3 -3 5 -5 15 7 -7 12 -10 11 13 -2 -11 -8 -1 17 18 19 -15 21 24 23 -14 26 -26 -12 29 -29 -28
right_child=8 2 -4 4 -6 6 14 -9 9 10 20 -13 22 16 -16 -17 -18 -19 -20 -21 -22 -23 -24 -25 25 -27 27 28 -30 -31
leaf_value=0.00054857183131016716 0.0012476117620309239 0.0021386776212417649 0.075109394995030027 0.032666395422481002 2.4775687263657648e-05 0.0097529036321423266 -0.00015172538891311665 0.039773829945496157 -0.0018057262636819915 3.4969512334780198e-06 -0.00019131175725716905 0.017026608760424312 0.00049957255921177313 0.026821967423529079 0.0064278605943369968 0.00014642163999356101 0.00013936872472752884 0.00022821614157616428 0.0012681064377677703 0.0037785614409783321 -0.00036914236627207228 -0.00060405235138009407 -0.00015693786120641608 0.00015068671568305684 0.00041092717460790523 -6.2833458655912301e-06 -2.3416772437086022e-05 -5.3705845009349123e-05 0.00011682225833332343 -0.00012004154252856274
leaf_weight=12686 2197 43 23 24 44 21 264 20 2643 693738 68300 20 18453 22 52 87550 113034 846 435 83 14859 4671 9282 35011 17510 71406 315312 158141 107773 309312
leaf_count=12686 2197 43 23 24 44 21 264 20 2643 693738 68300 20 18453 22 52 87550 113034 846 435 83 14859 4671 9282 35011 17510 71406 315312 158141 107773 309312
internal_value=1.63371e-08 0.000236785 0.0283243 0.000218078 0.0118663 0.000210076 0.00377454 0.0250194 -1.22573e-05 -2.10845e-05 -1.85679e-05 2.50236e-05 0.000242999 2.45806e-05 0.000944698 0.000197333 0.000152402 0.00121377 0.00275268 0.00882363 -5.15777e-05 -4.70927e-05 0.000207788 0.00027113 -4.46082e-05 7.58693e-05 -5.57816e-05 -4.53857e-05 1.54044e-05 -7.12668e-05
internal_weight=2.04378e+06 100727 66 100661 68 100593 357 41 1.94305e+06 1.8781e+06 1.87546e+06 808178 64943 808158 316 100236 114420 1386 540 105 1.06728e+06 1.05242e+06 62746 53464 1.04775e+06 88916 958838 890538 265914 624624
internal_count=2043775 100727 66 100661 68 100593 357 41 1943048 1878105 1875462 808178 64943 808158 316 100236 114420 1386 540 105 1067284 1052425 62746 53464 1047754 88916 958838 890538 265914 624624
is_linear=0
shrinkage=0.01


Tree=19
num_leaves=31
num_cat=0
split_feature=33 29 0 20 14 34 19 34 11 14 17 21 31 29 33 33 30 30 29 29 31 9 31 6 6 14 17 21 0 14
split_gain=53.0811 89.7857 41.3372 31.4825 148.598 86.6331 64.8803 122.142 31.25 24.6078 35.5914 196.58 16.0133 15.8415 40.4137 18.1035 21.7072 18.5637 18.484 15.7286 15.2119 18.6491 13.5409 12.7673 11.5427 45.9465 77.461 11.1403 11.0793 11.6687
threshold=-0.13279036432504651 45.32500076293946 4.6680705547332773 -0.87002894282340992 0.017631629481911663 0.5054079294204713 -28.848901748657223 -0.10923378542065619 -0.54255166649818409 0.056979142129421241 1.0000000180025095e-35 0.14990538358688357 0.033530263230204589 20.410000801086429 0.034782685339450843 -0.071440894156694398 0.02701707556843758 -0.022989905439317223 41.804998397827156 15.765000343322756 0.046407777816057212 -0.33155079185962671 0.017962502315640453 -0.10255131497979163 -0.19175507873296735 0.027935773134231571 0.86216902732849132 -16776.429687499996 0.65407967567443859 0.10305799171328546
decision_type=2 2 2 2 2 2 2 2 2 2 2 2 2 2 2 2 2 2 2 2 2 2 2 2 2 2 2 2 2 2
left_child=8 2 3 4 -2 6 7 -6 12 -5 11 -11 -1 19 15 17 18 -15 22 24 21 -10 -17 -12 25 26 -4 -21 29 -25
right_child=1 -3 13 9 5 -7 -8 -9 20 10 23 -13 -14 14 -16 16 -18 -19 -20 27 -22 -23 -24 28 -26 -27 -28 -29 -30 -31
leaf_value=0.0017171829408131184 0.027016630253416513 -0.0017724693854543221 0.024683532041452856 2.9585212551935693e-05 -0.00021474237938943718 0.01591667309980288 0.00048708435700333129 0.03042377058487563 0.00053572426814079267 7.5739120914866879e-05 0.00067328622531011935 0.03345015750470616 -0.00020946781546253652 -0.00037539833898536206 0.00011947810023704471 -0.00012887709443087293 -0.00076583326660311713 0.00014247952890449357 -0.001761580462292121 -0.00082027768823303188 -0.00011138229776129274 0.00015819203581534451 6.203898963053715e-05 0.00053747419817621017 -2.5948609548421682e-05 0.00051704492926199334 -0.0023373084158043972 -0.00010247347467538798 0.00015366678763293124 0.0025098109109754469
leaf_weight=2138 21 2884 20 462246 34 37 2660 20 20401 111 5323 20 539 7857 199509 173582 4901 58047 661 2173 11080 36515 47258 1549 499590 1899 21 411670 90637 372
leaf_count=2138 21 2884 20 462246 34 37 2660 20 20401 111 5323 20 539 7857 199509 173582 4901 58047 661 2173 11080 36515 47258 1549 499590 1899 21 411670 90637 372
internal_value=1.72737e-08 -9.62737e-06 -7.04552e-06 6.5368e-05 0.00112828 0.000920548 0.00070995 0.0114615 0.000269294 6.01052e-05 0.000204032 0.00539346 0.00132896 -3.60196e-05 9.75282e-06 -6.51352e-05 -0.000107597 8.07188e-05 -9.30246e-05 -6.06135e-05 0.000227542 0.000293539 -8.80179e-05 0.000197022 -2.29565e-05 0.000746687 0.0110937 -0.000106247 0.000169614 0.000921043
internal_weight=2.04378e+06 1.9731e+06 1.97022e+06 563030 2772 2751 2714 54 70673 560258 98012 131 2677 1.40719e+06 491815 292306 226402 65904 221501 915373 67996 56916 220840 97881 501530 1940 41 413843 92558 1921
internal_count=2043775 1973102 1970218 563030 2772 2751 2714 54 70673 560258 98012 131 2677 1407188 491815 292306 226402 65904 221501 915373 67996 56916 220840 97881 501530 1940 41 413843 92558 1921
is_linear=0
shrinkage=0.01


Tree=20
num_leaves=31
num_cat=0
split_feature=27 1 32 0 30 14 17 35 33 32 27 0 11 14 1 9 10 32 3 20 27 31 9 33 31 33 30 33 30 2
split_gain=57.6899 517.852 801.43 91.9103 111.438 44.4462 209.522 88.0335 42.0056 81.0152 26.0836 59.547 22.0131 21.0268 18.6674 17.4132 16.0132 21.3612 44.4685 112.989 14.8394 13.9468 14.1047 13.0545 24.2933 13.2809 12.9778 14.076 19.4782 12.5983
threshold=1.532794237136841 9.7662501335144061 -0.0045500020496547213 6.7720000743865976 0.0064938720315694818 0.30953584611415869 0.55498170852661144 0.24903790652751925 -0.13279036432504651 -0.13734664767980573 7.7102990150451669 16.480082511901859 -0.54255166649818409 0.060799911618232734 1.9080250263214114 -0.4255318790674209 -0.87372881174087513 -0.027383130975067612 -0.31432729959487909 -1.2610208392143247 77332.500000000015 0.058672668412327773 -0.33155079185962671 0.11509754136204721 -0.0052700643427669993 0.12518927082419398 -0.01830391492694616 -0.071440894156694398 0.02701707556843758 3.2222709655761723
decision_type=2 2 2 2 2 2 2 2 2 2 2 2 2 2 2 2 2 2 2 2 2 2 2 2 2 2 2 2 2 2
left_child=1 3 -3 5 -5 15 7 -7 12 -10 11 13 -2 -11 -8 -1 17 18 19 -15 23 22 -14 26 25 -25 -12 -28 -29 -16
right_child=8 2 -4 4 -6 6 14 -9 9 10 20 -13 21 16 29 -17 -18 -19 -20 -21 -22 -23 -24 24 -26 -27 27 28 -30 -31
leaf_value=0.00054062108535081336 0.0012217289263853034 0.0021132709012442311 0.074322067590585655 0.0029675802650745028 0.030340130727949811 0.0096298361948945303 -0.00015401689435337796 0.039283794878494177 -0.001769957826172637 5.340707319956348e-06 -0.00023960855245321622 0.016863602783708347 0.00048934673778106106 0.0026821744351588662 0.011324220391276936 0.00014416145351363088 0.0001472572941680245 0.00064950573614337259 0.00079414112048689287 0.028708029332530242 -0.00036452184567971465 -0.00015425494460625378 0.00014763520375061655 0.0012988222470105162 -1.2359423549968754e-05 0.00031771588431516541 0.00012947910358599032 -5.4837436880981123e-05 -0.00072844959671736589 0.0014600019222125414
leaf_weight=12686 2197 43 23 47 21 21 264 20 2643 711359 37416 20 18453 62 25 87550 95473 1083 159 22 14859 9282 35011 1509 71891 16128 41885 879283 4313 27
leaf_count=12686 2197 43 23 47 21 21 264 20 2643 711359 37416 20 18453 62 25 87550 95473 1083 159 22 14859 9282 35011 1509 71891 16128 41885 879283 4313 27
internal_value=1.7768e-08 0.000233364 0.0280256 0.000214853 0.0117526 0.000206927 0.00372433 0.0247099 -1.20784e-05 -2.0725e-05 -1.82584e-05 2.45972e-05 0.000237956 2.41584e-05 0.000929007 0.000194353 0.000162434 0.0012535 0.00392756 0.00976778 -5.07109e-05 0.000203475 0.000265602 -4.62789e-05 6.92191e-05 0.000401784 -5.70188e-05 -4.96356e-05 -5.81274e-05 0.00634547
internal_weight=2.04378e+06 100727 66 100661 68 100593 357 41 1.94305e+06 1.8781e+06 1.87546e+06 808178 64943 808158 316 100236 96799 1326 243 84 1.06728e+06 62746 53464 1.05242e+06 89528 17637 962897 925481 883596 52
internal_count=2043775 100727 66 100661 68 100593 357 41 1943048 1878105 1875462 808178 64943 808158 316 100236 96799 1326 243 84 1067284 62746 53464 1052425 89528 17637 962897 925481 883596 52
is_linear=0
shrinkage=0.01


Tree=21
num_leaves=31
num_cat=0
split_feature=27 1 32 0 16 14 17 33 33 32 27 0 11 3 10 19 16 1 0 19 7 27 13 31 33 31 14 33 30 29
split_gain=56.5501 507.973 786.146 90.1728 166.57 43.6157 205.553 66.424 41.1697 79.4036 25.568 58.421 21.5753 20.6577 34.0327 158.255 38.7702 18.3109 16.3639 31.631 15.8979 14.5171 14.3192 13.6693 13.3372 23.3069 13.321 12.9415 12.9078 13.3418
threshold=1.532794237136841 9.7662501335144061 -0.0045500020496547213 6.1130075454711923 0.67162087559700023 0.30953584611415869 0.55498170852661144 0.084415677934885039 -0.13279036432504651 -0.13734664767980573 7.8006131649017343 16.480082511901859 -0.54255166649818409 -0.28476625680923456 -0.84167230129241932 -28.848901748657223 5.2598249912261972 1.9080250263214114 9.8821001052856463 -13.448776245117186 -0.19480521231889722 77332.500000000015 0.68822699785232555 0.058672668412327773 0.11509754136204721 -0.0052700643427669993 0.056979142129421241 0.12518927082419398 -0.013691443949937819 20.410000801086429
decision_type=2 2 2 2 2 2 2 2 2 2 2 2 2 2 2 2 2 2 2 2 2 2 2 2 2 2 2 2 2 2
left_child=1 3 -3 5 -5 20 7 -7 12 -10 11 13 -2 14 15 -11 -17 -8 26 -20 -1 22 24 -14 28 27 -15 -26 -12 -30
right_child=8 2 -4 4 -6 6 17 -9 9 10 21 -13 23 18 -16 16 -18 -19 19 -21 -22 -23 -24 -25 25 -27 -28 -29 29 -31
leaf_value=0.00082137664073157291 0.0012095172085631949 0.0020926184292078356 0.073609815149723243 0.032247651613727217 0.00070230420823925391 0.011173920269716869 -0.00015248254083342992 0.037195752795963065 -0.0017522649269016265 0.029751566807074203 -0.00018763259919131565 0.016702996854980785 0.0002629462426092689 2.5481862387815512e-06 0.00034091221592744576 0.0013312048725051262 0.013809314519023666 0.0062846137941024215 0.015114419843790874 -0.00063353978408056059 0.00016679788381952605 -0.00036087687029039703 -0.00059931643793082129 -0.00015271256254488806 0.0012949835689237633 -6.445475101506539e-06 0.00012101724224694278 0.00031871389243950102 -6.9677766839426746e-05 1.5255322214485208e-05
leaf_weight=3859 2197 43 23 24 51 21 264 20 2643 20 67670 20 53464 700367 5986 614 25 52 20 32 96370 14859 4657 9282 1485 70856 109795 15879 619536 263641
leaf_count=3859 2197 43 23 24 51 21 264 20 2643 20 67670 20 53464 700367 5986 614 25 52 20 32 96370 14859 4657 9282 1485 70856 109795 15879 619536 263641
internal_value=1.87471e-08 0.000231048 0.0277569 0.000212715 0.0111015 0.000204476 0.00368887 0.0244747 -1.19573e-05 -2.05175e-05 -1.80756e-05 2.39554e-05 0.000235577 2.35254e-05 0.000578778 0.00273412 0.00184177 0.000920116 1.89695e-05 0.0055754 0.000192018 -5.05106e-05 -4.60908e-05 0.000201441 -4.36097e-05 7.40052e-05 1.86047e-05 0.000402334 -5.45232e-05 -4.43229e-05
internal_weight=2.04378e+06 100727 66 100661 75 100586 357 41 1.94305e+06 1.8781e+06 1.87546e+06 816879 64943 816859 6645 659 639 316 810214 52 100229 1.05858e+06 1.04372e+06 62746 1.03907e+06 88220 810162 17364 950847 883177
internal_count=2043775 100727 66 100661 75 100586 357 41 1943048 1878105 1875462 816879 64943 816859 6645 659 639 316 810214 52 100229 1058583 1043724 62746 1039067 88220 810162 17364 950847 883177
is_linear=0
shrinkage=0.01


Tree=22
num_leaves=31
num_cat=0
split_feature=27 1 17 33 29 14 17 9 27 5 27 3 34 10 32 29 27 7 32 21 1 1 30 33 29 33 30 29 9 29
split_gain=55.5283 219.009 958.227 34.7879 69.1588 33.5624 38.467 183.231 24.8692 81.0978 19.4643 20.2264 24.7519 17.0451 33.1656 235.322 416.254 16.4368 15.9296 15.377 15.2401 146.296 14.2226 16.949 14.1877 30.1483 18.7798 16.3226 13.5608 13.1329
threshold=2.4608840942382817 9.7662501335144061 0.94112336635589611 -0.13279036432504651 45.32500076293946 0.091223813593387618 1.0000000180025095e-35 0.98280480504035961 0.65049999952316295 0.39189189672470098 53.415643692016609 -0.28476625680923456 0.65431052446365368 -0.84167230129241932 -0.020790257491171357 18.634999275207523 10.500283241271974 -0.23929660767316815 -0.020611517131328579 -0.58604139089584339 8.2317042350769061 8.5324201583862322 0.02701707556843758 -0.03774378448724746 20.410000801086429 0.040452525019645698 -0.022989905439317223 27.48499965667725 -0.38005034625530237 15.500000000000002
decision_type=2 2 2 2 2 2 2 2 2 2 2 2 2 2 2 2 2 2 2 2 2 2 2 2 2 2 2 2 2 2
left_child=1 5 -3 28 10 20 7 -7 9 19 11 12 13 14 15 16 -5 -10 -4 -8 -1 -22 24 -24 29 26 -26 -28 -2 -13
right_child=3 2 18 4 -6 6 8 -9 17 -11 -12 22 -14 -15 -16 -17 -18 -19 -20 -21 21 -23 23 -25 25 -27 27 -29 -30 -31
leaf_value=9.8971104529304644e-05 0.00046105104828449638 0.070112589235107103 0.0089704440321935249 0.058049418948235967 -0.0017192290824490641 -0.00013211273981215616 0.0074160424743202474 0.033001439724649709 0.0013259773617194904 0.016494208306074142 -9.3403891165081006e-05 2.5139716726287667e-06 0.010142047363190123 0.00023451844853174421 0.00047598571167476914 0.00090387701823646765 0 0.00032545591268087949 -0.00017100973334582939 0.0011841720292678456 0.027835172025220737 0.00014105164039480899 0.00013232251983126238 -0.00078661017774038586 -0.00029242917565290501 0.00013696240358482216 -5.6248365186693467e-05 0.00011050255395212719 0.00012428069719332675 -7.359712315880254e-05
leaf_weight=223045 16766 23 22 20 2411 81 41 20 1845 37 333779 490777 25 10872 1109 350 30 14942 110 735 20 209 3321 5065 24506 179531 185089 85965 41731 421298
leaf_count=223045 16766 23 22 20 2411 81 41 20 1845 37 333779 490777 25 10872 1109 350 30 14942 110 735 20 209 3321 5065 24506 179531 185089 85965 41731 421298
internal_value=1.97954e-08 0.000142538 0.0119874 -1.90436e-05 -2.70893e-05 0.000134865 0.000554008 0.0066784 0.000518428 0.0022258 -2.47454e-05 -8.46806e-06 0.000393509 0.000372927 0.00136865 0.0038337 0.023903 0.000435552 0.00140104 0.00152384 0.000101629 0.00267461 -1.20425e-05 -0.000422605 -9.55946e-06 3.47512e-05 -2.73314e-05 -3.35927e-06 0.000220827 -3.26416e-05
internal_weight=2.04378e+06 241130 155 1.80264e+06 1.74415e+06 240975 17701 101 17600 813 1.74174e+06 1.40796e+06 12406 12381 1509 400 50 16787 132 776 223274 229 1.39555e+06 8386 1.38717e+06 475091 295560 271054 58497 912075
internal_count=2043775 241130 155 1802645 1744148 240975 17701 101 17600 813 1741737 1407958 12406 12381 1509 400 50 16787 132 776 223274 229 1395552 8386 1387166 475091 295560 271054 58497 912075
is_linear=0
shrinkage=0.01


Tree=23
num_leaves=31
num_cat=0
split_feature=33 29 0 20 14 34 19 34 11 14 17 21 10 6 21 31 0 6 14 10 32 31 9 30 29 32 29 31 31 29
split_gain=49.3042 83.4737 38.5099 39.0103 145.624 80.2394 63.4806 116.082 29.4259 23.3345 33.5438 180.238 20.1049 24.2754 46.1518 15.6696 15.449 23.0189 146.242 24.6883 18.8477 14.4037 17.7328 13.6829 14.9894 22.7761 26.0611 23.1554 17.1495 15.006
threshold=-0.13279036432504651 45.32500076293946 4.2440550327301034 -0.87002894282340992 0.017631629481911663 0.5054079294204713 -28.848901748657223 -0.10923378542065619 -0.54255166649818409 0.059002874419093139 1.0000000180025095e-35 0.14381977170705798 -0.87372881174087513 -0.084820050746202455 -1.3079773783683775 0.033530263230204589 627.49468994140636 -0.19175507873296735 0.014269499573856594 -0.92894336581230152 -0.020611517131328579 0.046407777816057212 -0.33155079185962671 0.02701707556843758 29.390000343322757 -0.029388724826276299 36.635000228881843 0.0039769089780747899 -0.032921174541115754 20.410000801086429
decision_type=2 2 2 2 2 2 2 2 2 2 2 2 2 2 2 2 2 2 2 2 2 2 2 2 2 2 2 2 2 2
left_child=8 2 3 4 -2 6 7 -6 15 -5 11 -11 13 14 -8 -1 17 18 -4 20 -20 22 -10 24 28 26 -26 -28 -19 -30
right_child=1 -3 16 9 5 -7 12 -9 21 10 -12 -13 -14 -15 -16 -17 -18 23 19 -21 -22 -23 -24 -25 25 -27 27 -29 29 -31
leaf_value=0.0016718602789776349 0.027614195104954713 -0.0017090219741434575 0.027032973347497834 3.258043913244789e-05 -0.00024961213481781839 0.015750239067358542 0.0028904394725770021 0.029969765628355422 0.00051940617630920848 8.975116966223908e-05 0.00020847432690518608 0.032118170875878566 0.00015984434989761904 0.0014107532463497271 0.020414854542041817 -0.00023397930954427771 -0.00013968839513245652 -0.00022594002016224847 0.0124434332575787 0.00044902924608346419 0.0028637189662180369 -0.00011077247098476047 0.00015126477793266451 -0.00044384509593656441 2.6441815615791634e-05 0.00028448335693877734 -0.00028566926172101574 -0.0019537912111252547 -4.6390808156479286e-05 3.2393874057971691e-05
leaf_weight=2138 20 2884 20 416665 32 36 55 20 20401 108 82604 20 1706 286 20 539 123445 43779 26 4172 92 11080 36515 7759 43700 38802 2496 1249 868040 335066
leaf_count=2138 20 2884 20 416665 32 36 55 20 20401 108 82604 20 1706 286 20 539 123445 43779 26 4172 92 11080 36515 7759 43700 38802 2496 1249 868040 335066
internal_value=2.08077e-08 -9.27436e-06 -6.7849e-06 6.88664e-05 0.00140492 0.00114852 0.000892663 0.0117005 0.000259541 6.30428e-05 0.000216447 0.00531213 0.000614757 0.00275542 0.0077839 0.00128781 -3.26221e-05 -2.27961e-05 0.000706748 0.000577511 0.00506974 0.000219025 0.000283246 -2.51423e-05 -2.27043e-05 0.000104788 -4.21536e-05 -0.000842647 -3.15239e-05 -2.44484e-05
internal_weight=2.04378e+06 1.9731e+06 1.97022e+06 501572 2175 2155 2119 52 70673 499397 82732 128 2067 361 75 2677 1.46865e+06 1.3452e+06 4310 4290 118 67996 56916 1.34089e+06 1.33313e+06 86247 47445 3745 1.24688e+06 1.20311e+06
internal_count=2043775 1973102 1970218 501572 2175 2155 2119 52 70673 499397 82732 128 2067 361 75 2677 1468646 1345201 4310 4290 118 67996 56916 1340891 1333132 86247 47445 3745 1246885 1203106
is_linear=0
shrinkage=0.01


Tree=24
num_leaves=31
num_cat=0
split_feature=27 1 10 14 17 32 29 30 30 29 31 2 17 29 31 27 3 10 32 21 32 32 1 9 32 11 29 17 29 29
split_gain=54.1855 493.345 767.333 41.7719 198.613 64.3148 31.1176 27.7658 30.662 30.6849 29.1766 27.6983 149.135 26.1956 21.6134 20.7923 17.9537 35.9589 179.087 377.066 17.9163 44.7764 17.8253 16.5016 15.4655 14.2215 13.7682 25.5328 17.7492 13.6636
threshold=1.532794237136841 9.7662501335144061 0.013985199853777887 0.30953584611415869 0.55498170852661144 0.018941555172204975 20.410000801086429 0.026284752413630489 -0.01449735229834914 35.414999008178718 0.0069763925857841977 9.6815667152404803 0.57259672880172741 30.19999980926514 -0.032921174541115754 56.004999160766609 -0.28476625680923456 -0.87372881174087513 -0.020790257491171357 -2.3963577747344966 -0.20583886653184888 -0.13734664767980573 1.9080250263214114 -0.4255318790674209 -0.075161743909120546 -0.36582571268081659 25.704999923706058 3.720109343528748 26.619999885559086 31.365000724792484
decision_type=2 2 2 2 2 2 2 2 2 2 2 2 2 2 2 2 2 2 2 2 2 2 2 2 2 2 2 2 2 2
left_child=1 3 -3 11 5 -5 15 8 20 10 13 23 -13 24 -9 16 17 18 19 -2 25 -22 -6 -1 26 -8 27 -10 -28 -23
right_child=6 2 -4 4 22 -7 7 14 9 -11 -12 12 -14 -15 -16 -17 -18 -19 -20 -21 21 29 -24 -25 -26 -27 28 -29 -30 -31
leaf_value=0.00052782064206630065 0.0026527643300702469 0.0011903757411326 0.071217969172485185 0.010963285156271674 -0.0001617756488763745 0.036567069111835389 0.0010682419796586564 -0.0010088465109064281 0.00039048963272106895 0.00051339236936221691 0.00015364934713190135 0.029211779607814691 0.00016107971646382052 0.00022805706275136025 -0.00016614955446277516 -0.00013272617926645569 -2.7274353286390573e-05 0.00023668433577633114 0.00093974507960495855 0.053228653509191995 -0.001414231921620151 -0.00016185254221290495 0.006189352348728 0.00014108836264916687 -9.6994926652819951e-06 5.3294888052086974e-06 -0.00086323647785175835 0.010023750514989452 -0.00016607026452976413 7.3650385543911359e-05
leaf_weight=12627 50 42 24 21 264 20 2312 3517 1636 16097 240347 20 112 46074 22616 211103 1002622 6876 656 20 2601 78033 52 87545 253352 2766 5511 27 10837 35995
leaf_count=12627 50 42 24 21 264 20 2312 3517 1636 16097 240347 20 112 46074 22616 211103 1002622 6876 656 20 2601 78033 52 87545 253352 2766 5511 27 10837 35995
internal_value=2.14842e-08 0.000226169 0.0273528 0.000208102 0.00361806 0.02405 -1.17015e-05 4.03563e-05 5.238e-05 8.29563e-05 7.05317e-05 0.000195919 0.00475676 7.59582e-06 -0.000279633 -4.2465e-05 -2.36024e-05 0.0004605 0.00257566 0.0176633 -9.17863e-05 -0.000117111 0.00089642 0.000189852 -2.98327e-05 0.000489583 -0.000312965 0.000553423 -0.000401188 -8.7503e-05
internal_weight=2.04378e+06 100727 66 100661 357 41 1.94305e+06 721721 695588 573881 557784 100304 132 317437 26133 1.22133e+06 1.01022e+06 7602 726 70 121707 116629 316 100172 271363 5078 18011 1663 16348 114028
internal_count=2043775 100727 66 100661 357 41 1943048 721721 695588 573881 557784 100304 132 317437 26133 1221327 1010224 7602 726 70 121707 116629 316 100172 271363 5078 18011 1663 16348 114028
is_linear=0
shrinkage=0.01


Tree=25
num_leaves=31
num_cat=0
split_feature=27 1 32 0 15 23 17 35 33 32 27 0 11 23 1 9 10 18 1 27 31 9 2 33 29 31 32 31 3 31
split_gain=53.1144 483.921 761.866 88.1249 111.565 41.1755 194.854 82.9895 38.5034 73.7981 24.2203 56.6565 20.4354 19.6016 17.4773 16.5103 14.9671 30.9032 87.954 14.0957 13.0476 13.2774 12.4886 12.239 26.6401 15.5114 14.1438 12.0637 10.8443 10.7313
threshold=1.532794237136841 9.7662501335144061 -0.0045500020496547213 6.1130075454711923 0.022113369777798656 0.30953584611415869 0.55498170852661144 0.24903790652751925 -0.13279036432504651 -0.13734664767980573 7.7102990150451669 16.480082511901859 -0.54255166649818409 0.060799911618232734 1.9080250263214114 -0.40145374834537501 -0.87372881174087513 9.9271359443664569 5.5114617347717294 77332.500000000015 0.058672668412327773 -0.33155079185962671 3.2222709655761723 0.094554353505373015 22.690000534057621 0.020365864038467411 0.051478827372193343 0.033530263230204589 0.56319105625152599 0.0068178519140928992
decision_type=2 2 2 2 2 2 2 2 2 2 2 2 2 2 2 2 2 2 2 2 2 2 2 2 2 2 2 2 2 2
left_child=1 3 -3 5 -5 15 7 -7 12 -10 11 13 27 -11 -8 -1 17 18 -15 23 21 -14 -16 28 26 -26 -25 -2 29 -12
right_child=8 2 -4 4 -6 6 14 -9 9 10 19 -13 20 16 22 -17 -18 -19 -20 -21 -22 -23 -24 24 25 -27 -28 -29 -30 -31
leaf_value=0.00050039896014413921 0.0015400852274924874 0.0018305597716720182 0.072229101360271067 -0.00048726983654608086 0.023742495255130863 0.0091881511130116195 -0.00016016398711832361 0.0379688412703219 -0.0016893645138382513 5.1913237036435882e-06 -8.6694303866960857e-05 0.016449015484058433 0.00047175220435997754 0.023742558676385035 0.011083922618856797 0.00013340136922084241 0.0001421941530608392 0.00082872644043869811 0.00042731031656564612 -0.00035462613310152945 -0.00015142693128082399 0.00014021284479660072 0.0012726865315011568 1.6294388350267834e-05 0.00035042418249002581 -7.4094331767481027e-05 -0.00024097908723315738 -0.00032828799416832104 -0.00061949656687452636 -1.6109106449564927e-05
leaf_weight=14301 1769 43 23 40 35 21 264 20 2643 711359 511889 20 18453 22 25 85928 95473 1249 55 14859 9282 35011 27 92209 33582 11568 27811 428 3440 371926
leaf_count=14301 1769 43 23 40 35 21 264 20 2643 711359 511889 20 18453 22 25 85928 95473 1249 55 14859 9282 35011 27 92209 33582 11568 27811 428 3440 371926
internal_value=2.24021e-08 0.000223924 0.0270902 0.00020603 0.0109704 0.000197885 0.0035834 0.0238211 -1.15842e-05 -1.98625e-05 -1.75083e-05 2.37882e-05 0.0002278 2.33601e-05 0.000887614 0.00018578 0.000156867 0.00121169 0.00732062 -4.87801e-05 0.000194577 0.000254668 0.00612863 -4.44607e-05 3.45732e-05 0.000241636 -4.33141e-05 0.00117567 -5.91746e-05 -5.69919e-05
internal_weight=2.04378e+06 100727 66 100661 75 100586 357 41 1.94305e+06 1.8781e+06 1.87546e+06 808178 64943 808158 316 100229 96799 1326 77 1.06728e+06 62746 53464 52 1.05242e+06 165170 45150 120020 2197 887255 883815
internal_count=2043775 100727 66 100661 75 100586 357 41 1943048 1878105 1875462 808178 64943 808158 316 100229 96799 1326 77 1067284 62746 53464 52 1052425 165170 45150 120020 2197 887255 883815
is_linear=0
shrinkage=0.01


Tree=26
num_leaves=31
num_cat=0
split_feature=27 1 17 0 12 33 29 23 17 9 27 5 20 27 3 32 7 33 29 30 32 33 30 29 32 32 34 35 23 25
split_gain=52.1726 205.156 926.892 45.4644 98.5931 32.4583 63.5993 32.3747 35.6093 175.146 24.429 79.6025 22.7534 18.3214 22.6642 15.9814 15.7247 15.1568 27.7188 17.5092 17.3368 17.2609 24.2497 18.7307 16.2752 15.1915 14.1867 27.6861 13.8255 37.4747
threshold=2.5100396871566777 9.7662501335144061 0.94112336635589611 8.062904357910158 0.0019516825559549036 -0.13279036432504651 45.32500076293946 0.091223813593387618 1.0000000180025095e-35 0.98280480504035961 0.65049999952316295 0.39189189672470098 -0.87002894282340992 1999.3750000000002 -0.20126220583915708 -0.020611517131328579 -0.19480521231889722 0.094554353505373015 20.590000152587894 -0.022989905439317223 0.040009981021285064 -0.071440894156694398 0.02701707556843758 41.804998397827156 0.051478827372193343 -0.042494444176554673 0.65431052446365368 0.095091301947832121 0.18806414306163791 -0.23299375921487805
decision_type=2 2 2 2 2 2 2 2 2 2 2 2 2 2 2 2 2 2 2 2 2 2 2 2 2 2 2 2 2 2
left_child=1 3 -3 7 -5 -2 13 -1 9 -9 11 12 -10 14 26 -4 -12 19 24 -16 -20 -21 23 -23 -19 -24 28 -28 -7 -30
right_child=5 2 15 4 -6 6 -8 8 10 -11 16 -13 -14 -15 17 -17 -18 18 20 21 -22 22 25 -25 -26 -27 27 -29 29 -31
leaf_value=9.426992744474767e-05 0.00021361533751902454 0.068762903695305189 0.0088132238062503549 0.025672767700415784 -0.0010095367173443696 0.00014253111892069252 -0.001655748646641397 -0.00023102241478542364 0.010701948248351424 0.032161986810820442 0.0011406619842245173 0.016329062249119345 0.0011758267808082818 -0.00017005097908441791 -0.00026953532937963701 -0.00033574395242197039 0.00029272830573956666 1.9501131399819748e-05 0.0003019547601266411 0.00012175914468786808 3.9395994803441227e-05 -3.5862749773619035e-05 -0.0013879795047158179 -0.0016815766690238267 -0.0002251066831705213 -0.00033801394468848452 0 0.014304794126883886 0.013850743388058617 0.0007467295886443079
leaf_weight=231472 58125 23 22 21 37 48900 2392 81 25 20 2572 37 751 82228 31642 111 14642 114833 52376 69607 48396 1239305 1925 691 35641 4861 38 20 21 2960
leaf_count=231472 58125 23 22 21 37 48900 2392 81 25 20 2572 37 751 82228 31642 111 14642 114833 52376 69607 48396 1239305 1925 691 35641 4861 38 20 21 2960
internal_value=2.31849e-08 0.000135418 0.0115631 0.000128228 0.00890574 -1.88305e-05 -2.66147e-05 0.000126148 0.000533112 0.00642606 0.000499685 0.00219285 0.00149739 -2.43651e-05 -1.71095e-05 0.00122463 0.000419538 -2.37867e-05 4.75201e-05 -3.70776e-05 0.000175872 -3.1489e-05 -4.00457e-05 -3.6782e-05 -3.84307e-05 -0.000636168 0.000188468 0.00508997 0.000182871 0.000843992
internal_weight=2.04378e+06 249814 156 249658 58 1.79396e+06 1.73584e+06 249600 18128 101 18027 813 776 1.73344e+06 1.65122e+06 133 17214 1.59928e+06 251246 1.34803e+06 100772 1.31639e+06 1.24678e+06 1.24e+06 150474 6786 51939 58 51881 2981
internal_count=2043775 249814 156 249658 58 1793961 1735836 249600 18128 101 18027 813 776 1733444 1651216 133 17214 1599277 251246 1348031 100772 1316389 1246782 1239996 150474 6786 51939 58 51881 2981
is_linear=0
shrinkage=0.01


Tree=27
num_leaves=31
num_cat=0
split_feature=27 1 10 0 16 14 17 35 29 30 30 29 31 29 31 27 3 10 32 31 1 32 32 9 32 11 29 29 17 29
split_gain=51.3528 471.092 745.417 85.7753 163.133 39.9923 189.627 80.414 29.9003 26.8978 29.7155 29.8001 28.5562 25.3957 20.9229 20.0165 17.2965 35.0033 175.266 286.854 17.1393 17.1095 42.503 16.1124 15.1797 13.7824 13.5629 13.5326 25.039 17.3424
threshold=1.532794237136841 9.7662501335144061 0.013985199853777887 6.1130075454711923 0.67162087559700023 0.30953584611415869 0.55498170852661144 0.24903790652751925 20.410000801086429 0.026284752413630489 -0.01449735229834914 35.414999008178718 0.0069763925857841977 30.19999980926514 -0.032921174541115754 56.004999160766609 -0.28476625680923456 -0.87372881174087513 -0.020790257491171357 0.0017344218795187773 1.9080250263214114 -0.20583886653184888 -0.13734664767980573 -0.40145374834537501 -0.075161743909120546 -0.36582571268081659 15.765000343322756 25.704999923706058 3.720109343528748 26.619999885559086
decision_type=2 2 2 2 2 2 2 2 2 2 2 2 2 2 2 2 2 2 2 2 2 2 2 2 2 2 2 2 2 2
left_child=1 3 -3 5 -5 23 7 -7 15 10 21 12 13 24 -11 16 17 18 19 -2 -8 25 -23 -1 27 -10 -18 28 -12 -29
right_child=8 2 -4 4 -6 6 20 -9 9 14 11 -13 -14 -15 -16 -17 26 -19 -20 -21 -22 22 -24 -25 -26 -27 -28 29 -30 -31
leaf_value=0.00049336527159890803 0.0034535883558267839 0.00094706013189022292 0.069961936991512777 0.031748973727822302 0.00053425874886362673 0.0090875047248872836 -0.00016594163511510728 0.037422931451793942 0.0010473334622881391 -0.00099277775365646105 0.00038729547907869903 0.00050576084978795437 0.00015156091651047869 0.00022413755254698656 -0.00016365025537620146 -0.00013010561918901242 5.8895574405153527e-06 0.00023129849617364038 0.00092061542067258168 0.046511962038869772 0.0060617089049433762 -0.0013789610837979306 -8.634989764037911e-05 0.0001308163125447871 -9.837887619391261e-06 9.5565806151589709e-07 -6.8222936448555647e-05 -0.00085447731461806942 0.0099269718574027388 -0.00016534303955362346
leaf_weight=14301 48 42 24 24 51 21 264 20 2312 3517 1636 16097 240347 46074 22616 211103 562523 6876 656 22 52 2601 114028 85928 253352 2766 440099 5511 27 10837
leaf_count=14301 48 42 24 24 51 21 264 20 2312 3517 1636 16097 240347 46074 22616 211103 562523 6876 656 22 52 2601 114028 85928 253352 2766 440099 5511 27 10837
internal_value=2.39049e-08 0.000220181 0.0267279 0.000202526 0.0108224 0.00019449 0.00353101 0.0234954 -1.13886e-05 3.96409e-05 5.14752e-05 8.15758e-05 6.93316e-05 7.06837e-06 -0.000275307 -4.15443e-05 -2.30369e-05 0.000452122 0.00253899 0.0174648 0.000871596 -9.04486e-05 -0.000115197 0.00018256 -2.97842e-05 0.000477678 -2.6641e-05 -0.000310288 0.000548653 -0.000397753
internal_weight=2.04378e+06 100727 66 100661 75 100586 357 41 1.94305e+06 721721 695588 573881 557784 317437 26133 1.22133e+06 1.01022e+06 7602 726 70 316 121707 116629 100229 271363 5078 1.00262e+06 18011 1663 16348
internal_count=2043775 100727 66 100661 75 100586 357 41 1943048 721721 695588 573881 557784 317437 26133 1221327 1010224 7602 726 70 316 121707 116629 100229 271363 5078 1002622 18011 1663 16348
is_linear=0
shrinkage=0.01


Tree=28
num_leaves=31
num_cat=0
split_feature=27 1 28 28 0 9 14 17 9 33 30 30 33 31 27 2 35 28 27 0 28 7 31 9 31 7 10 34 0 1
split_gain=50.4443 197.292 917.273 50.5287 43.7024 108.76 31.6569 34.0653 169.96 31.646 26.1229 26.2445 32.0999 31.4717 23.9103 75.4072 158.168 22.5603 18.4114 36.1028 76.6597 15.3685 14.1083 12.586 14.8461 12.4987 27.3801 59.9387 26.2561 137.066
threshold=2.5100396871566777 9.7662501335144061 0.0021703728707507257 0.22191758453845981 6.7720000743865976 -0.119751900434494 0.091223813593387618 1.0000000180025095e-35 0.98280480504035961 -0.13279036432504651 0.037800535559654243 -0.026055141352117058 -0.11840941756963728 0.016541035845875744 0.65049999952316295 3.7813024520874028 0.16244532912969592 0.19487681984901431 35.670408248901374 55.524085998535163 0.18518518656492236 -0.19480521231889722 0.061809843406081207 -0.38005034625530237 0.046407777816057212 -0.13152942061424253 -0.84167230129241932 0.5054079294204713 4.0417838096618661 5.0200161933898935
decision_type=2 2 2 2 2 2 2 2 2 2 2 2 2 2 2 2 2 2 2 2 2 2 2 2 2 2 2 2 2 2
left_child=1 4 -3 -4 6 -6 -1 8 -8 23 11 12 -11 -14 15 -9 -17 -7 19 25 -21 -16 -12 24 -2 26 27 28 29 -13
right_child=9 2 3 -5 5 17 7 14 -10 10 22 18 13 -15 21 16 -18 -19 -20 20 -22 -23 -24 -25 -26 -27 -28 -29 -30 -31
leaf_value=9.167170122024357e-05 0.00057919287644612994 0.071217839992859147 -0.0011689748903440328 0.015078408485521441 0.026836462656435158 -0.00075532045721995967 -0.0002676738753869403 0.0010851049662239816 0.031641582561745533 -0.0017090668504172002 -0.0012953921102022363 0.0006554386855276423 -0.00018293851750562053 -0.0021633151587003795 0.0011268783666323003 0.0023565328047243936 0.031601279404256138 0.010693610744720155 -7.8474911506808828e-05 0.023164658670862474 -0.00039635875673464882 0.00028832225251579265 1.046278980936833e-05 0.00011768141428649076 -0.00021145995512476701 -8.2241842072691515e-06 0.00010136656340629656 0.017034739453655977 0.00062436697941513472 0.018953636748688298
leaf_weight=231413 13797 21 113 22 20 78 81 723 20 1582 2492 227 26165 827 2570 65 25 21 402378 20 40 14642 1236 41462 2866 1241562 57656 23 1579 49
leaf_count=231413 13797 21 113 22 20 78 81 723 20 1582 2492 227 26165 827 2570 65 25 21 402378 20 40 14642 1236 41462 2866 1241562 57656 23 1579 49
internal_value=2.477e-08 0.000133159 0.0113397 0.0015628 0.000126107 0.00615962 0.000123201 0.000525647 0.00628945 -1.8514e-05 -2.62002e-05 -2.43996e-05 -0.00032495 -0.00024373 0.000492948 0.00216803 0.0107491 0.00174589 -1.93576e-05 -1.07496e-06 0.00769192 0.000413647 -0.000862287 0.000211005 0.000443138 -1.4364e-06 0.000140102 0.00132808 0.00112372 0.00396434
internal_weight=2.04378e+06 249814 156 135 249658 119 249539 18126 101 1.79396e+06 1.73584e+06 1.73211e+06 28574 26992 18025 813 90 99 1.70353e+06 1.30116e+06 60 17212 3728 58125 16663 1.3011e+06 59534 1878 1855 276
internal_count=2043775 249814 156 135 249658 119 249539 18126 101 1793961 1735836 1732108 28574 26992 18025 813 90 99 1703534 1301156 60 17212 3728 58125 16663 1301096 59534 1878 1855 276
is_linear=0
shrinkage=0.01


Tree=29
num_leaves=31
num_cat=0
split_feature=27 1 32 0 15 21 17 33 29 22 1 27 0 0 11 24 32 32 9 13 27 10 9 32 29 31 9 33 31 33
split_gain=49.6108 454.676 732.475 83.1304 108.977 39.3974 170.167 36.1583 68.7921 29.6993 42.7715 23.0725 55.0249 22.3092 19.7108 18.8923 18.5382 28.4561 15.4435 13.7125 13.542 13.5234 19.4328 44.2617 84.2961 12.5706 12.7046 12.2035 22.3038 12.5679
threshold=1.532794237136841 9.7662501335144061 -0.0045500020496547213 6.1130075454711923 0.022113369777798656 0.16300682723522189 1.1587679982185366 -0.13279036432504651 45.32500076293946 0.2934741228818894 1.6335300207138064 7.8006131649017343 16.480082511901859 1.8580092191696169 -0.54255166649818409 0.22791656851768496 0.0033921751892194156 0.018561120145022873 -0.3366501778364181 0.68822699785232555 77332.500000000015 -0.87372881174087513 -0.74483647942543019 -0.027383130975067612 20.590000152587894 0.058672668412327773 -0.33155079185962671 0.11509754136204721 -0.0052700643427669993 0.12518927082419398
decision_type=2 2 2 2 2 2 2 2 2 2 2 2 2 2 2 2 2 2 2 2 2 2 2 2 2 2 2 2 2 2
left_child=1 3 -3 5 -5 9 -7 14 11 13 -11 12 15 18 -2 -9 -15 -18 -1 20 27 22 23 24 -17 26 -16 -13 29 -29
right_child=7 2 -4 4 -6 6 -8 8 -10 10 -12 19 -14 16 25 21 17 -19 -20 -21 -22 -23 -24 -25 -26 -27 -28 28 -30 -31
leaf_value=0.00042355179228762156 0.001151697953722227 0.0014973405338188804 0.070517443434645735 -0.00066544686866606159 0.0232773702918526 0.031774641555955725 -3.9117067296277083e-05 3.0634207180494754e-06 -0.0016310980308676946 0.018720995625747101 -0.00094060610886663194 -5.1466276136002408e-05 0.016209973264308203 0.0011090910951170371 0.00045949229431882944 0.0248607856996047 0.016496619000776924 0.0035350097583257589 0.00011144693478323964 -0.00056720157375979091 -0.00034918510140008664 0.00012911370709055634 0.00017216201777383984 0.0011669385486658519 0.0035591888039611104 -0.00015146019435630505 0.00013518151894259051 0.0012723350045907742 -7.2219688431089041e-06 0.00031025939622963982
leaf_weight=19754 2197 43 23 40 35 20 84 701481 2643 20 23 950847 20 195 18453 23 21 79 80390 5057 14459 113973 856 441 85 9282 35011 1485 70856 15879
leaf_count=19754 2197 43 23 40 35 20 84 701481 2643 20 23 950847 20 195 18453 23 21 79 80390 5057 14459 113973 856 441 85 9282 35011 1485 70856 15879
internal_value=2.57609e-08 0.000216417 0.0262582 0.000199071 0.010654 0.00019116 0.00631374 -1.11915e-05 -1.92137e-05 0.00018475 0.00839924 -1.69408e-05 2.29863e-05 0.00018114 0.000220788 2.25689e-05 0.00292266 0.00640323 0.000173025 -4.77523e-05 -4.52574e-05 0.000141149 0.00111599 0.00258279 0.00829128 0.000188159 0.000247142 -4.10269e-05 7.14782e-05 0.000392664
internal_weight=2.04378e+06 100727 66 100661 75 100586 104 1.94305e+06 1.8781e+06 100482 43 1.87546e+06 816879 100439 64943 816859 295 100 100144 1.05858e+06 1.05353e+06 115378 1405 549 108 62746 53464 1.03907e+06 88220 17364
internal_count=2043775 100727 66 100661 75 100586 104 1943048 1878105 100482 43 1875462 816879 100439 64943 816859 295 100 100144 1058583 1053526 115378 1405 549 108 62746 53464 1039067 88220 17364
is_linear=0
shrinkage=0.01


Tree=30
num_leaves=31
num_cat=0
split_feature=33 29 0 20 14 34 19 2 11 14 17 21 10 6 21 31 29 33 32 33 30 29 30 29 31 32 33 31 31 9
split_gain=44.4458 74.3613 34.6049 28.1692 130.758 79.4135 61.0822 117.85 27.2602 21.0157 28.8956 183.163 16.7688 19.7122 44.6302 14.8944 13.8192 37.3475 20.6498 17.0499 25.2813 17.4121 16.6441 14.9042 13.5269 15.4276 14.5021 13.4352 13.3234 16.294
threshold=-0.13279036432504651 45.32500076293946 4.6680705547332773 -0.87002894282340992 0.017631629481911663 0.5054079294204713 -28.848901748657223 8.2781181335449237 -0.54255166649818409 0.056979142129421241 1.0000000180025095e-35 0.14990538358688357 -0.87372881174087513 -0.084820050746202455 -1.2209464907646177 0.033530263230204589 20.410000801086429 0.034782685339450843 -0.065642755478620515 -0.069211814552545534 0.02701707556843758 41.804998397827156 -0.022989905439317223 15.765000343322756 0.017962502315640453 -0.013425759505480526 -0.06747944280505179 0.012812070082873108 0.046407777816057212 -0.33155079185962671
decision_type=2 2 2 2 2 2 2 2 2 2 2 2 2 2 2 2 2 2 2 2 2 2 2 2 2 2 2 2 2 2
left_child=8 2 3 4 -2 6 7 -6 15 -5 11 -11 13 14 -8 -1 23 19 -19 22 21 24 -18 -4 25 26 -21 -27 29 -10
right_child=1 -3 16 9 5 -7 12 -9 28 10 -12 -13 -14 -15 -16 -17 17 18 -20 20 -22 -23 -24 -25 -26 27 -28 -29 -30 -31
leaf_value=0.001610572393952199 0.025350067435848441 -0.001613090457009257 -1.9272622206233454e-05 2.6622741886759037e-05 -0.0012413921221229953 0.015228046076764401 0.0022492618034815506 0.028369965547452806 0.00049557476534156859 -0.00024875021234869825 0.00018151762531177495 0.031946369374791783 0.00011754660262985593 0.0011878362746281241 0.018898289201357825 -0.00024747813398436709 -0.0003597209046427328 -0.0007075156476360543 0.00012785529375768204 -0.00073942784134987157 -0.00089868821451177556 -0.0017101470662472249 0.00012871456296340448 -0.00010035073333345249 6.5928339571011334e-05 -0.00030619369438422722 -4.0047192265841795e-05 0.00023439448972261955 -0.00010975498213785807 0.00014268307882049018
leaf_weight=2138 21 2884 501530 462246 32 37 62 22 20401 111 97881 20 2260 317 21 539 7857 3003 196506 3046 3942 661 62154 413843 46264 53022 110329 5031 11080 36515
leaf_count=2138 21 2884 501530 462246 32 37 62 22 20401 111 97881 20 2260 317 21 539 7857 3003 196506 3046 3942 661 62154 413843 46264 53022 110329 5031 11080 36515
internal_value=2.66014e-08 -8.7987e-06 -6.44902e-06 5.98057e-05 0.00106523 0.000870341 0.000668698 0.0111008 0.000246429 5.48275e-05 0.000187836 0.00486374 0.00045245 0.00233715 0.0066484 0.00123614 -3.29589e-05 9.79208e-06 0.000115273 -6.21989e-05 -0.000105061 -9.07253e-05 7.38811e-05 -5.59295e-05 -8.57956e-05 -0.000126748 -5.88523e-05 -0.000259325 0.000207432 0.000269198
internal_weight=2.04378e+06 1.9731e+06 1.97022e+06 563030 2772 2751 2714 54 70673 560258 98012 131 2660 400 83 2677 1.40719e+06 491815 199509 292306 222295 218353 70011 915373 217692 171428 113375 58053 67996 56916
internal_count=2043775 1973102 1970218 563030 2772 2751 2714 54 70673 560258 98012 131 2660 400 83 2677 1407188 491815 199509 292306 222295 218353 70011 915373 217692 171428 113375 58053 67996 56916
is_linear=0
shrinkage=0.01


Tree=31
num_leaves=31
num_cat=0
split_feature=27 0 2 22 2 33 29 14 17 35 7 27 0 11 3 10 19 12 15 0 19 9 13 27 33 29 30 29 30 29
split_gain=48.24 299.425 974.839 43.3754 197.86 34.6911 66.0788 34.5056 185.629 77.3505 26.3466 22.3046 53.9858 18.898 18.354 30.7498 151.279 34.137 100.955 16.0234 31.0472 14.0195 13.452 13.2894 11.7906 15.3418 11.944 11.6984 13.7639 13.4495
threshold=1.532794237136841 4.8360524177551278 9.6815667152404803 -0.14836022257804868 7.2858738899230966 -0.13279036432504651 45.32500076293946 0.30953584611415869 0.55498170852661144 0.24903790652751925 0.067495223134756102 7.8006131649017343 16.480082511901859 -0.54255166649818409 -0.28476625680923456 -0.84167230129241932 -28.848901748657223 0.035690512508153922 0.069782186299562468 9.8821001052856463 -13.448776245117186 -0.33155079185962671 0.68822699785232555 77332.500000000015 0.11509754136204721 25.015000343322757 -0.013691443949937819 20.410000801086429 0.02701707556843758 15.434999942779543
decision_type=2 2 2 2 2 2 2 2 2 2 2 2 2 2 2 2 2 2 2 2 2 2 2 2 2 2 2 2 2 2
