{"learner":{"attributes":{"best_iteration":"394","best_score":"0.72993239755887"},"feature_names":[],"feature_types":[],"gradient_booster":{"model":{"gbtree_model_param":{"num_parallel_tree":"1","num_trees":"400"},"iteration_indptr":[0,1,2,3,4,5,6,7,8,9,10,11,12,13,14,15,16,17,18,19,20,21,22,23,24,25,26,27,28,29,30,31,32,33,34,35,36,37,38,39,40,41,42,43,44,45,46,47,48,49,50,51,52,53,54,55,56,57,58,59,60,61,62,63,64,65,66,67,68,69,70,71,72,73,74,75,76,77,78,79,80,81,82,83,84,85,86,87,88,89,90,91,92,93,94,95,96,97,98,99,100,101,102,103,104,105,106,107,108,109,110,111,112,113,114,115,116,117,118,119,120,121,122,123,124,125,126,127,128,129,130,131,132,133,134,135,136,137,138,139,140,141,142,143,144,145,146,147,148,149,150,151,152,153,154,155,156,157,158,159,160,161,162,163,164,165,166,167,168,169,170,171,172,173,174,175,176,177,178,179,180,181,182,183,184,185,186,187,188,189,190,191,192,193,194,195,196,197,198,199,200,201,202,203,204,205,206,207,208,209,210,211,212,213,214,215,216,217,218,219,220,221,222,223,224,225,226,227,228,229,230,231,232,233,234,235,236,237,238,239,240,241,242,243,244,245,246,247,248,249,250,251,252,253,254,255,256,257,258,259,260,261,262,263,264,265,266,267,268,269,270,271,272,273,274,275,276,277,278,279,280,281,282,283,284,285,286,287,288,289,290,291,292,293,294,295,296,297,298,299,300,301,302,303,304,305,306,307,308,309,310,311,312,313,314,315,316,317,318,319,320,321,322,323,324,325,326,327,328,329,330,331,332,333,334,335,336,337,338,339,340,341,342,343,344,345,346,347,348,349,350,351,352,353,354,355,356,357,358,359,360,361,362,363,364,365,366,367,368,369,370,371,372,373,374,375,376,377,378,379,380,381,382,383,384,385,386,387,388,389,390,391,392,393,394,395,396,397,398,399,400],"tree_info":[0,0,0,0,0,0,0,0,0,0,0,0,0,0,0,0,0,0,0,0,0,0,0,0,0,0,0,0,0,0,0,0,0,0,0,0,0,0,0,0,0,0,0,0,0,0,0,0,0,0,0,0,0,0,0,0,0,0,0,0,0,0,0,0,0,0,0,0,0,0,0,0,0,0,0,0,0,0,0,0,0,0,0,0,0,0,0,0,0,0,0,0,0,0,0,0,0,0,0,0,0,0,0,0,0,0,0,0,0,0,0,0,0,0,0,0,0,0,0,0,0,0,0,0,0,0,0,0,0,0,0,0,0,0,0,0,0,0,0,0,0,0,0,0,0,0,0,0,0,0,0,0,0,0,0,0,0,0,0,0,0,0,0,0,0,0,0,0,0,0,0,0,0,0,0,0,0,0,0,0,0,0,0,0,0,0,0,0,0,0,0,0,0,0,0,0,0,0,0,0,0,0,0,0,0,0,0,0,0,0,0,0,0,0,0,0,0,0,0,0,0,0,0,0,0,0,0,0,0,0,0,0,0,0,0,0,0,0,0,0,0,0,0,0,0,0,0,0,0,0,0,0,0,0,0,0,0,0,0,0,0,0,0,0,0,0,0,0,0,0,0,0,0,0,0,0,0,0,0,0,0,0,0,0,0,0,0,0,0,0,0,0,0,0,0,0,0,0,0,0,0,0,0,0,0,0,0,0,0,0,0,0,0,0,0,0,0,0,0,0,0,0,0,0,0,0,0,0,0,0,0,0,0,0,0,0,0,0,0,0,0,0,0,0,0,0,0,0,0,0,0,0,0,0,0,0,0,0,0,0,0,0,0,0,0,0,0,0,0,0,0,0,0,0,0,0,0,0,0,0,0,0,0,0,0,0,0,0,0,0,0,0,0,0,0,0,0,0,0,0],"trees":[{"base_weights":[-2.8640863E-1,4.796332E-1,-4.158358E-1,8.1816447E-1,2.7393666E-1,1.9762418E-3,-5.3754467E-1,7.1091145E-1,1.4102125E0,5.9973884E-2,6.2678313E-1,-1.20335616E-1,3.543315E-1,-1.1271243E-1,-5.883715E-1,9.5265394E-1,3.7820828E-1,1.6283147E0,1.0426364E0,2.323735E-1,-1.6769618E-1,1.1127577E0,4.245296E-1,2.8905034E-1,-1.9343609E-1,6.7630625E-1,2.6594537E-1,1.3309643E-1,-2.1158986E-1,-6.712476E-1,-2.3978192E-1,8.3676827E-1,1.5696197E0,-2.9907236E-2,5.6698936E-1,1.4141217E0,1.9671582E0,1.4186924E0,8.5880834E-1,-2.9783064E-2,5.075852E-1,9.267414E-2,-3.1353498E-1,1.5238439E0,8.456865E-1,2.6989225E-1,8.6731184E-1,-2.5571495E-1,3.5883072E-1,-2.6898023E-1,1.7927869E-1,4.850928E-1,8.008308E-1,1.6318467E-1,4.4685793E-1,-4.5435798E-1,2.0865911E-1,-2.8516936E-1,1.6119593E-1,-4.1138008E-1,-7.3388654E-1,-3.5220948E-1,1.4710705E-2,5.0363835E-2,2.4882708E-2,9.8236434E-2,6.856054E-2,6.6909394E-3,-2.0256815E-2,5.0191004E-2,2.0877516E-2,9.778673E-2,5.745383E-2,1.23447396E-1,8.297016E-2,4.2180892E-2,8.6142264E-2,2.9954081E-2,6.1494302E-2,-2.1353452E-2,3.531947E-3,3.7433017E-2,1.454614E-2,-9.494836E-3,1.49765955E-2,-2.9118676E-2,-1.00283995E-2,6.835303E-2,1.0384061E-1,3.6025647E-2,6.719841E-2,1.9881262E-2,-2.390923E-3,7.1867295E-2,2.847721E-2,-5.746005E-3,-2.4997605E-2,2.9834652E-2,1.2623282E-2,-2.1662635E-3,-1.72772E-2,1.7633438E-2,-7.223888E-3,3.6510285E-2,8.457354E-3,4.211085E-2,1.2239254E-2,3.765027E-2,4.6187798E-3,6.54354E-2,2.094551E-2,-3.4941226E-2,-1.6311713E-2,1.9392649E-2,-1.7022059E-3,-3.125983E-2,-1.1955111E-2,2.1302862E-2,3.4599379E-3,-2.6568575E-2,-1.79887E-3,-4.1037053E-2,-2.5256071E-2,7.5578573E-3,-2.131239E-2,-3.298752E-3,1.1818025E-2],"categories":[],"categories_nodes":[],"categories_segments":[],"categories_sizes":[],"default_left":[0,0,0,0,0,0,0,0,0,0,0,0,0,0,0,0,0,0,0,0,0,0,0,0,0,0,0,0,0,0,0,0,0,0,0,0,0,0,0,0,0,0,0,0,0,0,0,0,0,0,0,0,0,0,0,0,0,0,0,0,0,0,0,0,0,0,0,0,0,0,0,0,0,0,0,0,0,0,0,0,0,0,0,0,0,0,0,0,0,0,0,0,0,0,0,0,0,0,0,0,0,0,0,0,0,0,0,0,0,0,0,0,0,0,0,0,0,0,0,0,0,0,0,0,0,0,0],"id":0,"left_children":[1,3,5,7,9,11,13,15,17,19,21,23,25,27,29,31,33,35,37,39,41,43,45,47,49,51,53,55,57,59,61,63,65,67,69,71,73,75,77,79,81,83,85,87,89,91,93,95,97,99,101,103,105,107,109,111,113,115,117,119,121,123,125,-1,-1,-1,-1,-1,-1,-1,-1,-1,-1,-1,-1,-1,-1,-1,-1,-1,-1,-1,-1,-1,-1,-1,-1,-1,-1,-1,-1,-1,-1,-1,-1,-1,-1,-1,-1,-1,-1,-1,-1,-1,-1,-1,-1,-1,-1,-1,-1,-1,-1,-1,-1,-1,-1,-1,-1,-1,-1,-1,-1,-1,-1,-1,-1],"loss_changes":[3.8680918E4,3.9264111E3,1.6971578E4,1.3523086E3,2.6481917E3,3.2448445E3,5.5808047E3,1.4510244E3,2.60271E2,8.57165E2,1.3010127E3,1.6726455E3,5.519353E2,6.7130774E2,6.6687812E3,7.4589844E2,5.8522815E2,1.459336E2,8.309509E1,8.966489E2,3.5737964E2,4.2586523E2,6.400759E2,3.2200195E2,1.3353118E3,9.909424E1,2.8295056E2,3.5181482E2,5.4031116E2,3.0355156E3,1.2687063E3,5.0835547E2,1.26768555E2,1.4769843E2,3.3860974E2,1.7848486E2,1.1806299E2,6.8320984E1,7.846051E1,2.5399808E2,3.1645886E2,1.9759538E2,1.8308557E2,1.2989062E2,1.4627234E2,2.81353E2,4.0996936E2,3.3027706E1,1.8978033E2,6.8123975E2,4.4873083E2,1.2768198E2,5.798645E1,4.0549182E2,1.3227332E2,2.8066284E1,3.053689E2,2.5752673E2,7.9099525E1,1.6317559E3,2.985461E3,1.1462534E3,2.4301619E2,0E0,0E0,0E0,0E0,0E0,0E0,0E0,0E0,0E0,0E0,0E0,0E0,0E0,0E0,0E0,0E0,0E0,0E0,0E0,0E0,0E0,0E0,0E0,0E0,0E0,0E0,0E0,0E0,0E0,0E0,0E0,0E0,0E0,0E0,0E0,0E0,0E0,0E0,0E0,0E0,0E0,0E0,0E0,0E0,0E0,0E0,0E0,0E0,0E0,0E0,0E0,0E0,0E0,0E0,0E0,0E0,0E0,0E0,0E0,0E0,0E0,0E0,0E0,0E0],"parents":[2147483647,0,0,1,1,2,2,3,3,4,4,5,5,6,6,7,7,8,8,9,9,10,10,11,11,12,12,13,13,14,14,15,15,16,16,17,17,18,18,19,19,20,20,21,21,22,22,23,23,24,24,25,25,26,26,27,27,28,28,29,29,30,30,31,31,32,32,33,33,34,34,35,35,36,36,37,37,38,38,39,39,40,40,41,41,42,42,43,43,44,44,45,45,46,46,47,47,48,48,49,49,50,50,51,51,52,52,53,53,54,54,55,55,56,56,57,57,58,58,59,59,60,60,61,61,62,62],"right_children":[2,4,6,8,10,12,14,16,18,20,22,24,26,28,30,32,34,36,38,40,42,44,46,48,50,52,54,56,58,60,62,64,66,68,70,72,74,76,78,80,82,84,86,88,90,92,94,96,98,100,102,104,106,108,110,112,114,116,118,120,122,124,126,-1,-1,-1,-1,-1,-1,-1,-1,-1,-1,-1,-1,-1,-1,-1,-1,-1,-1,-1,-1,-1,-1,-1,-1,-1,-1,-1,-1,-1,-1,-1,-1,-1,-1,-1,-1,-1,-1,-1,-1,-1,-1,-1,-1,-1,-1,-1,-1,-1,-1,-1,-1,-1,-1,-1,-1,-1,-1,-1,-1,-1,-1,-1,-1],"split_conditions":[-6.29698E-2,-1.1090808E-1,9.161563E0,-9.689923E-2,-5.889015E-2,5.5555556E-2,-6.573121E-2,-1.4923361E-1,4.5945802E-1,-8.346464E-2,-7.959277E-2,-8.053954E-2,2.145716E0,-1.1364123E-1,6.497158E-2,-1.377551E-1,-1.3027875E-1,-7.78626E-2,-1.2919079E-1,-8.509036E-2,1.04597E1,-9.057612E-2,-3.227566E-2,-5.378754E-2,7.079304E-2,1.0773241E-1,1.24678664E-1,-5.146752E-2,3.8981347E-3,-2.6694844E-2,1.3328776E-1,-1.8300672E-1,-1.6925357E-1,-1.2919079E-1,-1.3504224E-1,-1.2919079E-1,-7.784766E-1,3.216798E0,-8.01278E-2,-1.1295034E-1,3.3648247E-1,-7.5722545E-2,-8.01278E-2,-3.7414964E-2,8.751644E-3,4.357153E-1,-7.089397E-2,-4.728519E-2,-1.4204569E-1,-2.6694844E-2,2.6230535E-2,7.845222E-2,8.007109E0,4.6341628E-2,1.0763949E-1,-6.8134174E-2,8.6575574E-1,-4.8240993E-2,-3.3596937E-2,3.3054575E-2,2.4734983E-2,-7.949642E-3,2.347561E-1,5.0363835E-2,2.4882708E-2,9.8236434E-2,6.856054E-2,6.6909394E-3,-2.0256815E-2,5.0191004E-2,2.0877516E-2,9.778673E-2,5.745383E-2,1.23447396E-1,8.297016E-2,4.2180892E-2,8.6142264E-2,2.9954081E-2,6.1494302E-2,-2.1353452E-2,3.531947E-3,3.7433017E-2,1.454614E-2,-9.494836E-3,1.49765955E-2,-2.9118676E-2,-1.00283995E-2,6.835303E-2,1.0384061E-1,3.6025647E-2,6.719841E-2,1.9881262E-2,-2.390923E-3,7.1867295E-2,2.847721E-2,-5.746005E-3,-2.4997605E-2,2.9834652E-2,1.2623282E-2,-2.1662635E-3,-1.72772E-2,1.7633438E-2,-7.223888E-3,3.6510285E-2,8.457354E-3,4.211085E-2,1.2239254E-2,3.765027E-2,4.6187798E-3,6.54354E-2,2.094551E-2,-3.4941226E-2,-1.6311713E-2,1.9392649E-2,-1.7022059E-3,-3.125983E-2,-1.1955111E-2,2.1302862E-2,3.4599379E-3,-2.6568575E-2,-1.79887E-3,-4.1037053E-2,-2.5256071E-2,7.5578573E-3,-2.131239E-2,-3.298752E-3,1.1818025E-2],"split_indices":[15,15,11,12,12,12,16,15,17,15,15,16,11,16,13,12,12,12,15,12,11,2,12,12,13,12,12,12,7,15,13,15,15,15,15,15,6,23,12,12,17,12,12,12,7,17,2,15,16,15,15,15,23,15,15,12,22,12,15,7,12,15,13,0,0,0,0,0,0,0,0,0,0,0,0,0,0,0,0,0,0,0,0,0,0,0,0,0,0,0,0,0,0,0,0,0,0,0,0,0,0,0,0,0,0,0,0,0,0,0,0,0,0,0,0,0,0,0,0,0,0,0,0,0,0,0,0],"split_type":[0,0,0,0,0,0,0,0,0,0,0,0,0,0,0,0,0,0,0,0,0,0,0,0,0,0,0,0,0,0,0,0,0,0,0,0,0,0,0,0,0,0,0,0,0,0,0,0,0,0,0,0,0,0,0,0,0,0,0,0,0,0,0,0,0,0,0,0,0,0,0,0,0,0,0,0,0,0,0,0,0,0,0,0,0,0,0,0,0,0,0,0,0,0,0,0,0,0,0,0,0,0,0,0,0,0,0,0,0,0,0,0,0,0,0,0,0,0,0,0,0,0,0,0,0,0,0],"sum_hessian":[3.9013544E5,5.6388074E4,3.3374734E5,2.1311332E4,3.5076742E4,7.5289266E4,2.584581E5,1.8044639E4,3.2666924E3,2.1836477E4,1.3240265E4,5.5889273E4,1.9399992E4,2.7618049E4,2.3084005E5,1.0449881E4,7.5947583E3,2.048048E3,1.218644E3,1.2426604E4,9.409873E3,3.8896692E3,9.350596E3,8.467215E3,4.742206E4,4.177061E3,1.5222931E4,7.9224717E3,1.9695576E4,1.8649945E5,4.434059E4,8.799427E3,1.6504547E3,2.4022678E3,5.1924907E3,1.2580018E3,7.900464E2,3.9791476E2,8.207293E2,6.3647085E3,6.061895E3,3.3785005E3,6.0313726E3,1.5299718E3,2.3596973E3,6.93146E3,2.4191355E3,9.61132E2,7.506083E3,3.9430348E4,7.9917095E3,1.6493302E3,2.5277307E3,9.709635E3,5.5132964E3,9.023364E2,7.0201353E3,1.6449125E4,3.2464512E3,3.622438E4,1.5027508E5,3.0753977E4,1.3586612E4,5.854022E3,2.9454045E3,5.4875934E2,1.1016954E3,1.6729448E3,7.29323E2,1.3220988E3,3.8703918E3,4.112482E2,8.4675366E2,2.97673E2,4.9237335E2,1.3895691E2,2.5895786E2,4.8434116E2,3.3638818E2,1.2835442E3,5.0811646E3,2.868135E3,3.19376E3,1.427963E3,1.9505374E3,1.7833071E3,4.2480654E3,1.1947081E3,3.3526367E2,1.8878864E3,4.7181094E2,4.9436533E3,1.9878068E3,8.2876154E2,1.5903739E3,6.106072E2,3.5052484E2,2.31793E3,5.1881533E3,9.989637E3,2.9440713E4,5.2043784E3,2.787331E3,9.280394E2,7.212908E2,2.352147E3,1.7558371E2,1.0396869E3,8.669947E3,1.7172826E2,5.341568E3,3.0875745E2,5.93579E2,4.038104E3,2.9820315E3,1.9611399E3,1.4487985E4,8.359905E2,2.4104607E3,2.7450014E4,8.774366E3,1.0891941E5,4.1355664E4,3.9433242E3,2.6810652E4,9.961203E3,3.62541E3],"tree_param":{"num_deleted":"0","num_feature":"27","num_nodes":"127","size_leaf_vector":"1"}},{"base_weights":[-2.7525216E-1,3.8053167E-1,-4.145182E-1,6.952269E-1,1.5913823E-1,-4.9826074E-1,5.0611634E-2,6.1643255E-1,1.2368059E0,-6.885234E-2,4.2482287E-1,-3.0716954E-2,-5.5953205E-1,2.5699478E-1,-1.571825E-1,8.381038E-1,3.242666E-1,1.6891367E0,1.02132E0,5.85566E-2,-3.234216E-1,8.833294E-1,2.6616228E-1,-2.5690374E-1,1.0585153E-1,-2.1937402E-1,-6.274656E-1,1.0151305E-1,4.318641E-1,5.8262485E-1,-2.1489665E-1,7.37339E-1,1.3475032E0,-3.7438214E-2,5.203867E-1,6.1394E-1,1.765769E0,1.4456455E-1,1.130848E0,-2.8445002E-1,2.043965E-1,-4.6941012E-1,-1.2284544E-1,7.4016154E-1,1.5596285E0,-1.440385E-1,4.820924E-1,7.553931E-2,-4.008485E-1,3.6755252E-1,7.955892E-3,-2.821139E-1,1.3882476E-1,-4.043639E-1,-6.9500446E-1,4.64362E-1,-4.6580177E-2,6.6553473E-1,3.4971648E-1,1.0702659E0,3.5806575E-1,-4.453009E-1,-2.1587038E-2,4.8670094E-2,2.3375237E-2,8.945798E-2,5.972745E-2,-1.5364125E-2,5.9816795E-3,4.4316392E-2,1.866774E-2,3.8736068E-2,-2.4230601E-2,1.0583327E-1,7.90914E-2,2.4744155E-2,-9.642779E-3,7.2692655E-2,4.702357E-2,-2.81895E-3,-1.9338617E-2,1.7562648E-2,-2.4770326E-3,-1.2929648E-2,-2.8113905E-2,-2.0698218E-2,-1.3987825E-3,5.9797227E-2,2.618284E-2,1.06501296E-1,6.735619E-2,8.854934E-3,-1.8353842E-2,3.9526988E-2,1.6903978E-2,-2.3327764E-2,1.0730178E-2,-1.0891953E-2,-2.5154203E-2,8.100385E-3,2.8609818E-2,-6.552212E-3,7.443233E-3,-3.293986E-3,-1.7646698E-2,1.3933954E-2,-1.2285391E-2,-2.7838716E-2,-2.2337053E-3,-4.0068984E-2,-2.6086584E-2,3.5764795E-2,1.0929842E-2,1.6097265E-3,-2.3796204E-2,2.9820217E-2,4.5512006E-2,4.1752093E-2,1.51553E-2,7.0848264E-2,3.834053E-2,7.442038E-3,4.7576144E-2,-1.7250592E-2,-3.8910035E-2,3.6474667E-2,-3.3325255E-3],"categories":[],"categories_nodes":[],"categories_segments":[],"categories_sizes":[],"default_left":[0,0,0,0,0,0,0,0,0,0,0,0,0,0,0,0,0,0,0,0,0,0,0,0,0,0,0,0,0,0,0,0,0,0,0,0,0,0,0,0,0,0,0,0,0,0,0,0,0,0,0,0,0,0,0,0,0,0,0,0,0,0,0,0,0,0,0,0,0,0,0,0,0,0,0,0,0,0,0,0,0,0,0,0,0,0,0,0,0,0,0,0,0,0,0,0,0,0,0,0,0,0,0,0,0,0,0,0,0,0,0,0,0,0,0,0,0,0,0,0,0,0,0,0,0,0,0],"id":1,"left_children":[1,3,5,7,9,11,13,15,17,19,21,23,25,27,29,31,33,35,37,39,41,43,45,47,49,51,53,55,57,59,61,63,65,67,69,71,73,75,77,79,81,83,85,87,89,91,93,95,97,99,101,103,105,107,109,111,113,115,117,119,121,123,125,-1,-1,-1,-1,-1,-1,-1,-1,-1,-1,-1,-1,-1,-1,-1,-1,-1,-1,-1,-1,-1,-1,-1,-1,-1,-1,-1,-1,-1,-1,-1,-1,-1,-1,-1,-1,-1,-1,-1,-1,-1,-1,-1,-1,-1,-1,-1,-1,-1,-1,-1,-1,-1,-1,-1,-1,-1,-1,-1,-1,-1,-1,-1,-1],"loss_changes":[3.53088E4,4.718175E3,1.2421191E4,1.1927012E3,2.408161E3,7.7414688E3,2.0866074E3,1.5811084E3,3.444121E2,6.939965E2,1.3354082E3,9.672595E2,5.521E3,6.636561E2,1.0353264E3,7.1161035E2,7.473701E2,9.320337E1,2.3106006E2,7.1342285E2,2.0892413E2,4.558147E2,1.2083665E3,5.6415326E2,5.0020557E2,8.9391016E2,3.0005547E3,6.9444055E2,2.2029858E2,1.9177606E2,1.0017377E3,7.379595E2,1.5265918E2,1.5707053E2,3.6723206E2,1.4093502E1,6.5563965E1,3.1838196E1,1.302456E2,9.927142E1,3.7318777E2,8.071576E1,8.305735E1,3.839192E2,9.696643E1,3.3708325E2,3.967312E2,2.6868964E2,1.538125E2,2.2348755E2,2.783473E2,5.1829565E2,3.1892108E2,2.5371338E3,2.8173047E3,2.3084479E2,3.104353E2,4.9990723E1,1.9208362E2,5.7071777E1,1.4923216E2,3.4230994E2,4.140297E2,0E0,0E0,0E0,0E0,0E0,0E0,0E0,0E0,0E0,0E0,0E0,0E0,0E0,0E0,0E0,0E0,0E0,0E0,0E0,0E0,0E0,0E0,0E0,0E0,0E0,0E0,0E0,0E0,0E0,0E0,0E0,0E0,0E0,0E0,0E0,0E0,0E0,0E0,0E0,0E0,0E0,0E0,0E0,0E0,0E0,0E0,0E0,0E0,0E0,0E0,0E0,0E0,0E0,0E0,0E0,0E0,0E0,0E0,0E0,0E0,0E0,0E0,0E0,0E0],"parents":[2147483647,0,0,1,1,2,2,3,3,4,4,5,5,6,6,7,7,8,8,9,9,10,10,11,11,12,12,13,13,14,14,15,15,16,16,17,17,18,18,19,19,20,20,21,21,22,22,23,23,24,24,25,25,26,26,27,27,28,28,29,29,30,30,31,31,32,32,33,33,34,34,35,35,36,36,37,37,38,38,39,39,40,40,41,41,42,42,43,43,44,44,45,45,46,46,47,47,48,48,49,49,50,50,51,51,52,52,53,53,54,54,55,55,56,56,57,57,58,58,59,59,60,60,61,61,62,62],"right_children":[2,4,6,8,10,12,14,16,18,20,22,24,26,28,30,32,34,36,38,40,42,44,46,48,50,52,54,56,58,60,62,64,66,68,70,72,74,76,78,80,82,84,86,88,90,92,94,96,98,100,102,104,106,108,110,112,114,116,118,120,122,124,126,-1,-1,-1,-1,-1,-1,-1,-1,-1,-1,-1,-1,-1,-1,-1,-1,-1,-1,-1,-1,-1,-1,-1,-1,-1,-1,-1,-1,-1,-1,-1,-1,-1,-1,-1,-1,-1,-1,-1,-1,-1,-1,-1,-1,-1,-1,-1,-1,-1,-1,-1,-1,-1,-1,-1,-1,-1,-1,-1,-1,-1,-1,-1,-1],"split_conditions":[-5.494365E-2,-9.783617E-2,5.9621565E-2,-8.01278E-2,-5.5021834E-2,-6.815572E-2,1.9878677E1,-1.3504224E-1,-1.3530312E-1,-7.123991E-2,-9.820666E-2,3.352164E1,9.710045E0,1.0773241E-1,4.7335874E-2,-1.23828314E-1,-1.1295034E-1,1.1508072E1,1.8520113E1,-8.509036E-2,-6.816484E-2,-2.5885558E-2,3.4032333E1,-1.686563E-1,-1.1652092E-1,5.473853E-2,-2.0520398E-2,6.274182E-2,3.9812114E0,3.2306463E-2,8.861911E-2,-1.8300672E-1,-1.5835142E-1,-1.3027875E-1,-1.1913466E-1,-9.466589E-2,-1.1479854E-1,-9.6739955E-2,-1.1090808E-1,9.996733E0,7.423186E-1,-9.6739955E-2,-7.5722545E-2,-7.435788E-2,-7.123991E-2,-7.4684925E-2,-6.975615E-2,-5.0353087E-2,-1.0578336E-1,-1.09553196E-1,-6.576346E-2,3.701256E0,4.0881652E-2,3.3054575E-2,1.8867925E-2,6.4587845E1,1.0763949E-1,3.7457046E-1,1.03683E-1,6.001838E-1,7.345651E-2,8.786294E-2,7.638925E-2,4.8670094E-2,2.3375237E-2,8.945798E-2,5.972745E-2,-1.5364125E-2,5.9816795E-3,4.4316392E-2,1.866774E-2,3.8736068E-2,-2.4230601E-2,1.0583327E-1,7.90914E-2,2.4744155E-2,-9.642779E-3,7.2692655E-2,4.702357E-2,-2.81895E-3,-1.9338617E-2,1.7562648E-2,-2.4770326E-3,-1.2929648E-2,-2.8113905E-2,-2.0698218E-2,-1.3987825E-3,5.9797227E-2,2.618284E-2,1.06501296E-1,6.735619E-2,8.854934E-3,-1.8353842E-2,3.9526988E-2,1.6903978E-2,-2.3327764E-2,1.0730178E-2,-1.0891953E-2,-2.5154203E-2,8.100385E-3,2.8609818E-2,-6.552212E-3,7.443233E-3,-3.293986E-3,-1.7646698E-2,1.3933954E-2,-1.2285391E-2,-2.7838716E-2,-2.2337053E-3,-4.0068984E-2,-2.6086584E-2,3.5764795E-2,1.0929842E-2,1.6097265E-3,-2.3796204E-2,2.9820217E-2,4.5512006E-2,4.1752093E-2,1.51553E-2,7.0848264E-2,3.834053E-2,7.442038E-3,4.7576144E-2,-1.7250592E-2,-3.8910035E-2,3.6474667E-2,-3.3325255E-3],"split_indices":[15,15,12,12,12,16,10,15,2,15,2,8,10,12,15,12,12,8,8,12,7,12,8,2,16,1,15,15,10,15,12,15,15,12,15,16,15,16,15,10,18,16,12,15,15,16,15,12,16,7,7,10,15,7,12,8,15,14,15,22,12,15,15,0,0,0,0,0,0,0,0,0,0,0,0,0,0,0,0,0,0,0,0,0,0,0,0,0,0,0,0,0,0,0,0,0,0,0,0,0,0,0,0,0,0,0,0,0,0,0,0,0,0,0,0,0,0,0,0,0,0,0,0,0,0,0,0],"split_type":[0,0,0,0,0,0,0,0,0,0,0,0,0,0,0,0,0,0,0,0,0,0,0,0,0,0,0,0,0,0,0,0,0,0,0,0,0,0,0,0,0,0,0,0,0,0,0,0,0,0,0,0,0,0,0,0,0,0,0,0,0,0,0,0,0,0,0,0,0,0,0,0,0,0,0,0,0,0,0,0,0,0,0,0,0,0,0,0,0,0,0,0,0,0,0,0,0,0,0,0,0,0,0,0,0,0,0,0,0,0,0,0,0,0,0,0,0,0,0,0,0,0,0,0,0,0,0],"sum_hessian":[3.8661075E5,6.7720914E4,3.1888984E5,2.7966441E4,3.9754477E4,2.7023616E5,4.8653707E4,2.4416258E4,3.550184E3,2.1395342E4,1.8359133E4,3.1311166E4,2.3892498E5,2.440961E4,2.4244096E4,1.3881931E4,1.0534326E4,1.1433394E3,2.4068447E3,1.4259433E4,7.1359097E3,4.7185703E3,1.3640562E4,1.1787557E4,1.952361E4,3.9773703E4,1.9915128E5,1.2921915E4,1.1487693E4,1.7538115E3,2.2490285E4,1.1591461E4,2.2904702E3,3.703943E3,6.830383E3,7.6666985E1,1.0666724E3,2.6754092E2,2.139304E3,4.253801E3,1.0005632E4,4.12917E3,3.0067397E3,3.8959243E3,8.2264594E2,4.7042563E3,8.936306E3,3.5618577E3,8.225698E3,5.3143057E3,1.4209303E4,3.3845707E4,5.9279937E3,4.628025E4,1.5287103E5,3.7447131E3,9.177202E3,2.986223E3,8.501471E3,5.5179517E2,1.2020164E3,1.0260075E4,1.223021E4,6.181236E3,5.410225E3,5.864356E2,1.7040347E3,1.3624102E3,2.341533E3,1.9563308E3,4.8740522E3,6.713592E1,9.531066E0,3.6323566E2,7.0343665E2,1.3103265E2,1.3650826E2,7.9085455E2,1.3484492E3,1.3178761E3,2.9359246E3,6.339184E3,3.6664478E3,1.2638722E3,2.8652979E3,7.3818146E2,2.2685583E3,1.2531935E3,2.642731E3,2.2084326E2,6.018027E2,1.9281932E3,2.7760632E3,2.8428938E3,6.0934116E3,7.267021E2,2.8351555E3,2.9493206E3,5.2763784E3,2.6522102E3,2.6620957E3,7.153132E3,7.056171E3,8.350657E3,2.549505E4,4.347196E3,1.5807979E3,3.2506012E4,1.3774237E4,9.471822E4,5.815281E4,1.8519272E3,1.8927859E3,7.7552227E3,1.4219796E3,2.3311108E3,6.551121E2,7.434532E2,7.758017E3,2.5583397E2,2.959612E2,8.896267E2,3.1238965E2,7.886294E3,2.373781E3,6.913968E2,1.1538813E4],"tree_param":{"num_deleted":"0","num_feature":"27","num_nodes":"127","size_leaf_vector":"1"}},{"base_weights":[-2.6355988E-1,4.0251562E-1,-3.8935408E-1,6.740657E-1,2.0839238E-1,6.731861E-3,-5.053286E-1,5.941814E-1,1.1657513E0,3.707977E-2,5.735314E-1,-9.243776E-2,3.76202E-1,-5.6535935E-1,-1.6243519E-1,8.010161E-1,3.1096444E-1,1.6121774E0,1.0009905E0,-2.3730238E-1,1.6729671E-1,9.727827E-1,3.9329022E-1,2.2382662E-1,-1.6258812E-1,6.918777E-1,2.9824454E-1,-3.134981E-1,-6.6870457E-1,5.807941E-1,-2.1083562E-1,6.826223E-1,1.213193E0,-9.376425E-2,4.7259632E-1,1.1227123E0,1.8606775E0,4.5227376E-1,1.1450422E0,-6.3808183E-3,-3.9093363E-1,3.5694143E-1,-5.3041168E-3,5.872185E-1,1.2315203E0,-1.304702E-1,5.34323E-1,-8.558427E-2,3.301631E-1,-2.4698912E-1,1.7019756E-1,7.108044E-1,-1.9133946E-2,1.0980017E0,2.7376315E-1,-3.7214833E-1,3.936282E-1,-7.8060377E-1,-5.2238697E-1,7.766925E-1,1.2423698E-1,-3.9547613E-1,-1.1648885E-3,4.3131184E-2,1.8532578E-2,7.569304E-2,5.0228726E-2,2.5914987E-3,-1.8053403E-2,3.726935E-2,1.6145978E-2,6.6297784E-2,6.2072203E-3,7.84895E-2,1.0847024E-1,4.3266166E-2,5.3950856E-3,7.39897E-2,4.9041174E-2,-7.4208076E-3,9.363486E-3,-2.9736495E-2,-1.31969005E-2,2.7650723E-3,3.1328868E-2,-1.3799514E-2,6.573246E-3,5.508978E-2,1.945159E-2,8.807291E-2,5.2919265E-2,2.4995854E-2,-1.3984482E-2,4.0416416E-2,1.8941447E-2,3.6766902E-3,-1.669002E-2,3.171336E-2,1.191245E-2,-5.8672563E-3,-1.8674996E-2,1.6121175E-2,-3.5585256E-3,2.9849524E-2,4.1889247E-2,-3.8123313E-2,8.687715E-3,3.325201E-2,7.1747005E-2,7.464874E-3,2.021323E-2,-3.127555E-2,-1.3804843E-2,5.3465545E-2,7.5542177E-3,-3.3839818E-2,-4.5859493E-2,-1.0568144E-3,-3.0891662E-2,5.9767585E-2,3.003108E-2,-1.4144433E-2,2.3966944E-2,-1.2397946E-2,-3.0876739E-2,3.5502773E-2,-2.2391544E-3],"categories":[],"categories_nodes":[],"categories_segments":[],"categories_sizes":[],"default_left":[0,0,0,0,0,0,0,0,0,0,0,0,0,0,0,0,0,0,0,0,0,0,0,0,0,0,0,0,0,0,0,0,0,0,0,0,0,0,0,0,0,0,0,0,0,0,0,0,0,0,0,0,0,0,0,0,0,0,0,0,0,0,0,0,0,0,0,0,0,0,0,0,0,0,0,0,0,0,0,0,0,0,0,0,0,0,0,0,0,0,0,0,0,0,0,0,0,0,0,0,0,0,0,0,0,0,0,0,0,0,0,0,0,0,0,0,0,0,0,0,0,0,0,0,0,0,0],"id":2,"left_children":[1,3,5,7,9,11,13,15,17,19,21,23,25,27,29,31,33,35,37,39,41,43,45,47,49,51,53,55,57,59,61,63,65,67,69,71,73,75,77,79,81,83,85,87,89,91,93,95,97,99,101,103,105,107,109,111,113,115,117,119,121,123,125,-1,-1,-1,-1,-1,-1,-1,-1,-1,-1,-1,-1,-1,-1,-1,-1,-1,-1,-1,-1,-1,-1,-1,-1,-1,-1,-1,-1,-1,-1,-1,-1,-1,-1,-1,-1,-1,-1,-1,-1,-1,-1,-1,-1,-1,-1,-1,-1,-1,-1,-1,-1,-1,-1,-1,-1,-1,-1,-1,-1,-1,-1,-1,-1],"loss_changes":[3.212041E4,3.2100625E3,1.4812117E4,9.96416E2,2.221442E3,2.6759373E3,5.134039E3,1.2791182E3,2.592788E2,8.637375E2,8.157261E2,1.2774714E3,3.8012012E2,5.5246406E3,1.3369401E3,6.150864E2,6.031618E2,1.1401367E2,2.0447656E2,2.7602228E2,5.36624E2,3.511018E2,5.773572E2,3.439583E2,1.3236909E3,4.119165E1,2.4239526E2,2.5614321E3,2.4637578E3,2.0314117E2,1.350749E3,5.5041113E2,1.7505664E2,1.0244983E2,2.687744E2,6.5581726E1,5.331421E1,7.6848915E1,1.114353E2,8.555116E1,1.2076245E2,6.352849E2,3.1781604E2,1.4419897E2,1.9168896E2,1.561727E2,2.6203833E2,1.05653625E2,2.1730627E2,6.16522E2,3.5034955E2,4.257666E1,1.1648193E1,5.2706787E1,1.9532251E2,1.3876587E3,7.750794E2,1.2085391E3,3.1204785E3,1.16479675E2,9.894464E1,6.075886E2,5.0690158E2,0E0,0E0,0E0,0E0,0E0,0E0,0E0,0E0,0E0,0E0,0E0,0E0,0E0,0E0,0E0,0E0,0E0,0E0,0E0,0E0,0E0,0E0,0E0,0E0,0E0,0E0,0E0,0E0,0E0,0E0,0E0,0E0,0E0,0E0,0E0,0E0,0E0,0E0,0E0,0E0,0E0,0E0,0E0,0E0,0E0,0E0,0E0,0E0,0E0,0E0,0E0,0E0,0E0,0E0,0E0,0E0,0E0,0E0,0E0,0E0,0E0,0E0,0E0,0E0],"parents":[2147483647,0,0,1,1,2,2,3,3,4,4,5,5,6,6,7,7,8,8,9,9,10,10,11,11,12,12,13,13,14,14,15,15,16,16,17,17,18,18,19,19,20,20,21,21,22,22,23,23,24,24,25,25,26,26,27,27,28,28,29,29,30,30,31,31,32,32,33,33,34,34,35,35,36,36,37,37,38,38,39,39,40,40,41,41,42,42,43,43,44,44,45,45,46,46,47,47,48,48,49,49,50,50,51,51,52,52,53,53,54,54,55,55,56,56,57,57,58,58,59,59,60,60,61,61,62,62],"right_children":[2,4,6,8,10,12,14,16,18,20,22,24,26,28,30,32,34,36,38,40,42,44,46,48,50,52,54,56,58,60,62,64,66,68,70,72,74,76,78,80,82,84,86,88,90,92,94,96,98,100,102,104,106,108,110,112,114,116,118,120,122,124,126,-1,-1,-1,-1,-1,-1,-1,-1,-1,-1,-1,-1,-1,-1,-1,-1,-1,-1,-1,-1,-1,-1,-1,-1,-1,-1,-1,-1,-1,-1,-1,-1,-1,-1,-1,-1,-1,-1,-1,-1,-1,-1,-1,-1,-1,-1,-1,-1,-1,-1,-1,-1,-1,-1,-1,-1,-1,-1,-1,-1,-1,-1,-1,-1],"split_conditions":[-6.0523473E-2,-1.03907704E-1,8.994209E0,-8.775137E-2,-5.146752E-2,7.1428575E-2,5.1880196E-2,-1.4167364E-1,-8.357506E-1,6.3211784E-2,-8.87433E-2,-6.9411166E-2,1.915481E0,-2.0520398E-2,3.6805905E-2,-1.377551E-1,-1.23828314E-1,2.262985E1,2.262985E1,-9.6739955E-2,-8.1489846E-2,2.9554693E1,2.9554693E1,-3.513308E-2,7.079304E-2,4.3574843E0,5.146025E-2,2.3875847E-3,1.3623978E-2,7.190248E1,8.562532E-2,-1.8300672E-1,-1.5835142E-1,-1.2384172E-1,-1.2384172E-1,5.4437435E-1,-7.176582E-2,-9.2E-2,-1.1913466E-1,-7.5722545E-2,2.2119333E1,-8.01278E-2,-7.176582E-2,-1.3770524E-1,-8.1489846E-2,-1.01069674E-1,-7.2762616E-2,-4.3056574E-2,-3.227215E-2,5.04246E0,3.302601E-2,1.6235293E-1,2.5E-1,1.1475172E0,1.24678664E-1,1.4791527E-1,-4.6411134E-2,2.5235058E-3,6.42119E-3,2.0749273E-2,9.917355E-2,7.073531E-2,7.250689E-2,4.3131184E-2,1.8532578E-2,7.569304E-2,5.0228726E-2,2.5914987E-3,-1.8053403E-2,3.726935E-2,1.6145978E-2,6.6297784E-2,6.2072203E-3,7.84895E-2,1.0847024E-1,4.3266166E-2,5.3950856E-3,7.39897E-2,4.9041174E-2,-7.4208076E-3,9.363486E-3,-2.9736495E-2,-1.31969005E-2,2.7650723E-3,3.1328868E-2,-1.3799514E-2,6.573246E-3,5.508978E-2,1.945159E-2,8.807291E-2,5.2919265E-2,2.4995854E-2,-1.3984482E-2,4.0416416E-2,1.8941447E-2,3.6766902E-3,-1.669002E-2,3.171336E-2,1.191245E-2,-5.8672563E-3,-1.8674996E-2,1.6121175E-2,-3.5585256E-3,2.9849524E-2,4.1889247E-2,-3.8123313E-2,8.687715E-3,3.325201E-2,7.1747005E-2,7.464874E-3,2.021323E-2,-3.127555E-2,-1.3804843E-2,5.3465545E-2,7.5542177E-3,-3.3839818E-2,-4.5859493E-2,-1.0568144E-3,-3.0891662E-2,5.9767585E-2,3.003108E-2,-1.4144433E-2,2.3966944E-2,-1.2397946E-2,-3.0876739E-2,3.5502773E-2,-2.2391544E-3],"split_indices":[15,15,11,12,12,12,12,15,6,24,2,16,11,15,15,12,12,8,8,16,15,8,8,12,13,3,15,12,12,8,12,15,15,15,15,17,12,1,15,12,8,12,12,16,15,16,15,15,15,11,15,12,9,23,12,24,2,15,15,15,14,15,15,0,0,0,0,0,0,0,0,0,0,0,0,0,0,0,0,0,0,0,0,0,0,0,0,0,0,0,0,0,0,0,0,0,0,0,0,0,0,0,0,0,0,0,0,0,0,0,0,0,0,0,0,0,0,0,0,0,0,0,0,0,0,0,0],"split_type":[0,0,0,0,0,0,0,0,0,0,0,0,0,0,0,0,0,0,0,0,0,0,0,0,0,0,0,0,0,0,0,0,0,0,0,0,0,0,0,0,0,0,0,0,0,0,0,0,0,0,0,0,0,0,0,0,0,0,0,0,0,0,0,0,0,0,0,0,0,0,0,0,0,0,0,0,0,0,0,0,0,0,0,0,0,0,0,0,0,0,0,0,0,0,0,0,0,0,0,0,0,0,0,0,0,0,0,0,0,0,0,0,0,0,0,0,0,0,0,0,0,0,0,0,0,0,0],"sum_hessian":[3.8334838E5,6.089731E4,3.2245106E5,2.5384969E4,3.551234E4,7.303085E4,2.4942022E5,2.1838992E4,3.5459766E3,2.4172438E4,1.1339903E4,5.7577266E4,1.5453586E4,2.1225912E5,3.7161094E4,1.2620417E4,9.218575E3,9.535388E2,2.5924377E3,7.7794385E3,1.6392998E4,3.5257144E3,7.814189E3,1.0452272E4,4.7124992E4,3.0589602E3,1.2394626E4,6.1756715E4,1.505024E5,2.2713655E3,3.488973E4,9.806308E3,2.8141094E3,2.6309805E3,6.5875947E3,3.2294968E2,6.305891E2,5.399224E2,2.0525154E3,3.1083503E3,4.6710884E3,7.81034E3,8.582659E3,1.4171632E3,2.108551E3,1.657759E3,6.1564297E3,2.6734473E3,7.7788257E3,3.7591344E4,9.533648E3,2.9796443E3,7.9315994E1,3.6684033E2,1.2027785E4,5.7027254E4,4.7294624E3,8.527918E4,6.5223227E4,1.588902E3,6.824634E2,1.8551764E4,1.6337965E4,6.217284E3,3.5890234E3,1.1501786E3,1.6639308E3,1.703778E3,9.272025E2,2.332521E3,4.2550737E3,2.680619E2,5.488781E1,3.2780807E2,3.0278104E2,2.4479529E2,2.9512714E2,6.728773E2,1.3796381E3,1.7932806E3,1.3150696E3,1.7918817E3,2.8792065E3,3.6869631E3,4.123377E3,2.8805686E3,5.7020903E3,3.9277997E2,1.0243833E3,5.169815E2,1.5915695E3,3.1685095E2,1.3409081E3,2.227326E3,3.9291038E3,1.6295399E3,1.0439072E3,1.8040623E3,5.974763E3,1.8566723E4,1.9024623E4,5.84622E3,3.687428E3,1.5742911E3,1.4053531E3,1.57329855E1,6.3583008E1,1.6184512E2,2.0499521E2,6.1573545E3,5.870431E3,1.5674876E4,4.135238E4,1.2483578E3,3.4811047E3,4.8457055E4,3.6822125E4,1.0433151E4,5.4790074E4,4.686835E2,1.1202185E3,3.180366E2,3.644268E2,1.1148049E4,7.403716E3,9.4320337E2,1.5394762E4],"tree_param":{"num_deleted":"0","num_feature":"27","num_nodes":"127","size_leaf_vector":"1"}},{"base_weights":[-2.5270662E-1,3.2414672E-1,-3.8775793E-1,6.052131E-1,1.3427949E-1,-7.709817E-3,-5.026291E-1,5.219123E-1,8.593378E-1,-2.1498917E-1,2.9384047E-1,-1.1122613E-1,3.06077E-1,-5.635975E-1,-1.5307416E-1,7.242826E-1,3.7457967E-1,8.919606E-1,3.7189755E-1,-6.097623E-2,-3.7122062E-1,1.965443E-1,5.2666354E-1,-2.297772E-1,6.8581335E-2,1.5742195E-1,4.4122037E-1,-3.3299938E-1,-6.32626E-1,2.2932489E-1,-2.162476E-1,7.785679E-1,4.081983E-1,5.726361E-1,1.4776076E-1,9.969341E-1,7.340689E-1,2.8125092E-1,6.045985E-1,-1.7685431E-1,1.8683562E-1,-4.8553658E-1,-1.9753028E-1,3.8296637E-1,6.2055197E-2,6.861648E-1,3.9794162E-1,-5.619297E-3,-4.5585898E-1,2.5151077E-1,-5.9709966E-2,3.1735477E-1,2.5650743E-2,6.586885E-1,3.7983894E-1,-4.3072438E-1,-3.7518952E-3,-6.7127967E-1,-2.3766127E-1,4.3579063E-1,1.007989E-1,-3.418074E-1,7.896008E-2,4.0789284E-2,2.1395858E-2,2.4077138E-2,1.1755425E-3,1.7550608E-2,3.2448076E-2,1.2929866E-2,-6.1772773E-3,6.255813E-2,4.7964785E-2,2.797533E-2,4.3533605E-2,1.965256E-2,1.2443553E-3,4.3183967E-2,8.937999E-3,-7.4190006E-4,-1.853667E-2,1.8870816E-2,4.4623325E-3,-1.5059649E-2,-2.9957771E-2,-4.7208774E-3,-1.6998364E-2,1.0873549E-2,2.5607467E-2,-9.477452E-3,9.832621E-3,2.5840972E-2,3.9322972E-2,3.498808E-2,1.54756075E-2,1.6023103E-2,-4.730749E-3,-3.486916E-2,-1.6833575E-2,7.915261E-3,1.9574478E-2,-1.0989266E-2,3.963405E-3,3.3520203E-2,1.2530168E-2,-2.1609399E-3,1.4721043E-2,3.3982348E-2,-1.1899861E-3,1.4306043E-2,2.349142E-2,-3.442844E-2,-1.7439658E-2,-4.5695235E-3,1.2649277E-2,-1.2526243E-2,-3.5244044E-2,-7.9956296E-4,-1.9231623E-2,1.3639583E-2,3.3359554E-2,-3.000855E-4,1.8760374E-2,-1.0408445E-2,-2.221534E-2,6.9572724E-4,1.7295E-2],"categories":[],"categories_nodes":[],"categories_segments":[],"categories_sizes":[],"default_left":[0,0,0,0,0,0,0,0,0,0,0,0,0,0,0,0,0,0,0,0,0,0,0,0,0,0,0,0,0,0,0,0,0,0,0,0,0,0,0,0,0,0,0,0,0,0,0,0,0,0,0,0,0,0,0,0,0,0,0,0,0,0,0,0,0,0,0,0,0,0,0,0,0,0,0,0,0,0,0,0,0,0,0,0,0,0,0,0,0,0,0,0,0,0,0,0,0,0,0,0,0,0,0,0,0,0,0,0,0,0,0,0,0,0,0,0,0,0,0,0,0,0,0,0,0,0,0],"id":3,"left_children":[1,3,5,7,9,11,13,15,17,19,21,23,25,27,29,31,33,35,37,39,41,43,45,47,49,51,53,55,57,59,61,63,65,67,69,71,73,75,77,79,81,83,85,87,89,91,93,95,97,99,101,103,105,107,109,111,113,115,117,119,121,123,125,-1,-1,-1,-1,-1,-1,-1,-1,-1,-1,-1,-1,-1,-1,-1,-1,-1,-1,-1,-1,-1,-1,-1,-1,-1,-1,-1,-1,-1,-1,-1,-1,-1,-1,-1,-1,-1,-1,-1,-1,-1,-1,-1,-1,-1,-1,-1,-1,-1,-1,-1,-1,-1,-1,-1,-1,-1,-1,-1,-1,-1,-1,-1,-1],"loss_changes":[2.9627305E4,3.8499585E3,1.3453016E4,6.152783E2,2.399751E3,2.3232878E3,5.0429766E3,6.529463E2,1.13828125E2,3.2489038E2,6.694475E2,1.1464664E3,3.5637476E2,3.2070664E3,8.490537E2,1.5804248E2,5.6955273E2,1.1078223E2,9.365299E0,1.9533456E2,1.3299994E2,5.2265497E2,1.7857056E2,1.6426061E3,5.0155505E2,1.7808191E2,1.2379895E2,1.4936421E3,2.36725E3,1.3219397E2,1.1180294E3,1.02427734E2,3.82146E1,1.14273926E2,1.7781882E2,3.744287E1,6.367212E1,9.368078E0,1.3730991E1,1.4557759E2,4.0277847E1,8.4476074E1,3.9069717E1,1.8667029E2,4.1020325E2,6.564429E1,1.2850507E2,4.723741E2,4.6429736E2,1.1487695E2,2.7948956E2,8.97912E1,8.5792885E1,2.9257202E1,6.1007935E1,7.5598047E2,2.3910707E2,1.9967266E3,4.503897E2,7.1921234E1,9.0052765E1,2.8977954E2,1.5628944E2,0E0,0E0,0E0,0E0,0E0,0E0,0E0,0E0,0E0,0E0,0E0,0E0,0E0,0E0,0E0,0E0,0E0,0E0,0E0,0E0,0E0,0E0,0E0,0E0,0E0,0E0,0E0,0E0,0E0,0E0,0E0,0E0,0E0,0E0,0E0,0E0,0E0,0E0,0E0,0E0,0E0,0E0,0E0,0E0,0E0,0E0,0E0,0E0,0E0,0E0,0E0,0E0,0E0,0E0,0E0,0E0,0E0,0E0,0E0,0E0,0E0,0E0,0E0,0E0],"parents":[2147483647,0,0,1,1,2,2,3,3,4,4,5,5,6,6,7,7,8,8,9,9,10,10,11,11,12,12,13,13,14,14,15,15,16,16,17,17,18,18,19,19,20,20,21,21,22,22,23,23,24,24,25,25,26,26,27,27,28,28,29,29,30,30,31,31,32,32,33,33,34,34,35,35,36,36,37,37,38,38,39,39,40,40,41,41,42,42,43,43,44,44,45,45,46,46,47,47,48,48,49,49,50,50,51,51,52,52,53,53,54,54,55,55,56,56,57,57,58,58,59,59,60,60,61,61,62,62],"right_children":[2,4,6,8,10,12,14,16,18,20,22,24,26,28,30,32,34,36,38,40,42,44,46,48,50,52,54,56,58,60,62,64,66,68,70,72,74,76,78,80,82,84,86,88,90,92,94,96,98,100,102,104,106,108,110,112,114,116,118,120,122,124,126,-1,-1,-1,-1,-1,-1,-1,-1,-1,-1,-1,-1,-1,-1,-1,-1,-1,-1,-1,-1,-1,-1,-1,-1,-1,-1,-1,-1,-1,-1,-1,-1,-1,-1,-1,-1,-1,-1,-1,-1,-1,-1,-1,-1,-1,-1,-1,-1,-1,-1,-1,-1,-1,-1,-1,-1,-1,-1,-1,-1,-1,-1,-1,-1],"split_conditions":[-5.291076E-2,-9.783617E-2,9.161563E0,-3.635652E-2,9.943378E-2,2.7805362E-2,2.472159E-2,-1.4923361E-1,2.0825405E0,-7.2762616E-2,3.8981347E-3,2.6022005E-1,4.984561E-2,-2.3271961E-2,1.9023247E-2,1.1689914E0,4.47298E-1,-1.1913466E-1,3.010204E-1,2.7917917E1,2.7219671E1,-3.4339468E-3,-6.975615E-2,4.029678E0,5.596719E0,3.15135E-1,1.915481E0,4.763738E-2,8.4848486E-2,-5.5524143E-3,5.212355E-2,2.3521582E1,-1.6925357E-1,4.507341E-2,8.649848E-1,1.1452522E0,-4.0922895E-2,3.377858E1,5.0119926E1,4.6797258E-1,3.1977695E-1,-9.820666E-2,4.3947372E-1,1.639003E-1,3.711817E1,4.0115044E1,-2.283746E-3,1.6642581E0,1.293262E-1,1.4089003E-1,1.5436968E-1,2.5235058E-3,1.2030271E-1,3.910092E0,4.2984086E-1,1.13484085E-1,5.0524477E-2,-1.0441553E-1,6.7232704E1,1.4032073E-2,3.7433155E-2,2.8220213E1,5.275454E-1,4.0789284E-2,2.1395858E-2,2.4077138E-2,1.1755425E-3,1.7550608E-2,3.2448076E-2,1.2929866E-2,-6.1772773E-3,6.255813E-2,4.7964785E-2,2.797533E-2,4.3533605E-2,1.965256E-2,1.2443553E-3,4.3183967E-2,8.937999E-3,-7.4190006E-4,-1.853667E-2,1.8870816E-2,4.4623325E-3,-1.5059649E-2,-2.9957771E-2,-4.7208774E-3,-1.6998364E-2,1.0873549E-2,2.5607467E-2,-9.477452E-3,9.832621E-3,2.5840972E-2,3.9322972E-2,3.498808E-2,1.54756075E-2,1.6023103E-2,-4.730749E-3,-3.486916E-2,-1.6833575E-2,7.915261E-3,1.9574478E-2,-1.0989266E-2,3.963405E-3,3.3520203E-2,1.2530168E-2,-2.1609399E-3,1.4721043E-2,3.3982348E-2,-1.1899861E-3,1.4306043E-2,2.349142E-2,-3.442844E-2,-1.7439658E-2,-4.5695235E-3,1.2649277E-2,-1.2526243E-2,-3.5244044E-2,-7.9956296E-4,-1.9231623E-2,1.3639583E-2,3.3359554E-2,-3.000855E-4,1.8760374E-2,-1.0408445E-2,-2.221534E-2,6.9572724E-4,1.7295E-2],"split_indices":[15,15,11,7,24,0,0,15,7,15,7,4,0,15,15,17,17,15,9,8,8,26,15,11,11,17,11,7,13,15,0,4,15,24,17,11,0,8,8,17,17,2,17,24,8,8,26,11,4,3,3,15,1,3,4,24,13,2,8,7,0,11,25,0,0,0,0,0,0,0,0,0,0,0,0,0,0,0,0,0,0,0,0,0,0,0,0,0,0,0,0,0,0,0,0,0,0,0,0,0,0,0,0,0,0,0,0,0,0,0,0,0,0,0,0,0,0,0,0,0,0,0,0,0,0,0,0],"split_type":[0,0,0,0,0,0,0,0,0,0,0,0,0,0,0,0,0,0,0,0,0,0,0,0,0,0,0,0,0,0,0,0,0,0,0,0,0,0,0,0,0,0,0,0,0,0,0,0,0,0,0,0,0,0,0,0,0,0,0,0,0,0,0,0,0,0,0,0,0,0,0,0,0,0,0,0,0,0,0,0,0,0,0,0,0,0,0,0,0,0,0,0,0,0,0,0,0,0,0,0,0,0,0,0,0,0,0,0,0,0,0,0,0,0,0,0,0,0,0,0,0,0,0,0,0,0,0],"sum_hessian":[3.8029878E5,7.2144016E4,3.0815478E5,2.9085562E4,4.3058453E4,7.152323E4,2.3663155E5,2.190746E4,7.1781025E3,1.3502345E4,2.9556107E4,5.3781645E4,1.7741584E4,2.0148795E5,3.5143594E4,9.228138E3,1.2679322E4,6.7270527E3,4.510502E2,6.800149E3,6.702196E3,2.0846326E4,8.709781E3,3.2411646E4,2.1369998E4,8.449484E3,9.2921E3,4.6420477E4,1.5506747E5,4.9822993E3,3.0161297E4,7.874316E3,1.3538218E3,6.7680186E3,5.911304E3,4.0374568E3,2.6895957E3,3.2619315E2,1.24857056E2,4.633696E3,2.1664534E3,4.0408652E3,2.6613303E3,8.735611E3,1.2110715E4,3.8878987E3,4.821883E3,1.6275586E4,1.6136061E4,8.808737E3,1.2561261E4,3.816242E3,4.633242E3,2.0432705E3,7.2488296E3,3.579557E4,1.0624906E4,1.4124378E5,1.3823686E4,1.9106373E3,3.0716619E3,2.1160855E4,9.000441E3,7.11754E3,7.567756E2,1.1368234E3,2.1699835E2,1.7351902E3,5.032828E3,4.196825E3,1.714479E3,5.1650244E2,3.5209543E3,1.182983E3,1.5066128E3,2.267669E2,9.942624E1,7.698878E1,4.786828E1,2.5248582E3,2.1088374E3,7.327007E2,1.4337527E3,1.5422522E3,2.498613E3,1.5447328E3,1.1165977E3,3.8307493E3,4.9048623E3,4.2206304E3,7.8900845E3,1.4484224E3,2.4394763E3,1.0910591E3,3.7308237E3,3.489052E3,1.2786534E4,5.3301245E3,1.0805936E4,5.289097E3,3.5196401E3,5.8372812E3,6.7239795E3,6.053728E2,3.2108694E3,3.6888516E3,9.443905E2,1.9823975E3,6.0872982E1,3.5528987E3,3.695931E3,8.629719E3,2.7165852E4,7.9215054E3,2.7034004E3,1.0446094E4,1.30797695E5,5.511718E3,8.311968E3,1.1222799E3,7.8835736E2,2.2118008E3,8.5986115E2,9.186519E3,1.1974336E4,7.2378403E3,1.7626005E3],"tree_param":{"num_deleted":"0","num_feature":"27","num_nodes":"127","size_leaf_vector":"1"}},{"base_weights":[-2.4269988E-1,2.7044186E-1,-3.8107586E-1,5.309741E-1,7.617583E-2,-8.906787E-3,-4.9274603E-1,6.454617E-1,3.5771212E-1,-1.16697066E-1,2.964506E-1,-9.302229E-2,3.4993592E-1,-5.4440826E-1,-9.5594354E-2,7.589344E-1,5.399477E-1,6.9488823E-1,1.9949624E-1,1.8039095E-1,-3.151123E-1,5.165763E-1,1.7690293E-1,2.3230664E-1,-1.5987226E-1,2.8418344E-1,5.4815525E-1,-1.5718569E-1,-6.0942423E-1,-1.9389273E-1,1.404561E-1,8.0588543E-1,2.5914454E-1,3.7374493E-1,6.862956E-1,7.7014774E-1,4.496464E-1,5.0399736E-2,4.5798168E-1,3.4025767E-1,-1.3752238E-1,-1.3684256E-1,-4.531886E-1,4.0091148E-1,7.337903E-1,8.976725E-2,4.3937355E-1,-1.1264171E-2,3.4066412E-1,-2.548749E-1,2.4589332E-2,3.6708185E-1,1.4211237E-1,7.3353064E-1,4.7747183E-1,-4.1641638E-1,-2.9956955E-2,-6.749204E-1,-4.493522E-1,-2.785732E-3,-3.454013E-1,3.133364E-1,3.935043E-2,4.396219E-2,2.880764E-2,1.2087893E-2,7.52007E-2,2.5341326E-2,1.0329611E-2,4.1566905E-2,2.5439298E-2,4.386055E-2,2.7564302E-2,2.0050919E-2,6.539595E-2,1.0562136E-2,-6.4210715E-3,1.9140746E-2,3.4902457E-2,8.486755E-3,2.467025E-2,-1.7363453E-2,-5.9604127E-4,7.00177E-4,-1.3527383E-2,-2.9038522E-2,-1.6577525E-2,3.80104E-2,1.5502356E-2,3.1119341E-2,4.6264835E-2,2.2731477E-2,9.896485E-4,1.7367734E-2,3.1884324E-2,1.6187489E-2,-8.502258E-3,3.4903686E-2,1.367538E-2,-9.339113E-3,-2.6429981E-2,7.1561784E-3,-1.4372939E-2,8.764842E-3,2.131891E-2,-3.3920617E-3,1.6224312E-2,1.4842424E-2,3.9946355E-2,3.1143025E-2,1.8153967E-2,-2.1127462E-3,-2.6471464E-2,1.01585975E-2,-6.3176337E-3,-2.8850654E-2,-4.0035337E-2,-1.5140036E-2,-3.330106E-2,1.0829449E-2,-8.925103E-3,-2.1247877E-2,-4.504878E-3,3.959733E-2,1.2052783E-2,-3.6402855E-3,1.8090013E-2],"categories":[],"categories_nodes":[],"categories_segments":[],"categories_sizes":[],"default_left":[0,0,0,0,0,0,0,0,0,0,0,0,0,0,0,0,0,0,0,0,0,0,0,0,0,0,0,0,0,0,0,0,0,0,0,0,0,0,0,0,0,0,0,0,0,0,0,0,0,0,0,0,0,0,0,0,0,0,0,0,0,0,0,0,0,0,0,0,0,0,0,0,0,0,0,0,0,0,0,0,0,0,0,0,0,0,0,0,0,0,0,0,0,0,0,0,0,0,0,0,0,0,0,0,0,0,0,0,0,0,0,0,0,0,0,0,0,0,0,0,0,0,0,0,0,0,0],"id":4,"left_children":[1,3,5,7,9,11,13,15,17,19,21,23,25,27,29,31,33,35,37,39,41,43,45,47,49,51,53,55,57,59,61,63,65,67,69,71,73,75,77,79,81,83,85,87,89,91,93,95,97,99,101,103,105,107,109,111,113,115,117,119,121,123,125,-1,-1,-1,-1,-1,-1,-1,-1,-1,-1,-1,-1,-1,-1,-1,-1,-1,-1,-1,-1,-1,-1,-1,-1,-1,-1,-1,-1,-1,-1,-1,-1,-1,-1,-1,-1,-1,-1,-1,-1,-1,-1,-1,-1,-1,-1,-1,-1,-1,-1,-1,-1,-1,-1,-1,-1,-1,-1,-1,-1,-1,-1,-1,-1],"loss_changes":[2.6775463E4,4.0534883E3,1.234316E4,6.7836816E2,1.9492717E3,2.069086E3,4.6871875E3,2.4620215E2,7.260897E2,1.442043E3,5.635619E2,1.2077482E3,1.6950049E2,5.089211E3,6.102192E2,2.3261621E2,2.5943213E2,7.9892334E1,3.57121E2,4.9792654E2,3.609712E2,1.8908813E2,3.174536E2,2.4984207E2,8.0728735E2,1.1509265E2,4.2120667E1,9.585538E2,1.8143789E3,5.375799E2,1.3513753E2,1.5233936E2,1.8110023E1,1.1114935E2,1.4571802E2,7.743115E1,4.2181763E1,1.6909659E2,6.0902405E1,1.7015137E2,8.636769E1,1.291514E2,1.2807043E2,1.6041876E2,5.5277344E1,2.6611163E2,6.2913513E1,1.5514548E2,1.570633E2,5.6663403E2,5.793141E2,7.0131165E1,1.380279E2,2.5261261E1,3.8848206E1,4.0456763E2,4.381635E2,1.5122266E3,1.5957539E3,3.165667E2,2.1030615E2,9.851071E1,1.7650763E2,0E0,0E0,0E0,0E0,0E0,0E0,0E0,0E0,0E0,0E0,0E0,0E0,0E0,0E0,0E0,0E0,0E0,0E0,0E0,0E0,0E0,0E0,0E0,0E0,0E0,0E0,0E0,0E0,0E0,0E0,0E0,0E0,0E0,0E0,0E0,0E0,0E0,0E0,0E0,0E0,0E0,0E0,0E0,0E0,0E0,0E0,0E0,0E0,0E0,0E0,0E0,0E0,0E0,0E0,0E0,0E0,0E0,0E0,0E0,0E0,0E0,0E0,0E0,0E0],"parents":[2147483647,0,0,1,1,2,2,3,3,4,4,5,5,6,6,7,7,8,8,9,9,10,10,11,11,12,12,13,13,14,14,15,15,16,16,17,17,18,18,19,19,20,20,21,21,22,22,23,23,24,24,25,25,26,26,27,27,28,28,29,29,30,30,31,31,32,32,33,33,34,34,35,35,36,36,37,37,38,38,39,39,40,40,41,41,42,42,43,43,44,44,45,45,46,46,47,47,48,48,49,49,50,50,51,51,52,52,53,53,54,54,55,55,56,56,57,57,58,58,59,59,60,60,61,61,62,62],"right_children":[2,4,6,8,10,12,14,16,18,20,22,24,26,28,30,32,34,36,38,40,42,44,46,48,50,52,54,56,58,60,62,64,66,68,70,72,74,76,78,80,82,84,86,88,90,92,94,96,98,100,102,104,106,108,110,112,114,116,118,120,122,124,126,-1,-1,-1,-1,-1,-1,-1,-1,-1,-1,-1,-1,-1,-1,-1,-1,-1,-1,-1,-1,-1,-1,-1,-1,-1,-1,-1,-1,-1,-1,-1,-1,-1,-1,-1,-1,-1,-1,-1,-1,-1,-1,-1,-1,-1,-1,-1,-1,-1,-1,-1,-1,-1,-1,-1,-1,-1,-1,-1,-1,-1,-1,-1,-1],"split_conditions":[-4.8175603E-2,-9.0058014E-2,8.994209E0,4.860319E-1,3.5972427E1,8.967219E-2,9.122502E-2,-1.2384172E-1,-1.6925357E-1,-8.890819E-2,-6.087745E-2,-7.0702925E-2,4.1791046E-1,-5.4931868E-2,1.7100634E-1,1.2246326E2,3.0467752E1,1.2454921E0,3.076593E1,3.516858E-1,3.2917705E-1,4.369789E1,1.6389234E-2,3.377858E1,3.814714E-2,7.667187E1,2.8835434E-1,3.4032333E1,3.318659E-2,7.088224E1,7.2977715E1,3.0876964E-2,5.729167E-1,-1.5049505E-1,5.9438227E-3,4.5164164E-2,-9.2E-2,-1.1913466E-1,-7.7220076E-3,2.6090254E1,2.262985E1,-8.9269616E-2,2.756955E1,-9.6739955E-2,3.0075189E-2,-8.540697E-2,5.8409866E-2,-2.3052444E-1,-2.1446206E-1,1.8501863E-2,6.780178E1,3.2240406E-1,1.4825682E-1,1.7011611E-1,7.491951E1,-1.6010678E-1,-9.6739955E-2,-2.5836627E-3,6.9286255E1,1.00467116E-1,1.1518112E-1,1.5783523E-1,2.3361303E-1,4.396219E-2,2.880764E-2,1.2087893E-2,7.52007E-2,2.5341326E-2,1.0329611E-2,4.1566905E-2,2.5439298E-2,4.386055E-2,2.7564302E-2,2.0050919E-2,6.539595E-2,1.0562136E-2,-6.4210715E-3,1.9140746E-2,3.4902457E-2,8.486755E-3,2.467025E-2,-1.7363453E-2,-5.9604127E-4,7.00177E-4,-1.3527383E-2,-2.9038522E-2,-1.6577525E-2,3.80104E-2,1.5502356E-2,3.1119341E-2,4.6264835E-2,2.2731477E-2,9.896485E-4,1.7367734E-2,3.1884324E-2,1.6187489E-2,-8.502258E-3,3.4903686E-2,1.367538E-2,-9.339113E-3,-2.6429981E-2,7.1561784E-3,-1.4372939E-2,8.764842E-3,2.131891E-2,-3.3920617E-3,1.6224312E-2,1.4842424E-2,3.9946355E-2,3.1143025E-2,1.8153967E-2,-2.1127462E-3,-2.6471464E-2,1.01585975E-2,-6.3176337E-3,-2.8850654E-2,-4.0035337E-2,-1.5140036E-2,-3.330106E-2,1.0829449E-2,-8.925103E-3,-2.1247877E-2,-4.504878E-3,3.959733E-2,1.2052783E-2,-3.6402855E-3,1.8090013E-2],"split_indices":[15,15,11,17,8,1,13,15,15,16,6,16,14,16,13,23,8,17,8,17,17,8,1,8,13,8,5,8,13,8,8,6,9,14,6,6,1,15,13,8,8,14,8,16,13,16,1,2,2,16,8,18,1,17,8,2,16,16,8,16,1,16,1,0,0,0,0,0,0,0,0,0,0,0,0,0,0,0,0,0,0,0,0,0,0,0,0,0,0,0,0,0,0,0,0,0,0,0,0,0,0,0,0,0,0,0,0,0,0,0,0,0,0,0,0,0,0,0,0,0,0,0,0,0,0,0,0],"split_type":[0,0,0,0,0,0,0,0,0,0,0,0,0,0,0,0,0,0,0,0,0,0,0,0,0,0,0,0,0,0,0,0,0,0,0,0,0,0,0,0,0,0,0,0,0,0,0,0,0,0,0,0,0,0,0,0,0,0,0,0,0,0,0,0,0,0,0,0,0,0,0,0,0,0,0,0,0,0,0,0,0,0,0,0,0,0,0,0,0,0,0,0,0,0,0,0,0,0,0,0,0,0,0,0,0,0,0,0,0,0,0,0,0,0,0,0,0,0,0,0,0,0,0,0,0,0,0],"sum_hessian":[3.7708238E5,8.008841E4,2.9699397E5,3.4208836E4,4.587957E4,6.8546484E4,2.2844747E5,2.0596441E4,1.3612395E4,2.4461506E4,2.1418062E4,5.5530457E4,1.3016027E4,2.0215092E5,2.629655E4,9.920966E3,1.0675477E4,4.346377E3,9.266018E3,9.7952E3,1.4666307E4,7.536893E3,1.3881169E4,9.465181E3,4.6065277E4,9.775707E3,3.240321E3,2.906267E4,1.7308825E5,1.8565504E4,7.731046E3,9.068449E3,8.525164E2,5.0003203E3,5.675156E3,3.3241316E3,1.0222452E3,5.877197E3,3.3888203E3,6.5176484E3,3.2775518E3,6.4023066E3,8.264E3,4.9199194E3,2.6169736E3,1.0422441E4,3.4587278E3,2.9145713E3,6.5506094E3,3.0405336E4,1.5659941E4,6.172483E3,3.6032236E3,8.9188184E2,2.3484392E3,9.567155E3,1.9495514E4,1.22827945E5,5.0260305E4,8.210331E3,1.0355174E4,2.8521177E3,4.878928E3,6.871432E3,2.1970168E3,8.4195135E2,1.0565051E1,2.7827517E3,2.2175688E3,3.1211736E3,2.5539822E3,2.2301663E3,1.0939653E3,9.68821E2,5.3424225E1,3.0940408E3,2.783156E3,2.582741E3,8.0607916E2,3.084882E3,3.4327664E3,1.2269155E3,2.0506362E3,3.0087405E3,3.3935662E3,4.0316118E3,4.232388E3,9.915924E2,3.9283271E3,1.6571963E3,9.5977734E2,1.6763036E3,8.746138E3,2.364385E3,1.0943428E3,9.368535E2,1.9777177E3,1.0346685E3,5.515941E3,2.4349707E4,6.05563E3,1.1349337E4,4.3106045E3,1.458652E3,4.713831E3,1.6752545E3,1.9279692E3,1.168904E2,7.7499146E2,1.0321583E3,1.3162809E3,2.2196716E3,7.347484E3,5.702691E3,1.3792822E4,6.907119E4,5.3756754E4,2.9982807E4,2.02775E4,3.6514326E3,4.558898E3,7.8944775E3,2.4606958E3,3.7291147E2,2.479206E3,3.620427E3,1.2585012E3],"tree_param":{"num_deleted":"0","num_feature":"27","num_nodes":"127","size_leaf_vector":"1"}},{"base_weights":[-2.3205791E-1,2.6551402E-1,-3.6563978E-1,4.901109E-1,7.531393E-2,-2.3918815E-2,-4.7885206E-1,4.2171708E-1,9.175625E-1,-1.1503865E-1,3.3210328E-1,-1.638187E-1,2.3853993E-1,-5.5686367E-1,-1.8198498E-1,6.028485E-1,1.668603E-1,5.2313644E-1,1.047753E0,1.3491605E-1,-2.4027076E-1,7.6405853E-1,2.036526E-1,-1.3662474E-2,-3.0052912E-1,4.379748E-1,1.4581576E-1,-3.7457746E-1,-6.7449933E-1,5.9613985E-1,-2.3585041E-1,5.131605E-1,1.0481448E0,-2.8194338E-1,2.7720636E-1,9.305256E-1,2.2329955E-1,1.3692447E0,8.574402E-1,-1.8065536E-1,2.551065E-1,-1.1341666E-1,-4.3242928E-1,5.846842E-1,1.2449267E0,-1.1387528E-1,4.0186343E-1,-7.228915E-2,5.845679E-1,-5.3880125E-1,-1.6626482E-1,6.1569285E-1,3.6880335E-1,4.317179E-3,3.099149E-1,-4.4558144E-1,3.386897E-1,-8.259236E-1,-5.6648105E-1,8.7858975E-1,2.4956033E-1,-4.171492E-1,-3.7306763E-2,3.3188846E-2,1.162253E-2,6.8042524E-2,4.3624073E-2,-8.589151E-3,-2.3805024E-2,2.2995485E-2,5.395091E-3,1.9691315E-2,5.486396E-2,3.438404E-2,4.410074E-3,8.8762954E-2,6.0931273E-2,6.457127E-2,3.8828928E-2,-2.8021634E-3,-1.9968731E-2,2.0612672E-2,4.3375692E-3,-1.881265E-2,1.9401842E-3,-2.7292231E-2,-1.465299E-2,4.551388E-2,2.0314997E-2,3.7106182E-2,7.1660034E-2,1.560759E-2,-1.1770466E-2,3.736032E-2,1.591078E-2,-6.6106617E-3,1.4121692E-2,6.710737E-2,1.9530494E-2,-2.1976503E-2,-3.6837194E-2,-1.1473018E-3,-2.3697777E-2,3.2171637E-2,-3.6984407E-3,8.5541345E-3,2.285601E-2,3.4596745E-2,-1.8825773E-3,3.9765265E-2,1.3097854E-2,-2.4195513E-2,-1.2383487E-3,4.6350114E-2,7.2365324E-3,-3.7807718E-2,-4.756131E-2,-1.7792406E-2,-3.4640647E-2,6.0553428E-2,3.149896E-2,-7.269883E-4,3.827726E-2,-1.3157862E-2,-3.151827E-2,3.04813E-2,-4.4556023E-3],"categories":[],"categories_nodes":[],"categories_segments":[],"categories_sizes":[],"default_left":[0,0,0,0,0,0,0,0,0,0,0,0,0,0,0,0,0,0,0,0,0,0,0,0,0,0,0,0,0,0,0,0,0,0,0,0,0,0,0,0,0,0,0,0,0,0,0,0,0,0,0,0,0,0,0,0,0,0,0,0,0,0,0,0,0,0,0,0,0,0,0,0,0,0,0,0,0,0,0,0,0,0,0,0,0,0,0,0,0,0,0,0,0,0,0,0,0,0,0,0,0,0,0,0,0,0,0,0,0,0,0,0,0,0,0,0,0,0,0,0,0,0,0,0,0,0,0],"id":5,"left_children":[1,3,5,7,9,11,13,15,17,19,21,23,25,27,29,31,33,35,37,39,41,43,45,47,49,51,53,55,57,59,61,63,65,67,69,71,73,75,77,79,81,83,85,87,89,91,93,95,97,99,101,103,105,107,109,111,113,115,117,119,121,123,125,-1,-1,-1,-1,-1,-1,-1,-1,-1,-1,-1,-1,-1,-1,-1,-1,-1,-1,-1,-1,-1,-1,-1,-1,-1,-1,-1,-1,-1,-1,-1,-1,-1,-1,-1,-1,-1,-1,-1,-1,-1,-1,-1,-1,-1,-1,-1,-1,-1,-1,-1,-1,-1,-1,-1,-1,-1,-1,-1,-1,-1,-1,-1,-1],"loss_changes":[2.4875014E4,3.3836343E3,1.1414172E4,1.0614316E3,2.0965127E3,2.6959783E3,5.1323477E3,1.4453481E3,2.5666162E2,7.7107007E2,1.01293555E3,9.831686E2,4.7203906E2,3.7630273E3,1.9332004E3,7.3044775E2,6.44383E2,1.5187247E2,2.2917676E2,3.1191214E2,3.9997504E2,3.602295E2,8.858964E2,8.005952E2,8.0192285E2,9.937036E1,4.0468655E2,3.4863604E3,1.7441797E3,2.9210413E2,1.5526392E3,6.440432E2,1.673125E2,5.4843094E1,3.229801E2,4.6779724E1,4.501575E1,8.3346924E1,8.208276E1,6.180494E1,1.5751169E2,3.9555527E2,1.0298181E2,1.7676025E2,1.06477905E2,2.8019516E2,2.5009644E2,4.419467E2,2.988471E2,1.7720972E2,7.07134E2,4.3445496E1,1.018042E2,2.701343E2,1.876427E2,1.00975977E3,7.110675E2,3.8749414E2,1.6564023E3,1.35203E2,1.8292523E2,7.401089E2,6.9009033E2,0E0,0E0,0E0,0E0,0E0,0E0,0E0,0E0,0E0,0E0,0E0,0E0,0E0,0E0,0E0,0E0,0E0,0E0,0E0,0E0,0E0,0E0,0E0,0E0,0E0,0E0,0E0,0E0,0E0,0E0,0E0,0E0,0E0,0E0,0E0,0E0,0E0,0E0,0E0,0E0,0E0,0E0,0E0,0E0,0E0,0E0,0E0,0E0,0E0,0E0,0E0,0E0,0E0,0E0,0E0,0E0,0E0,0E0,0E0,0E0,0E0,0E0,0E0,0E0],"parents":[2147483647,0,0,1,1,2,2,3,3,4,4,5,5,6,6,7,7,8,8,9,9,10,10,11,11,12,12,13,13,14,14,15,15,16,16,17,17,18,18,19,19,20,20,21,21,22,22,23,23,24,24,25,25,26,26,27,27,28,28,29,29,30,30,31,31,32,32,33,33,34,34,35,35,36,36,37,37,38,38,39,39,40,40,41,41,42,42,43,43,44,44,45,45,46,46,47,47,48,48,49,49,50,50,51,51,52,52,53,53,54,54,55,55,56,56,57,57,58,58,59,59,60,60,61,61,62,62],"right_children":[2,4,6,8,10,12,14,16,18,20,22,24,26,28,30,32,34,36,38,40,42,44,46,48,50,52,54,56,58,60,62,64,66,68,70,72,74,76,78,80,82,84,86,88,90,92,94,96,98,100,102,104,106,108,110,112,114,116,118,120,122,124,126,-1,-1,-1,-1,-1,-1,-1,-1,-1,-1,-1,-1,-1,-1,-1,-1,-1,-1,-1,-1,-1,-1,-1,-1,-1,-1,-1,-1,-1,-1,-1,-1,-1,-1,-1,-1,-1,-1,-1,-1,-1,-1,-1,-1,-1,-1,-1,-1,-1,-1,-1,-1,-1,-1,-1,-1,-1,-1,-1,-1,-1,-1,-1,-1],"split_conditions":[-4.907447E-2,-8.773523E-2,9.652151E0,-7.176582E-2,-4.622377E-2,4.1666668E-2,4.1666668E-2,-1.2384172E-1,2.488837E1,9.944162E0,-9.820666E-2,-6.0223937E-3,2.9766986E0,-1.0381623E-2,2.687932E-2,-1.1295034E-1,-1.1295034E-1,-1.3043478E-1,-3.0943283E-1,-7.5722545E-2,-6.554449E-2,-2.4697846E-2,3.711817E1,7.591093E-3,6.359649E-3,1.3370489E0,4.2984086E-1,6.7609097E-3,7.1770335E-3,6.587605E1,7.345651E-2,-1.5835142E-1,-1.4167364E-1,-1.07286744E-1,1.4339009E1,1.2945343E1,-1.0061119E-1,-1.07286744E-1,-4.223228E-2,-7.123991E-2,-6.690589E-2,-7.176582E-2,-5.6277055E-2,-6.690589E-2,3.1349276E1,-5.4879203E-2,-4.4154223E-2,8.543833E-3,-1.0659216E-1,1.4058893E-2,3.160315E-2,3.910092E0,1.3410914E-1,2.6230535E-2,4.1730013E-2,9.25361E-3,-4.528477E-2,9.9156825E-3,1.4588276E-2,1.4588276E-2,1.1302133E-1,5.8622826E-2,6.274182E-2,3.3188846E-2,1.162253E-2,6.8042524E-2,4.3624073E-2,-8.589151E-3,-2.3805024E-2,2.2995485E-2,5.395091E-3,1.9691315E-2,5.486396E-2,3.438404E-2,4.410074E-3,8.8762954E-2,6.0931273E-2,6.457127E-2,3.8828928E-2,-2.8021634E-3,-1.9968731E-2,2.0612672E-2,4.3375692E-3,-1.881265E-2,1.9401842E-3,-2.7292231E-2,-1.465299E-2,4.551388E-2,2.0314997E-2,3.7106182E-2,7.1660034E-2,1.560759E-2,-1.1770466E-2,3.736032E-2,1.591078E-2,-6.6106617E-3,1.4121692E-2,6.710737E-2,1.9530494E-2,-2.1976503E-2,-3.6837194E-2,-1.1473018E-3,-2.3697777E-2,3.2171637E-2,-3.6984407E-3,8.5541345E-3,2.285601E-2,3.4596745E-2,-1.8825773E-3,3.9765265E-2,1.3097854E-2,-2.4195513E-2,-1.2383487E-3,4.6350114E-2,7.2365324E-3,-3.7807718E-2,-4.756131E-2,-1.7792406E-2,-3.4640647E-2,6.0553428E-2,3.149896E-2,-7.269883E-4,3.827726E-2,-1.3157862E-2,-3.151827E-2,3.04813E-2,-4.4556023E-3],"split_indices":[15,15,11,12,12,12,12,15,8,11,2,15,11,15,15,12,12,14,6,12,15,12,8,12,12,11,4,12,12,8,12,15,15,15,11,8,13,15,0,15,15,12,12,15,8,1,2,0,2,15,15,3,4,15,15,0,2,15,15,15,14,15,15,0,0,0,0,0,0,0,0,0,0,0,0,0,0,0,0,0,0,0,0,0,0,0,0,0,0,0,0,0,0,0,0,0,0,0,0,0,0,0,0,0,0,0,0,0,0,0,0,0,0,0,0,0,0,0,0,0,0,0,0,0,0,0,0],"split_type":[0,0,0,0,0,0,0,0,0,0,0,0,0,0,0,0,0,0,0,0,0,0,0,0,0,0,0,0,0,0,0,0,0,0,0,0,0,0,0,0,0,0,0,0,0,0,0,0,0,0,0,0,0,0,0,0,0,0,0,0,0,0,0,0,0,0,0,0,0,0,0,0,0,0,0,0,0,0,0,0,0,0,0,0,0,0,0,0,0,0,0,0,0,0,0,0,0,0,0,0,0,0,0,0,0,0,0,0,0,0,0,0,0,0,0,0,0,0,0,0,0,0,0,0,0,0,0],"sum_hessian":[3.7424594E5,7.920785E4,2.950381E5,3.631907E4,4.288878E4,7.342192E4,2.2161616E5,3.1311156E4,5.007914E3,2.4630934E4,1.8257846E4,4.7893406E4,2.552852E4,1.7549753E5,4.611863E4,1.830213E4,1.3009025E4,1.2440255E3,3.7638887E3,8.221436E3,1.6409498E4,4.1837476E3,1.4074097E4,2.2824814E4,2.506859E4,8.100949E3,1.742757E4,6.883545E4,1.0666207E5,2.985201E3,4.313343E4,1.5235644E4,3.0664868E3,2.5669744E3,1.0442051E4,5.265275E2,7.174979E2,1.3972864E3,2.3666023E3,2.2674714E3,5.9539644E3,9.885284E3,6.524214E3,3.0487231E3,1.1350247E3,5.409178E3,8.664919E3,2.0788426E4,2.0363898E3,9.03378E3,1.603481E4,2.2674436E3,5.8335054E3,9.358767E3,8.0688037E3,6.260378E4,6.2316753E3,4.4405707E4,6.2256367E4,1.6439254E3,1.3412756E3,2.254527E4,2.058816E4,9.914565E3,5.3210776E3,1.1005696E3,1.9659172E3,1.6389537E3,9.280207E2,5.021467E3,5.420584E3,1.2561031E2,4.0091724E2,1.6077287E2,5.567251E2,3.7517252E2,1.02211383E3,3.6934622E2,1.9972561E3,1.445293E3,8.2217834E2,3.0787407E3,2.8752239E3,3.624848E3,6.2604365E3,3.595429E3,2.928785E3,1.0776516E3,1.9710714E3,3.1056726E2,8.244574E2,1.2002472E3,4.208931E3,1.6880034E3,6.9769155E3,1.7784654E4,3.003771E3,4.138839E2,1.6225059E3,6.0185884E3,3.0151924E3,1.0940107E4,5.094702E3,2.1798323E3,8.7611244E1,1.8020579E3,4.0314478E3,5.374627E2,8.821304E3,7.241325E2,7.3446714E3,5.7377543E4,5.226237E3,1.5441655E3,4.68751E3,2.8528098E4,1.5877608E4,2.3342031E4,3.8914336E4,7.016731E2,9.422523E2,8.878255E2,4.5345004E2,1.3092011E4,9.453258E3,1.5256327E3,1.9062527E4],"tree_param":{"num_deleted":"0","num_feature":"27","num_nodes":"127","size_leaf_vector":"1"}},{"base_weights":[-2.2038573E-1,2.516009E-1,-3.4987637E-1,5.020133E-1,9.755659E-2,-6.5407E-2,-4.7934973E-1,4.3417397E-1,8.9768296E-1,-2.1244313E-1,2.2774425E-1,-2.1225166E-1,1.7726907E-1,-5.45948E-1,-1.6652066E-1,5.7652295E-1,1.7341553E-1,1.1872926E0,7.4627125E-1,5.2219868E-2,-3.4687334E-1,1.1013991E-1,4.8946705E-1,-7.270337E-2,-3.8773853E-1,3.9363346E-1,9.5588736E-2,-1.684398E-1,-6.015626E-1,6.7227554E-1,-2.1280143E-1,5.026749E-1,9.6992946E-1,-1.5577923E-1,3.2680103E-1,1.4934169E0,1.076838E0,3.0546537E-1,8.286957E-1,-1.3980575E-1,3.2431844E-1,-1.4577399E-1,-4.3178782E-1,3.0729216E-1,-2.4174616E-2,8.4683615E-1,2.9488045E-1,-1.4254566E-1,3.2304254E-1,-6.088445E-1,-2.4992093E-1,8.6636955E-1,3.5998598E-1,6.608848E-1,5.9377164E-2,-4.0807667E-1,-4.4602778E-2,-6.4960134E-1,-2.981223E-1,1.001304E0,4.5302325E-1,-3.567727E-1,-6.1624097E-3,3.0990869E-2,1.1128385E-2,6.1812926E-2,4.0356185E-2,-2.353941E-2,-3.6035029E-3,2.3597708E-2,6.5730214E-3,6.2206913E-2,8.937324E-2,4.613359E-2,7.0185125E-2,3.3088174E-2,4.470874E-3,5.327591E-2,3.406801E-2,5.6396015E-3,-1.1644472E-2,3.280559E-2,6.3847825E-3,-1.1819226E-2,2.0734984E-2,-2.652706E-2,-1.5422806E-2,-5.169683E-3,2.3634613E-2,-1.5022099E-2,3.7090133E-3,5.803572E-2,3.3859417E-2,9.194727E-3,3.609471E-2,-1.2442897E-2,2.8160035E-3,4.4984464E-2,7.833009E-3,-2.2620087E-2,-3.6824297E-2,-5.4577864E-3,-2.6059786E-2,3.0111572E-2,5.7009697E-2,9.478624E-3,2.4430372E-2,1.9970696E-2,4.619951E-2,-4.5844167E-3,1.1191408E-2,-4.118681E-3,-2.4115896E-2,4.555239E-3,-1.0194665E-2,-2.4231171E-2,-3.6667347E-2,2.2987404E-3,-2.5455121E-2,6.698133E-2,4.0641796E-2,3.3299852E-2,7.8075393E-3,-7.7762785E-3,-2.5855241E-2,3.3869557E-2,-2.5851002E-3],"categories":[],"categories_nodes":[],"categories_segments":[],"categories_sizes":[],"default_left":[0,0,0,0,0,0,0,0,0,0,0,0,0,0,0,0,0,0,0,0,0,0,0,0,0,0,0,0,0,0,0,0,0,0,0,0,0,0,0,0,0,0,0,0,0,0,0,0,0,0,0,0,0,0,0,0,0,0,0,0,0,0,0,0,0,0,0,0,0,0,0,0,0,0,0,0,0,0,0,0,0,0,0,0,0,0,0,0,0,0,0,0,0,0,0,0,0,0,0,0,0,0,0,0,0,0,0,0,0,0,0,0,0,0,0,0,0,0,0,0,0,0,0,0,0,0,0],"id":6,"left_children":[1,3,5,7,9,11,13,15,17,19,21,23,25,27,29,31,33,35,37,39,41,43,45,47,49,51,53,55,57,59,61,63,65,67,69,71,73,75,77,79,81,83,85,87,89,91,93,95,97,99,101,103,105,107,109,111,113,115,117,119,121,123,125,-1,-1,-1,-1,-1,-1,-1,-1,-1,-1,-1,-1,-1,-1,-1,-1,-1,-1,-1,-1,-1,-1,-1,-1,-1,-1,-1,-1,-1,-1,-1,-1,-1,-1,-1,-1,-1,-1,-1,-1,-1,-1,-1,-1,-1,-1,-1,-1,-1,-1,-1,-1,-1,-1,-1,-1,-1,-1,-1,-1,-1,-1,-1,-1],"loss_changes":[2.2695428E4,3.0837954E3,1.073234E4,8.168989E2,1.9976862E3,3.247996E3,4.171922E3,9.6475195E2,1.944873E2,5.208809E2,1.072898E3,1.3905466E3,6.072062E2,3.4662031E3,1.3646757E3,4.8800195E2,4.6361145E2,5.005664E1,1.061488E2,2.577473E2,1.6572388E2,6.369364E2,7.5127466E2,8.743501E2,7.663125E2,1.4946753E2,5.1059558E2,6.291431E2,2.0974531E3,1.3215771E2,9.910585E2,4.6444653E2,1.141814E2,7.692886E1,1.7751788E2,2.7282898E1,5.546631E1,3.557457E1,8.533923E1,6.802995E1,1.3306067E2,1.4655632E2,8.296973E1,6.6210986E2,3.887824E2,2.0206177E2,3.315561E2,5.684698E2,4.5515027E2,1.925105E2,5.916922E2,4.451596E1,1.9262524E2,1.0293512E2,5.8245105E2,1.7462085E2,3.021996E2,1.7160664E3,1.4280018E3,4.5730347E1,6.975914E1,6.334238E2,4.258857E2,0E0,0E0,0E0,0E0,0E0,0E0,0E0,0E0,0E0,0E0,0E0,0E0,0E0,0E0,0E0,0E0,0E0,0E0,0E0,0E0,0E0,0E0,0E0,0E0,0E0,0E0,0E0,0E0,0E0,0E0,0E0,0E0,0E0,0E0,0E0,0E0,0E0,0E0,0E0,0E0,0E0,0E0,0E0,0E0,0E0,0E0,0E0,0E0,0E0,0E0,0E0,0E0,0E0,0E0,0E0,0E0,0E0,0E0,0E0,0E0,0E0,0E0,0E0,0E0],"parents":[2147483647,0,0,1,1,2,2,3,3,4,4,5,5,6,6,7,7,8,8,9,9,10,10,11,11,12,12,13,13,14,14,15,15,16,16,17,17,18,18,19,19,20,20,21,21,22,22,23,23,24,24,25,25,26,26,27,27,28,28,29,29,30,30,31,31,32,32,33,33,34,34,35,35,36,36,37,37,38,38,39,39,40,40,41,41,42,42,43,43,44,44,45,45,46,46,47,47,48,48,49,49,50,50,51,51,52,52,53,53,54,54,55,55,56,56,57,57,58,58,59,59,60,60,61,61,62,62],"right_children":[2,4,6,8,10,12,14,16,18,20,22,24,26,28,30,32,34,36,38,40,42,44,46,48,50,52,54,56,58,60,62,64,66,68,70,72,74,76,78,80,82,84,86,88,90,92,94,96,98,100,102,104,106,108,110,112,114,116,118,120,122,124,126,-1,-1,-1,-1,-1,-1,-1,-1,-1,-1,-1,-1,-1,-1,-1,-1,-1,-1,-1,-1,-1,-1,-1,-1,-1,-1,-1,-1,-1,-1,-1,-1,-1,-1,-1,-1,-1,-1,-1,-1,-1,-1,-1,-1,-1,-1,-1,-1,-1,-1,-1,-1,-1,-1,-1,-1,-1,-1,-1,-1,-1,-1,-1,-1],"split_conditions":[-4.907447E-2,-9.783617E-2,1.256009E1,-8.256881E-2,9.943378E-2,3.36984E-2,4.7460143E-2,-1.2919079E-1,-1.3227841E-1,-9.6739955E-2,-3.7414964E-2,-2.2254938E-3,3.0972269E0,-5.7959996E-2,2.9524427E-2,-1.1805936E-1,-1.1295034E-1,-1.1913466E-1,-2.5829436E-2,-6.328183E-2,-7.77844E-2,-7.435788E-2,-6.381101E-2,3.5589577E-3,6.359649E-3,2.7523201E-2,2.1336889E-2,1.8679613E-1,5.8479533E-2,2.8290376E-1,8.562532E-2,-1.5835142E-1,-1.6010678E-1,-1.377551E-1,4.3202102E-1,1.3117343E-1,-6.176853E-2,-9.6739955E-2,-1.1090808E-1,7.275785E0,-7.2762616E-2,-5.146752E-2,-1.4239141E-1,-8.01278E-2,-6.328183E-2,-6.554449E-2,2.6394721E-2,3.3130682E-1,-8.187887E-2,6.1350846E0,2.7523201E-2,1.293262E-1,9.1803275E-2,3.3712834E-1,8.029197E-2,-1.22744404E-1,-1.0381623E-2,-1.2321734E-2,6.42119E-3,1.5126555E-2,9.110582E-1,5.8622826E-2,7.250689E-2,3.0990869E-2,1.1128385E-2,6.1812926E-2,4.0356185E-2,-2.353941E-2,-3.6035029E-3,2.3597708E-2,6.5730214E-3,6.2206913E-2,8.937324E-2,4.613359E-2,7.0185125E-2,3.3088174E-2,4.470874E-3,5.327591E-2,3.406801E-2,5.6396015E-3,-1.1644472E-2,3.280559E-2,6.3847825E-3,-1.1819226E-2,2.0734984E-2,-2.652706E-2,-1.5422806E-2,-5.169683E-3,2.3634613E-2,-1.5022099E-2,3.7090133E-3,5.803572E-2,3.3859417E-2,9.194727E-3,3.609471E-2,-1.2442897E-2,2.8160035E-3,4.4984464E-2,7.833009E-3,-2.2620087E-2,-3.6824297E-2,-5.4577864E-3,-2.6059786E-2,3.0111572E-2,5.7009697E-2,9.478624E-3,2.4430372E-2,1.9970696E-2,4.619951E-2,-4.5844167E-3,1.1191408E-2,-4.118681E-3,-2.4115896E-2,4.555239E-3,-1.0194665E-2,-2.4231171E-2,-3.6667347E-2,2.2987404E-3,-2.5455121E-2,6.698133E-2,4.0641796E-2,3.3299852E-2,7.8075393E-3,-7.7762785E-3,-2.5855241E-2,3.3869557E-2,-2.5851002E-3],"split_indices":[15,15,11,12,24,12,12,15,2,16,12,15,11,16,15,12,12,15,24,12,15,15,2,12,12,15,15,24,13,17,12,15,2,12,17,24,12,16,15,11,15,12,7,12,12,15,13,4,2,11,15,4,12,4,12,16,15,15,15,15,24,15,15,0,0,0,0,0,0,0,0,0,0,0,0,0,0,0,0,0,0,0,0,0,0,0,0,0,0,0,0,0,0,0,0,0,0,0,0,0,0,0,0,0,0,0,0,0,0,0,0,0,0,0,0,0,0,0,0,0,0,0,0,0,0,0,0],"split_type":[0,0,0,0,0,0,0,0,0,0,0,0,0,0,0,0,0,0,0,0,0,0,0,0,0,0,0,0,0,0,0,0,0,0,0,0,0,0,0,0,0,0,0,0,0,0,0,0,0,0,0,0,0,0,0,0,0,0,0,0,0,0,0,0,0,0,0,0,0,0,0,0,0,0,0,0,0,0,0,0,0,0,0,0,0,0,0,0,0,0,0,0,0,0,0,0,0,0,0,0,0,0,0,0,0,0,0,0,0,0,0,0,0,0,0,0,0,0,0,0,0,0,0,0,0,0,0],"sum_hessian":[3.713363E5,7.994393E4,2.9139238E5,3.0447162E4,4.949677E4,9.114242E4,2.0024997E5,2.5992693E4,4.4544683E3,1.4638735E4,3.4858035E4,5.6782895E4,3.4359527E4,1.6510084E5,3.5149125E4,1.681313E4,9.179562E3,1.5269624E3,2.927506E3,4.931105E3,9.707631E3,2.4051836E4,1.0806199E4,3.1631072E4,2.515182E4,9.415317E3,2.4944209E4,2.120008E4,1.4390077E5,1.8372441E3,3.331188E4,1.4157787E4,2.6553435E3,2.9176687E3,6.2618936E3,4.0154944E2,1.1254128E3,4.6191138E2,2.4655947E3,2.8912065E3,2.0398984E3,2.8829E3,6.824731E3,9.745586E3,1.430625E4,3.8084385E3,6.9977607E3,2.688668E4,4.7443926E3,9.656351E3,1.5495471E4,6.239718E2,8.791346E3,1.5006365E3,2.3443572E4,7.2221714E3,1.3977908E4,1.2423201E5,1.966876E4,7.332701E2,1.103974E3,1.9632578E4,1.3679301E4,9.98203E3,4.1757573E3,1.00488654E3,1.650457E3,6.1158124E2,2.3060874E3,3.5916238E3,2.6702695E3,2.2014929E2,1.8140016E2,7.673253E2,3.5808762E2,1.7358253E2,2.8832886E2,9.4323566E2,1.522359E3,7.784753E2,2.1127312E3,7.581732E2,1.2817252E3,2.4821882E3,4.0071155E2,3.7881812E3,3.0365496E3,2.7981638E3,6.947422E3,3.7554832E3,1.0550768E4,1.3341621E3,2.4742764E3,5.5553027E3,1.4424581E3,1.752023E4,9.366449E3,1.0613984E3,3.682994E3,4.3407197E3,5.315631E3,1.0202677E4,5.2927935E3,3.1923184E2,3.0473996E2,3.7824136E3,5.008932E3,7.539191E2,7.4671735E2,1.2219303E4,1.1224269E4,1.3410359E3,5.8811353E3,7.5479014E3,6.430007E3,4.1831395E4,8.240061E4,7.4762256E3,1.2192534E4,2.6015448E2,4.731156E2,6.4209625E2,4.6187778E2,8.706387E3,1.0926191E4,8.535507E2,1.282575E4],"tree_param":{"num_deleted":"0","num_feature":"27","num_nodes":"127","size_leaf_vector":"1"}},{"base_weights":[-2.1299103E-1,2.0681809E-1,-3.4658867E-1,4.344595E-1,4.3017756E-2,-6.829857E-2,-4.7463828E-1,5.5117136E-1,3.0583575E-1,-2.3815185E-1,1.8324642E-1,-1.6624106E-1,2.2991528E-1,-5.386998E-1,-1.596888E-1,5.7500535E-1,1.2539868E-1,5.507764E-1,1.7452417E-1,-3.197026E-2,-4.2737353E-1,4.3408376E-1,1.1090661E-1,-2.7866113E-1,3.0706538E-2,9.613147E-2,3.5777944E-1,-1.6793491E-1,-5.882617E-1,1.7827903E-1,-2.2450341E-1,6.6863734E-1,4.645227E-1,2.2648092E-1,-4.342671E-2,6.165651E-1,3.2173827E-1,2.6266562E-2,4.052691E-1,-1.4167848E-1,1.8946506E-1,-5.810628E-1,-2.6684058E-1,3.575338E-1,6.3131785E-1,-9.700036E-2,2.663335E-1,-3.0836597E-2,-5.1006997E-1,2.1529269E-1,-5.6792308E-2,3.1410816E-1,8.262692E-3,5.1594275E-1,3.0598637E-1,-4.2709282E-1,-5.102779E-2,-6.287767E-1,-2.6577833E-1,9.67224E-2,5.1444966E-1,-3.5469633E-1,1.1545995E-2,3.675667E-2,2.6471658E-2,3.7593208E-3,2.5821596E-2,2.02203E-2,5.4220324E-3,-6.397497E-3,1.992852E-2,4.067143E-2,2.6041402E-2,6.5343454E-2,1.4248164E-2,5.451813E-3,-1.1870069E-2,1.5104519E-2,2.6885435E-2,1.6134046E-4,-1.4163717E-2,1.5997535E-2,-1.9165127E-3,-2.357589E-2,-3.426597E-2,-8.133821E-3,-2.13849E-2,2.1714872E-2,1.00702355E-2,4.3260988E-2,2.7255654E-2,4.791724E-3,-1.5176651E-2,2.6507294E-2,7.934101E-3,1.5122107E-2,-4.8593204E-3,-3.907252E-2,-1.8140614E-2,5.204342E-3,1.6343178E-2,-1.0373559E-2,2.9441393E-3,1.8996991E-2,1.0109899E-3,7.6076263E-3,-4.5093535E-3,2.703209E-2,6.2838197E-3,2.7438655E-2,1.3461429E-2,-5.756831E-3,-2.4965085E-2,1.2437063E-2,-6.4477585E-3,-4.7216948E-2,-2.997074E-2,-1.9069931E-3,-1.744808E-2,1.4003488E-2,-2.6984243E-3,2.8459594E-2,-9.39795E-3,-6.2714703E-3,-2.0213736E-2,-3.4428928E-3,1.0559367E-2],"categories":[],"categories_nodes":[],"categories_segments":[],"categories_sizes":[],"default_left":[0,0,0,0,0,0,0,0,0,0,0,0,0,0,0,0,0,0,0,0,0,0,0,0,0,0,0,0,0,0,0,0,0,0,0,0,0,0,0,0,0,0,0,0,0,0,0,0,0,0,0,0,0,0,0,0,0,0,0,0,0,0,0,0,0,0,0,0,0,0,0,0,0,0,0,0,0,0,0,0,0,0,0,0,0,0,0,0,0,0,0,0,0,0,0,0,0,0,0,0,0,0,0,0,0,0,0,0,0,0,0,0,0,0,0,0,0,0,0,0,0,0,0,0,0,0,0],"id":7,"left_children":[1,3,5,7,9,11,13,15,17,19,21,23,25,27,29,31,33,35,37,39,41,43,45,47,49,51,53,55,57,59,61,63,65,67,69,71,73,75,77,79,81,83,85,87,89,91,93,95,97,99,101,103,105,107,109,111,113,115,117,119,121,123,125,-1,-1,-1,-1,-1,-1,-1,-1,-1,-1,-1,-1,-1,-1,-1,-1,-1,-1,-1,-1,-1,-1,-1,-1,-1,-1,-1,-1,-1,-1,-1,-1,-1,-1,-1,-1,-1,-1,-1,-1,-1,-1,-1,-1,-1,-1,-1,-1,-1,-1,-1,-1,-1,-1,-1,-1,-1,-1,-1,-1,-1,-1,-1,-1],"loss_changes":[2.0669477E4,3.3174028E3,9.962305E3,5.58709E2,2.0400581E3,2.5732695E3,3.8629766E3,1.9798389E2,5.696146E2,6.7173047E2,6.2639307E2,1.4683916E3,3.7256775E2,2.9235664E3,7.089745E2,1.9088086E2,1.7687584E1,9.294263E1,3.9451614E2,2.0022346E2,2.2135657E2,1.1644324E2,8.65949E2,2.4212698E3,3.8926474E2,2.0390088E2,9.107312E1,5.684122E2,1.8334805E3,1.4274936E2,8.3456824E2,9.2191895E1,1.7137256E2,1.3567841E1,1.4575721E1,9.0059814E1,4.9673706E1,1.5328003E2,6.1483337E1,1.13079704E2,8.1177345E1,5.2052856E1,7.354056E1,6.66579E1,4.3066223E1,4.5659802E2,4.353977E2,4.5087158E2,8.722339E2,9.6131134E1,2.850075E2,5.916562E1,1.07509575E2,2.639978E1,7.474542E1,1.313219E2,3.0209067E2,1.1546445E3,2.9662878E2,1.1585626E2,3.9198883E1,1.9889673E2,1.549887E2,0E0,0E0,0E0,0E0,0E0,0E0,0E0,0E0,0E0,0E0,0E0,0E0,0E0,0E0,0E0,0E0,0E0,0E0,0E0,0E0,0E0,0E0,0E0,0E0,0E0,0E0,0E0,0E0,0E0,0E0,0E0,0E0,0E0,0E0,0E0,0E0,0E0,0E0,0E0,0E0,0E0,0E0,0E0,0E0,0E0,0E0,0E0,0E0,0E0,0E0,0E0,0E0,0E0,0E0,0E0,0E0,0E0,0E0,0E0,0E0,0E0,0E0,0E0,0E0],"parents":[2147483647,0,0,1,1,2,2,3,3,4,4,5,5,6,6,7,7,8,8,9,9,10,10,11,11,12,12,13,13,14,14,15,15,16,16,17,17,18,18,19,19,20,20,21,21,22,22,23,23,24,24,25,25,26,26,27,27,28,28,29,29,30,30,31,31,32,32,33,33,34,34,35,35,36,36,37,37,38,38,39,39,40,40,41,41,42,42,43,43,44,44,45,45,46,46,47,47,48,48,49,49,50,50,51,51,52,52,53,53,54,54,55,55,56,56,57,57,58,58,59,59,60,60,61,61,62,62],"right_children":[2,4,6,8,10,12,14,16,18,20,22,24,26,28,30,32,34,36,38,40,42,44,46,48,50,52,54,56,58,60,62,64,66,68,70,72,74,76,78,80,82,84,86,88,90,92,94,96,98,100,102,104,106,108,110,112,114,116,118,120,122,124,126,-1,-1,-1,-1,-1,-1,-1,-1,-1,-1,-1,-1,-1,-1,-1,-1,-1,-1,-1,-1,-1,-1,-1,-1,-1,-1,-1,-1,-1,-1,-1,-1,-1,-1,-1,-1,-1,-1,-1,-1,-1,-1,-1,-1,-1,-1,-1,-1,-1,-1,-1,-1,-1,-1,-1,-1,-1,-1,-1,-1,-1,-1,-1,-1],"split_conditions":[-4.3883767E-2,-8.773523E-2,1.256009E1,4.1440263E-1,1.3117343E-1,2.7805362E-2,2.3109445E-2,4.6423077E2,-1.5835142E-1,-7.6067984E-2,-8.540697E-2,3.3130682E-1,4.984561E-2,-5.7959996E-2,2.0749273E-2,-1.1479854E-1,-1.3770524E-1,1.1689914E0,3.105643E1,2.8253897E1,2.7219671E1,-3.4736782E-2,4.0933105E1,4.9078307E0,6.4118547E0,3.526022E-2,2.2657897E0,1.8301861E-1,6.1806296E-3,3.9876323E-2,4.5988258E-2,-1.0243094E-1,9.9502755E-3,2.2912993E3,4.0239045E-1,-2.2866593E-1,2.9413724E0,9.151123E-1,-5.2680932E-2,3.3160263E-1,4.109903E-1,-1.4890477E-1,-3.8658228E-2,-3.5109362E-3,-1.4204569E-1,-3.9612133E-2,-6.087745E-2,1.6642581E0,1.5749604E-1,1.4089003E-1,1.7991665E-1,4.9550545E-1,4.6515965E0,7.662409E0,5.255652E-2,-1.22744404E-1,-1.1364123E-1,2.922976E-1,-7.4694217E-3,1.0960377E-3,1E0,2.5024855E-1,8.121212E-2,3.675667E-2,2.6471658E-2,3.7593208E-3,2.5821596E-2,2.02203E-2,5.4220324E-3,-6.397497E-3,1.992852E-2,4.067143E-2,2.6041402E-2,6.5343454E-2,1.4248164E-2,5.451813E-3,-1.1870069E-2,1.5104519E-2,2.6885435E-2,1.6134046E-4,-1.4163717E-2,1.5997535E-2,-1.9165127E-3,-2.357589E-2,-3.426597E-2,-8.133821E-3,-2.13849E-2,2.1714872E-2,1.00702355E-2,4.3260988E-2,2.7255654E-2,4.791724E-3,-1.5176651E-2,2.6507294E-2,7.934101E-3,1.5122107E-2,-4.8593204E-3,-3.907252E-2,-1.8140614E-2,5.204342E-3,1.6343178E-2,-1.0373559E-2,2.9441393E-3,1.8996991E-2,1.0109899E-3,7.6076263E-3,-4.5093535E-3,2.703209E-2,6.2838197E-3,2.7438655E-2,1.3461429E-2,-5.756831E-3,-2.4965085E-2,1.2437063E-2,-6.4477585E-3,-4.7216948E-2,-2.997074E-2,-1.9069931E-3,-1.744808E-2,1.4003488E-2,-2.6984243E-3,2.8459594E-2,-9.39795E-3,-6.2714703E-3,-2.0213736E-2,-3.4428928E-3,1.0559367E-2],"split_indices":[15,15,11,17,24,0,0,10,15,16,16,4,0,16,15,15,16,17,8,8,8,7,8,11,11,15,11,24,26,0,0,6,24,10,9,15,10,17,7,17,17,25,16,26,16,14,6,11,4,3,3,17,11,10,15,16,16,4,15,15,19,17,0,0,0,0,0,0,0,0,0,0,0,0,0,0,0,0,0,0,0,0,0,0,0,0,0,0,0,0,0,0,0,0,0,0,0,0,0,0,0,0,0,0,0,0,0,0,0,0,0,0,0,0,0,0,0,0,0,0,0,0,0,0,0,0,0],"split_type":[0,0,0,0,0,0,0,0,0,0,0,0,0,0,0,0,0,0,0,0,0,0,0,0,0,0,0,0,0,0,0,0,0,0,0,0,0,0,0,0,0,0,0,0,0,0,0,0,0,0,0,0,0,0,0,0,0,0,0,0,0,0,0,0,0,0,0,0,0,0,0,0,0,0,0,0,0,0,0,0,0,0,0,0,0,0,0,0,0,0,0,0,0,0,0,0,0,0,0,0,0,0,0,0,0,0,0,0,0,0,0,0,0,0,0,0,0,0,0,0,0,0,0,0,0,0,0],"sum_hessian":[3.6853266E5,8.8967164E4,2.795655E5,3.7227965E4,5.1739195E4,8.8099805E4,1.914657E5,1.9516031E4,1.7711934E4,1.7217016E4,3.452218E4,6.6319055E4,2.1780752E4,1.5910303E5,3.2362662E4,1.8481139E4,1.0348918E3,6.1803296E3,1.1531604E4,8.239825E3,8.97719E3,7.726308E3,2.6795873E4,4.2219336E4,2.4099717E4,1.0644843E4,1.1135909E4,1.8760805E4,1.4034223E5,5.2074272E3,2.7155234E4,1.0000691E4,8.480447E3,6.4710425E2,3.877876E2,4.7999146E3,1.3804148E3,7.021367E3,4.510237E3,5.5102026E3,2.7296223E3,4.585018E3,4.3921724E3,5.5680605E3,2.1582478E3,1.1462894E4,1.5332979E4,2.0387123E4,2.183221E4,7.7496724E3,1.6350045E4,3.0575017E3,7.5873413E3,2.74485E3,8.39106E3,5.831336E3,1.292947E4,1.2467749E5,1.5664738E4,4.191771E3,1.0156564E3,1.7501688E4,9.653548E3,6.764904E3,3.2357876E3,9.9794916E2,7.482498E3,2.5711792E2,3.899863E2,3.2613184E2,6.1655766E1,1.5680496E3,3.2318652E3,4.8433674E1,1.3319812E3,5.3442925E3,1.6770746E3,2.5370205E3,1.9732162E3,2.7237595E3,2.786443E3,1.7352388E3,9.943836E2,2.2384966E3,2.3465212E3,2.6670923E3,1.7250802E3,3.7315815E3,1.8364791E3,5.787827E2,1.579465E3,5.9283057E3,5.5345884E3,4.442411E3,1.0890567E4,3.3842568E3,1.7002867E4,7.678057E3,1.4154154E4,3.882153E3,3.8675195E3,7.100331E3,9.249715E3,2.497715E3,5.5978656E2,3.082114E3,4.5052275E3,2.5811125E3,1.6373763E2,1.101523E3,7.2895366E3,1.0965637E3,4.734772E3,2.667192E3,1.0262277E4,1.0610613E4,1.1406688E5,4.1926465E3,1.1472092E4,1.8905989E3,2.3011724E3,9.424E2,7.325634E1,3.1124075E3,1.438928E4,6.882382E3,2.7711658E3],"tree_param":{"num_deleted":"0","num_feature":"27","num_nodes":"127","size_leaf_vector":"1"}},{"base_weights":[-2.0363723E-1,1.9630016E-1,-3.328928E-1,3.8147306E-1,1.6994001E-2,-4.3193534E-1,5.2893106E-3,3.2823926E-1,7.852177E-1,-9.727091E-2,3.7996933E-1,-8.292019E-2,-4.964596E-1,-1.0552966E-1,2.1020155E-1,4.990923E-1,1.2828179E-1,1.1298835E0,6.6424227E-1,-3.530084E-1,-2.0429096E-3,8.694808E-1,2.2420052E-1,-2.2502516E-1,1.1559943E-1,-5.616466E-1,-1.718955E-1,4.2369288E-1,-2.0553888E-1,5.7875246E-1,1.588742E-1,4.2538083E-1,9.267148E-1,-1.6894993E-1,2.6423422E-1,6.2464494E-1,1.2095622E0,4.7298398E-2,7.5829107E-1,-8.8489465E-2,-4.4523466E-1,-2.659459E-1,6.60964E-2,7.1284765E-1,1.4868165E0,1.2283549E-1,7.080738E-1,-4.0748584E-1,-1.08492926E-1,4.0551692E-1,-2.9214134E-2,-4.1177812E-1,-6.3801277E-1,6.0898878E-2,-4.3390107E-1,6.002934E-1,5.490358E-2,-1.4151089E-1,-5.68357E-1,8.2114524E-1,3.5727224E-1,-6.267678E-2,2.7428994E-1,2.6821649E-2,9.557262E-3,2.4562659E-2,5.2381754E-2,-2.107147E-2,-3.786289E-3,2.3489695E-2,6.348283E-3,6.474721E-3,4.031528E-2,6.954821E-2,5.0274886E-2,5.77312E-2,-4.0962125E-4,4.7694128E-2,2.977148E-2,-1.7132973E-2,5.1958575E-3,-2.765734E-2,-1.3494614E-2,-7.7652866E-3,-2.1946367E-2,1.3737939E-2,-2.4945873E-3,6.7970688E-3,3.9707404E-2,3.767207E-2,8.0826394E-2,-1.9764928E-2,1.0018895E-2,4.1400913E-2,1.6726356E-2,-1.2766925E-2,-2.8190902E-2,-7.811893E-5,-1.8807525E-2,4.404519E-2,1.0312463E-2,2.0818526E-3,-2.0082485E-2,-2.3900872E-2,4.7518294E-3,-3.752724E-2,-2.4561835E-2,-1.6526247E-3,2.1194575E-2,-1.7985534E-2,-3.8238317E-2,4.631997E-2,2.0951202E-2,-8.177525E-3,2.197629E-2,-1.45844985E-2,4.0610027E-3,-4.219566E-2,-2.2296043E-2,3.3980448E-2,6.017139E-2,8.510541E-3,3.6085617E-2,4.069335E-3,-2.1188978E-2,4.5632932E-2,1.2441878E-2],"categories":[],"categories_nodes":[],"categories_segments":[],"categories_sizes":[],"default_left":[0,0,0,0,0,0,0,0,0,0,0,0,0,0,0,0,0,0,0,0,0,0,0,0,0,0,0,0,0,0,0,0,0,0,0,0,0,0,0,0,0,0,0,0,0,0,0,0,0,0,0,0,0,0,0,0,0,0,0,0,0,0,0,0,0,0,0,0,0,0,0,0,0,0,0,0,0,0,0,0,0,0,0,0,0,0,0,0,0,0,0,0,0,0,0,0,0,0,0,0,0,0,0,0,0,0,0,0,0,0,0,0,0,0,0,0,0,0,0,0,0,0,0,0,0,0,0],"id":8,"left_children":[1,3,5,7,9,11,13,15,17,19,21,23,25,27,29,31,33,35,37,39,41,43,45,47,49,51,53,55,57,59,61,63,65,67,69,71,73,75,77,79,81,83,85,87,89,91,93,95,97,99,101,103,105,107,109,111,113,115,117,119,121,123,125,-1,-1,-1,-1,-1,-1,-1,-1,-1,-1,-1,-1,-1,-1,-1,-1,-1,-1,-1,-1,-1,-1,-1,-1,-1,-1,-1,-1,-1,-1,-1,-1,-1,-1,-1,-1,-1,-1,-1,-1,-1,-1,-1,-1,-1,-1,-1,-1,-1,-1,-1,-1,-1,-1,-1,-1,-1,-1,-1,-1,-1,-1,-1,-1],"loss_changes":[1.8900938E4,2.9651755E3,9.25532E3,9.4401025E2,1.881881E3,4.8131445E3,1.4214506E3,1.3260835E3,2.1261646E2,8.4043176E2,8.281687E2,9.408309E2,3.8163008E3,2.1502874E3,4.1552423E2,6.593955E2,7.228424E2,5.2707153E1,2.1987976E2,2.2839172E2,4.522203E2,2.5248633E2,4.0419363E2,4.1322894E2,5.8416187E2,1.7188945E3,1.8402441E3,4.2052136E2,7.936914E2,1.4387341E2,4.931796E2,4.6437817E2,1.6149731E2,1.3211307E2,3.4626215E2,1.6354195E1,4.1026123E1,3.0881424E1,1.0419226E2,1.1847836E2,1.3121716E2,9.870169E1,4.8375946E2,9.807739E1,4.9174072E1,2.739341E2,6.3678772E1,1.8003284E2,3.395164E2,4.3887427E2,2.448872E2,1.7023418E3,1.6431641E3,5.448825E2,3.481682E2,2.5771667E2,1.7584802E2,9.7157166E2,1.7253638E2,6.851477E1,9.566022E1,3.43725E2,2.0580951E2,0E0,0E0,0E0,0E0,0E0,0E0,0E0,0E0,0E0,0E0,0E0,0E0,0E0,0E0,0E0,0E0,0E0,0E0,0E0,0E0,0E0,0E0,0E0,0E0,0E0,0E0,0E0,0E0,0E0,0E0,0E0,0E0,0E0,0E0,0E0,0E0,0E0,0E0,0E0,0E0,0E0,0E0,0E0,0E0,0E0,0E0,0E0,0E0,0E0,0E0,0E0,0E0,0E0,0E0,0E0,0E0,0E0,0E0,0E0,0E0,0E0,0E0,0E0,0E0],"parents":[2147483647,0,0,1,1,2,2,3,3,4,4,5,5,6,6,7,7,8,8,9,9,10,10,11,11,12,12,13,13,14,14,15,15,16,16,17,17,18,18,19,19,20,20,21,21,22,22,23,23,24,24,25,25,26,26,27,27,28,28,29,29,30,30,31,31,32,32,33,33,34,34,35,35,36,36,37,37,38,38,39,39,40,40,41,41,42,42,43,43,44,44,45,45,46,46,47,47,48,48,49,49,50,50,51,51,52,52,53,53,54,54,55,55,56,56,57,57,58,58,59,59,60,60,61,61,62,62],"right_children":[2,4,6,8,10,12,14,16,18,20,22,24,26,28,30,32,34,36,38,40,42,44,46,48,50,52,54,56,58,60,62,64,66,68,70,72,74,76,78,80,82,84,86,88,90,92,94,96,98,100,102,104,106,108,110,112,114,116,118,120,122,124,126,-1,-1,-1,-1,-1,-1,-1,-1,-1,-1,-1,-1,-1,-1,-1,-1,-1,-1,-1,-1,-1,-1,-1,-1,-1,-1,-1,-1,-1,-1,-1,-1,-1,-1,-1,-1,-1,-1,-1,-1,-1,-1,-1,-1,-1,-1,-1,-1,-1,-1,-1,-1,-1,-1,-1,-1,-1,-1,-1,-1,-1,-1,-1,-1],"split_conditions":[-4.3883767E-2,-7.959277E-2,4.7460143E-2,-6.033243E-2,-2.9595016E-2,-5.4931868E-2,1.0318949E-1,-1.1913466E-1,-1.3227841E-1,8.469823E-2,-8.354141E-2,-3.6036037E-4,5.7261173E-2,4.0881652E-2,1.03683E-1,-1.0422535E-1,-9.689923E-2,1.8520113E1,2.262985E1,-9.6739955E-2,-6.4825386E-2,-8.590667E-3,3.0075189E-2,1.7168383E-1,-6.0223937E-3,-1.0861634E-2,1.677701E-2,7.02287E1,9.6676536E-2,6.8682365E1,1.4027777E-1,-1.4923361E-1,2.0458155E1,-1.1805936E-1,-9.783617E-2,9.714375E0,-9.0058014E-2,-1.6278328E-1,-4.4154223E-2,-6.328183E-2,2.756955E1,-6.421777E-2,-6.29698E-2,2.262985E1,6.978539E-2,2.9235634E1,6.217206E1,-8.209641E-2,-1.5314071E-2,-9.6233055E-2,3.526022E-2,3.5589577E-3,1.3623978E-2,2.1436227E-2,5.255652E-2,2.558557E-2,1.3313313E-1,7.1428575E-2,7.788162E-2,1.1827957E-1,1.3236715E-1,1.3500871E-1,1.2816724E-1,2.6821649E-2,9.557262E-3,2.4562659E-2,5.2381754E-2,-2.107147E-2,-3.786289E-3,2.3489695E-2,6.348283E-3,6.474721E-3,4.031528E-2,6.954821E-2,5.0274886E-2,5.77312E-2,-4.0962125E-4,4.7694128E-2,2.977148E-2,-1.7132973E-2,5.1958575E-3,-2.765734E-2,-1.3494614E-2,-7.7652866E-3,-2.1946367E-2,1.3737939E-2,-2.4945873E-3,6.7970688E-3,3.9707404E-2,3.767207E-2,8.0826394E-2,-1.9764928E-2,1.0018895E-2,4.1400913E-2,1.6726356E-2,-1.2766925E-2,-2.8190902E-2,-7.811893E-5,-1.8807525E-2,4.404519E-2,1.0312463E-2,2.0818526E-3,-2.0082485E-2,-2.3900872E-2,4.7518294E-3,-3.752724E-2,-2.4561835E-2,-1.6526247E-3,2.1194575E-2,-1.7985534E-2,-3.8238317E-2,4.631997E-2,2.0951202E-2,-8.177525E-3,2.197629E-2,-1.45844985E-2,4.0610027E-3,-4.219566E-2,-2.2296043E-2,3.3980448E-2,6.017139E-2,8.510541E-3,3.6085617E-2,4.069335E-3,-2.1188978E-2,4.5632932E-2,1.2441878E-2],"split_indices":[15,15,12,12,12,16,12,15,2,24,2,12,13,15,15,12,12,8,8,16,12,12,13,24,15,15,15,8,15,8,12,15,8,12,15,8,15,14,2,12,8,15,15,8,3,8,8,16,15,2,15,12,12,12,15,15,14,12,12,12,1,15,15,0,0,0,0,0,0,0,0,0,0,0,0,0,0,0,0,0,0,0,0,0,0,0,0,0,0,0,0,0,0,0,0,0,0,0,0,0,0,0,0,0,0,0,0,0,0,0,0,0,0,0,0,0,0,0,0,0,0,0,0,0,0,0,0],"split_type":[0,0,0,0,0,0,0,0,0,0,0,0,0,0,0,0,0,0,0,0,0,0,0,0,0,0,0,0,0,0,0,0,0,0,0,0,0,0,0,0,0,0,0,0,0,0,0,0,0,0,0,0,0,0,0,0,0,0,0,0,0,0,0,0,0,0,0,0,0,0,0,0,0,0,0,0,0,0,0,0,0,0,0,0,0,0,0,0,0,0,0,0,0,0,0,0,0,0,0,0,0,0,0,0,0,0,0,0,0,0,0,0,0,0,0,0,0,0,0,0,0,0,0,0,0,0,0],"sum_hessian":[3.6562788E5,8.9304625E4,2.7632325E5,4.3933027E4,4.5371598E4,2.1372878E5,6.2594477E4,3.8816832E4,5.116194E3,3.4508902E4,1.0862697E4,3.3348312E4,1.8038047E5,4.0624664E4,2.1969814E4,2.093095E4,1.7885883E4,1.3270404E3,3.7891536E3,9.362619E3,2.5146283E4,2.621118E3,8.241579E3,1.9435672E4,1.3912641E4,1.5021072E5,3.0169752E4,6.4563135E3,3.4168348E4,2.6844084E3,1.9285406E4,1.7855158E4,3.0757908E3,5.613308E3,1.2272574E4,1.819762E2,1.1450642E3,5.01421E2,3.2877324E3,2.4209443E3,6.941675E3,5.1597417E3,1.9986541E4,2.0923838E3,5.2873413E2,6.8151494E3,1.4264293E3,7.5740635E3,1.1861607E4,4.6338496E3,9.278791E3,5.070624E4,9.950448E4,1.5975838E4,1.4193913E4,4.365296E3,2.0910178E3,2.9044191E4,5.124158E3,1.2804015E3,1.404007E3,6.6056733E3,1.2679733E4,1.2111671E4,5.743488E3,6.695718E2,2.406219E3,1.5127632E3,4.100545E3,4.9129736E3,7.359601E3,4.9303383E1,1.326728E2,6.031132E2,5.4195105E2,2.2983103E1,4.784379E2,1.4915594E3,1.796173E3,1.0427223E3,1.3782219E3,4.295755E3,2.64592E3,3.148095E3,2.011647E3,7.140118E3,1.2846423E4,2.5877734E2,1.8336066E3,8.048551E1,4.4824863E2,8.866312E2,5.9285186E3,1.0788107E3,3.4761868E2,3.8397412E3,3.734322E3,8.476292E3,3.3853157E3,1.367655E3,3.2661943E3,7.7964937E3,1.4822969E3,4.4845152E4,5.8610854E3,5.6320168E4,4.3184312E4,1.2691799E4,3.2840393E3,1.1595847E4,2.598067E3,1.5581151E3,2.8071807E3,1.3339489E3,7.570689E2,1.734727E4,1.1696921E4,1.5745548E3,3.5496033E3,9.3646313E2,3.4393842E2,9.287573E2,4.7524963E2,4.722419E3,1.8832544E3,4.848327E2,1.21949E4],"tree_param":{"num_deleted":"0","num_feature":"27","num_nodes":"127","size_leaf_vector":"1"}},{"base_weights":[-1.9530371E-1,2.3973183E-1,-2.93851E-1,4.3204778E-1,1.2415943E-1,2.2478515E-2,-3.9031532E-1,5.297134E-1,2.6772568E-1,5.394976E-2,3.6419177E-1,-1.03447706E-1,1.8638581E-1,-4.342008E-1,-4.995607E-2,5.5705357E-1,1.8767631E-1,4.618534E-1,1.8927866E-1,1.1817725E-1,-1.1172015E-1,4.4186878E-1,1.95595E-1,1.3411477E-1,-2.8882462E-1,3.1741348E-1,8.745603E-2,-9.261025E-2,-4.8506355E-1,-1.2731679E-1,2.1028584E-1,4.991432E-1,7.444997E-1,2.3332578E-1,-2.0657898E-1,1.1603593E0,4.3750393E-1,3.5252848E-1,9.924141E-2,2.0563364E-1,3.3699196E-2,2.2252038E-1,-1.5727979E-1,3.094273E-1,4.8778772E-1,4.700931E-2,4.079712E-1,3.3570117E-1,1.539701E-2,-5.5543184E-1,-1.9594368E-1,-7.287912E-2,3.3993217E-1,-8.7398626E-2,2.0321672E-1,-3.0804753E-1,6.54876E-2,-8.4423137E-1,-4.536595E-1,9.31469E-2,-1.7342035E-1,1.3589753E-1,4.6137857E-1,3.1130392E-2,2.024881E-2,4.0277108E-3,3.8401913E-2,1.6397092E-2,7.1972595E-3,-3.4867737E-2,-4.2713243E-3,1.1608988E-1,4.4506107E-2,2.2521114E-2,-2.331284E-2,1.3258656E-2,2.465663E-2,1.3397867E-2,2.5805358E-3,7.3480452E-3,1.528814E-2,-7.466923E-3,4.830524E-3,9.878901E-3,4.629879E-2,-4.417415E-3,-1.4631313E-2,7.4172355E-3,2.0633733E-2,3.212516E-2,2.0181425E-2,7.2354465E-3,-5.695691E-3,2.8407192E-2,1.13453595E-2,8.220001E-3,2.4283707E-2,-1.2512301E-2,7.0064687E-3,-2.144922E-2,-3.9053943E-2,-3.140958E-3,-1.7867206E-2,-5.243447E-3,3.141981E-2,2.463952E-2,1.4976029E-2,1.2684421E-3,-9.1548925E-3,1.7130565E-2,7.7507133E-3,-8.964247E-3,-2.1304322E-2,1.0970886E-2,-2.6583946E-3,-4.992114E-2,-3.4884717E-2,-1.4657201E-2,-2.6477585E-2,1.44545315E-2,4.831842E-5,-2.3351607E-3,-1.2708882E-2,1.5370383E-2,3.0475426E-3,2.6330946E-2,5.6054094E-3],"categories":[],"categories_nodes":[],"categories_segments":[],"categories_sizes":[],"default_left":[0,0,0,0,0,0,0,0,0,0,0,0,0,0,0,0,0,0,0,0,0,0,0,0,0,0,0,0,0,0,0,0,0,0,0,0,0,0,0,0,0,0,0,0,0,0,0,0,0,0,0,0,0,0,0,0,0,0,0,0,0,0,0,0,0,0,0,0,0,0,0,0,0,0,0,0,0,0,0,0,0,0,0,0,0,0,0,0,0,0,0,0,0,0,0,0,0,0,0,0,0,0,0,0,0,0,0,0,0,0,0,0,0,0,0,0,0,0,0,0,0,0,0,0,0,0,0],"id":9,"left_children":[1,3,5,7,9,11,13,15,17,19,21,23,25,27,29,31,33,35,37,39,41,43,45,47,49,51,53,55,57,59,61,63,65,67,69,71,73,75,77,79,81,83,85,87,89,91,93,95,97,99,101,103,105,107,109,111,113,115,117,119,121,123,125,-1,-1,-1,-1,-1,-1,-1,-1,-1,-1,-1,-1,-1,-1,-1,-1,-1,-1,-1,-1,-1,-1,-1,-1,-1,-1,-1,-1,-1,-1,-1,-1,-1,-1,-1,-1,-1,-1,-1,-1,-1,-1,-1,-1,-1,-1,-1,-1,-1,-1,-1,-1,-1,-1,-1,-1,-1,-1,-1,-1,-1,-1,-1,-1],"loss_changes":[1.5570719E4,1.4908618E3,9.035822E3,4.039458E2,7.061141E2,1.4283041E3,3.3894023E3,1.4756787E2,1.4288611E2,3.44974E2,1.2409314E2,1.7234568E3,3.8970166E2,3.4921836E3,5.218185E2,1.5835303E2,2.111163E1,4.5436523E1,9.827075E1,1.7260046E2,1.3796419E2,3.9322266E1,9.441435E1,4.1050974E2,5.4422046E2,1.13701904E2,3.4680408E2,8.8733154E2,1.9729375E3,2.03091E2,1.108754E2,1.296604E2,5.3842896E1,8.827148E0,7.1931467E0,2.6302834E1,3.0704132E1,2.9065613E1,3.463805E1,6.739148E1,1.3687083E2,1.8888405E1,7.434749E1,2.7775482E1,6.2473022E1,2.7716368E1,3.5592896E1,1.632536E2,3.5777734E2,1.61698E2,3.5028906E2,1.5912573E1,7.539282E1,7.365977E1,6.9211334E1,1.6751257E2,2.7445575E2,3.1711523E2,1.9597305E3,6.242559E1,1.69087E2,5.8896378E1,3.0862793E1,0E0,0E0,0E0,0E0,0E0,0E0,0E0,0E0,0E0,0E0,0E0,0E0,0E0,0E0,0E0,0E0,0E0,0E0,0E0,0E0,0E0,0E0,0E0,0E0,0E0,0E0,0E0,0E0,0E0,0E0,0E0,0E0,0E0,0E0,0E0,0E0,0E0,0E0,0E0,0E0,0E0,0E0,0E0,0E0,0E0,0E0,0E0,0E0,0E0,0E0,0E0,0E0,0E0,0E0,0E0,0E0,0E0,0E0,0E0,0E0,0E0,0E0,0E0,0E0],"parents":[2147483647,0,0,1,1,2,2,3,3,4,4,5,5,6,6,7,7,8,8,9,9,10,10,11,11,12,12,13,13,14,14,15,15,16,16,17,17,18,18,19,19,20,20,21,21,22,22,23,23,24,24,25,25,26,26,27,27,28,28,29,29,30,30,31,31,32,32,33,33,34,34,35,35,36,36,37,37,38,38,39,39,40,40,41,41,42,42,43,43,44,44,45,45,46,46,47,47,48,48,49,49,50,50,51,51,52,52,53,53,54,54,55,55,56,56,57,57,58,58,59,59,60,60,61,61,62,62],"right_children":[2,4,6,8,10,12,14,16,18,20,22,24,26,28,30,32,34,36,38,40,42,44,46,48,50,52,54,56,58,60,62,64,66,68,70,72,74,76,78,80,82,84,86,88,90,92,94,96,98,100,102,104,106,108,110,112,114,116,118,120,122,124,126,-1,-1,-1,-1,-1,-1,-1,-1,-1,-1,-1,-1,-1,-1,-1,-1,-1,-1,-1,-1,-1,-1,-1,-1,-1,-1,-1,-1,-1,-1,-1,-1,-1,-1,-1,-1,-1,-1,-1,-1,-1,-1,-1,-1,-1,-1,-1,-1,-1,-1,-1,-1,-1,-1,-1,-1,-1,-1,-1,-1,-1,-1,-1,-1],"split_conditions":[-7.6067984E-2,-1.4204569E-1,8.822831E0,9.0858716E-1,-2.0532362E-2,1.3076697E-1,1.3313313E-1,3.0615814E1,5.8645406E0,9.142882E-1,-9.4288394E-2,3.3408306E0,5.1834564E0,-8.354141E-2,2.7743903E-1,-3.316792E-2,-7.917384E-2,1.4457083E0,-2.4267782E-1,-1.01069674E-1,-1.4352986E-2,-3.1197907E-3,7.228902E-4,1.7988025E0,1.19581506E-1,1.9799994E-1,3.5484466E-1,2.5274038E-1,2.4985048E-1,1.020685E-2,2.1643825E-2,-1.9672574E-1,8.935931E-2,2.2912993E3,-2.3973022E-1,-2.985096E-1,2.4548993E2,-6.202117E-1,-2.2243793E-1,1.7929745E-1,5.1363982E-2,1.0773241E-1,1.1694795E0,1.7011611E-1,8.160913E0,-4.1923404E-2,-9.075641E-2,7.748684E-2,8.8905625E-2,5.731279E0,5.8645406E0,6.551171E0,2.2657897E0,4.4903213E-1,4.848181E-1,-4.586198E-2,-1.3530312E-1,1.7166293E-1,2.7431866E1,7.98933E-2,2.3675997E1,6.86627E-1,1.3677182E0,3.1130392E-2,2.024881E-2,4.0277108E-3,3.8401913E-2,1.6397092E-2,7.1972595E-3,-3.4867737E-2,-4.2713243E-3,1.1608988E-1,4.4506107E-2,2.2521114E-2,-2.331284E-2,1.3258656E-2,2.465663E-2,1.3397867E-2,2.5805358E-3,7.3480452E-3,1.528814E-2,-7.466923E-3,4.830524E-3,9.878901E-3,4.629879E-2,-4.417415E-3,-1.4631313E-2,7.4172355E-3,2.0633733E-2,3.212516E-2,2.0181425E-2,7.2354465E-3,-5.695691E-3,2.8407192E-2,1.13453595E-2,8.220001E-3,2.4283707E-2,-1.2512301E-2,7.0064687E-3,-2.144922E-2,-3.9053943E-2,-3.140958E-3,-1.7867206E-2,-5.243447E-3,3.141981E-2,2.463952E-2,1.4976029E-2,1.2684421E-3,-9.1548925E-3,1.7130565E-2,7.7507133E-3,-8.964247E-3,-2.1304322E-2,1.0970886E-2,-2.6583946E-3,-4.992114E-2,-3.4884717E-2,-1.4657201E-2,-2.6477585E-2,1.44545315E-2,4.831842E-5,-2.3351607E-3,-1.2708882E-2,1.5370383E-2,3.0475426E-3,2.6330946E-2,5.6054094E-3],"split_indices":[16,16,11,22,7,3,14,4,11,22,2,11,11,2,14,7,14,10,14,16,26,7,26,11,4,24,4,24,4,16,26,16,22,10,2,16,10,7,16,24,24,12,22,17,10,2,16,4,4,11,11,10,11,22,22,16,2,4,11,2,11,22,22,0,0,0,0,0,0,0,0,0,0,0,0,0,0,0,0,0,0,0,0,0,0,0,0,0,0,0,0,0,0,0,0,0,0,0,0,0,0,0,0,0,0,0,0,0,0,0,0,0,0,0,0,0,0,0,0,0,0,0,0,0,0,0,0],"split_type":[0,0,0,0,0,0,0,0,0,0,0,0,0,0,0,0,0,0,0,0,0,0,0,0,0,0,0,0,0,0,0,0,0,0,0,0,0,0,0,0,0,0,0,0,0,0,0,0,0,0,0,0,0,0,0,0,0,0,0,0,0,0,0,0,0,0,0,0,0,0,0,0,0,0,0,0,0,0,0,0,0,0,0,0,0,0,0,0,0,0,0,0,0,0,0,0,0,0,0,0,0,0,0,0,0,0,0,0,0,0,0,0,0,0,0,0,0,0,0,0,0,0,0,0,0,0,0],"sum_hessian":[3.6319188E5,6.7077555E4,2.961143E5,2.5177951E4,4.1899605E4,6.9198086E4,2.2691623E5,1.5790544E4,9.387406E3,3.2418414E4,9.48119E3,3.9133266E4,3.0064822E4,2.0099936E5,2.5916879E4,1.4621194E4,1.1693497E3,2.7002893E3,6.6871167E3,2.336174E4,9.056674E3,6.4896265E3,2.9915637E3,1.7152469E4,2.1980797E4,1.2933208E4,1.7131615E4,2.6050287E4,1.7494906E5,1.9978492E4,5.938388E3,1.1173021E4,3.448173E3,1.0483707E3,1.2097908E2,8.9388E1,2.6109011E3,2.3760671E3,4.31105E3,1.1477822E4,1.1883917E4,1.0859443E3,7.9707295E3,1.6727485E3,4.816878E3,1.7608406E3,1.2307233E3,6.356726E3,1.0795743E4,5.677889E3,1.6302907E4,7.0537897E2,1.2227829E4,6.824126E3,1.0307488E4,1.102532E4,1.5024968E4,1.4064748E4,1.6088431E5,3.4551606E3,1.652333E4,4.582365E3,1.3560226E3,4.8320254E3,6.340996E3,1.18212326E2,3.3299607E3,5.079736E2,5.403971E2,2.3010403E1,9.796867E1,1.5439529E1,7.394847E1,2.5746016E3,3.629971E1,1.4673245E3,9.0874255E2,9.480989E2,3.362951E3,7.238652E3,4.2391704E3,3.039436E3,8.844481E3,1.0499956E3,3.5948757E1,5.282184E3,2.688546E3,6.54328E2,1.0184206E3,1.6947227E3,3.122155E3,1.0957125E3,6.6512805E2,6.519013E2,5.7882196E2,2.968342E3,3.3883843E3,3.4491238E3,7.346619E3,3.6406514E3,2.0372378E3,8.934796E3,7.3681104E3,6.7541907E2,2.995989E1,2.5544272E3,9.673402E3,3.133037E3,3.691089E3,2.6469067E3,7.6605815E3,5.2743364E3,5.750984E3,6.539942E3,8.485025E3,6.8505483E3,7.2141997E3,5.164904E4,1.0923527E5,1.1047373E3,2.3504233E3,6.4321504E3,1.0091181E4,1.3925386E3,3.1898267E3,1.1421688E3,2.1385376E2],"tree_param":{"num_deleted":"0","num_feature":"27","num_nodes":"127","size_leaf_vector":"1"}},{"base_weights":[-1.8569376E-1,1.827041E-1,-3.1031805E-1,3.485378E-1,2.3686776E-2,-4.2763895E-1,-5.1239777E-2,2.9406133E-1,6.9626766E-1,-1.0775636E-1,3.2812005E-1,-2.8741324E-1,-5.8301866E-1,5.751541E-1,-9.5114365E-2,4.2269462E-1,7.171215E-2,8.744283E-1,5.05659E-1,-3.404278E-1,-1.3787535E-2,7.358318E-1,1.9391939E-1,-3.6249405E-1,1.9443652E-1,-7.3491347E-1,-4.62869E-1,7.5146735E-1,1.5552156E-1,-2.8023228E-1,9.913713E-2,3.4471723E-1,7.325778E-1,-1.9361567E-1,1.999357E-1,9.3469226E-1,4.4901738E-1,-7.231537E-2,5.699916E-1,-1.6097945E-1,-4.2393672E-1,-2.3918602E-1,5.810089E-2,6.1324334E-1,1.3307551E0,8.624029E-2,5.8967185E-1,-1.385441E-1,-4.4258288E-1,7.4649405E-1,5.184868E-2,-4.0609494E-1,-7.799207E-1,-3.370691E-1,-6.8784046E-1,1.2116946E0,6.0469115E-1,1.4636769E-2,5.7631004E-1,-1.7439568E-1,-5.80242E-1,6.7164594E-1,6.4559996E-2,2.274069E-2,3.881121E-3,5.3609826E-2,3.1203965E-2,-1.8254576E-2,-3.9609554E-3,-6.0942895E-3,1.3930954E-2,4.1792408E-2,5.851061E-2,5.1378407E-2,1.6280426E-2,1.685207E-3,-2.465275E-2,5.519281E-2,2.6436985E-2,-1.896113E-2,-4.47465E-3,-2.769109E-2,-1.6249897E-2,-5.4351115E-3,-2.0167222E-2,1.239713E-2,-3.2776787E-3,4.737219E-2,2.6173517E-2,9.864091E-2,5.8786757E-2,2.1194346E-2,8.940948E-4,4.4558827E-2,2.3415504E-2,-1.6431507E-2,-1.1143185E-3,-1.4136627E-2,-2.6793152E-2,5.4119088E-2,2.9124692E-2,-2.0438947E-3,2.7795706E-2,-1.4806363E-2,-3.149241E-2,-3.5661157E-2,-4.5766227E-2,1.0372687E-2,-1.9808652E-2,-2.2593087E-2,-3.8021024E-2,8.508851E-2,5.1252913E-2,2.0842908E-2,3.9840426E-2,1.079609E-2,-1.25450315E-2,5.147279E-2,1.3115711E-2,3.445543E-4,-1.7059796E-2,-2.1259243E-2,-3.606535E-2,4.124854E-2,1.81798E-2,-5.6441748E-3,9.955942E-3],"categories":[],"categories_nodes":[],"categories_segments":[],"categories_sizes":[],"default_left":[0,0,0,0,0,0,0,0,0,0,0,0,0,0,0,0,0,0,0,0,0,0,0,0,0,0,0,0,0,0,0,0,0,0,0,0,0,0,0,0,0,0,0,0,0,0,0,0,0,0,0,0,0,0,0,0,0,0,0,0,0,0,0,0,0,0,0,0,0,0,0,0,0,0,0,0,0,0,0,0,0,0,0,0,0,0,0,0,0,0,0,0,0,0,0,0,0,0,0,0,0,0,0,0,0,0,0,0,0,0,0,0,0,0,0,0,0,0,0,0,0,0,0,0,0,0,0],"id":10,"left_children":[1,3,5,7,9,11,13,15,17,19,21,23,25,27,29,31,33,35,37,39,41,43,45,47,49,51,53,55,57,59,61,63,65,67,69,71,73,75,77,79,81,83,85,87,89,91,93,95,97,99,101,103,105,107,109,111,113,115,117,119,121,123,125,-1,-1,-1,-1,-1,-1,-1,-1,-1,-1,-1,-1,-1,-1,-1,-1,-1,-1,-1,-1,-1,-1,-1,-1,-1,-1,-1,-1,-1,-1,-1,-1,-1,-1,-1,-1,-1,-1,-1,-1,-1,-1,-1,-1,-1,-1,-1,-1,-1,-1,-1,-1,-1,-1,-1,-1,-1,-1,-1,-1,-1,-1,-1,-1],"loss_changes":[1.6558465E4,2.4041067E3,8.1913438E3,8.4516797E2,1.8624082E3,4.0414375E3,2.3086252E3,1.1035376E3,2.0479614E2,7.107213E2,7.67796E2,3.527541E3,1.6055215E3,4.0671228E2,2.8229497E3,5.903882E2,4.8117233E2,7.963159E1,1.0869733E2,1.4007117E2,3.7522723E2,2.5264429E2,4.4999197E2,1.5130068E3,1.0347197E3,5.7478516E2,1.3902881E3,2.607959E2,9.650785E1,1.2762261E3,7.5827496E2,5.742932E2,1.8037573E2,9.036626E1,2.4147824E2,6.2671875E1,2.7466019E1,1.3111956E1,5.73291E1,4.6325188E1,8.1822266E1,1.1990231E2,4.121753E2,8.601355E1,5.669519E1,1.9163742E2,8.2230774E1,4.9110245E2,9.26374E2,1.4800342E2,4.8837042E2,1.1498547E2,3.0803516E2,1.01430225E3,3.014375E2,8.379236E1,1.0566785E2,6.530036E1,5.7831406E1,8.985648E2,2.2896948E2,1.02746216E2,8.626001E2,0E0,0E0,0E0,0E0,0E0,0E0,0E0,0E0,0E0,0E0,0E0,0E0,0E0,0E0,0E0,0E0,0E0,0E0,0E0,0E0,0E0,0E0,0E0,0E0,0E0,0E0,0E0,0E0,0E0,0E0,0E0,0E0,0E0,0E0,0E0,0E0,0E0,0E0,0E0,0E0,0E0,0E0,0E0,0E0,0E0,0E0,0E0,0E0,0E0,0E0,0E0,0E0,0E0,0E0,0E0,0E0,0E0,0E0,0E0,0E0,0E0,0E0,0E0,0E0],"parents":[2147483647,0,0,1,1,2,2,3,3,4,4,5,5,6,6,7,7,8,8,9,9,10,10,11,11,12,12,13,13,14,14,15,15,16,16,17,17,18,18,19,19,20,20,21,21,22,22,23,23,24,24,25,25,26,26,27,27,28,28,29,29,30,30,31,31,32,32,33,33,34,34,35,35,36,36,37,37,38,38,39,39,40,40,41,41,42,42,43,43,44,44,45,45,46,46,47,47,48,48,49,49,50,50,51,51,52,52,53,53,54,54,55,55,56,56,57,57,58,58,59,59,60,60,61,61,62,62],"right_children":[2,4,6,8,10,12,14,16,18,20,22,24,26,28,30,32,34,36,38,40,42,44,46,48,50,52,54,56,58,60,62,64,66,68,70,72,74,76,78,80,82,84,86,88,90,92,94,96,98,100,102,104,106,108,110,112,114,116,118,120,122,124,126,-1,-1,-1,-1,-1,-1,-1,-1,-1,-1,-1,-1,-1,-1,-1,-1,-1,-1,-1,-1,-1,-1,-1,-1,-1,-1,-1,-1,-1,-1,-1,-1,-1,-1,-1,-1,-1,-1,-1,-1,-1,-1,-1,-1,-1,-1,-1,-1,-1,-1,-1,-1,-1,-1,-1,-1,-1,-1,-1,-1,-1,-1,-1,-1],"split_conditions":[-4.3056574E-2,-7.959277E-2,3.36984E-2,-6.328183E-2,-3.2989692E-2,-1.7395954E-3,2.0169187E-2,-1.1090808E-1,-6.943345E-2,8.974584E-2,-8.354141E-2,7.1770335E-3,9.681324E-3,8.781383E-1,7.1428575E-2,-1.0422535E-1,-9.362592E-2,4.7681978E-1,-1.5998181E-2,1.658367E1,-6.328183E-2,-8.590667E-3,2.0833334E-2,1.3141819E1,-5.980917E-2,7.184373E0,2.7523201E-2,1.0960377E-3,7.1954615E-2,6.274182E-2,5.8622826E-2,-1.4167364E-1,-1.3504224E-1,-1.08391605E-1,1.8484496E-3,2.264151E-1,-4.6658687E-2,8.0841494E-1,-4.3626893E-2,-7.370518E-2,-5.889015E-2,-6.554449E-2,-6.1730936E-2,-6.554449E-2,-1.6356543E-2,-5.566988E-2,-6.5609342E-3,1.6221736E-1,-2.6694844E-2,-1.9980168E-2,1.0813226E-1,1.789998E-2,1.8446796E-2,-8.521927E-2,1.2937496E1,2.1524166E-3,4.1666668E-2,5.9368014E-1,6.793233E-1,2.6054892E1,2.5378666E1,9.321629E-1,1.0773241E-1,2.274069E-2,3.881121E-3,5.3609826E-2,3.1203965E-2,-1.8254576E-2,-3.9609554E-3,-6.0942895E-3,1.3930954E-2,4.1792408E-2,5.851061E-2,5.1378407E-2,1.6280426E-2,1.685207E-3,-2.465275E-2,5.519281E-2,2.6436985E-2,-1.896113E-2,-4.47465E-3,-2.769109E-2,-1.6249897E-2,-5.4351115E-3,-2.0167222E-2,1.239713E-2,-3.2776787E-3,4.737219E-2,2.6173517E-2,9.864091E-2,5.8786757E-2,2.1194346E-2,8.940948E-4,4.4558827E-2,2.3415504E-2,-1.6431507E-2,-1.1143185E-3,-1.4136627E-2,-2.6793152E-2,5.4119088E-2,2.9124692E-2,-2.0438947E-3,2.7795706E-2,-1.4806363E-2,-3.149241E-2,-3.5661157E-2,-4.5766227E-2,1.0372687E-2,-1.9808652E-2,-2.2593087E-2,-3.8021024E-2,8.508851E-2,5.1252913E-2,2.0842908E-2,3.9840426E-2,1.079609E-2,-1.25450315E-2,5.147279E-2,1.3115711E-2,3.445543E-4,-1.7059796E-2,-2.1259243E-2,-3.606535E-2,4.124854E-2,1.81798E-2,-5.6441748E-3,9.955942E-3],"split_indices":[15,15,12,12,12,15,15,15,2,24,2,12,12,24,12,12,12,17,24,10,12,12,13,10,2,10,15,15,1,15,15,15,15,12,24,9,0,22,0,12,12,15,15,15,0,13,2,4,15,15,14,15,15,2,10,0,12,22,22,10,10,24,12,0,0,0,0,0,0,0,0,0,0,0,0,0,0,0,0,0,0,0,0,0,0,0,0,0,0,0,0,0,0,0,0,0,0,0,0,0,0,0,0,0,0,0,0,0,0,0,0,0,0,0,0,0,0,0,0,0,0,0,0,0,0,0,0],"split_type":[0,0,0,0,0,0,0,0,0,0,0,0,0,0,0,0,0,0,0,0,0,0,0,0,0,0,0,0,0,0,0,0,0,0,0,0,0,0,0,0,0,0,0,0,0,0,0,0,0,0,0,0,0,0,0,0,0,0,0,0,0,0,0,0,0,0,0,0,0,0,0,0,0,0,0,0,0,0,0,0,0,0,0,0,0,0,0,0,0,0,0,0,0,0,0,0,0,0,0,0,0,0,0,0,0,0,0,0,0,0,0,0,0,0,0,0,0,0,0,0,0,0,0,0,0,0,0],"sum_hessian":[3.6065966E5,9.116608E4,2.6949356E5,4.462599E4,4.6540094E4,1.8549394E5,8.399963E4,3.8583258E4,6.042728E3,3.2505889E4,1.4034205E4,9.7503086E4,8.799085E4,5.4976753E3,7.850196E4,2.4442121E4,1.4141139E4,3.1214983E3,2.9212295E3,9.350635E3,2.3155254E4,3.4743586E3,1.0559847E4,8.4358734E4,1.3144351E4,3.8859297E4,4.9131555E4,3.8706067E3,1.6270684E3,4.019575E4,3.830621E4,1.9529844E4,4.9122764E3,4.6071787E3,9.533959E3,2.7331248E3,3.8837344E2,2.9257394E2,2.6286558E3,2.9704673E3,6.380167E3,5.598724E3,1.755653E4,2.8824407E3,5.91918E2,8.302155E3,2.2576907E3,2.22222E4,6.213653E4,2.6972334E3,1.0447117E4,4.6797173E3,3.417958E4,3.1512723E4,1.7618832E4,9.3417566E2,2.9364312E3,1.2197252E3,4.073431E2,2.971467E4,1.0481078E4,2.1807158E3,3.6125496E4,1.3828875E4,5.7009697E3,1.1872141E3,3.7250625E3,1.842762E3,2.764417E3,1.8729386E3,7.661021E3,1.9283676E3,8.0475726E2,6.699041E1,3.2138303E2,2.3442305E2,5.8150883E1,1.8670032E2,2.4419553E3,7.318563E2,2.2386108E3,2.7566665E3,3.6235005E3,3.1202268E3,2.4784973E3,6.924547E3,1.0631982E4,6.083111E2,2.2741294E3,1.1283802E2,4.7908E2,1.3969445E3,6.905211E3,6.461321E2,1.6115587E3,8.432651E3,1.3789548E4,2.289919E4,3.9237344E4,8.83055E2,1.8141783E3,8.824673E3,1.6224451E3,3.1392148E3,1.5405024E3,2.2903828E4,1.1275752E4,3.0853135E3,2.842741E4,4.1460464E3,1.3472786E4,2.5540567E2,6.7877E2,1.4863739E3,1.4500571E3,6.93909E2,5.258162E2,1.6579546E2,2.4154767E2,1.4239469E4,1.5475202E4,4.9948306E3,5.4862476E3,1.4548959E3,7.258198E2,1.5580097E4,2.0545398E4],"tree_param":{"num_deleted":"0","num_feature":"27","num_nodes":"127","size_leaf_vector":"1"}},{"base_weights":[-1.790886E-1,1.6997086E-1,-2.9903573E-1,3.2698858E-1,1.8754674E-2,-4.0144065E-1,-1.4245649E-2,2.73102E-1,6.3383424E-1,-1.0588234E-1,3.2051894E-1,-7.834936E-2,-4.6364442E-1,1.4019841E-1,-1.6224594E-1,4.148023E-1,9.170637E-2,9.329047E-1,5.256208E-1,-2.126103E-1,7.505685E-2,7.596321E-1,2.1340792E-1,-3.6532506E-1,7.90495E-3,-5.2462715E-1,-1.4306417E-1,5.143801E-1,1.024362E-1,5.2185464E-1,-2.1514928E-1,3.4482187E-1,7.450275E-1,-1.9144765E-1,1.9979721E-1,8.768586E-1,1.3973734E0,4.4830516E-1,8.490067E-1,2.994435E-2,-3.0514655E-1,-1.9581044E-1,1.3147742E-1,6.064799E-1,1.2489426E0,1.307091E-1,6.290877E-1,-2.4101512E-1,-5.2277404E-1,2.0678638E-1,-1.0566558E-1,-4.0295556E-1,-6.2635463E-1,1.2679479E-1,-3.6470053E-1,8.011006E-1,3.7498713E-1,-5.882691E-2,2.3998958E-1,7.812388E-1,3.364063E-1,-4.175735E-1,-7.11582E-2,2.335431E-2,7.579668E-3,4.685438E-2,3.095667E-2,-2.3513826E-2,-5.724614E-3,1.4976467E-2,2.1645275E-4,5.4513253E-2,3.5845306E-2,5.4211557E-2,8.419185E-2,2.6136843E-2,9.193375E-3,2.8389117E-2,4.8330195E-2,-1.2768835E-2,8.793943E-3,-1.1041649E-2,-2.2884969E-2,-4.9210405E-3,-2.2067534E-2,1.5659845E-2,1.1749611E-3,4.194887E-2,2.3930734E-2,4.445094E-2,7.015873E-2,1.9385641E-2,2.008644E-3,4.58268E-2,2.4845395E-2,-2.3439016E-2,-6.137528E-3,-2.1351939E-2,-3.32552E-2,1.6246239E-2,-4.248841E-4,1.8888422E-4,-1.1959183E-2,-2.2929788E-2,4.273419E-3,-3.7095543E-2,-2.4042636E-2,-2.0589364E-4,2.1897035E-2,-1.2460053E-2,-3.0911878E-2,6.716958E-2,3.4257215E-2,1.4680746E-2,4.3195497E-2,2.4212808E-3,-1.9399691E-2,3.3499092E-2,1.0328106E-2,5.843032E-2,3.1550087E-2,2.7834734E-2,6.3403114E-3,-1.1245739E-2,-2.9167501E-2,2.2225594E-2,-6.0002916E-3],"categories":[],"categories_nodes":[],"categories_segments":[],"categories_sizes":[],"default_left":[0,0,0,0,0,0,0,0,0,0,0,0,0,0,0,0,0,0,0,0,0,0,0,0,0,0,0,0,0,0,0,0,0,0,0,0,0,0,0,0,0,0,0,0,0,0,0,0,0,0,0,0,0,0,0,0,0,0,0,0,0,0,0,0,0,0,0,0,0,0,0,0,0,0,0,0,0,0,0,0,0,0,0,0,0,0,0,0,0,0,0,0,0,0,0,0,0,0,0,0,0,0,0,0,0,0,0,0,0,0,0,0,0,0,0,0,0,0,0,0,0,0,0,0,0,0,0],"id":11,"left_children":[1,3,5,7,9,11,13,15,17,19,21,23,25,27,29,31,33,35,37,39,41,43,45,47,49,51,53,55,57,59,61,63,65,67,69,71,73,75,77,79,81,83,85,87,89,91,93,95,97,99,101,103,105,107,109,111,113,115,117,119,121,123,125,-1,-1,-1,-1,-1,-1,-1,-1,-1,-1,-1,-1,-1,-1,-1,-1,-1,-1,-1,-1,-1,-1,-1,-1,-1,-1,-1,-1,-1,-1,-1,-1,-1,-1,-1,-1,-1,-1,-1,-1,-1,-1,-1,-1,-1,-1,-1,-1,-1,-1,-1,-1,-1,-1,-1,-1,-1,-1,-1,-1,-1,-1,-1,-1],"loss_changes":[1.4995466E4,2.1748474E3,7.77384E3,7.4284766E2,1.7550299E3,3.9402422E3,1.6114902E3,9.8250854E2,2.1673071E2,6.377379E2,6.413551E2,7.8352466E2,3.2140312E3,4.874214E2,1.303045E3,4.9568628E2,5.131827E2,4.5164185E1,1.22905396E2,4.6622803E2,1.8727864E2,1.9964612E2,3.768962E2,1.4305188E2,5.497792E2,1.7094219E3,1.5717039E3,1.2608484E2,6.951659E2,1.2405908E2,9.740099E2,4.1832617E2,9.01355E1,9.934764E1,2.3655292E2,5.3589844E1,1.5235535E1,7.827173E1,3.0878784E1,2.3892409E2,1.9328967E2,5.047618E1,1.9897949E2,6.0204956E1,3.4088318E1,2.1283731E2,6.8673645E1,1.1010448E2,4.3681458E1,2.2501859E2,2.2639745E2,1.709457E3,1.2645098E3,4.826988E2,4.223457E2,6.407312E1,8.4474976E1,5.093355E2,2.429549E2,6.192444E1,6.959477E1,4.4350024E2,4.919638E2,0E0,0E0,0E0,0E0,0E0,0E0,0E0,0E0,0E0,0E0,0E0,0E0,0E0,0E0,0E0,0E0,0E0,0E0,0E0,0E0,0E0,0E0,0E0,0E0,0E0,0E0,0E0,0E0,0E0,0E0,0E0,0E0,0E0,0E0,0E0,0E0,0E0,0E0,0E0,0E0,0E0,0E0,0E0,0E0,0E0,0E0,0E0,0E0,0E0,0E0,0E0,0E0,0E0,0E0,0E0,0E0,0E0,0E0,0E0,0E0,0E0,0E0,0E0,0E0],"parents":[2147483647,0,0,1,1,2,2,3,3,4,4,5,5,6,6,7,7,8,8,9,9,10,10,11,11,12,12,13,13,14,14,15,15,16,16,17,17,18,18,19,19,20,20,21,21,22,22,23,23,24,24,25,25,26,26,27,27,28,28,29,29,30,30,31,31,32,32,33,33,34,34,35,35,36,36,37,37,38,38,39,39,40,40,41,41,42,42,43,43,44,44,45,45,46,46,47,47,48,48,49,49,50,50,51,51,52,52,53,53,54,54,55,55,56,56,57,57,58,58,59,59,60,60,61,61,62,62],"right_children":[2,4,6,8,10,12,14,16,18,20,22,24,26,28,30,32,34,36,38,40,42,44,46,48,50,52,54,56,58,60,62,64,66,68,70,72,74,76,78,80,82,84,86,88,90,92,94,96,98,100,102,104,106,108,110,112,114,116,118,120,122,124,126,-1,-1,-1,-1,-1,-1,-1,-1,-1,-1,-1,-1,-1,-1,-1,-1,-1,-1,-1,-1,-1,-1,-1,-1,-1,-1,-1,-1,-1,-1,-1,-1,-1,-1,-1,-1,-1,-1,-1,-1,-1,-1,-1,-1,-1,-1,-1,-1,-1,-1,-1,-1,-1,-1,-1,-1,-1,-1,-1,-1,-1,-1,-1,-1],"split_conditions":[-4.3056574E-2,-7.959277E-2,4.1666668E-2,-6.4825386E-2,-3.227566E-2,-5.4931868E-2,2.0136051E1,-1.1913466E-1,-1.3227841E-1,-3.800654E-2,-1.002136E-1,-2.4697846E-2,5.7261173E-2,3.526022E-2,2.7523201E-2,-1.08391605E-1,-1.0037175E-1,-3.3700254E-2,8.751644E-3,-9.8881625E-2,-6.8134174E-2,-1.1627907E-2,3.0075189E-2,-3.0343935E-2,-9.466589E-2,-3.168889E-3,6.9106026E-3,-3.3407968E-2,8.562532E-2,2.8089476E-1,6.5911E-2,-1.5835142E-1,-1.3504224E-1,-1.23828314E-1,4.6797258E-1,-9.508821E-2,1.3501519E0,5.838825E-1,3.865532E-1,-6.328183E-2,4.5945802E-1,-6.0523473E-2,-6.29698E-2,-6.0523473E-2,1.4089003E-1,-7.1997225E-2,-3.1922562E-3,-4.2462844E-2,3.1244896E1,1.0960377E-3,6.3360655E-1,8.421052E-3,1.5005359E-2,1.0526316E-2,3.602324E-2,8.3866455E-3,9.988655E-3,7.638925E-2,7.845222E-2,9.399324E-3,8.076923E-1,5.0397504E-2,5.7346195E-2,2.335431E-2,7.579668E-3,4.685438E-2,3.095667E-2,-2.3513826E-2,-5.724614E-3,1.4976467E-2,2.1645275E-4,5.4513253E-2,3.5845306E-2,5.4211557E-2,8.419185E-2,2.6136843E-2,9.193375E-3,2.8389117E-2,4.8330195E-2,-1.2768835E-2,8.793943E-3,-1.1041649E-2,-2.2884969E-2,-4.9210405E-3,-2.2067534E-2,1.5659845E-2,1.1749611E-3,4.194887E-2,2.3930734E-2,4.445094E-2,7.015873E-2,1.9385641E-2,2.008644E-3,4.58268E-2,2.4845395E-2,-2.3439016E-2,-6.137528E-3,-2.1351939E-2,-3.32552E-2,1.6246239E-2,-4.248841E-4,1.8888422E-4,-1.1959183E-2,-2.2929788E-2,4.273419E-3,-3.7095543E-2,-2.4042636E-2,-2.0589364E-4,2.1897035E-2,-1.2460053E-2,-3.0911878E-2,6.716958E-2,3.4257215E-2,1.4680746E-2,4.3195497E-2,2.4212808E-3,-1.9399691E-2,3.3499092E-2,1.0328106E-2,5.843032E-2,3.1550087E-2,2.7834734E-2,6.3403114E-3,-1.1245739E-2,-2.9167501E-2,2.2225594E-2,-6.0002916E-3],"split_indices":[15,15,12,12,12,16,10,15,2,7,2,12,13,15,15,12,12,12,7,16,12,12,13,15,16,15,15,2,12,17,12,15,15,12,17,15,4,17,18,12,17,15,15,15,3,16,2,12,10,15,22,12,12,12,15,15,26,15,15,15,9,15,15,0,0,0,0,0,0,0,0,0,0,0,0,0,0,0,0,0,0,0,0,0,0,0,0,0,0,0,0,0,0,0,0,0,0,0,0,0,0,0,0,0,0,0,0,0,0,0,0,0,0,0,0,0,0,0,0,0,0,0,0,0,0,0,0],"split_type":[0,0,0,0,0,0,0,0,0,0,0,0,0,0,0,0,0,0,0,0,0,0,0,0,0,0,0,0,0,0,0,0,0,0,0,0,0,0,0,0,0,0,0,0,0,0,0,0,0,0,0,0,0,0,0,0,0,0,0,0,0,0,0,0,0,0,0,0,0,0,0,0,0,0,0,0,0,0,0,0,0,0,0,0,0,0,0,0,0,0,0,0,0,0,0,0,0,0,0,0,0,0,0,0,0,0,0,0,0,0,0,0,0,0,0,0,0,0,0,0,0,0,0,0,0,0,0],"sum_hessian":[3.5815253E5,9.15964E4,2.6655612E5,4.493562E4,4.6660777E4,1.9605736E5,7.049877E4,3.8224695E4,6.710926E3,3.30223E4,1.3638477E4,3.1652746E4,1.6440461E5,3.4498402E4,3.600037E4,2.145975E4,1.6764945E4,1.7810364E3,4.929889E3,2.077052E4,1.2251779E4,2.6732224E3,1.0965254E4,7.314274E3,2.433847E4,1.3812834E5,2.627626E4,3.1612544E3,3.133715E4,2.5835286E3,3.3416844E4,1.7708957E4,3.7507917E3,4.631508E3,1.2133437E4,1.5918412E3,1.8919518E2,3.9805894E3,9.492998E2,5.7360215E3,1.5034499E4,2.1116362E3,1.0140143E4,2.037677E3,6.355453E2,9.146823E3,1.8184313E3,4.0886848E3,3.225589E3,8.846288E3,1.5492184E4,6.2900676E4,7.522767E4,1.1849288E4,1.4426972E4,1.032577E3,2.1286772E3,1.4425608E4,1.6911541E4,1.0757203E3,1.5078081E3,1.3889265E4,1.9527578E4,1.0845259E4,6.863698E3,1.4825764E3,2.2682153E3,1.00067975E3,3.630828E3,8.0338555E3,4.0995815E3,6.794765E2,9.1236475E2,9.267454E1,9.652064E1,3.1055022E3,8.750873E2,2.8163065E2,6.676692E2,1.9407842E3,3.795237E3,9.684483E3,5.350016E3,1.5129497E3,5.986866E2,3.7787986E3,6.3613438E3,7.210428E2,1.3166343E3,1.926743E2,4.42871E2,2.3819465E3,6.7648765E3,5.709235E2,1.2475077E3,1.3964001E3,2.6922847E3,1.9308461E3,1.294743E3,5.7115386E3,3.1347493E3,8.514179E3,6.978005E3,5.646802E4,6.432655E3,4.19262E4,3.3301473E4,8.3408955E3,3.508392E3,9.913042E3,4.5139297E3,1.800333E2,8.5254376E2,1.8263204E3,3.023568E2,1.0881077E4,3.544531E3,1.2184926E3,1.5693049E4,2.987227E2,7.769976E2,7.3435236E2,7.734558E2,6.4248823E3,7.4643823E3,1.6890175E3,1.783856E4],"tree_param":{"num_deleted":"0","num_feature":"27","num_nodes":"127","size_leaf_vector":"1"}},{"base_weights":[-1.706581E-1,1.4994241E-1,-2.9154614E-1,3.4544104E-1,2.9546848E-2,-3.6266223E-2,-4.101607E-1,2.8337196E-1,6.475187E-1,-2.2457638E-1,1.4704284E-1,-2.0845474E-1,1.2070205E-1,-5.0902647E-1,-1.8709189E-1,4.0305734E-1,7.206404E-2,2.6042837E-1,7.3016816E-1,-8.966866E-2,-3.519744E-1,4.8908614E-2,3.6754626E-1,-1.203388E-1,-5.3017133E-1,3.1100106E-1,5.189572E-2,-3.68622E-1,-6.518916E-1,5.3674567E-1,-2.4034782E-1,3.29615E-1,6.9063395E-1,-2.5516462E-1,1.6516517E-1,