{"learner":{"attributes":{"best_iteration":"0","best_score":"2.230038810041621","scikit_learn":"{\"_estimator_type\": \"regressor\"}"},"feature_names":[],"feature_types":[],"gradient_booster":{"model":{"cats":{"enc":[],"feature_segments":[],"sorted_idx":[]},"gbtree_model_param":{"num_parallel_tree":"1","num_trees":"21"},"iteration_indptr":[0,1,2,3,4,5,6,7,8,9,10,11,12,13,14,15,16,17,18,19,20,21],"tree_info":[0,0,0,0,0,0,0,0,0,0,0,0,0,0,0,0,0,0,0,0,0],"trees":[{"base_weights":[1.3039082E-4,2.2400153E0,-1.7445829E-2,1.303284E0,5.3431225E1,2.4099179E-1,-5.2098915E-2,9.146764E-1,1.7642492E1,2.3597218E1,1.4528699E2,2.4864404E0,2.1444085E-1,-4.8899658E-2,-1.1322967E0,8.998538E0,7.88904E-1,7.946505E2,1.3323071E0,1.3258885E1,1.9256175E2,1.22661026E2,5.980797E1,1.1678346E0,1.9499945E1,2.1311124E-1,4.2388844E1,1.5134455E-1,-6.402903E-2,-1.4923345E1,-9.675783E-1,5.7530373E-1,3.0696704E0,2.8168187E-1,6.918321E-2,1.1999436E2,-7.9678E-1,4.8993936E0,-2.9244835E-3,2.6199708E0,-1.6310106E-1,2.3375373E-1,4.767293E1,6.909062E-1,2.4380262E1,2.2005053E0,1.0868799E-1,1.7423187E-1,9.15314E0,3.9801412E0,2.11863E-2,7.08645E-1,5.6496816E0,2.8666088E-2,-6.4466445E-4,-1.770772E-1,-6.291732E-3,5.1258105E-1,-1.8986317E0,6.586512E-1,-1.1249439E-1],"categories":[],"categories_nodes":[],"categories_segments":[],"categories_sizes":[],"default_left":[0,0,0,0,0,0,0,0,0,0,0,0,0,0,0,0,0,0,0,0,0,0,0,0,0,0,0,0,0,0,0,0,0,0,0,0,0,0,0,0,0,0,0,0,0,0,0,0,0,0,0,0,0,0,0,0,0,0,0,0,0],"id":0,"left_children":[1,3,5,7,9,11,13,15,17,19,21,23,25,27,29,31,33,35,37,39,41,-1,43,45,47,49,51,53,55,57,59,-1,-1,-1,-1,-1,-1,-1,-1,-1,-1,-1,-1,-1,-1,-1,-1,-1,-1,-1,-1,-1,-1,-1,-1,-1,-1,-1,-1,-1,-1],"loss_changes":[3.2366354E4,3.068737E5,7.305441E3,3.990342E4,3.1172056E5,5.749517E3,2.4856785E3,6.237639E3,1.8492205E6,1.5116627E5,2.5146915E6,2.5260463E4,5.3361626E3,2.1727078E3,4.8105205E3,6.443012E3,1.1888186E3,9.8544775E5,9.346137E3,1.62284795E4,2.6916334E5,0E0,2.6110972E5,1.7422368E3,1.0344825E5,4.701804E3,1.0937739E3,1.0756802E3,1.2650488E3,2.1337993E3,2.503792E3,0E0,0E0,0E0,0E0,0E0,0E0,0E0,0E0,0E0,0E0,0E0,0E0,0E0,0E0,0E0,0E0,0E0,0E0,0E0,0E0,0E0,0E0,0E0,0E0,0E0,0E0,0E0,0E0,0E0,0E0],"parents":[2147483647,0,0,1,1,2,2,3,3,4,4,5,5,6,6,7,7,8,8,9,9,10,10,11,11,12,12,13,13,14,14,15,15,16,16,17,17,18,18,19,19,20,20,22,22,23,23,24,24,25,25,26,26,27,27,28,28,29,29,30,30],"right_children":[2,4,6,8,10,12,14,16,18,20,22,24,26,28,30,32,34,36,38,40,42,-1,44,46,48,50,52,54,56,58,60,-1,-1,-1,-1,-1,-1,-1,-1,-1,-1,-1,-1,-1,-1,-1,-1,-1,-1,-1,-1,-1,-1,-1,-1,-1,-1,-1,-1,-1,-1],"split_conditions":[1.302E0,3.5309427E0,4.944E0,4.3810368E1,3.0277185E1,-8.709438E-1,4.311111E1,-2.9193811E1,4.8853653E1,4.448206E-2,-6.105006E0,-9.063499E-1,7.72872E-1,-9.936865E0,-2.5835606E1,1.5468074E-2,-2.1346142E1,1.018E0,2.19E-4,1.1842105E1,1.9540396E2,1.22661026E2,1.298E0,4.795833E0,1.3246839E0,-1.2273849E0,4.578E0,1.9446E1,-2.3513514E1,2.1E-3,9.147926E-2,5.7530373E-1,3.0696704E0,2.8168187E-1,6.918321E-2,1.1999436E2,-7.9678E-1,4.8993936E0,-2.9244835E-3,2.6199708E0,-1.6310106E-1,2.3375373E-1,4.767293E1,6.909062E-1,2.4380262E1,2.2005053E0,1.0868799E-1,1.7423187E-1,9.15314E0,3.9801412E0,2.11863E-2,7.08645E-1,5.6496816E0,2.8666088E-2,-6.4466445E-4,-1.770772E-1,-6.291732E-3,5.1258105E-1,-1.8986317E0,6.586512E-1,-1.1249439E-1],"split_indices":[1,14,0,15,10,12,8,8,4,11,8,12,13,15,11,11,15,0,17,8,5,0,0,3,14,13,0,0,8,17,13,0,0,0,0,0,0,0,0,0,0,0,0,0,0,0,0,0,0,0,0,0,0,0,0,0,0,0,0,0,0],"split_type":[0,0,0,0,0,0,0,0,0,0,0,0,0,0,0,0,0,0,0,0,0,0,0,0,0,0,0,0,0,0,0,0,0,0,0,0,0,0,0,0,0,0,0,0,0,0,0,0,0,0,0,0,0,0,0,0,0,0,0,0,0],"sum_hessian":[8.22132E5,6.4E3,8.15732E5,6.286E3,1.14E2,9.6446E4,7.19286E5,6.141E3,1.45E2,8.7E1,2.7E1,1.126E3,9.532E4,7.17163E5,2.123E3,9.3E1,6.048E3,2E0,1.43E2,8.3E1,4E0,1E0,2.6E1,1.046E3,8E1,9.5318E4,2E0,5.0378E4,6.66785E5,2.4E1,2.099E3,8.2E1,1.1E1,2.75E2,5.773E3,1E0,1E0,3E0,1.4E2,4.4E1,3.9E1,3E0,1E0,2.1E1,5E0,3E0,1.043E3,6.5E1,1.5E1,2E0,9.5316E4,1E0,1E0,2.712E4,2.3258E4,4.33E2,6.66352E5,4E0,2E1,4.2E1,2.057E3],"tree_param":{"num_deleted":"0","num_feature":"18","num_nodes":"61","size_leaf_vector":"1"}},{"base_weights":[1.3220191E-3,1.7954862E0,-1.28617585E-2,1.2314612E0,3.1556343E1,2.3939064E-1,-5.0521884E-2,2.825676E1,8.6816037E-1,2.2365906E1,1.20591965E2,1.0866998E0,1.7626433E-1,-4.547377E-2,-1.6356499E0,1.128615E0,1.13994644E2,2.3615778E1,7.767091E-1,4.4950798E1,-3.6893754E0,7.106451E1,-9.47784E0,1.074473E0,4.5489106E0,9.5674485E-2,6.403226E-1,2.640162E-1,-5.4908253E-2,-2.670967E0,1.5597356E-2,-1.8513164E-1,2.5835977E0,4.0508037E0,7.4498576E-1,5.743622E-1,6.8729304E-2,3.0108821E0,4.5289284E1,-4.2437825E0,-2.0974877E-1,5.9520596E-1,-2.075645E0,2.93776E-1,8.226282E-2,7.7127027E-3,1.108668E-1,5.9705015E-2,7.2428834E-1,2.0201335E-2,2.2983978E0,-5.049375E-3,-5.0014503E-2,-1.6001095E-1,-4.7478983E-1,-2.1005056E0,1.3694571E-2],"categories":[],"categories_nodes":[],"categories_segments":[],"categories_sizes":[],"default_left":[0,0,0,0,0,0,0,0,0,0,0,0,0,0,0,0,0,0,0,0,0,0,0,0,0,0,0,0,0,0,0,0,0,0,0,0,0,0,0,0,0,0,0,0,0,0,0,0,0,0,0,0,0,0,0,0,0],"id":1,"left_children":[1,3,5,7,9,11,13,15,17,19,21,23,25,27,29,31,-1,33,35,37,39,-1,41,43,-1,45,47,49,51,53,55,-1,-1,-1,-1,-1,-1,-1,-1,-1,-1,-1,-1,-1,-1,-1,-1,-1,-1,-1,-1,-1,-1,-1,-1,-1,-1],"loss_changes":[2.0939828E4,1.0829714E5,7.7556284E3,6.2174477E4,9.5496016E4,5.672211E3,5.6840244E3,2.5319922E6,1.2987685E4,6.4895973E4,8.509644E5,3.9430654E3,3.6911216E3,2.0675486E3,3.8551099E3,6.158808E3,0E0,6.5251924E3,2.762045E3,3.435893E5,3.1185125E3,0E0,1.8638217E3,3.4475762E3,0E0,1.5799482E3,4.168172E3,2.9503447E4,1.3505552E3,3.075003E3,2.2220913E3,0E0,0E0,0E0,0E0,0E0,0E0,0E0,0E0,0E0,0E0,0E0,0E0,0E0,0E0,0E0,0E0,0E0,0E0,0E0,0E0,0E0,0E0,0E0,0E0,0E0,0E0],"parents":[2147483647,0,0,1,1,2,2,3,3,4,4,5,5,6,6,7,7,8,8,9,9,10,10,11,11,12,12,13,13,14,14,15,15,17,17,18,18,19,19,20,20,22,22,23,23,25,25,26,26,27,27,28,28,29,29,30,30],"right_children":[2,4,6,8,10,12,14,16,18,20,22,24,26,28,30,32,-1,34,36,38,40,-1,42,44,-1,46,48,50,52,54,56,-1,-1,-1,-1,-1,-1,-1,-1,-1,-1,-1,-1,-1,-1,-1,-1,-1,-1,-1,-1,-1,-1,-1,-1,-1,-1],"split_conditions":[1.3448334E0,3.5309427E0,5.3E0,-7.377451E1,2.45E0,-1.7156738E1,1.7910448E1,4.739543E1,-3.3876892E1,6.033479E1,2.55E0,1.1436E1,1.4598829E0,2.8613155E1,6.9461784E1,1.4379893E1,1.13994644E2,6.17613E-1,-1.4250614E1,6.016803E1,3.4246576E-1,7.106451E1,2.99E0,-8.709438E-1,4.5489106E0,1.9540396E2,4.0108448E-1,1.3636364E1,9.650582E0,1.7446593E2,3.334E0,-1.8513164E-1,2.5835977E0,4.0508037E0,7.4498576E-1,5.743622E-1,6.8729304E-2,3.0108821E0,4.5289284E1,-4.2437825E0,-2.0974877E-1,5.9520596E-1,-2.075645E0,2.93776E-1,8.226282E-2,7.7127027E-3,1.108668E-1,5.9705015E-2,7.2428834E-1,2.0201335E-2,2.2983978E0,-5.049375E-3,-5.0014503E-2,-1.6001095E-1,-4.7478983E-1,-2.1005056E0,1.3694571E-2],"split_indices":[3,14,16,10,16,15,7,4,15,4,16,0,14,4,6,8,0,14,7,4,6,0,16,12,0,5,12,8,7,5,0,0,0,0,0,0,0,0,0,0,0,0,0,0,0,0,0,0,0,0,0,0,0,0,0,0,0],"split_type":[0,0,0,0,0,0,0,0,0,0,0,0,0,0,0,0,0,0,0,0,0,0,0,0,0,0,0,0,0,0,0,0,0,0,0,0,0,0,0,0,0,0,0,0,0,0,0,0,0,0,0,0,0,0,0,0,0],"sum_hessian":[8.22845E5,6.453E3,8.16392E5,6.334E3,1.19E2,1.0605E5,7.10342E5,8.3E1,6.251E3,1.09E2,1E1,7.352E3,9.8698E4,7.08088E5,2.254E3,8.2E1,1E0,2.4E1,6.227E3,5.8E1,5.1E1,1E0,9E0,7.351E3,1E0,8.4095E4,1.4603E4,2.0946E4,6.87142E5,1.385E3,8.69E2,7.4E1,8E0,1.1E1,1.3E1,1.09E2,6.118E3,5.7E1,1E0,1E0,5E1,4E0,5E0,8.74E2,6.477E3,8.2584E4,1.511E3,1.4509E4,9.4E1,2.089E4,5.6E1,6.80397E5,6.745E3,9.15E2,4.7E2,4E0,8.65E2],"tree_param":{"num_deleted":"0","num_feature":"18","num_nodes":"57","size_leaf_vector":"1"}},{"base_weights":[-5.9450283E-3,1.512762E0,-1.7882584E-2,6.6838026E-1,4.2659733E1,2.5772023E-1,-4.1453216E-2,7.096092E0,5.570193E-1,1.8457367E2,2.6526905E1,2.278334E-1,3.307585E0,-3.73585E-2,-1.2481127E0,7.1085175E1,5.200251E0,3.9702766E0,4.5106247E-1,7.379839E0,7.727598E2,1.716335E1,1.001151E2,2.0508382E-1,2.7827084E0,3.379884E1,9.361814E-1,2.6564376E-2,-7.6709434E-2,-1.0347354E0,-8.353432E0,1.066262E1,1.5666634E-4,1.8086405E0,2.7948884E-2,7.9663336E-1,-1.0846648E-1,3.7230785E0,4.32582E-2,1.054615E1,-1.2974478E0,1.1637743E2,-4.6345744E-1,4.568704E0,-1.092569E-1,6.751128E1,-4.0607658E-1,1.4745128E-2,6.7783564E-2,5.0695074E-1,1.4488721E-2,5.408574E-2,1.875494E1,4.530035E-2,1.2110928E0,3.5938513E-2,-1.3386944E-4,-2.1919494E-2,-5.856361E-3,-5.106904E-1,-6.776068E-2,-8.146681E-2,-1.2924534E0],"categories":[],"categories_nodes":[],"categories_segments":[],"categories_sizes":[],"default_left":[0,0,0,0,0,0,0,0,0,0,0,0,0,0,0,0,0,0,0,0,0,0,0,0,0,0,0,0,0,0,0,0,0,0,0,0,0,0,0,0,0,0,0,0,0,0,0,0,0,0,0,0,0,0,0,0,0,0,0,0,0,0,0],"id":2,"left_children":[1,3,5,7,9,11,13,15,17,19,21,23,25,27,29,31,33,35,37,39,41,43,45,47,49,51,53,55,57,59,61,-1,-1,-1,-1,-1,-1,-1,-1,-1,-1,-1,-1,-1,-1,-1,-1,-1,-1,-1,-1,-1,-1,-1,-1,-1,-1,-1,-1,-1,-1,-1,-1],"loss_changes":[1.4914637E4,2.2288736E5,5.302472E3,4.4969746E3,2.9044588E5,5.8610645E3,3.7152405E3,1.2610847E4,2.2339778E3,1.3491955E6,7.89002E4,3.7010085E3,4.5087965E4,1.8850588E3,3.8468323E3,7.5789854E3,6.6529634E3,3.7658096E3,4.060088E3,2.3328547E4,9.173111E5,5.4726164E4,7.814528E5,1.7197966E3,3.3893428E3,2.3000308E5,3.1261606E3,2.651805E3,1.1992849E3,3.5886309E3,2.539545E3,0E0,0E0,0E0,0E0,0E0,0E0,0E0,0E0,0E0,0E0,0E0,0E0,0E0,0E0,0E0,0E0,0E0,0E0,0E0,0E0,0E0,0E0,0E0,0E0,0E0,0E0,0E0,0E0,0E0,0E0,0E0,0E0],"parents":[2147483647,0,0,1,1,2,2,3,3,4,4,5,5,6,6,7,7,8,8,9,9,10,10,11,11,12,12,13,13,14,14,15,15,16,16,17,17,18,18,19,19,20,20,21,21,22,22,23,23,24,24,25,25,26,26,27,27,28,28,29,29,30,30],"right_children":[2,4,6,8,10,12,14,16,18,20,22,24,26,28,30,32,34,36,38,40,42,44,46,48,50,52,54,56,58,60,62,-1,-1,-1,-1,-1,-1,-1,-1,-1,-1,-1,-1,-1,-1,-1,-1,-1,-1,-1,-1,-1,-1,-1,-1,-1,-1,-1,-1,-1,-1,-1,-1],"split_conditions":[1.3448334E0,3.5309427E0,3.79E0,5E-4,-1.4250614E1,6.410333E0,1.7910448E1,-3.7060406E-2,-2.1346142E1,3.0277185E1,2.45E0,3.5309427E0,6.5455E0,-5.263158E-1,4.71972E2,1.0548333E0,-6.2291536E0,2.599E-1,-1.46682E-1,9.2E-3,1.1114832E2,2.266342E0,2.55E0,1.1404257E2,2.651459E0,3.902E0,-3.9235198E-1,-1.2921217E1,2.21E-2,-2E0,1.9540396E2,1.066262E1,1.5666634E-4,1.8086405E0,2.7948884E-2,7.9663336E-1,-1.0846648E-1,3.7230785E0,4.32582E-2,1.054615E1,-1.2974478E0,1.1637743E2,-4.6345744E-1,4.568704E0,-1.092569E-1,6.751128E1,-4.0607658E-1,1.4745128E-2,6.7783564E-2,5.0695074E-1,1.4488721E-2,5.408574E-2,1.875494E1,4.530035E-2,1.2110928E0,3.5938513E-2,-1.3386944E-4,-2.1919494E-2,-5.856361E-3,-5.106904E-1,-6.776068E-2,-8.146681E-2,-1.2924534E0],"split_indices":[3,14,16,17,7,3,7,12,15,10,16,14,3,7,3,3,15,17,13,17,5,10,16,5,15,0,12,15,17,8,5,0,0,0,0,0,0,0,0,0,0,0,0,0,0,0,0,0,0,0,0,0,0,0,0,0,0,0,0,0,0,0,0],"split_type":[0,0,0,0,0,0,0,0,0,0,0,0,0,0,0,0,0,0,0,0,0,0,0,0,0,0,0,0,0,0,0,0,0,0,0,0,0,0,0,0,0,0,0,0,0,0,0,0,0,0,0,0,0,0,0,0,0,0,0,0,0,0,0],"sum_hessian":[8.22663E5,6.415E3,8.16248E5,6.287E3,1.28E2,6.4308E4,7.5194E5,1.06E2,6.181E3,1.2E1,1.16E2,6.3685E4,6.23E2,7.49398E5,2.542E3,2E0,1.04E2,1.85E2,5.996E3,1E1,2E0,1.04E2,1.2E1,6.3124E4,5.61E2,4.4E1,5.79E2,2.85547E5,4.63851E5,2.469E3,7.3E1,1E0,1E0,2.8E1,7.6E1,1.03E2,8.2E1,2E0,5.994E3,1E0,9E0,1E0,1E0,4E1,6.4E1,1E0,1.1E1,5.6266E4,6.858E3,3E2,2.61E2,3.7E1,7E0,5.56E2,2.3E1,2.2087E4,2.6346E5,5.2398E4,4.11453E5,1.98E2,2.271E3,2.8E1,4.5E1],"tree_param":{"num_deleted":"0","num_feature":"18","num_nodes":"63","size_leaf_vector":"1"}},{"base_weights":[-3.1158016E-3,6.098797E-1,-2.2817088E-2,4.849992E-1,1.0385395E1,-1.7761923E-2,-7.2423464E-1,2.4858994E0,4.0799317E-1,6.8364053E0,7.0141266E1,8.8758595E-2,-4.7113027E-2,7.336966E-1,-1.1881382E0,1.5809413E1,2.1482747E0,2.9932886E-1,1.0854257E0,1.7586508E1,5.3950787E-1,4.1833975E2,4.7021663E-1,8.0159195E-2,4.0903576E1,1.1599085E1,-4.7375824E-2,4.4123456E-1,4.066913E1,-9.3551236E-1,-5.9907165E0,3.2483525E0,4.7509852E-1,2.6955488E-1,-3.5198995E-1,8.012427E-4,5.7023235E-2,5.5396515E-1,9.90527E-2,1.0493371E0,9.838572E0,2.789813E-1,-3.2286668E-1,-1.3847469E0,6.413571E1,7.062604E-1,-2.1072595E0,6.9505493E-3,2.0721267E-1,6.880295E1,2.7562776E-1,3.4480563E-1,5.8781233E0,-1.1762287E-1,-4.501027E-3,1.5763781E0,2.7116114E-2,1.3837639E1,1.4437613E0,-3.308315E-1,-6.0828734E-2,-2.1767564E-1,-1.1306075E0],"categories":[],"categories_nodes":[],"categories_segments":[],"categories_sizes":[],"default_left":[0,0,0,0,0,0,0,0,0,0,0,0,0,0,0,0,0,0,0,0,0,0,0,0,0,0,0,0,0,0,0,0,0,0,0,0,0,0,0,0,0,0,0,0,0,0,0,0,0,0,0,0,0,0,0,0,0,0,0,0,0,0,0],"id":3,"left_children":[1,3,5,7,9,11,13,15,17,19,21,23,25,27,29,31,33,35,37,39,41,43,45,47,49,51,53,55,57,59,61,-1,-1,-1,-1,-1,-1,-1,-1,-1,-1,-1,-1,-1,-1,-1,-1,-1,-1,-1,-1,-1,-1,-1,-1,-1,-1,-1,-1,-1,-1,-1,-1],"loss_changes":[9.932976E3,3.1260121E4,2.8255251E3,3.8955508E3,6.802006E4,2.4735996E3,3.8573596E3,4.18099E3,1.792366E3,2.0704354E4,4.3647166E5,5.99832E4,1.8989156E3,1.6064861E4,5.242939E3,4.0866284E3,2.8478584E3,1.6563398E3,1.417323E3,6.373014E4,1.6540386E3,2.9803694E5,2.4211243E3,3.626137E3,8.868033E5,5.1814814E3,1.6562396E3,3.560676E3,2.3632273E4,3.189934E3,4.354263E3,0E0,0E0,0E0,0E0,0E0,0E0,0E0,0E0,0E0,0E0,0E0,0E0,0E0,0E0,0E0,0E0,0E0,0E0,0E0,0E0,0E0,0E0,0E0,0E0,0E0,0E0,0E0,0E0,0E0,0E0,0E0,0E0],"parents":[2147483647,0,0,1,1,2,2,3,3,4,4,5,5,6,6,7,7,8,8,9,9,10,10,11,11,12,12,13,13,14,14,15,15,16,16,17,17,18,18,19,19,20,20,21,21,22,22,23,23,24,24,25,25,26,26,27,27,28,28,29,29,30,30],"right_children":[2,4,6,8,10,12,14,16,18,20,22,24,26,28,30,32,34,36,38,40,42,44,46,48,50,52,54,56,58,60,62,-1,-1,-1,-1,-1,-1,-1,-1,-1,-1,-1,-1,-1,-1,-1,-1,-1,-1,-1,-1,-1,-1,-1,-1,-1,-1,-1,-1,-1,-1,-1,-1],"split_conditions":[2.226E0,3.5309427E0,1.3333333E1,-8.364382E0,9.8992805E1,9.3E0,4.795833E0,-4.952954E-1,1.1730841E2,1.51E0,9.052285E-5,1.7734317E2,2.827E0,1.605E1,3.317858E2,-3.1580385E-2,5.784964E-2,8.7319595E-1,-8.709438E-1,5.2512534E-2,1.7703987E-3,1.298E0,1.1063166E-1,3.5309427E0,1.8225816E2,1.1808E1,-7.377451E1,-2.3513514E1,1.65E1,-2.7777777E0,1.6483457E0,3.2483525E0,4.7509852E-1,2.6955488E-1,-3.5198995E-1,8.012427E-4,5.7023235E-2,5.5396515E-1,9.90527E-2,1.0493371E0,9.838572E0,2.789813E-1,-3.2286668E-1,-1.3847469E0,6.413571E1,7.062604E-1,-2.1072595E0,6.9505493E-3,2.0721267E-1,6.880295E1,2.7562776E-1,3.4480563E-1,5.8781233E0,-1.1762287E-1,-4.501027E-3,1.5763781E0,2.7116114E-2,1.3837639E1,1.4437613E0,-3.308315E-1,-6.0828734E-2,-2.1767564E-1,-1.1306075E0],"split_indices":[0,14,7,7,6,16,3,12,5,16,12,3,3,16,5,13,13,14,12,11,11,0,13,14,3,0,10,8,16,8,13,0,0,0,0,0,0,0,0,0,0,0,0,0,0,0,0,0,0,0,0,0,0,0,0,0,0,0,0,0,0,0,0],"split_type":[0,0,0,0,0,0,0,0,0,0,0,0,0,0,0,0,0,0,0,0,0,0,0,0,0,0,0,0,0,0,0,0,0,0,0,0,0,0,0,0,0,0,0,0,0,0,0,0,0,0,0,0,0,0,0,0,0,0,0,0,0,0,0],"sum_hessian":[8.22482E5,2.561E4,7.96872E5,2.5288E4,3.22E2,7.91171E5,5.701E3,9.36E2,2.4352E4,3.05E2,1.7E1,1.70909E5,6.20262E5,1.376E3,4.325E3,2.2E1,9.14E2,2.0987E4,3.365E3,1.12E2,1.93E2,2E0,1.5E1,1.70874E5,3.5E1,1.3E1,6.20249E5,1.367E3,9E0,4.11E3,2.15E2,8E0,1.4E1,8.34E2,8E1,1.0113E4,1.0874E4,6.9E1,3.296E3,1.04E2,8E0,1.21E2,7.2E1,1E0,1E0,1.2E1,3E0,1.69966E5,9.08E2,1E0,3.4E1,1.2E1,1E0,1.296E3,6.18953E5,1.4E1,1.353E3,1E0,8E0,4.97E2,3.613E3,1.26E2,8.9E1],"tree_param":{"num_deleted":"0","num_feature":"18","num_nodes":"63","size_leaf_vector":"1"}},{"base_weights":[3.7242393E-3,1.7343218E0,-9.827514E-3,1.1315657E0,1.8411804E1,3.3342886E-1,-2.505559E-2,1.848582E1,7.522388E-1,2.4457751E2,8.8587675E0,6.479782E-1,-1.2515626E-2,2.0014063E-1,-3.8265966E-2,1.20975914E2,2.2831469E0,8.708299E0,6.68295E-1,5.262912E0,7.214524E2,-1.6716696E0,3.1647676E1,1.238916E0,4.0316388E-1,3.1977817E-1,-2.0163475E-1,2.0657353E-1,-1.5290337E1,4.014491E0,-3.837472E-2,-1.8079571E-1,7.35498E1,2.657068E0,-2.201126E-1,2.535798E0,2.9769817E-1,3.7610713E-2,2.1958022E-1,-4.989872E-1,2.059658E0,-6.993366E-2,1.08287796E2,-1.0494114E0,-3.693764E-2,1.3332973E1,-2.2031386E-1,1.1613218E-1,2.0705893E1,5.789442E-2,-4.093236E-2,4.7745386E-1,2.2406934E-2,-1.5043546E-2,-1.7886665E-1,2.0112684E-2,1.1986694E0,-2.064388E0,-3.9285013E-1,-3.0780106E-3,-5.9815694E-2],"categories":[],"categories_nodes":[],"categories_segments":[],"categories_sizes":[],"default_left":[0,0,0,0,0,0,0,0,0,0,0,0,0,0,0,0,0,0,0,0,0,0,0,0,0,0,0,0,0,0,0,0,0,0,0,0,0,0,0,0,0,0,0,0,0,0,0,0,0,0,0,0,0,0,0,0,0,0,0,0,0],"id":4,"left_children":[1,3,5,7,9,11,13,15,17,19,21,23,25,27,29,31,33,35,37,39,41,43,45,47,49,51,53,55,57,-1,59,-1,-1,-1,-1,-1,-1,-1,-1,-1,-1,-1,-1,-1,-1,-1,-1,-1,-1,-1,-1,-1,-1,-1,-1,-1,-1,-1,-1,-1,-1],"loss_changes":[1.9302799E4,6.42646E4,4.2687993E3,4.0622555E4,4.7964028E5,3.7749653E3,2.3263115E3,2.1892478E5,4.0294023E3,1.0233111E6,5.1648E4,2.6281543E3,1.0383584E3,4.32094E3,3.2293826E3,1.3594906E6,1.2583356E4,5.9362607E3,2.6681626E3,1.2032638E3,7.837696E5,1.6965563E3,2.3435112E5,8.475425E4,1.8353223E3,2.5541055E3,8.5534485E2,2.7766665E3,1.01377E3,0E0,3.140183E3,0E0,0E0,0E0,0E0,0E0,0E0,0E0,0E0,0E0,0E0,0E0,0E0,0E0,0E0,0E0,0E0,0E0,0E0,0E0,0E0,0E0,0E0,0E0,0E0,0E0,0E0,0E0,0E0,0E0,0E0],"parents":[2147483647,0,0,1,1,2,2,3,3,4,4,5,5,6,6,7,7,8,8,9,9,10,10,11,11,12,12,13,13,14,14,15,15,16,16,17,17,18,18,19,19,20,20,21,21,22,22,23,23,24,24,25,25,26,26,27,27,28,28,30,30],"right_children":[2,4,6,8,10,12,14,16,18,20,22,24,26,28,30,32,34,36,38,40,42,44,46,48,50,52,54,56,58,-1,60,-1,-1,-1,-1,-1,-1,-1,-1,-1,-1,-1,-1,-1,-1,-1,-1,-1,-1,-1,-1,-1,-1,-1,-1,-1,-1,-1,-1,-1,-1],"split_conditions":[1.3448334E0,1.7910448E1,-1.4021416E1,-1.4250614E1,-7.377451E1,-2.345742E0,3.22E0,1.1114832E2,-2.9193811E1,1.947E-1,1.09244E1,6.9661665E0,6.396E0,4.33E0,2.345E0,2.511628E1,9.2E-3,-3.3876892E1,2.0586E0,1.027E-1,2.8613155E1,8.4E-3,2.21516E1,1.2394E1,-8.3199136E-2,-4.8468307E-1,1.6483457E0,4.50195E-1,9.052285E-5,4.014491E0,9.650582E0,-1.8079571E-1,7.35498E1,2.657068E0,-2.201126E-1,2.535798E0,2.9769817E-1,3.7610713E-2,2.1958022E-1,-4.989872E-1,2.059658E0,-6.993366E-2,1.08287796E2,-1.0494114E0,-3.693764E-2,1.3332973E1,-2.2031386E-1,1.1613218E-1,2.0705893E1,5.789442E-2,-4.093236E-2,4.7745386E-1,2.2406934E-2,-1.5043546E-2,-1.7886665E-1,2.0112684E-2,1.1986694E0,-2.064388E0,-3.9285013E-1,-3.0780106E-3,-5.9815694E-2],"split_indices":[3,7,15,7,10,7,0,5,8,17,17,3,0,16,1,10,17,15,17,17,4,17,17,0,13,13,13,11,12,0,7,0,0,0,0,0,0,0,0,0,0,0,0,0,0,0,0,0,0,0,0,0,0,0,0,0,0,0,0,0,0],"split_type":[0,0,0,0,0,0,0,0,0,0,0,0,0,0,0,0,0,0,0,0,0,0,0,0,0,0,0,0,0,0,0,0,0,0,0,0,0,0,0,0,0,0,0,0,0,0,0,0,0,0,0,0,0,0,0,0,0,0,0,0,0],"sum_hessian":[8.23053E5,6.394E3,8.16659E5,6.172E3,2.22E2,3.469E4,7.81969E5,1.31E2,6.041E3,8E0,2.14E2,1.8169E4,1.6521E4,4.3329E4,7.3864E5,1.7E1,1.14E2,6.2E1,5.979E3,6E0,2E0,1.47E2,6.7E1,5.321E3,1.2848E4,5.992E3,1.0529E4,4.3312E4,1.7E1,1E0,7.38639E5,1.5E1,2E0,1.7E1,9.7E1,1.5E1,4.7E1,5.02E3,9.59E2,4E0,2E0,1E0,1E0,1.8E1,1.29E2,1.6E1,5.1E1,5.32E3,1E0,1.0563E4,2.285E3,1.25E2,5.867E3,1.0201E4,3.28E2,4.3293E4,1.9E1,1.1E1,6E0,7.28753E5,9.886E3],"tree_param":{"num_deleted":"0","num_feature":"18","num_nodes":"61","size_leaf_vector":"1"}},{"base_weights":[2.5666058E-3,1.665276E0,-1.0585847E-2,8.987388E-1,3.9523994E1,2.6714778E-1,-2.7775098E-2,2.1894905E1,6.091781E-1,1.7797026E2,2.4986567E1,6.054629E-1,4.345129E-2,1.6114333E0,-3.021832E-2,-2.0530138E0,1.02873405E2,1.6536577E1,5.5272716E-1,-8.4449336E-2,1.06828606E2,4.3766146E0,5.3498814E1,1.1018026E0,2.3005357E-1,3.9078057E-2,9.661898E0,4.9083027E1,8.082584E-1,-2.7262878E-2,-8.141923E-1,8.5953325E-2,-8.194915E0,3.7689748E0,6.2485296E-1,2.0894222E0,5.297164E-2,-1.975994E0,9.833522E0,4.5921364E0,1.1135322E-1,1.3743327E1,-9.1260976E-1,1.05368614E-1,4.99226E0,4.5282703E-2,-4.9109403E-2,5.3530573E-3,-2.0135911E-1,3.7545552E0,4.2094636E-1,2.606419E-1,2.9608946E1,-1.7217143E-2,6.5543884E-1,9.360316E-3,-4.2771352E-3,-3.0455599E-2,-4.8337165E-1],"categories":[],"categories_nodes":[],"categories_segments":[],"categories_sizes":[],"default_left":[0,0,0,0,0,0,0,0,0,0,0,0,0,0,0,0,0,0,0,0,0,0,0,0,0,0,0,0,0,0,0,0,0,0,0,0,0,0,0,0,0,0,0,0,0,0,0,0,0,0,0,0,0,0,0,0,0,0,0],"id":5,"left_children":[1,3,5,7,9,11,13,15,17,19,21,23,25,27,29,31,-1,33,35,37,-1,39,41,43,45,47,49,51,53,55,57,-1,-1,-1,-1,-1,-1,-1,-1,-1,-1,-1,-1,-1,-1,-1,-1,-1,-1,-1,-1,-1,-1,-1,-1,-1,-1,-1,-1],"loss_changes":[1.7975527E4,1.8717327E5,3.8933457E3,3.8434457E4,2.5317269E5,3.5971907E3,3.0758223E3,2.0757182E6,5.600449E3,1.902389E6,6.8519266E4,3.5249336E3,1.2032336E3,4.354062E4,1.7767637E3,1.9850043E4,0E0,4.5522397E3,2.8994187E3,2.3244104E4,0E0,9.302776E3,2.5881725E5,1.9085395E4,1.7309321E3,8.486211E2,1.8183926E3,2.1734869E5,6.339015E3,1.4320295E3,5.8981943E3,0E0,0E0,0E0,0E0,0E0,0E0,0E0,0E0,0E0,0E0,0E0,0E0,0E0,0E0,0E0,0E0,0E0,0E0,0E0,0E0,0E0,0E0,0E0,0E0,0E0,0E0,0E0,0E0],"parents":[2147483647,0,0,1,1,2,2,3,3,4,4,5,5,6,6,7,7,8,8,9,9,10,10,11,11,12,12,13,13,14,14,15,15,17,17,18,18,19,19,21,21,22,22,23,23,24,24,25,25,26,26,27,27,28,28,29,29,30,30],"right_children":[2,4,6,8,10,12,14,16,18,20,22,24,26,28,30,32,-1,34,36,38,-1,40,42,44,46,48,50,52,54,56,58,-1,-1,-1,-1,-1,-1,-1,-1,-1,-1,-1,-1,-1,-1,-1,-1,-1,-1,-1,-1,-1,-1,-1,-1,-1,-1,-1,-1],"split_conditions":[1.3448334E0,3.5309427E0,-1.1998724E1,-7.377451E1,-1.4250614E1,-3.4749036E0,-7.377451E1,4.3810368E1,-3.3876892E1,1.8309858E1,1.00751E1,1.0674167E1,1.2457362E1,-1.4250614E1,4.3810368E1,3.1531532E0,1.02873405E2,2.1663642E-1,-1.46682E-1,3.317858E2,1.06828606E2,3.437967E0,2.21516E1,1.5569776E0,1.5903684E0,1.7910448E1,-3.0398986E0,7.339E1,1.9540396E2,5.069E0,3E0,8.5953325E-2,-8.194915E0,3.7689748E0,6.2485296E-1,2.0894222E0,5.297164E-2,-1.975994E0,9.833522E0,4.5921364E0,1.1135322E-1,1.3743327E1,-9.1260976E-1,1.05368614E-1,4.99226E0,4.5282703E-2,-4.9109403E-2,5.3530573E-3,-2.0135911E-1,3.7545552E0,4.2094636E-1,2.606419E-1,2.9608946E1,-1.7217143E-2,6.5543884E-1,9.360316E-3,-4.2771352E-3,-3.0455599E-2,-4.8337165E-1],"split_indices":[3,14,15,10,7,7,10,15,15,6,17,3,11,7,15,6,0,14,13,5,0,6,17,11,14,7,7,0,5,1,14,0,0,0,0,0,0,0,0,0,0,0,0,0,0,0,0,0,0,0,0,0,0,0,0,0,0,0,0],"split_type":[0,0,0,0,0,0,0,0,0,0,0,0,0,0,0,0,0,0,0,0,0,0,0,0,0,0,0,0,0,0,0,0,0,0,0,0,0,0,0,0,0,0,0,0,0,0,0,0,0,0,0,0,0,0,0,0,0,0,0],"sum_hessian":[8.21973E5,6.45E3,8.15523E5,6.323E3,1.27E2,4.7531E4,7.67992E5,8.5E1,6.238E3,1.1E1,1.16E2,1.8918E4,2.8613E4,1.142E3,7.6685E5,8.4E1,1E0,2.1E1,6.217E3,1E1,1E0,6.8E1,4.8E1,8.146E3,1.0772E4,2.8601E4,1.2E1,1.8E1,1.124E3,7.63971E5,2.879E3,8.2E1,2E0,6E0,1.5E1,6E0,6.211E3,9E0,1E0,4E0,6.4E1,2E1,2.8E1,8.139E3,7E0,8.23E3,2.542E3,2.8402E4,1.99E2,1E0,1.1E1,1.6E1,2E0,9.61E2,1.63E2,8.6878E4,6.77093E5,2.556E3,3.23E2],"tree_param":{"num_deleted":"0","num_feature":"18","num_nodes":"59","size_leaf_vector":"1"}},{"base_weights":[1.2291077E-3,1.4702762E0,-4.5522284E-3,2.575157E1,9.3894565E-1,2.4306834E-1,-1.987242E-2,-2.5785975E0,6.4987476E2,6.7181885E-1,1.4042935E1,6.2000316E-1,1.2220345E-1,2.9550728E-1,-2.7750475E-2,1.3242692E0,-4.2478455E1,9.772974E1,-2.4851863E-1,2.0549068E1,5.81279E-1,6.3302185E1,-5.5377054E0,3.2793891E0,4.570374E-1,1.5052138E-1,-1.2253846E0,2.1442726E-1,4.204616E0,-2.1768468E-2,-4.4863498E-1,4.4278646E-1,-2.3693676E0,-6.290619E-1,-7.656942E0,9.885194E-1,5.6354876E0,2.2856236E-1,3.2101206E-2,1.6173365E0,1.8260244E1,-7.1167004E-1,3.2758534E0,1.0376759E-1,3.8504388E0,3.9760716E-2,6.756823E-1,1.4607409E-2,3.1604688E0,-2.0086387E-1,-6.0713006E-4,4.300512E-3,5.9621543E-2,7.7310693E-1,-2.5328413E-1,2.6555512E0,-2.1840062E-3,-1.899258E-1,-2.4397722E-2],"categories":[],"categories_nodes":[],"categories_segments":[],"categories_sizes":[],"default_left":[0,0,0,0,0,0,0,0,0,0,0,0,0,0,0,0,0,0,0,0,0,0,0,0,0,0,0,0,0,0,0,0,0,0,0,0,0,0,0,0,0,0,0,0,0,0,0,0,0,0,0,0,0,0,0,0,0,0,0],"id":6,"left_children":[1,3,5,7,9,11,13,15,17,19,21,23,25,27,29,31,33,-1,-1,35,37,39,41,43,45,47,49,51,53,55,57,-1,-1,-1,-1,-1,-1,-1,-1,-1,-1,-1,-1,-1,-1,-1,-1,-1,-1,-1,-1,-1,-1,-1,-1,-1,-1,-1,-1],"loss_changes":[6.985094E3,4.156992E4,3.1078083E3,1.2217002E6,1.1037911E4,2.1745078E3,1.9168435E3,1.0489749E4,6.43221E5,5.5562754E3,6.111579E4,5.0210444E3,1.3794725E3,5.958404E3,1.8950687E3,4.918939E3,6.9203994E3,0E0,0E0,4.788521E3,1.3659503E3,9.8251375E4,3.0147327E3,5.278719E4,4.086111E3,4.947501E3,7.1053174E2,1.2055724E3,9.095645E3,1.4127069E3,3.1310403E3,0E0,0E0,0E0,0E0,0E0,0E0,0E0,0E0,0E0,0E0,0E0,0E0,0E0,0E0,0E0,0E0,0E0,0E0,0E0,0E0,0E0,0E0,0E0,0E0,0E0,0E0,0E0,0E0],"parents":[2147483647,0,0,1,1,2,2,3,3,4,4,5,5,6,6,7,7,8,8,9,9,10,10,11,11,12,12,13,13,14,14,15,15,16,16,19,19,20,20,21,21,22,22,23,23,24,24,25,25,26,26,27,27,28,28,29,29,30,30],"right_children":[2,4,6,8,10,12,14,16,18,20,22,24,26,28,30,32,34,-1,-1,36,38,40,42,44,46,48,50,52,54,56,58,-1,-1,-1,-1,-1,-1,-1,-1,-1,-1,-1,-1,-1,-1,-1,-1,-1,-1,-1,-1,-1,-1,-1,-1,-1,-1,-1,-1],"split_conditions":[1.0548333E0,-7.377451E1,-2.0087257E1,4.3810368E1,3.5309427E0,4.344E0,2.226E0,2.3153942E0,1.5503876E-1,-3.3876892E1,-6.966292E0,-8.709438E-1,1.0804215E3,3E0,9.650582E0,1.7391304E0,1.3606059E-2,9.772974E1,-2.4851863E-1,1.6666666E1,-5.9694366E0,7.986103E-1,1.518E0,-7.773011E-1,3.5309427E0,1.0416495E3,-5.746575E1,1.1238236E0,1.734743E1,1.703E0,-7.239923E-1,4.4278646E-1,-2.3693676E0,-6.290619E-1,-7.656942E0,9.885194E-1,5.6354876E0,2.2856236E-1,3.2101206E-2,1.6173365E0,1.8260244E1,-7.1167004E-1,3.2758534E0,1.0376759E-1,3.8504388E0,3.9760716E-2,6.756823E-1,1.4607409E-2,3.1604688E0,-2.0086387E-1,-6.0713006E-4,4.300512E-3,5.9621543E-2,7.7310693E-1,-2.5328413E-1,2.6555512E0,-2.1840062E-3,-1.899258E-1,-2.4397722E-2],"split_indices":[3,10,9,15,14,0,0,6,6,15,9,12,3,14,7,14,7,0,0,6,7,15,0,11,14,2,10,14,8,1,11,0,0,0,0,0,0,0,0,0,0,0,0,0,0,0,0,0,0,0,0,0,0,0,0,0,0,0,0],"split_type":[0,0,0,0,0,0,0,0,0,0,0,0,0,0,0,0,0,0,0,0,0,0,0,0,0,0,0,0,0,0,0,0,0,0,0,0,0,0,0,0,0,0,0,0,0,0,0,0,0,0,0,0,0,0,0,0,0,0,0],"sum_hessian":[8.22446E5,3.223E3,8.19223E5,6.8E1,3.155E3,4.7731E4,7.71492E5,6.6E1,2E0,3.093E3,6.2E1,1.1588E4,3.6143E4,1.8801E4,7.52691E5,6.1E1,5E0,1E0,1E0,1.3E1,3.08E3,1.7E1,4.5E1,6.68E2,1.092E4,3.54E4,7.43E2,1.842E4,3.81E2,7.42144E5,1.0547E4,5.5E1,6E0,3E0,2E0,1.1E1,2E0,4.07E2,2.673E3,1.3E1,4E0,4.4E1,1E0,6.29E2,3.9E1,1.0819E4,1.01E2,3.5396E4,4E0,4.52E2,2.91E2,1.2713E4,5.707E3,2.5E2,1.31E2,1E0,7.42143E5,1.303E3,9.244E3],"tree_param":{"num_deleted":"0","num_feature":"18","num_nodes":"59","size_leaf_vector":"1"}},{"base_weights":[-2.7611523E-3,2.0123684E0,-1.0673327E-2,1.2729068E0,3.2131306E1,2.95335E-1,-2.307781E-2,1.29452095E1,5.626745E-1,1.2004666E2,-5.2175045E0,2.5293005E-1,4.5333664E1,-2.0076538E-2,-8.4817773E-1,2.6959312E0,6.1675397E2,-5.2415504E0,5.982925E-1,7.571371E0,8.673582E1,-1.8654654E1,-1.7421773E-1,2.2921734E-1,2.7391672E0,6.0074687E0,3.9726694E2,2.1165985E-1,-2.7395077E-2,-2.378662E0,-1.3901068E-1,6.4762704E-2,1.0225272E0,9.2843254E1,-3.301519E-1,7.701848E-1,4.03298E-2,5.103428E0,-1.3216078E0,-2.33855E0,-1.2902368E0,9.26098E0,-4.809063E-1,2.1611355E-2,3.907815E-1,8.599786E-1,7.907727E-2,-1.9924207E-1,1.3073535E0,5.9587776E1,2.263975E-3,1.677569E-2,1.6631488E0,-1.6470797E-2,-1.6983539E-3,-7.901609E-2,-5.3851175E-1,1.9860032E-1,-5.5585027E-2],"categories":[],"categories_nodes":[],"categories_segments":[],"categories_sizes":[],"default_left":[0,0,0,0,0,0,0,0,0,0,0,0,0,0,0,0,0,0,0,0,0,0,0,0,0,0,0,0,0,0,0,0,0,0,0,0,0,0,0,0,0,0,0,0,0,0,0,0,0,0,0,0,0,0,0,0,0,0,0],"id":7,"left_children":[1,3,5,7,9,11,13,15,17,19,21,23,25,27,29,31,33,-1,35,37,-1,39,41,43,45,47,49,51,53,55,57,-1,-1,-1,-1,-1,-1,-1,-1,-1,-1,-1,-1,-1,-1,-1,-1,-1,-1,-1,-1,-1,-1,-1,-1,-1,-1,-1,-1],"loss_changes":[1.3106563E4,7.156295E4,3.1081414E3,2.6015168E4,2.5345844E5,6.091075E4,1.9486746E3,1.112286E6,5.616812E3,1.9266766E6,3.723957E3,1.8782816E3,4.128193E5,1.3297666E3,3.0951426E3,2.738561E3,5.828391E5,0E0,4.095566E3,1.9647613E4,0E0,1.0646924E2,1.8076988E4,1.520942E3,3.4302568E3,1.6088248E3,2.3667753E5,1.7301188E4,1.0866182E3,4.308254E3,1.7283943E3,0E0,0E0,0E0,0E0,0E0,0E0,0E0,0E0,0E0,0E0,0E0,0E0,0E0,0E0,0E0,0E0,0E0,0E0,0E0,0E0,0E0,0E0,0E0,0E0,0E0,0E0,0E0,0E0],"parents":[2147483647,0,0,1,1,2,2,3,3,4,4,5,5,6,6,7,7,8,8,9,9,10,10,11,11,12,12,13,13,14,14,15,15,16,16,18,18,19,19,21,21,22,22,23,23,24,24,25,25,26,26,27,27,28,28,29,29,30,30],"right_children":[2,4,6,8,10,12,14,16,18,20,22,24,26,28,30,32,34,-1,36,38,-1,40,42,44,46,48,50,52,54,56,58,-1,-1,-1,-1,-1,-1,-1,-1,-1,-1,-1,-1,-1,-1,-1,-1,-1,-1,-1,-1,-1,-1,-1,-1,-1,-1,-1,-1],"split_conditions":[1.0548333E0,3.5309427E0,2.55E0,1.5503876E-1,1.1114832E2,8.3301765E1,1.7910448E1,4.8370224E1,-1.8669192E-1,9.798285E1,4.788456E1,3.5309427E0,3E0,2.8613155E1,-2.8320733E-1,1.4163458E2,4.8853653E1,-5.2415504E0,-1.4250614E1,-2.2740783E-2,8.673582E1,-4.357166E-2,4.8007317E1,2.884E0,3.1531532E0,7.915058E0,1.302E0,1.3636364E1,4.955762E-1,1.7446593E2,2.1259842E1,6.4762704E-2,1.0225272E0,9.2843254E1,-3.301519E-1,7.701848E-1,4.03298E-2,5.103428E0,-1.3216078E0,-2.33855E0,-1.2902368E0,9.26098E0,-4.809063E-1,2.1611355E-2,3.907815E-1,8.599786E-1,7.907727E-2,-1.9924207E-1,1.3073535E0,5.9587776E1,2.263975E-3,1.677569E-2,1.6631488E0,-1.6470797E-2,-1.6983539E-3,-7.901609E-2,-5.3851175E-1,1.9860032E-1,-5.5585027E-2],"split_indices":[3,14,16,6,5,4,7,4,11,5,4,14,14,4,12,5,4,0,7,12,0,11,4,0,6,7,1,8,14,5,6,0,0,0,0,0,0,0,0,0,0,0,0,0,0,0,0,0,0,0,0,0,0,0,0,0,0,0,0],"split_type":[0,0,0,0,0,0,0,0,0,0,0,0,0,0,0,0,0,0,0,0,0,0,0,0,0,0,0,0,0,0,0,0,0,0,0,0,0,0,0,0,0,0,0,0,0,0,0,0,0,0,0,0,0,0,0,0,0,0,0],"sum_hessian":[8.22032E5,3.214E3,8.18818E5,3.138E3,7.6E1,3.1898E4,7.8692E5,1.79E2,2.959E3,2.2E1,5.4E1,3.1869E4,2.9E1,7.84069E5,2.851E3,1.77E2,2E0,1E0,2.958E3,2E1,2E0,1.4E1,4E1,3.1569E4,3E2,2.7E1,2E0,2.4003E4,7.60066E5,9.02E2,1.949E3,1.4E2,3.7E1,1E0,1E0,7.8E1,2.88E3,6E0,1.4E1,6E0,8E0,1E0,3.9E1,3.1458E4,1.11E2,7.4E1,2.26E2,1.3E1,1.4E1,1E0,1E0,2.394E4,6.3E1,5.3568E4,7.06498E5,5.91E2,3.11E2,3.19E2,1.63E3],"tree_param":{"num_deleted":"0","num_feature":"18","num_nodes":"59","size_leaf_vector":"1"}},{"base_weights":[1.2339217E-3,1.4068569E0,-9.854968E-3,7.078472E-1,3.9478706E1,7.942328E-2,-3.7421994E-2,4.0979737E-1,8.854932E0,1.57608795E1,1.4602312E2,7.220477E-2,2.2477076E1,-3.1474307E-2,-8.4653205E-1,6.029505E0,3.463668E-1,8.820109E1,9.4877535E-1,2.8707066E1,-1.1028588E1,6.5087714E2,5.8623894E1,7.017318E-2,9.6013155E0,1.1157076E0,1.6652684E2,-1.6971879E-1,-2.3027575E-2,-6.3701874E-1,-4.025735E0,4.5028176E0,3.5368252E-1,2.5280508E-1,2.5551338E-2,3.2720113E0,6.593299E-3,1.6371853E0,4.090803E1,-3.2170868E0,-2.6407096E-1,9.718597E1,4.4560584E-1,-6.2930197E-1,2.4164984E1,6.186055E-3,1.1436134E-1,1.5579094E1,2.0518017E-1,3.6817758E0,-9.262143E-2,3.8960204E-1,6.524713E1,-1.5548335E-2,-1.4757854E-1,-4.4226196E-2,-2.04893E-3,9.4044846E-1,-7.031648E-2,-5.59314E-1,3.8969436E-1],"categories":[],"categories_nodes":[],"categories_segments":[],"categories_sizes":[],"default_left":[0,0,0,0,0,0,0,0,0,0,0,0,0,0,0,0,0,0,0,0,0,0,0,0,0,0,0,0,0,0,0,0,0,0,0,0,0,0,0,0,0,0,0,0,0,0,0,0,0,0,0,0,0,0,0,0,0,0,0,0,0],"id":8,"left_children":[1,3,5,7,9,11,13,15,17,19,21,23,25,27,29,31,33,-1,35,37,39,41,43,45,47,49,51,53,55,57,59,-1,-1,-1,-1,-1,-1,-1,-1,-1,-1,-1,-1,-1,-1,-1,-1,-1,-1,-1,-1,-1,-1,-1,-1,-1,-1,-1,-1,-1,-1],"loss_changes":[1.2814419E4,1.7122406E5,2.0075466E3,1.534283E4,2.9083075E5,3.1112615E4,2.9992744E3,2.171613E3,1.5386009E6,3.3611453E4,8.884439E5,3.7237507E3,1.9059442E5,7.224677E2,3.0267903E3,6.4511045E3,1.1947794E3,0E0,6.224739E3,2.982816E5,5.5898896E3,6.181389E5,2.2726883E5,1.7162446E3,4.493043E4,4.0436448E3,6.296944E5,6.6214404E2,6.204665E2,2.8414402E3,3.511267E3,0E0,0E0,0E0,0E0,0E0,0E0,0E0,0E0,0E0,0E0,0E0,0E0,0E0,0E0,0E0,0E0,0E0,0E0,0E0,0E0,0E0,0E0,0E0,0E0,0E0,0E0,0E0,0E0,0E0,0E0],"parents":[2147483647,0,0,1,1,2,2,3,3,4,4,5,5,6,6,7,7,8,8,9,9,10,10,11,11,12,12,13,13,14,14,15,15,16,16,18,18,19,19,20,20,21,21,22,22,23,23,24,24,25,25,26,26,27,27,28,28,29,29,30,30],"right_children":[2,4,6,8,10,12,14,16,18,20,22,24,26,28,30,32,34,-1,36,38,40,42,44,46,48,50,52,54,56,58,60,-1,-1,-1,-1,-1,-1,-1,-1,-1,-1,-1,-1,-1,-1,-1,-1,-1,-1,-1,-1,-1,-1,-1,-1,-1,-1,-1,-1,-1,-1],"split_conditions":[1.3135E0,3.5309427E0,9.3E0,4.3810368E1,5.510204E1,4.5619326E0,1.9540396E2,2.19E-4,1.5503876E-1,1.1800518E1,5.737705E1,2.0237E1,8.99E0,5.0536036E-1,3E0,-3.3876892E1,-2.1346142E1,8.820109E1,2.19E-4,4.448206E-2,1.88349E1,4.702596E1,2.45E0,3.5309427E0,2.0509E1,5.05E0,2.6378273E1,6.63566E2,-5.3030304E1,4.969E0,2.21516E1,4.5028176E0,3.5368252E-1,2.5280508E-1,2.5551338E-2,3.2720113E0,6.593299E-3,1.6371853E0,4.090803E1,-3.2170868E0,-2.6407096E-1,9.718597E1,4.4560584E-1,-6.2930197E-1,2.4164984E1,6.186055E-3,1.1436134E-1,1.5579094E1,2.0518017E-1,3.6817758E0,-9.262143E-2,3.8960204E-1,6.524713E1,-1.5548335E-2,-1.4757854E-1,-4.4226196E-2,-2.04893E-3,9.4044846E-1,-7.031648E-2,-5.59314E-1,3.8969436E-1],"split_indices":[2,14,16,15,6,13,5,17,6,10,6,1,0,14,14,15,15,0,17,11,10,4,16,14,1,16,4,1,10,2,17,0,0,0,0,0,0,0,0,0,0,0,0,0,0,0,0,0,0,0,0,0,0,0,0,0,0,0,0,0,0],"split_type":[0,0,0,0,0,0,0,0,0,0,0,0,0,0,0,0,0,0,0,0,0,0,0,0,0,0,0,0,0,0,0,0,0,0,0,0,0,0,0,0,0,0,0,0,0,0,0,0,0,0,0,0,0,0,0,0,0,0,0,0,0],"sum_hessian":[8.22131E5,6.434E3,8.15697E5,6.319E3,1.15E2,1.92445E5,6.23252E5,6.097E3,2.22E2,9.5E1,2E1,1.92384E5,6.1E1,6.18705E5,4.547E3,6.7E1,6.03E3,1E0,2.21E2,6.4E1,3.1E1,2E0,1.8E1,1.92344E5,4E1,5.4E1,7E0,3.5625E4,5.8308E5,4.267E3,2.8E2,3E0,6.4E1,2.4E2,5.79E3,5E0,2.16E2,6.3E1,1E0,8E0,2.3E1,1E0,1E0,1.4E1,4E0,1.90867E5,1.477E3,1E0,3.9E1,2E0,5.2E1,6E0,1E0,3.5242E4,3.83E2,3.508E3,5.79572E5,2.7E1,4.24E3,2.34E2,4.6E1],"tree_param":{"num_deleted":"0","num_feature":"18","num_nodes":"61","size_leaf_vector":"1"}},{"base_weights":[-3.6976673E-4,3.2616872E-1,-1.3635741E-2,2.4355642E-1,5.2424636E0,-1.2600438E1,-1.3253797E-2,9.649601E-1,1.6405359E-1,2.4129776E2,2.0850737E0,-3.0102926E1,-1.9677612E0,6.2096603E-2,-4.740302E-2,3.79983E0,7.052955E-1,1.4201975E-1,2.712172E0,2.2106254E0,8.379103E1,2.580774E1,6.460314E-1,-6.5332465E-2,-3.3702462E0,2.799483E0,-7.084941E0,3.356661E-1,2.5559286E-2,-4.3162163E-2,-8.6078876E-1,3.2037818E-1,3.3915155E0,1.2725885E-1,8.5505005E-3,1.201369E-2,1.362639E-1,1.6491123E0,5.5454202E-2,1.125637E0,-5.12634E-1,-1.2871437E-1,2.7009073E1,4.9061675E0,2.5189623E-2,7.75167E-2,9.4970053E-1,-1.8992919E0,-2.670527E-1,2.9772947E-2,5.6484795E-1,1.9501682E-1,2.2165813E-3,-4.840933E-3,7.4498825E-2,-3.163276E-2,-2.5147507E-1],"categories":[],"categories_nodes":[],"categories_segments":[],"categories_sizes":[],"default_left":[0,0,0,0,0,0,0,0,0,0,0,0,0,0,0,0,0,0,0,0,0,0,0,0,0,0,0,0,0,0,0,0,0,0,0,0,0,0,0,0,0,0,0,0,0,0,0,0,0,0,0,0,0,0,0,0,0],"id":9,"left_children":[1,3,5,7,9,11,13,15,17,19,21,23,25,27,29,31,33,35,37,39,-1,41,43,-1,-1,45,47,49,51,53,55,-1,-1,-1,-1,-1,-1,-1,-1,-1,-1,-1,-1,-1,-1,-1,-1,-1,-1,-1,-1,-1,-1,-1,-1,-1,-1],"loss_changes":[3.565564E3,1.3049829E4,3.8023774E3,1.8124463E3,3.9526103E5,4.407124E3,2.0352341E3,2.3065134E3,1.5979456E3,9.966444E5,1.7905738E4,9.320249E2,4.1015167E2,2.4655803E3,1.8774221E3,4.612241E3,1.01074915E3,7.5374414E2,7.2449463E3,4.559139E2,0E0,1.9891222E5,9.452465E3,0E0,0E0,1.14659355E2,3.6981277E2,5.8559727E3,1.4211783E3,2.239257E3,2.541367E3,0E0,0E0,0E0,0E0,0E0,0E0,0E0,0E0,0E0,0E0,0E0,0E0,0E0,0E0,0E0,0E0,0E0,0E0,0E0,0E0,0E0,0E0,0E0,0E0,0E0,0E0],"parents":[2147483647,0,0,1,1,2,2,3,3,4,4,5,5,6,6,7,7,8,8,9,9,10,10,11,11,12,12,13,13,14,14,15,15,16,16,17,17,18,18,19,19,21,21,22,22,25,25,26,26,27,27,28,28,29,29,30,30],"right_children":[2,4,6,8,10,12,14,16,18,20,22,24,26,28,30,32,34,36,38,40,-1,42,44,-1,-1,46,48,50,52,54,56,-1,-1,-1,-1,-1,-1,-1,-1,-1,-1,-1,-1,-1,-1,-1,-1,-1,-1,-1,-1,-1,-1,-1,-1,-1,-1],"split_conditions":[2.45E0,3.28125E1,1.52E0,-5.673759E0,4.8853653E1,1.8336383E-1,-9.285714E-1,1.44E-2,3.5309427E0,4.8610157E1,6.0675858E1,8.049611E1,1.7910448E1,-1.1591592E1,1.7910448E1,3.5309427E0,-8.823529E0,3.646E0,-4.5801525E0,4.311111E1,8.379103E1,3.5309427E0,2.19E-4,-6.5332465E-2,-3.3702462E0,5.558025E-1,2.77E0,4.677883E1,-7.377451E1,1.9540396E2,3.5309427E0,3.2037818E-1,3.3915155E0,1.2725885E-1,8.5505005E-3,1.201369E-2,1.362639E-1,1.6491123E0,5.5454202E-2,1.125637E0,-5.12634E-1,-1.2871437E-1,2.7009073E1,4.9061675E0,2.5189623E-2,7.75167E-2,9.4970053E-1,-1.8992919E0,-2.670527E-1,2.9772947E-2,5.6484795E-1,1.9501682E-1,2.2165813E-3,-4.840933E-3,7.4498825E-2,-3.163276E-2,-2.5147507E-1],"split_indices":[16,15,1,7,4,11,7,17,14,4,4,4,7,15,7,14,8,3,8,8,0,14,17,0,0,11,16,4,10,5,14,0,0,0,0,0,0,0,0,0,0,0,0,0,0,0,0,0,0,0,0,0,0,0,0,0,0],"split_type":[0,0,0,0,0,0,0,0,0,0,0,0,0,0,0,0,0,0,0,0,0,0,0,0,0,0,0,0,0,0,0,0,0,0,0,0,0,0,0,0,0,0,0,0,0,0,0,0,0,0,0,0,0,0,0,0,0],"sum_hessian":[8.23102E5,3.2133E4,7.90969E5,3.1603E4,5.3E2,2.3E1,7.90946E5,3.136E3,2.8467E4,6E0,5.24E2,8E0,1.5E1,2.46669E5,5.44277E5,2.62E2,2.874E3,2.8224E4,2.43E2,5E0,1E0,2.9E1,4.95E2,1E0,7E0,8E0,7E0,2.9062E4,2.17607E5,5.41455E5,2.822E3,2.58E2,4E0,1.5E3,1.374E3,2.7728E4,4.96E2,3.2E1,2.11E2,2E0,3E0,2.7E1,2E0,3E0,4.92E2,7E0,1E0,1E0,6E0,2.8857E4,2.05E2,3.82E2,2.17225E5,5.37875E5,3.58E3,2.124E3,6.98E2],"tree_param":{"num_deleted":"0","num_feature":"18","num_nodes":"57","size_leaf_vector":"1"}},{"base_weights":[7.1922746E-3,1.3046492E0,-3.045725E-3,6.2505776E-1,3.647117E1,6.804742E-2,-3.7633415E-2,3.630862E-1,1.0765522E1,1.4493265E2,2.3321438E1,3.1766957E-1,3.196375E-2,3.6546952E-1,-4.2905778E-2,1.852921E0,2.3136465E-1,5.257997E2,8.5553455E-1,7.2364025E0,6.0150806E2,1.4422692E1,2.0731055E2,2.925717E-1,3.54587E0,1.5681018E-1,4.2517646E-3,6.401004E-2,2.8924537E0,-3.9811406E-2,-6.476791E-1,9.0316124E-2,6.683366E-1,2.1433553E-2,8.9540094E-1,7.960148E1,-7.3152715E-1,3.0181143E0,-5.0959654E-2,-9.132949E-1,8.546496E0,9.232623E1,-2.100029E0,3.275271E0,-4.5253006E-1,5.5568645E1,-1.8705038E0,-5.2375823E-2,3.525442E-2,2.6608484E0,-7.6828025E-2,1.4030153E-2,3.87969E-1,1.20987885E-1,2.2732384E-5,4.9227618E-2,-5.0566893E-2,2.0900586E0,1.2794903E-1,-4.2950106E-3,5.2499164E-2,3.8726528E-3,-3.446465E-1],"categories":[],"categories_nodes":[],"categories_segments":[],"categories_sizes":[],"default_left":[0,0,0,0,0,0,0,0,0,0,0,0,0,0,0,0,0,0,0,0,0,0,0,0,0,0,0,0,0,0,0,0,0,0,0,0,0,0,0,0,0,0,0,0,0,0,0,0,0,0,0,0,0,0,0,0,0,0,0,0,0,0,0],"id":10,"left_children":[1,3,5,7,9,11,13,15,17,19,21,23,25,27,29,31,33,35,37,39,41,43,45,47,49,51,53,55,57,59,61,-1,-1,-1,-1,-1,-1,-1,-1,-1,-1,-1,-1,-1,-1,-1,-1,-1,-1,-1,-1,-1,-1,-1,-1,-1,-1,-1,-1,-1,-1,-1,-1],"loss_changes":[1.0919819E4,1.5379031E5,2.0055989E3,1.6771973E4,1.7062119E5,2.40443E3,1.1661472E3,1.2078416E3,8.110832E5,8.1294056E5,1.7710997E5,2.7305046E3,8.0691864E2,5.3962886E3,1.01353265E3,2.287845E3,8.3851416E2,4.379902E5,6.300608E3,1.4866605E4,6.202729E5,3.696382E4,4.0408606E5,1.6380525E3,2.5889293E4,2.6032598E3,9.260768E2,1.5446057E3,2.1903336E4,9.5526697E2,5.2966123E3,0E0,0E0,0E0,0E0,0E0,0E0,0E0,0E0,0E0,0E0,0E0,0E0,0E0,0E0,0E0,0E0,0E0,0E0,0E0,0E0,0E0,0E0,0E0,0E0,0E0,0E0,0E0,0E0,0E0,0E0,0E0,0E0],"parents":[2147483647,0,0,1,1,2,2,3,3,4,4,5,5,6,6,7,7,8,8,9,9,10,10,11,11,12,12,13,13,14,14,15,15,16,16,17,17,18,18,19,19,20,20,21,21,22,22,23,23,24,24,25,25,26,26,27,27,28,28,29,29,30,30],"right_children":[2,4,6,8,10,12,14,16,18,20,22,24,26,28,30,32,34,36,38,40,42,44,46,48,50,52,54,56,58,60,62,-1,-1,-1,-1,-1,-1,-1,-1,-1,-1,-1,-1,-1,-1,-1,-1,-1,-1,-1,-1,-1,-1,-1,-1,-1,-1,-1,-1,-1,-1,-1,-1],"split_conditions":[1.302E0,3.5309427E0,-8.583691E-1,4.3810368E1,-1.4250614E1,-1.1218315E1,-4.949495E1,-1.8285168E1,4.8853653E1,3.0277185E1,2.45E0,4.677883E1,6.39E0,1.3636364E1,1.7910448E1,-3.985172E-2,7.8767914E1,1.018E0,-5.3030304E1,4.751659E1,4.702596E1,1.734743E1,1.1466395E2,-6.3695183E1,-1.0838288E1,3.5309427E0,-1.4250614E1,9.13E0,1.4379893E1,1.9540396E2,6.640452E-1,9.0316124E-2,6.683366E-1,2.1433553E-2,8.9540094E-1,7.960148E1,-7.3152715E-1,3.0181143E0,-5.0959654E-2,-9.132949E-1,8.546496E0,9.232623E1,-2.100029E0,3.275271E0,-4.5253006E-1,5.5568645E1,-1.8705038E0,-5.2375823E-2,3.525442E-2,2.6608484E0,-7.6828025E-2,1.4030153E-2,3.87969E-1,1.20987885E-1,2.2732384E-5,4.9227618E-2,-5.0566893E-2,2.0900586E0,1.2794903E-1,-4.2950106E-3,5.2499164E-2,3.8726528E-3,-3.446465E-1],"split_indices":[1,14,7,15,7,15,10,15,4,10,16,4,16,8,7,11,4,0,10,4,4,8,10,10,7,14,7,16,8,5,13,0,0,0,0,0,0,0,0,0,0,0,0,0,0,0,0,0,0,0,0,0,0,0,0,0,0,0,0,0,0,0,0],"split_type":[0,0,0,0,0,0,0,0,0,0,0,0,0,0,0,0,0,0,0,0,0,0,0,0,0,0,0,0,0,0,0,0,0,0,0,0,0,0,0,0,0,0,0,0,0,0,0,0,0,0,0,0,0,0,0,0,0,0,0,0,0,0,0],"sum_hessian":[8.22066E5,6.435E3,8.15631E5,6.314E3,1.21E2,2.66943E5,5.48688E5,6.156E3,1.58E2,1.2E1,1.09E2,3.3713E4,2.3323E5,7.083E3,5.41605E5,4.99E2,5.657E3,2E0,1.56E2,1E1,2E0,1.05E2,4E0,3.3454E4,2.59E2,4.2365E4,1.90865E5,6.329E3,7.54E2,5.38849E5,2.756E3,4.18E2,8.1E1,5.647E3,1E1,1E0,1E0,6E0,1.5E2,9E0,1E0,1E0,1E0,5.3E1,5.2E1,1E0,3E0,2.289E3,3.1165E4,4E1,2.19E2,4.2179E4,1.86E2,6.34E2,1.90231E5,3.613E3,2.716E3,6.1E1,6.93E2,5.35872E5,2.977E3,2.214E3,5.42E2],"tree_param":{"num_deleted":"0","num_feature":"18","num_nodes":"63","size_leaf_vector":"1"}},{"base_weights":[1.2303744E-3,1.529213E0,-4.7405395E-3,2.1348484E1,8.8299507E-1,6.087816E-2,-3.456235E-2,4.643414E0,1.576042E2,5.316166E-1,1.3492826E1,2.8765053E-1,2.8723106E-2,-2.4323316E-1,-2.0875748E-2,-5.170896E0,1.6738205E1,8.770992E1,-2.0552301E0,4.9738336E-1,5.1889563E0,7.56214E1,-4.566633E0,2.6070738E-1,4.1688595E0,3.3196244E-1,1.3850937E-2,-1.1969322E-1,-6.979935E-1,3.7642097E-1,-2.5439907E-2,-1.1099213E-1,-4.2309875E0,2.2303236E0,-1.3478115E0,-6.0111254E-1,5.3813934E-1,7.8624874E-2,-1.7123304E-1,-2.1004868E0,-3.2436073E-1,2.7191928E-2,-3.4554228E-1,7.558085E0,1.4544031E-1,1.754E0,2.361469E-2,-4.1790478E-2,3.026498E-3,6.405368E-1,-1.2639939E-2,-1.6584849E-3,-9.1321684E-2,1.7300904E-2,7.801147E-1,3.52636E-2,-2.898528E-3],"categories":[],"categories_nodes":[],"categories_segments":[],"categories_sizes":[],"default_left":[0,0,0,0,0,0,0,0,0,0,0,0,0,0,0,0,0,0,0,0,0,0,0,0,0,0,0,0,0,0,0,0,0,0,0,0,0,0,0,0,0,0,0,0,0,0,0,0,0,0,0,0,0,0,0,0,0],"id":11,"left_children":[1,3,5,7,9,11,13,15,17,19,21,23,25,27,29,31,33,-1,35,37,-1,-1,39,41,43,45,47,49,51,53,55,-1,-1,-1,-1,-1,-1,-1,-1,-1,-1,-1,-1,-1,-1,-1,-1,-1,-1,-1,-1,-1,-1,-1,-1,-1,-1],"loss_changes":[7.500334E3,4.0965367E4,1.60247E3,2.2916044E5,1.3728378E4,1.8658083E3,1.607974E3,1.0888435E4,1.2654185E6,5.278529E3,1.1301574E6,3.3217947E3,1.0106521E3,1.9468713E3,9.581073E2,7.644883E3,7.194948E3,0E0,3.265332E2,1.9264888E3,0E0,0E0,1.7369701E3,1.3158015E3,4.234207E4,1.727031E4,1.5139424E3,1.1933499E3,1.0856719E3,9.061829E3,7.0019885E2,0E0,0E0,0E0,0E0,0E0,0E0,0E0,0E0,0E0,0E0,0E0,0E0,0E0,0E0,0E0,0E0,0E0,0E0,0E0,0E0,0E0,0E0,0E0,0E0,0E0,0E0],"parents":[2147483647,0,0,1,1,2,2,3,3,4,4,5,5,6,6,7,7,8,8,9,9,10,10,11,11,12,12,13,13,14,14,15,15,16,16,18,18,19,19,22,22,23,23,24,24,25,25,26,26,27,27,28,28,29,29,30,30],"right_children":[2,4,6,8,10,12,14,16,18,20,22,24,26,28,30,32,34,-1,36,38,-1,-1,40,42,44,46,48,50,52,54,56,-1,-1,-1,-1,-1,-1,-1,-1,-1,-1,-1,-1,-1,-1,-1,-1,-1,-1,-1,-1,-1,-1,-1,-1,-1,-1],"split_conditions":[1.018E0,-1.4250614E1,-9.5296216E-1,5.6896553E1,4.3810368E1,-1.1591592E1,7.6E-3,-2.264151E1,4.702596E1,1.3126831E-1,4.8853653E1,4.677883E1,5.6E-3,2.247191E0,-4.949495E1,2.1904454E-2,8.730159E1,8.770992E1,7.352941E1,1.1859658E1,5.1889563E0,7.56214E1,6.103441E1,1.52237835E1,4.690247E1,-1.4250614E1,-7.684136E0,1.0548333E0,-2.670419E1,4.5619326E0,1.703E0,-1.1099213E-1,-4.2309875E0,2.2303236E0,-1.3478115E0,-6.0111254E-1,5.3813934E-1,7.8624874E-2,-1.7123304E-1,-2.1004868E0,-3.2436073E-1,2.7191928E-2,-3.4554228E-1,7.558085E0,1.4544031E-1,1.754E0,2.361469E-2,-4.1790478E-2,3.026498E-3,6.405368E-1,-1.2639939E-2,-1.6584849E-3,-9.1321684E-2,1.7300904E-2,7.801147E-1,3.52636E-2,-2.898528E-3],"split_indices":[0,7,7,6,15,15,17,10,4,12,4,4,17,7,10,13,10,0,6,15,0,0,4,8,4,7,7,3,10,13,1,0,0,0,0,0,0,0,0,0,0,0,0,0,0,0,0,0,0,0,0,0,0,0,0,0,0],"split_type":[0,0,0,0,0,0,0,0,0,0,0,0,0,0,0,0,0,0,0,0,0,0,0,0,0,0,0,0,0,0,0,0,0,0,0,0,0,0,0,0,0,0,0,0,0,0,0,0,0,0,0,0,0,0,0,0,0],"sum_hessian":[8.22092E5,3.199E3,8.18893E5,1E2,3.099E3,2.55875E5,5.63018E5,9E1,1E1,3.016E3,8.3E1,3.1775E4,2.241E5,3.4654E4,5.28364E5,5E1,4E1,1E0,9E0,3.015E3,1E0,1E0,8.2E1,3.1557E4,2.18E2,1.0476E4,2.13624E5,2.7252E4,7.402E3,6E3,5.22364E5,4.6E1,4E0,3.4E1,6E0,6E0,3E0,2.667E3,3.48E2,5E0,7.7E1,3.1463E4,9.4E1,7E0,2.11E2,5.7E1,1.0419E4,7.823E3,2.05801E5,2.7E1,2.7225E4,1.777E3,5.625E3,5.841E3,1.59E2,4.852E3,5.17512E5],"tree_param":{"num_deleted":"0","num_feature":"18","num_nodes":"57","size_leaf_vector":"1"}},{"base_weights":[1.6480932E-3,4.54608E-1,-5.5529545E-3,3.7163827E-1,2.308684E1,6.2875666E-2,-2.8868793E-2,2.6747704E-1,4.3028383E0,1.2062219E2,3.0025978E0,5.654197E-2,1.9221647E1,-2.5613232E-2,-1.5651774E0,1.8634884E1,2.5421837E-1,5.4292133E1,-6.7723346E-1,-1.2970217E1,5.2788452E1,-9.894034E0,6.0380664E0,5.4891445E-2,1.7921377E1,7.0489466E-1,9.750754E1,-4.6638027E-1,-2.1903995E-2,-8.434139E-1,-7.767088E0,8.5752115E-2,8.042689E0,8.666183E-3,7.257454E-2,6.619218E-1,7.184033E1,-9.412878E-1,3.929647E-2,-5.468727E-2,-4.3755145E0,4.3587837E-1,-1.9317483E0,-5.1877433E-1,7.7653414E-1,-8.5662166E-4,2.0032737E-2,3.2428476E-1,7.215515E0,1.5934725E0,-7.730677E-2,-1.9856073E-1,4.2981323E1,3.1429322E0,-4.8532214E-2,-5.8181174E-2,-1.9236066E-3,-1.9124857E-1,6.0496744E-2,-4.0288004E-1,-1.1073993E0],"categories":[],"categories_nodes":[],"categories_segments":[],"categories_sizes":[],"default_left":[0,0,0,0,0,0,0,0,0,0,0,0,0,0,0,0,0,0,0,0,0,0,0,0,0,0,0,0,0,0,0,0,0,0,0,0,0,0,0,0,0,0,0,0,0,0,0,0,0,0,0,0,0,0,0,0,0,0,0,0,0],"id":12,"left_children":[1,3,5,7,9,11,13,15,17,19,21,23,25,27,29,31,33,35,37,39,-1,41,43,45,47,49,51,53,55,57,59,-1,-1,-1,-1,-1,-1,-1,-1,-1,-1,-1,-1,-1,-1,-1,-1,-1,-1,-1,-1,-1,-1,-1,-1,-1,-1,-1,-1,-1,-1],"loss_changes":[2.6829683E3,2.4162328E4,1.2918127E3,5.2508223E3,9.170723E4,2.4968229E4,3.0204182E3,3.0383787E3,8.2439305E4,4.42104E5,1.6256335E3,6.0644517E3,9.850411E4,9.852333E2,5.7097007E3,9.817523E3,9.865819E2,9.4504825E5,2.8270579E3,2.6532334E3,0E0,1.1586863E3,6.801566E2,1.8982734E3,1.4891383E4,1.2728291E3,4.306612E5,3.053594E3,8.9268256E2,1.7741019E3,1.5995518E3,0E0,0E0,0E0,0E0,0E0,0E0,0E0,0E0,0E0,0E0,0E0,0E0,0E0,0E0,0E0,0E0,0E0,0E0,0E0,0E0,0E0,0E0,0E0,0E0,0E0,0E0,0E0,0E0,0E0,0E0],"parents":[2147483647,0,0,1,1,2,2,3,3,4,4,5,5,6,6,7,7,8,8,9,9,10,10,11,11,12,12,13,13,14,14,15,15,16,16,17,17,18,18,19,19,21,21,22,22,23,23,24,24,25,25,26,26,27,27,28,28,29,29,30,30],"right_children":[2,4,6,8,10,12,14,16,18,20,22,24,26,28,30,32,34,36,38,40,-1,42,44,46,48,50,52,54,56,58,60,-1,-1,-1,-1,-1,-1,-1,-1,-1,-1,-1,-1,-1,-1,-1,-1,-1,-1,-1,-1,-1,-1,-1,-1,-1,-1,-1,-1,-1,-1],"split_conditions":[1.696E0,8.3301765E1,1.0342E1,3.317858E2,9.193897E-2,4.5619326E0,1.7910448E1,-1.1466953E0,1.5503876E-1,7.7912144E-2,9.892251E-3,1.9272828E0,8.99E0,-9.316124E0,3.317858E2,1.5503876E-1,1.0180093E2,4.3410984E1,-4.670051E1,1.018E0,5.2788452E1,3.501E-1,4.3752164E-1,1.1238236E0,2.1440642E0,5.721E0,2.7225122E1,5.6005E0,-2.520005E1,6.9461784E1,2.2344203E0,8.5752115E-2,8.042689E0,8.666183E-3,7.257454E-2,6.619218E-1,7.184033E1,-9.412878E-1,3.929647E-2,-5.468727E-2,-4.3755145E0,4.3587837E-1,-1.9317483E0,-5.1877433E-1,7.7653414E-1,-8.5662166E-4,2.0032737E-2,3.2428476E-1,7.215515E0,1.5934725E0,-7.730677E-2,-1.9856073E-1,4.2981323E1,3.1429322E0,-4.8532214E-2,-5.8181174E-2,-1.9236066E-3,-1.9124857E-1,6.0496744E-2,-4.0288004E-1,-1.1073993E0],"split_indices":[0,4,0,5,11,13,7,11,6,11,12,11,0,7,5,6,5,4,10,0,0,17,14,14,14,1,4,2,12,6,14,0,0,0,0,0,0,0,0,0,0,0,0,0,0,0,0,0,0,0,0,0,0,0,0,0,0,0,0,0,0],"split_type":[0,0,0,0,0,0,0,0,0,0,0,0,0,0,0,0,0,0,0,0,0,0,0,0,0,0,0,0,0,0,0,0,0,0,0,0,0,0,0,0,0,0,0,0,0,0,0,0,0,0,0,0,0,0,0,0,0,0,0,0,0],"sum_hessian":[8.22544E5,1.2871E4,8.09673E5,1.2825E4,4.6E1,2.05769E5,6.03904E5,1.2495E4,3.3E2,7E0,3.9E1,2.05702E5,6.7E1,6.02628E5,1.276E3,8E0,1.2487E4,2.9E1,3.01E2,6E0,1E0,7E0,3.2E1,2.05684E5,1.8E1,5.5E1,1.2E1,5.028E3,5.976E5,1.144E3,1.32E2,7E0,1E0,9.214E3,3.273E3,2.8E1,1E0,3.2E1,2.69E2,5E0,1E0,3E0,4E0,4E0,2.8E1,1.43202E5,6.2482E4,1.5E1,3E0,4E0,5.1E1,1E1,2E0,2E0,5.026E3,2.833E3,5.94767E5,6.58E2,4.86E2,6.3E1,6.9E1],"tree_param":{"num_deleted":"0","num_feature":"18","num_nodes":"61","size_leaf_vector":"1"}},{"base_weights":[3.6113372E-3,-1.3134205E-3,1.1918738E0,1.7812754E-1,-1.2376064E-2,3.2157814E1,1.2567116E-1,1.6262704E-1,2.6363866E0,-1.2751368E-1,-1.9928003E-3,1.1093592E1,1.357864E2,-4.6831975E0,4.308566E-1,4.8383728E-1,7.335031E-2,-4.946679E-1,1.1174693E1,-1.0657364E-1,-8.429005E-1,-1.16530135E-2,9.968873E-2,-2.6548026E0,3.271688E1,8.33208E1,5.0751434E1,-1.1680654E1,-1.6575954E0,1.168406E1,3.166381E-1,3.4988783E-2,4.1956544E-1,9.531467E-3,-9.041942E-2,1.6193484E0,-1.0407825E-1,4.261543E0,7.0893973E-1,-1.1141158E-2,1.4850049E-1,-7.2442494E-2,-9.6539575E-1,-8.4233464E-4,-6.8906E-2,1.2967731E0,8.20608E-3,-4.607048E-1,2.5340335E0,9.600908E0,-9.983112E-1,-6.018376E-1,3.3660664E1,-7.70637E-1,-3.6053414E0,1.1374606E0,-4.3629456E-1,-3.1011203E-1,2.1185286E0,2.4370973E-1,-1.3091588E-2],"categories":[],"categories_nodes":[],"categories_segments":[],"categories_sizes":[],"default_left":[0,0,0,0,0,0,0,0,0,0,0,0,0,0,0,0,0,0,0,0,0,0,0,0,0,0,0,0,0,0,0,0,0,0,0,0,0,0,0,0,0,0,0,0,0,0,0,0,0,0,0,0,0,0,0,0,0,0,0,0,0],"id":13,"left_children":[1,3,5,7,9,11,13,15,17,19,21,23,25,27,29,31,33,35,37,39,41,43,45,47,49,-1,51,53,55,57,59,-1,-1,-1,-1,-1,-1,-1,-1,-1,-1,-1,-1,-1,-1,-1,-1,-1,-1,-1,-1,-1,-1,-1,-1,-1,-1,-1,-1,-1,-1],"loss_changes":[4.8134976E3,1.6261058E3,1.1208517E5,1.8121515E3,9.2243884E2,2.4515638E5,4.820137E3,1.3555648E3,7.972231E3,9.560532E2,6.9521313E2,2.832898E4,1.0845128E6,4.130256E3,3.9653806E3,5.110203E3,7.943463E2,2.0127416E3,9.97346E3,4.7766272E2,1.8876759E3,1.4140952E3,1.39283125E4,3.3412937E3,1.0095379E5,0E0,2.941288E5,5.4371494E3,4.915047E3,4.4204956E3,2.9024219E3,0E0,0E0,0E0,0E0,0E0,0E0,0E0,0E0,0E0,0E0,0E0,0E0,0E0,0E0,0E0,0E0,0E0,0E0,0E0,0E0,0E0,0E0,0E0,0E0,0E0,0E0,0E0,0E0,0E0,0E0],"parents":[2147483647,0,0,1,1,2,2,3,3,4,4,5,5,6,6,7,7,8,8,9,9,10,10,11,11,12,12,13,13,14,14,15,15,16,16,17,17,18,18,19,19,20,20,21,21,22,22,23,23,24,24,26,26,27,27,28,28,29,29,30,30],"right_children":[2,4,6,8,10,12,14,16,18,20,22,24,26,28,30,32,34,36,38,40,42,44,46,48,50,-1,52,54,56,58,60,-1,-1,-1,-1,-1,-1,-1,-1,-1,-1,-1,-1,-1,-1,-1,-1,-1,-1,-1,-1,-1,-1,-1,-1,-1,-1,-1,-1,-1,-1],"split_conditions":[3.5309427E0,-2.0087257E1,1.302E0,2.6254826E1,5.2367014E-1,5.510204E1,-3.7587755E0,3.79E0,1.1111111E1,5.4545455E0,8.644401E0,1.00751E1,-1.4250614E1,-6.2992125E0,1.51E0,3.902E0,5.36358E2,1.0548333E0,7.6E-3,1.0416495E3,6.6219E2,9.650582E0,1.5503876E-1,1.3135E0,1.87118E1,8.33208E1,2.45E0,-1.1218315E1,5.524862E-1,1.3E0,4.3037972E0,3.4988783E-2,4.1956544E-1,9.531467E-3,-9.041942E-2,1.6193484E0,-1.0407825E-1,4.261543E0,7.0893973E-1,-1.1141158E-2,1.4850049E-1,-7.2442494E-2,-9.6539575E-1,-8.4233464E-4,-6.8906E-2,1.2967731E0,8.20608E-3,-4.607048E-1,2.5340335E0,9.600908E0,-9.983112E-1,-6.018376E-1,3.3660664E1,-7.70637E-1,-3.6053414E0,1.1374606E0,-4.3629456E-1,-3.1011203E-1,2.1185286E0,2.4370973E-1,-1.3091588E-2],"split_indices":[14,9,1,8,14,6,12,16,7,7,8,17,7,7,16,0,2,3,17,2,16,7,6,2,17,0,16,15,7,16,6,0,0,0,0,0,0,0,0,0,0,0,0,0,0,0,0,0,0,0,0,0,0,0,0,0,0,0,0,0,0],"split_type":[0,0,0,0,0,0,0,0,0,0,0,0,0,0,0,0,0,0,0,0,0,0,0,0,0,0,0,0,0,0,0,0,0,0,0,0,0,0,0,0,0,0,0,0,0,0,0,0,0,0,0,0,0,0,0,0,0,0,0,0,0],"sum_hessian":[8.22551E5,8.19157E5,3.394E3,4.7568E4,7.71589E5,1.12E2,3.282E3,4.7271E4,2.97E2,6.3826E4,7.07763E5,9.4E1,1.8E1,1.95E2,3.087E3,1.028E4,3.6991E4,2.18E2,7.9E1,6.2012E4,1.814E3,6.46357E5,6.1406E4,5.8E1,3.6E1,1E0,1.7E1,5.8E1,1.37E2,3E1,3.057E3,9.923E3,3.57E2,3.6179E4,8.12E2,6E0,2.12E2,8E0,7.1E1,6.1825E4,1.87E2,1.791E3,2.3E1,6.43291E5,3.066E3,8.3E1,6.1323E4,5.5E1,3E0,1.4E1,2.2E1,1.5E1,2E0,5.1E1,7E0,2.3E1,1.14E2,1.2E1,1.8E1,5.32E2,2.525E3],"tree_param":{"num_deleted":"0","num_feature":"18","num_nodes":"61","size_leaf_vector":"1"}},{"base_weights":[3.9875577E-3,9.8195916E-1,-3.7285418E-3,6.0393393E-1,1.1579271E1,6.951502E-2,-2.4118302E-2,1.2501911E1,3.341811E-1,1.2851205E2,6.035107E0,2.527081E-1,1.2575624E-2,-2.1408845E-2,-7.866856E-1,8.643151E1,2.097772E0,6.6001225E0,2.4966197E-1,-9.242249E0,4.530195E2,-1.4374869E0,2.5564207E1,8.1756836E-1,1.7153665E-1,1.2900536E1,1.1151269E-2,-1.5952611E-1,-6.3617826E-3,-4.7151966E0,-4.855553E-1,-2.414429E-1,5.018507E1,2.2929456E0,-1.2629491E-1,6.361571E0,4.3514282E-1,5.3268946E-3,1.4481537E-1,-4.0189743E0,7.771874E-1,6.818348E1,-2.3055196E-1,-3.024529E-1,4.7572228E-1,1.4116385E1,-9.084489E-2,5.7312366E-2,6.740877E-1,1.520969E-2,2.1661972E-1,6.065313E-1,5.4296823E0,4.200064E-3,-3.49484E-2,-6.047973E-3,-3.902376E-2,-2.634068E-3,6.1754505E-3,-6.6595227E-1,1.537809E-1,7.684981E-1,-6.0350638E-2],"categories":[],"categories_nodes":[],"categories_segments":[],"categories_sizes":[],"default_left":[0,0,0,0,0,0,0,0,0,0,0,0,0,0,0,0,0,0,0,0,0,0,0,0,0,0,0,0,0,0,0,0,0,0,0,0,0,0,0,0,0,0,0,0,0,0,0,0,0,0,0,0,0,0,0,0,0,0,0,0,0,0,0],"id":14,"left_children":[1,3,5,7,9,11,13,15,17,19,21,23,25,27,29,31,33,35,37,39,41,43,45,47,49,51,53,55,57,59,61,-1,-1,-1,-1,-1,-1,-1,-1,-1,-1,-1,-1,-1,-1,-1,-1,-1,-1,-1,-1,-1,-1,-1,-1,-1,-1,-1,-1,-1,-1,-1,-1],"loss_changes":[6.2147446E3,2.5820023E4,1.2203054E3,1.997825E4,1.4314581E5,1.8560508E3,1.3206296E3,1.0596468E5,3.223037E3,4.512099E5,3.1120488E4,1.9343853E3,2.4917678E3,1.3236879E3,2.6748252E3,6.286529E5,8.570115E3,1.0108242E4,1.4142937E3,4.524705E3,3.1412794E5,1.5382346E3,1.8068175E5,7.6715684E3,1.4301849E3,3.9149646E3,1.5100947E3,1.4298177E3,7.816292E2,1.9676599E3,2.0313484E3,0E0,0E0,0E0,0E0,0E0,0E0,0E0,0E0,0E0,0E0,0E0,0E0,0E0,0E0,0E0,0E0,0E0,0E0,0E0,0E0,0E0,0E0,0E0,0E0,0E0,0E0,0E0,0E0,0E0,0E0,0E0,0E0],"parents":[2147483647,0,0,1,1,2,2,3,3,4,4,5,5,6,6,7,7,8,8,9,9,10,10,11,11,12,12,13,13,14,14,15,15,16,16,17,17,18,18,19,19,20,20,21,21,22,22,23,23,24,24,25,25,26,26,27,27,28,28,29,29,30,30],"right_children":[2,4,6,8,10,12,14,16,18,20,22,24,26,28,30,32,34,36,38,40,42,44,46,48,50,52,54,56,58,60,62,-1,-1,-1,-1,-1,-1,-1,-1,-1,-1,-1,-1,-1,-1,-1,-1,-1,-1,-1,-1,-1,-1,-1,-1,-1,-1,-1,-1,-1,-1,-1,-1],"split_conditions":[1.3448334E0,1.7910448E1,-1.6528926E0,-1.4250614E1,-7.377451E1,6.39E0,4.3810368E1,1.1114832E2,2.19E-4,-5.9469465E-2,1.63346E1,-1.7156738E1,2.61E0,1.64E-2,-1.2597403E1,9.493382E0,9.2E-3,-3.7060406E-2,2.5739E0,-1.0914357E-1,4.311111E1,4.6692E0,2.21516E1,1.1765361E-1,3.1693989E1,8.348E0,1.1114832E2,1.2738854E0,5.4733593E1,9.76975E1,1.5275E0,-2.414429E-1,5.018507E1,2.2929456E0,-1.2629491E-1,6.361571E0,4.3514282E-1,5.3268946E-3,1.4481537E-1,-4.0189743E0,7.771874E-1,6.818348E1,-2.3055196E-1,-3.024529E-1,4.7572228E-1,1.4116385E1,-9.084489E-2,5.7312366E-2,6.740877E-1,1.520969E-2,2.1661972E-1,6.065313E-1,5.4296823E0,4.200064E-3,-3.49484E-2,-6.047973E-3,-3.902376E-2,-2.634068E-3,6.1754505E-3,-6.6595227E-1,1.537809E-1,7.684981E-1,-6.0350638E-2],"split_indices":[3,7,7,7,10,16,15,5,17,11,17,15,3,17,10,10,17,12,17,11,8,17,17,13,8,0,5,7,5,3,2,0,0,0,0,0,0,0,0,0,0,0,0,0,0,0,0,0,0,0,0,0,0,0,0,0,0,0,0,0,0,0,0],"split_type":[0,0,0,0,0,0,0,0,0,0,0,0,0,0,0,0,0,0,0,0,0,0,0,0,0,0,0,0,0,0,0,0,0,0,0,0,0,0,0,0,0,0,0,0,0,0,0,0,0,0,0,0,0,0,0,0,0,0,0,0,0,0,0],"sum_hessian":[8.23566E5,6.446E3,8.1712E5,6.225E3,2.21E2,1.77937E5,6.39183E5,1.37E2,6.088E3,9E0,2.12E2,4.2191E4,1.35746E5,6.36921E5,2.262E3,1.6E1,1.21E2,8E1,6.008E3,7E0,2E0,1.54E2,5.8E1,5.3E3,3.6891E4,1.4E1,1.35732E5,6.2571E4,5.7435E5,1.6E2,2.102E3,1.4E1,2E0,1.6E1,1.05E2,2E0,7.8E1,5.163E3,8.45E2,2E0,5E0,1E0,1E0,1.23E2,3.1E1,1E1,4.8E1,5.091E3,2.09E2,3.6536E4,3.55E2,1.3E1,1E0,1.25037E5,1.0695E4,4.3778E4,1.8793E4,4.44095E5,1.30255E5,1.22E2,3.8E1,2.9E1,2.073E3],"tree_param":{"num_deleted":"0","num_feature":"18","num_nodes":"63","size_leaf_vector":"1"}},{"base_weights":[9.160714E-4,1.2441555E0,-3.9755376E-3,1.8029953E1,8.983749E-1,1.8333454E-1,-1.1589E-2,-1.891408E0,4.3036853E2,1.9312231E1,3.8908187E-1,1.5213594E-1,3.4567566E1,-1.8603548E1,-1.1376411E-2,1.6649898E0,-7.3574367E0,6.477431E1,-2.1902438E-1,1.1244803E2,2.4618526E0,2.0194317E1,3.5024783E-1,6.8059856E-1,7.123319E-2,3.3366296E2,5.4462016E-2,-7.160683E0,-2.0849983E1,1.8158278E1,-1.1584144E-2,-2.3581699E-2,1.9128355E0,-5.923818E-1,7.664551E1,9.531333E-1,-5.9275913E-1,3.310746E-1,3.5974305E0,5.8146935E-2,-1.6317129E-1,6.116833E-2,5.31918E-1,3.525876E-3,6.120777E-2,4.7760174E1,2.2892706E0,-4.111524E0,3.2192677E-1,-1.0648658E-1,-9.676159E-1,-5.098908E-1,-2.2625344E0,2.478173E0,-1.7414678E0,-3.8032435E-2,-7.821914E-4],"categories":[],"categories_nodes":[],"categories_segments":[],"categories_sizes":[],"default_left":[0,0,0,0,0,0,0,0,0,0,0,0,0,0,0,0,0,0,0,0,0,0,0,0,0,0,0,0,0,0,0,0,0,0,0,0,0,0,0,0,0,0,0,0,0,0,0,0,0,0,0,0,0,0,0,0,0],"id":15,"left_children":[1,3,5,7,9,11,13,15,17,19,21,23,25,27,29,31,-1,-1,-1,33,35,37,39,41,43,45,47,49,51,53,55,-1,-1,-1,-1,-1,-1,-1,-1,-1,-1,-1,-1,-1,-1,-1,-1,-1,-1,-1,-1,-1,-1,-1,-1,-1,-1],"loss_changes":[5.0012124E3,1.8690748E4,1.1681741E3,5.3474644E5,2.9617742E4,3.4317062E4,3.1109836E3,1.6183286E4,2.8350056E5,1.331199E5,2.3579624E3,1.3666711E3,2.9934044E5,8.205078E1,2.9712605E3,2.0293744E3,0E0,0E0,0E0,1.0109486E6,4.3860557E3,1.4794336E3,1.4078438E3,1.3534221E3,5.393925E2,1.2326206E5,3.650302E3,3.569783E1,8.038257E1,2.5521086E3,1.0919851E3,0E0,0E0,0E0,0E0,0E0,0E0,0E0,0E0,0E0,0E0,0E0,0E0,0E0,0E0,0E0,0E0,0E0,0E0,0E0,0E0,0E0,0E0,0E0,0E0,0E0,0E0],"parents":[2147483647,0,0,1,1,2,2,3,3,4,4,5,5,6,6,7,7,8,8,9,9,10,10,11,11,12,12,13,13,14,14,15,15,19,19,20,20,21,21,22,22,23,23,24,24,25,25,26,26,27,27,28,28,29,29,30,30],"right_children":[2,4,6,8,10,12,14,16,18,20,22,24,26,28,30,32,-1,-1,-1,34,36,38,40,42,44,46,48,50,52,54,56,-1,-1,-1,-1,-1,-1,-1,-1,-1,-1,-1,-1,-1,-1,-1,-1,-1,-1,-1,-1,-1,-1,-1,-1,-1,-1],"split_conditions":[1.0548333E0,-7.377451E1,2.55E0,4.3810368E1,-1.4250614E1,8.3301765E1,1.844E0,4.739543E1,4.8853653E1,1.1114832E2,-3.3876892E1,-4.0642723E1,9.052285E-5,1.238938E1,1.703E0,1.4379893E1,-7.3574367E0,6.477431E1,-2.1902438E-1,2.511628E1,3.953611E-2,-4.670051E1,9.650582E0,3.567E0,6.818182E0,1.518E0,7.7912144E-2,1.696E0,-4.0201006E0,3.2222748E-1,-5.746575E1,-2.3581699E-2,1.9128355E0,-5.923818E-1,7.664551E1,9.531333E-1,-5.9275913E-1,3.310746E-1,3.5974305E0,5.8146935E-2,-1.6317129E-1,6.116833E-2,5.31918E-1,3.525876E-3,6.120777E-2,4.7760174E1,2.2892706E0,-4.111524E0,3.2192677E-1,-1.0648658E-1,-9.676159E-1,-5.098908E-1,-2.2625344E0,2.478173E0,-1.7414678E0,-3.8032435E-2,-7.821914E-4],"split_indices":[3,10,16,15,7,4,0,4,4,5,15,10,12,6,1,8,0,0,0,10,8,10,7,1,7,0,11,0,7,11,10,0,0,0,0,0,0,0,0,0,0,0,0,0,0,0,0,0,0,0,0,0,0,0,0,0,0],"split_type":[0,0,0,0,0,0,0,0,0,0,0,0,0,0,0,0,0,0,0,0,0,0,0,0,0,0,0,0,0,0,0,0,0,0,0,0,0,0,0,0,0,0,0,0,0,0,0,0,0,0,0,0,0,0,0,0,0],"sum_hessian":[8.22371E5,3.222E3,8.19149E5,6.4E1,3.158E3,3.1994E4,7.87155E5,6.2E1,2E0,8.4E1,3.074E3,3.1966E4,2.8E1,8E0,7.87147E5,6E1,2E0,1E0,1E0,1.2E1,7.2E1,5E0,3.069E3,4.243E3,2.7723E4,2E0,2.6E1,2E0,6E0,8E0,7.87139E5,5.5E1,5E0,1.1E1,1E0,3.9E1,3.3E1,3E0,2E0,2.749E3,3.2E2,4.182E3,6.1E1,2.5995E4,1.728E3,1E0,1E0,1E0,2.5E1,1E0,1E0,1E0,5E0,7E0,1E0,7.949E3,7.7919E5],"tree_param":{"num_deleted":"0","num_feature":"18","num_nodes":"57","size_leaf_vector":"1"}},{"base_weights":[-8.2548533E-4,2.5479043E-1,-1.221131E-2,1.6166969E-1,8.842766E0,-6.9696754E-3,-3.6670005E-1,1.4814539E-1,3.153665E0,2.7712212E0,4.930448E1,1.0881733E-1,-1.6568732E-2,1.5119138E-1,-6.735291E-1,7.869285E-2,6.4472234E-1,1.493323E0,1.2689847E1,-3.4866855E0,6.7425685E0,7.281323E1,1.9992811E1,4.5191526E0,1.06537364E-1,-7.758514E-1,-1.5098492E-2,8.336858E-2,7.241251E1,-5.1650244E-1,-2.9212525E0,2.6756006E-1,6.715073E-3,-3.3194834E-1,7.3842786E-2,2.7924788E-1,-2.9133075E-1,4.3538995E0,7.6785475E-1,4.0860534E-1,-5.27353E-1,4.41296E-1,2.8825505E0,9.708336E-2,2.2899185E1,9.029258E-3,2.2476308E-1,-6.220249E-2,-4.954145E-1,-1.6314149E-3,5.357292E-2,-8.152699E-3,2.513293E-1,-1.6437092E0,1.0750808E1,-1.3846757E-1,-2.8457655E-2,-4.134415E-1,-8.990169E-3],"categories":[],"categories_nodes":[],"categories_segments":[],"categories_sizes":[],"default_left":[0,0,0,0,0,0,0,0,0,0,0,0,0,0,0,0,0,0,0,0,0,0,0,0,0,0,0,0,0,0,0,0,0,0,0,0,0,0,0,0,0,0,0,0,0,0,0,0,0,0,0,0,0,0,0,0,0,0,0],"id":16,"left_children":[1,3,5,7,9,11,13,15,17,19,21,23,25,27,29,31,33,35,37,39,41,-1,43,-1,45,47,49,51,53,55,57,-1,-1,-1,-1,-1,-1,-1,-1,-1,-1,-1,-1,-1,-1,-1,-1,-1,-1,-1,-1,-1,-1,-1,-1,-1,-1,-1,-1],"loss_changes":[2.3924316E3,2.8031906E4,1.462276E3,1.4028062E3,9.223345E4,8.619381E2,1.8222555E3,1.1906313E3,2.4510483E3,8.1750703E3,9.6042394E5,6.0976484E3,7.994348E2,2.0906387E4,2.5401023E3,9.076978E2,1.5759905E3,7.75272E2,3.221353E3,1.7535549E3,1.0213158E4,0E0,1.9060528E5,0E0,2.0647114E3,8.8646E2,4.7862283E2,1.7087205E3,1.4240027E4,1.3551063E3,1.6140261E3,0E0,0E0,0E0,0E0,0E0,0E0,0E0,0E0,0E0,0E0,0E0,0E0,0E0,0E0,0E0,0E0,0E0,0E0,0E0,0E0,0E0,0E0,0E0,0E0,0E0,0E0,0E0,0E0],"parents":[2147483647,0,0,1,1,2,2,3,3,4,4,5,5,6,6,7,7,8,8,9,9,10,10,11,11,12,12,13,13,14,14,15,15,16,16,17,17,18,18,19,19,20,20,22,22,24,24,25,25,26,26,27,27,28,28,29,29,30,30],"right_children":[2,4,6,8,10,12,14,16,18,20,22,24,26,28,30,32,34,36,38,40,42,-1,44,-1,46,48,50,52,54,56,58,-1,-1,-1,-1,-1,-1,-1,-1,-1,-1,-1,-1,-1,-1,-1,-1,-1,-1,-1,-1,-1,-1,-1,-1,-1,-1,-1,-1],"split_conditions":[2.55E0,3.5309427E0,9.650582E0,3.115E0,5.6896553E1,-9.936865E0,7.134E0,1.5707965E0,1.4229503E0,6.423E-1,-1.4250614E1,1.3448334E0,-2.5835606E1,1.9272828E0,3.5309427E0,2.19E-4,-6.3695183E1,3.22E0,1.5522418E0,-1.412865E1,4.075391E1,7.281323E1,9.881457E1,4.5191526E0,7.597505E0,2.2344203E0,3.5309427E0,6.691E0,8.99E0,-2.7906978E-1,6.0869564E1,2.6756006E-1,6.715073E-3,-3.3194834E-1,7.3842786E-2,2.7924788E-1,-2.9133075E-1,4.3538995E0,7.6785475E-1,4.0860534E-1,-5.27353E-1,4.41296E-1,2.8825505E0,9.708336E-2,2.2899185E1,9.029258E-3,2.2476308E-1,-6.220249E-2,-4.954145E-1,-1.6314149E-3,5.357292E-2,-8.152699E-3,2.513293E-1,-1.6437092E0,1.0750808E1,-1.3846757E-1,-2.8457655E-2,-4.134415E-1,-8.990169E-3],"split_indices":[16,14,7,1,6,15,1,14,14,17,7,3,11,11,14,17,10,0,14,9,9,0,9,0,13,14,14,1,0,15,6,0,0,0,0,0,0,0,0,0,0,0,0,0,0,0,0,0,0,0,0,0,0,0,0,0,0,0,0],"split_type":[0,0,0,0,0,0,0,0,0,0,0,0,0,0,0,0,0,0,0,0,0,0,0,0,0,0,0,0,0,0,0,0,0,0,0,0,0,0,0,0,0,0,0,0,0,0,0,0,0,0,0,0,0,0,0,0,0,0,0],"sum_hessian":[8.22027E5,3.5053E4,7.86974E5,3.4678E4,3.75E2,7.75508E5,1.1466E4,3.4523E4,1.55E2,3.27E2,4.8E1,5.9369E4,7.16139E5,4.266E3,7.2E3,3.0288E4,4.235E3,1.33E2,2.2E1,1.27E2,2E2,1E0,4.7E1,2E0,5.9367E4,1.383E3,7.14756E5,4.263E3,3E0,6.731E3,4.69E2,1.33E2,3.0155E4,9.7E1,4.138E3,1.03E2,3E1,2E0,2E1,2.4E1,1.03E2,1.82E2,1.8E1,4.4E1,3E0,5.8921E4,4.46E2,1.335E3,4.8E1,7.13183E5,1.573E3,3.993E3,2.7E2,1E0,2E0,1.418E3,5.313E3,3.28E2,1.41E2],"tree_param":{"num_deleted":"0","num_feature":"18","num_nodes":"59","size_leaf_vector":"1"}},{"base_weights":[2.4471656E-4,8.238852E-1,-6.2101684E-3,7.064566E-1,6.315873E1,4.0251166E-2,-3.546742E-2,1.1628231E1,4.933551E-1,4.422721E1,-1.1512675E1,3.2491827E-1,2.5918804E-2,-1.9447039E-1,-2.1245865E-2,1.5112916E0,1.04240906E2,1.8956998E-1,7.9776444E0,-3.3656728E0,-2.8521388E0,3.017084E-1,8.840672E0,2.9831622E-2,-9.948982E-1,-8.245459E-3,-3.960712E-1,-2.574215E-2,5.345833E-1,-1.5160837E0,5.3420985E-1,6.917257E1,-1.2050961E0,1.7407281E-2,3.1177547E0,2.451673E1,3.0029535E-1,-1.7241888E-2,-4.961431E-1,3.406271E-2,-2.7781993E-1,9.52831E0,-4.911801E-2,-1.9685572E-2,3.8075352E-3,2.685025E0,-1.0671122E-1,-2.1259964E-3,5.648717E-1,-3.8449537E-2,-2.6405045E-1,-3.064838E-2,-2.0839085E-3,5.0237966E-1,2.188923E-2],"categories":[],"categories_nodes":[],"categories_segments":[],"categories_sizes":[],"default_left":[0,0,0,0,0,0,0,0,0,0,0,0,0,0,0,0,0,0,0,0,0,0,0,0,0,0,0,0,0,0,0,0,0,0,0,0,0,0,0,0,0,0,0,0,0,0,0,0,0,0,0,0,0,0,0],"id":17,"left_children":[1,3,5,7,9,11,13,15,17,-1,19,21,23,25,27,29,31,33,35,-1,37,39,41,43,45,47,49,51,53,-1,-1,-1,-1,-1,-1,-1,-1,-1,-1,-1,-1,-1,-1,-1,-1,-1,-1,-1,-1,-1,-1,-1,-1,-1,-1],"loss_changes":[4.367476E3,4.671485E4,1.1080002E3,1.4836391E4,3.4479888E5,1.2849847E3,1.1309788E3,1.1415119E5,1.4222228E4,0E0,2.0135795E3,2.9812458E3,1.1977399E3,1.5415914E3,1.1473635E3,7.1703057E3,8.2817244E5,2.8821716E3,2.8717038E5,0E0,5.0015366E1,1.8057683E3,3.3120184E4,5.582272E2,2.3310278E3,1.5716672E3,5.1125708E2,6.268632E2,5.2198804E3,0E0,0E0,0E0,0E0,0E0,0E0,0E0,0E0,0E0,0E0,0E0,0E0,0E0,0E0,0E0,0E0,0E0,0E0,0E0,0E0,0E0,0E0,0E0,0E0,0E0,0E0],"parents":[2147483647,0,0,1,1,2,2,3,3,4,4,5,5,6,6,7,7,8,8,10,10,11,11,12,12,13,13,14,14,15,15,16,16,17,17,18,18,20,20,21,21,22,22,23,23,24,24,25,25,26,26,27,27,28,28],"right_children":[2,4,6,8,10,12,14,16,18,-1,20,22,24,26,28,30,32,34,36,-1,38,40,42,44,46,48,50,52,54,-1,-1,-1,-1,-1,-1,-1,-1,-1,-1,-1,-1,-1,-1,-1,-1,-1,-1,-1,-1,-1,-1,-1,-1,-1,-1],"split_conditions":[1.302E0,2.45E0,-5.263158E-1,-1.4250614E1,9.193897E-2,-1.7156738E1,1.16E-2,5.6449375E1,3.28125E1,4.422721E1,1.7999259E-1,4.7147346E1,9.881457E1,7.231111E-1,1.9540396E2,-7.377451E1,4.702596E1,2.1395016E-1,1.5503876E-1,-3.3656728E0,1.019E0,3.9599843E0,4.726894E1,-7.684136E0,-2.520005E1,3.317858E2,9.881457E1,-1.4652568E1,2.7970762E1,-1.5160837E0,5.3420985E-1,6.917257E1,-1.2050961E0,1.7407281E-2,3.1177547E0,2.451673E1,3.0029535E-1,-1.7241888E-2,-4.961431E-1,3.406271E-2,-2.7781993E-1,9.52831E0,-4.911801E-2,-1.9685572E-2,3.8075352E-3,2.685025E0,-1.0671122E-1,-2.1259964E-3,5.648717E-1,-3.8449537E-2,-2.6405045E-1,-3.064838E-2,-2.0839085E-3,5.0237966E-1,2.188923E-2],"split_indices":[1,16,7,7,11,15,17,6,15,0,13,4,9,7,5,10,4,12,6,0,1,12,4,7,12,5,9,15,4,0,0,0,0,0,0,0,0,0,0,0,0,0,0,0,0,0,0,0,0,0,0,0,0,0,0],"split_type":[0,0,0,0,0,0,0,0,0,0,0,0,0,0,0,0,0,0,0,0,0,0,0,0,0,0,0,0,0,0,0,0,0,0,0,0,0,0,0,0,0,0,0,0,0,0,0,0,0,0,0,0,0,0,0],"sum_hessian":[8.21492E5,6.387E3,8.15105E5,6.376E3,1.1E1,3.14952E5,5.00153E5,1.21E2,6.255E3,1E0,1E1,1.5096E4,2.99856E5,4.1061E4,4.59092E5,1.1E2,1.1E1,6.012E3,2.43E2,2E0,8E0,1.5056E4,4E1,2.98712E5,1.144E3,2.1345E4,1.9716E4,4.55409E5,3.683E3,2E1,9E1,1E0,1E1,6.01E3,2E0,4E0,2.39E2,4E0,4E0,1.4869E4,1.87E2,3E0,3.7E1,1.0481E4,2.88231E5,2E0,1.142E3,2.1297E4,4.8E1,1.9616E4,1E2,7.816E3,4.47593E5,2.41E2,3.442E3],"tree_param":{"num_deleted":"0","num_feature":"18","num_nodes":"55","size_leaf_vector":"1"}},{"base_weights":[3.3140448E-3,1.9414416E-1,-5.20718E-3,1.332099E-1,3.7641492E0,-1.4002072E1,-4.816077E-3,-6.1934177E-2,3.1651264E-1,2.255539E2,1.8653218E0,-1.8020226E1,8.584677E0,1.781424E-1,-1.0559662E-2,-7.516281E-2,5.464554E0,4.320563E0,3.1168264E-1,-1.9604721E0,6.0309418E1,1.8191162E1,8.8947695E-1,-8.604261E0,-3.29327E1,-1.8518093E0,1.9947067E0,1.3228056E-1,3.8957965E0,-8.898578E-3,-4.437567E-1,-7.005433E-3,-5.754869E-1,4.881643E0,1.8982337E-1,3.78172E-2,-7.3502146E-2,-2.988412E-1,1.7249018E1,3.607177E0,6.324558E-2,-1.5862538E-2,-1.2340252E0,-3.9771945E0,-1.7860279E0,-2.4123739E-1,-3.6534008E-2,1.3886292E-2,-6.3598746E-1,-5.1618256E-3,1.4403548E1,-1.1546564E-3,3.350522E-2,-3.7346852E-1,-1.6455423E-2],"categories":[],"categories_nodes":[],"categories_segments":[],"categories_sizes":[],"default_left":[0,0,0,0,0,0,0,0,0,0,0,0,0,0,0,0,0,0,0,0,0,0,0,0,0,0,0,0,0,0,0,0,0,0,0,0,0,0,0,0,0,0,0,0,0,0,0,0,0,0,0,0,0,0,0],"id":18,"left_children":[1,3,5,7,9,11,13,15,17,19,21,23,25,27,29,31,33,-1,35,-1,-1,37,39,41,43,45,-1,47,49,51,53,-1,-1,-1,-1,-1,-1,-1,-1,-1,-1,-1,-1,-1,-1,-1,-1,-1,-1,-1,-1,-1,-1,-1,-1],"loss_changes":[1.3375271E3,7.6478325E3,4.3101895E3,1.2366039E3,2.4805212E5,2.151352E3,8.2738306E2,1.2246024E3,3.679268E3,4.7460975E5,9.31967E3,2.3845298E3,5.112719E2,4.0854805E3,5.493137E2,4.8431592E2,6.0916016E3,0E0,1.2408032E3,0E0,0E0,1.08359055E5,4.9867837E3,4.082293E2,1.125E1,1.6184492E0,0E0,1.0125611E3,1.6153877E5,6.926269E2,2.6787095E3,0E0,0E0,0E0,0E0,0E0,0E0,0E0,0E0,0E0,0E0,0E0,0E0,0E0,0E0,0E0,0E0,0E0,0E0,0E0,0E0,0E0,0E0,0E0,0E0],"parents":[2147483647,0,0,1,1,2,2,3,3,4,4,5,5,6,6,7,7,8,8,9,9,10,10,11,11,12,12,13,13,14,14,15,15,16,16,18,18,21,21,22,22,23,23,24,24,25,25,27,27,28,28,29,29,30,30],"right_children":[2,4,6,8,10,12,14,16,18,20,22,24,26,28,30,32,34,-1,36,-1,-1,38,40,42,44,46,-1,48,50,52,54,-1,-1,-1,-1,-1,-1,-1,-1,-1,-1,-1,-1,-1,-1,-1,-1,-1,-1,-1,-1,-1,-1,-1,-1],"split_conditions":[2.55E0,3.28125E1,1.52E0,8.672465E-1,1.5503876E-1,1.2592456E-1,2.8613155E1,3.145901E-1,2.19E-4,4.3410984E1,6.033479E1,3.5309427E0,1.302E0,-2.8374395E0,4.3810368E1,4.466E0,1.2E-3,4.320563E0,1.19026E1,-1.9604721E0,6.0309418E1,6.0002453E1,2.19E-4,1.019E0,9.052285E-5,2.0512822E0,1.9947067E0,1.7910448E1,1.9540396E2,2.750432E1,-3.2300508E-1,-7.005433E-3,-5.754869E-1,4.881643E0,1.8982337E-1,3.78172E-2,-7.3502146E-2,-2.988412E-1,1.7249018E1,3.607177E0,6.324558E-2,-1.5862538E-2,-1.2340252E0,-3.9771945E0,-1.7860279E0,-2.4123739E-1,-3.6534008E-2,1.3886292E-2,-6.3598746E-1,-5.1618256E-3,1.4403548E1,-1.1546564E-3,3.350522E-2,-3.7346852E-1,-1.6455423E-2],"split_indices":[16,15,1,14,6,12,4,12,17,4,4,14,1,15,15,1,17,0,17,0,0,4,17,1,12,6,0,7,5,15,12,0,0,0,0,0,0,0,0,0,0,0,0,0,0,0,0,0,0,0,0,0,0,0,0],"split_type":[0,0,0,0,0,0,0,0,0,0,0,0,0,0,0,0,0,0,0,0,0,0,0,0,0,0,0,0,0,0,0,0,0,0,0,0,0,0,0,0,0,0,0,0,0,0,0,0,0,0,0,0,0,0,0],"sum_hessian":[8.22532E5,3.5158E4,7.87374E5,3.4569E4,5.89E2,2.1E1,7.87353E5,1.6744E4,1.7825E4,4E0,5.85E2,1.8E1,3E0,2.3964E4,7.63389E5,1.6705E4,3.9E1,1E0,1.7824E4,3E0,1E0,3.2E1,5.53E2,1.2E1,6E0,2E0,1E0,2.3673E4,2.91E2,7.60474E5,2.915E3,1.6691E4,1.4E1,2E0,3.7E1,1.676E4,1.064E3,2.9E1,3E0,3E0,5.5E2,4E0,8E0,3E0,3E0,1E0,1E0,2.365E4,2.3E1,2.84E2,7E0,7.54665E5,5.809E3,2.27E2,2.688E3],"tree_param":{"num_deleted":"0","num_feature":"18","num_nodes":"55","size_leaf_vector":"1"}},{"base_weights":[2.559489E-4,8.343512E-1,-2.9143624E-3,3.5372716E-1,2.659634E1,4.856796E-2,-2.6697556E-2,6.6486686E-3,1.5383638E1,4.1605797E0,2.5909613E2,2.883919E-1,2.1722926E-2,-1.9223856E0,-2.5691971E-2,1.629502E-1,-3.1282346E0,5.7293945E1,-1.2412919E0,-1.6772968E1,2.3450281E1,6.571205E1,-4.6900787E0,2.558979E-1,5.5453367E0,2.0118227E0,1.8691402E-2,-5.546034E-1,-1.6157553E1,-1.710659E-1,-1.5483741E-2,4.2245416E-3,3.2849345E-1,-5.0605816E-1,1.0145018E-1,-3.9735344E-1,4.346797E0,-4.8489448E-1,-1.9381119E0,1.5331809E1,-4.5826077E-1,1.0495822E-2,-9.537595E-1,-8.645244E-2,3.0630205E-2,-1.6157407E-2,7.008976E0,7.1849666E0,-4.37349E-2,2.3210288E-3,-9.169854E-2,-9.0595745E-2,1.287608E0,-7.3774494E-2,-2.1799705E0,-1.3037954E-2,-1.0996435E-1,5.725655E-2,-1.7974848E-3],"categories":[],"categories_nodes":[],"categories_segments":[],"categories_sizes":[],"default_left":[0,0,0,0,0,0,0,0,0,0,0,0,0,0,0,0,0,0,0,0,0,0,0,0,0,0,0,0,0,0,0,0,0,0,0,0,0,0,0,0,0,0,0,0,0,0,0,0,0,0,0,0,0,0,0,0,0,0,0],"id":19,"left_children":[1,3,5,7,9,11,13,15,17,19,21,23,25,27,29,31,33,-1,35,37,39,-1,41,43,45,47,49,51,53,55,57,-1,-1,-1,-1,-1,-1,-1,-1,-1,-1,-1,-1,-1,-1,-1,-1,-1,-1,-1,-1,-1,-1,-1,-1,-1,-1,-1,-1],"loss_changes":[2.1739922E3,3.853523E4,1.0028172E3,1.5946917E4,2.9625166E5,1.666182E3,1.0678745E3,1.4650812E3,6.402947E5,2.179483E4,5.280486E5,4.4489326E3,1.4041514E3,5.7738096E3,8.3092456E2,1.0730972E3,1.1418729E3,0E0,8.479366E3,7.146133E2,1.02638555E5,0E0,9.397713E1,1.462601E3,5.8947203E4,6.0581305E4,9.8264594E2,1.2952128E3,2.2459414E3,1.3878345E3,7.6641754E2,0E0,0E0,0E0,0E0,0E0,0E0,0E0,0E0,0E0,0E0,0E0,0E0,0E0,0E0,0E0,0E0,0E0,0E0,0E0,0E0,0E0,0E0,0E0,0E0,0E0,0E0,0E0,0E0],"parents":[2147483647,0,0,1,1,2,2,3,3,4,4,5,5,6,6,7,7,8,8,9,9,10,10,11,11,12,12,13,13,14,14,15,15,16,16,18,18,19,19,20,20,22,22,23,23,24,24,25,25,26,26,27,27,28,28,29,29,30,30],"right_children":[2,4,6,8,10,12,14,16,18,20,22,24,26,28,30,32,34,-1,36,38,40,-1,42,44,46,48,50,52,54,56,58,-1,-1,-1,-1,-1,-1,-1,-1,-1,-1,-1,-1,-1,-1,-1,-1,-1,-1,-1,-1,-1,-1,-1,-1,-1,-1,-1,-1],"split_conditions":[1.01E0,3.5309427E0,-9.285714E-1,4.3810368E1,5.510204E1,-1.2921217E1,1.019E0,1.1111111E1,4.8853653E1,1.3606059E-2,4.702596E1,4.677883E1,-3.6827194E1,3.5309427E0,8.4E-3,4.075391E1,7.3683257E-3,5.7293945E1,8.3301765E1,2.0493435E1,8.67052E0,6.571205E1,6.758368E1,-7.377451E1,1.3163673E0,-1.4250614E1,9.881457E1,5.30472E1,1.1445314E1,2.1875E1,-6.3695183E1,4.2245416E-3,3.2849345E-1,-5.0605816E-1,1.0145018E-1,-3.9735344E-1,4.346797E0,-4.8489448E-1,-1.9381119E0,1.5331809E1,-4.5826077E-1,1.0495822E-2,-9.537595E-1,-8.645244E-2,3.0630205E-2,-1.6157407E-2,7.008976E0,7.1849666E0,-4.37349E-2,2.3210288E-3,-9.169854E-2,-9.0595745E-2,1.287608E0,-7.3774494E-2,-2.1799705E0,-1.3037954E-2,-1.0996435E-1,5.725655E-2,-1.7974848E-3],"split_indices":[16,14,7,15,6,15,1,7,4,7,4,4,9,14,17,9,13,0,4,4,7,0,4,10,14,7,9,17,15,9,10,0,0,0,0,0,0,0,0,0,0,0,0,0,0,0,0,0,0,0,0,0,0,0,0,0,0,0,0],"split_type":[0,0,0,0,0,0,0,0,0,0,0,0,0,0,0,0,0,0,0,0,0,0,0,0,0,0,0,0,0,0,0,0,0,0,0,0,0,0,0,0,0,0,0,0,0,0,0,0,0,0,0,0,0,0,0,0,0,0,0],"sum_hessian":[8.22128E5,3.112E3,8.19016E5,3.056E3,5.6E1,2.58801E5,5.60215E5,2.988E3,6.8E1,5.2E1,4E0,2.6052E4,2.32749E5,2.96E2,5.59919E5,2.847E3,1.41E2,1E0,6.7E1,2.5E1,2.7E1,1E0,3E0,2.5893E4,1.59E2,3.53E2,2.32396E5,2.71E2,2.5E1,3.6737E4,5.23182E5,2.742E3,1.05E2,9.6E1,4.5E1,6.4E1,3E0,5E0,2E1,4E0,2.3E1,2E0,1E0,1.114E3,2.4779E4,1.47E2,1.2E1,1.1E1,3.42E2,2.3128E5,1.116E3,2.65E2,6E0,7E0,1.8E1,3.5196E4,1.541E3,2.206E3,5.20976E5],"tree_param":{"num_deleted":"0","num_feature":"18","num_nodes":"59","size_leaf_vector":"1"}},{"base_weights":[5.247448E-3,1.0226886E0,1.2590196E-3,5.506808E-1,2.2207973E1,2.2617003E-1,-3.1763443E-3,1.2408307E1,2.6477554E-1,7.741822E1,-6.457003E0,9.5552824E-2,1.8650552E0,-1.321285E-3,-6.524401E-1,-2.3338387E0,5.442925E1,1.4923393E1,1.9276243E-1,5.5248E0,4.3550415E2,-1.1787726E1,8.391635E0,7.328417E-1,-1.8383229E-1,2.2995562E1,8.8145256E-1,-3.0580193E-3,4.6784303E-1,-2.3809741E-1,-4.207163E0,2.2596088E-1,-4.5966287E0,1.5309587E-2,3.7053323E0,4.7434162E-2,-1.5426652E-1,5.7490745E0,-1.4307729E0,5.675537E1,1.9677681E0,-1.7912234E0,-5.0083447E-1,7.914295E0,-4.0995535E-1,5.5446035E-1,4.2621505E-2,-1.6971154E-2,-1.3258328E0,1.0950889E-1,2.8552748E1,-7.426987E-2,6.739474E-1,-1.0384147E-2,4.6889228E-4,1.3723958E0,1.978021E-2,2.621912E0,-2.6378065E-2,-2.6726604E-1,-1.15525E0],"categories":[],"categories_nodes":[],"categories_segments":[],"categories_sizes":[],"default_left":[0,0,0,0,0,0,0,0,0,0,0,0,0,0,0,0,0,0,0,0,0,0,0,0,0,0,0,0,0,0,0,0,0,0,0,0,0,0,0,0,0,0,0,0,0,0,0,0,0,0,0,0,0,0,0,0,0,0,0,0,0],"id":20,"left_children":[1,3,5,7,9,11,13,15,17,19,21,23,25,27,29,31,-1,33,35,37,39,41,43,45,47,49,51,53,55,57,59,-1,-1,-1,-1,-1,-1,-1,-1,-1,-1,-1,-1,-1,-1,-1,-1,-1,-1,-1,-1,-1,-1,-1,-1,-1,-1,-1,-1,-1,-1],"loss_changes":[3.3390928E3,3.2116553E4,8.1763464E2,1.065537E4,1.1128192E5,3.3929917E3,9.6809247E2,5.8151275E5,3.238909E3,6.154505E5,3.8191553E3,2.6142505E3,2.4297037E4,6.53069E2,3.371878E3,1.4734771E4,0E0,4.897312E3,1.4945664E3,2.2465498E4,2.0847075E5,1.3635029E3,1.1813436E4,6.600116E3,1.8823666E3,2.9866512E5,1.06515205E4,6.2346985E2,1.0578858E4,1.401265E3,2.6629976E3,0E0,0E0,0E0,0E0,0E0,0E0,0E0,0E0,0E0,0E0,0E0,0E0,0E0,0E0,0E0,0E0,0E0,0E0,0E0,0E0,0E0,0E0,0E0,0E0,0E0,0E0,0E0,0E0,0E0,0E0],"parents":[2147483647,0,0,1,1,2,2,3,3,4,4,5,5,6,6,7,7,8,8,9,9,10,10,11,11,12,12,13,13,14,14,15,15,17,17,18,18,19,19,20,20,21,21,22,22,23,23,24,24,25,25,26,26,27,27,28,28,29,29,30,30],"right_children":[2,4,6,8,10,12,14,16,18,20,22,24,26,28,30,32,-1,34,36,38,40,42,44,46,48,50,52,54,56,58,60,-1,-1,-1,-1,-1,-1,-1,-1,-1,-1,-1,-1,-1,-1,-1,-1,-1,-1,-1,-1,-1,-1,-1,-1,-1,-1,-1,-1,-1,-1],"split_conditions":[1.0548333E0,3.5309427E0,-4.949495E1,-7.377451E1,1.1404257E2,4.5619326E0,7.597505E0,4.3810368E1,-3.3876892E1,9.798285E1,3.317858E2,6.9661665E0,8.98E0,3.5309427E0,1.9540396E2,2.3153942E0,5.442925E1,-4.2375E1,2.3424997E2,-3.3128834E1,4.788456E1,1.43709E1,4.8007317E1,-8.709438E-1,6.870253E0,8.82E0,4.1253136E1,4.955762E-1,1.3448334E0,1.2211E2,1.2196996E0,2.2596088E-1,-4.5966287E0,1.5309587E-2,3.7053323E0,4.7434162E-2,-1.5426652E-1,5.7490745E0,-1.4307729E0,5.675537E1,1.9677681E0,-1.7912234E0,-5.0083447E-1,7.914295E0,-4.0995535E-1,5.5446035E-1,4.2621505E-2,-1.6971154E-2,-1.3258328E0,1.0950889E-1,2.8552748E1,-7.426987E-2,6.739474E-1,-1.0384147E-2,4.6889228E-4,1.3723958E0,1.978021E-2,2.621912E0,-2.6378065E-2,-2.6726604E-1,-1.15525E0],"split_indices":[3,14,10,10,5,13,13,15,15,5,5,3,16,14,5,6,0,10,5,10,4,10,4,12,11,16,4,14,3,16,14,0,0,0,0,0,0,0,0,0,0,0,0,0,0,0,0,0,0,0,0,0,0,0,0,0,0,0,0,0,0],"split_type":[0,0,0,0,0,0,0,0,0,0,0,0,0,0,0,0,0,0,0,0,0,0,0,0,0,0,0,0,0,0,0,0,0,0,0,0,0,0,0,0,0,0,0,0,0,0,0,0,0,0,0,0,0,0,0,0,0,0,0,0,0],"sum_hessian":[8.22843E5,3.212E3,8.19631E5,3.143E3,6.9E1,1.585E4,8.03781E5,7.3E1,3.07E3,2.3E1,4.6E1,1.4681E4,1.169E3,8.01492E5,2.289E3,7.2E1,1E0,1.4E1,3.056E3,2E1,3E0,3.4E1,1.2E1,4.474E3,1.0207E4,5.1E1,1.118E3,7.98537E5,2.955E3,2.051E3,2.38E2,6.6E1,6E0,9E0,5E0,2.63E3,4.26E2,5E0,1.5E1,2E0,1E0,1.7E1,1.7E1,1E0,1.1E1,2.67E2,4.207E3,1.0197E4,1E1,4.8E1,3E0,8.76E2,2.42E2,5.6999E4,7.41538E5,5.8E1,2.897E3,1E0,2.05E3,1.98E2,4E1],"tree_param":{"num_deleted":"0","num_feature":"18","num_nodes":"61","size_leaf_vector":"1"}}]},"name":"gbtree"},"learner_model_param":{"base_score":"[1.128151E-1]","boost_from_average":"1","num_class":"0","num_feature":"18","num_target":"1"},"objective":{"name":"reg:squarederror","reg_loss_param":{"scale_pos_weight":"1"}}},"version":[3,2,0]}